0.24087429669802807, -0.006686463680147692, 0.07794561385679666, 0.26209093932549166, 0.18716612269068045, -0.3861351247252365, 0.1886889406060248, -0.22458092607208247, -0.4973286130418023, -0.19178219606660918, 0.24615082377940267, -0.3780281984186348, 0.35227327115460344, -0.0916467876232207, -0.25197845172073025, 0.06376351090408545, -0.37750917120102634, -0.4866027300159147, -0.48408482828092214, 0.11980564652469838, 0.21488048461906717, 0.1274856212598604, 0.45844692116416486, -6.537239201553913e-05, -0.38101195351780615, -0.21362140739418445, 0.1703140571829328, 0.0703873218720572, -0.019632798819740893, 0.48650709198159625, 0.48514672334087394, 0.0656636986562793, 0.21629915282053022, 0.44569978211005934, -0.18788355701839074, -0.2614248862174747, -0.3972494147265331, 0.47686404145596656, -0.1775002420224657, 0.04044211555361726, -0.47418214841172535, 0.3306116590050635, -0.3451177275501718, -0.039664700463262315, 0.1583637726406172, -0.46811046904956927, 0.4691956978938339, -0.3236194818563631, -0.29366645689387516, -0.4013060436288958, -0.26056551183491533, -0.04197379800468913, 0.4276099290208297, 0.4226592727537666, 0.29798863668047293, 0.11315308244071054, 0.1322034380532363, 0.36049795216496205, 0.2602768075454521, 0.10873378215372846, 0.024837222978194354, 0.024420388076673617, 0.364211228759746, -0.4591099627103524, 0.1287577581480735, -0.33714461284690095, 0.4564725006941668, -0.44986426052455003, 0.28648021838704446, 0.25498487083992094, -0.24479493120869691, -0.09524192150381293, -0.14988374461955126, 0.053360319916635354, 0.09892502982116266, 0.44570709237582407, 0.38049768256817973, 0.4262885368878756, 0.45936590216604706, 0.09113735042360671, -0.14920670381808157, -0.15801121299731619, -0.3962984916740393, -0.4321230398554635, 0.24332829128855749, 0.1522048425043102, -0.13556454448313643, 0.2147469388911722, -0.4756089161750485, -0.12362880884577443, -0.2671291908768729, 0.28341298947070614, -0.49593832658621656, 0.15987736885979073, 0.41085636908222134, 0.11592591746083415, -0.3204505408964731, -0.2761813296961012, 0.3834136180374645, -0.3163546535519575, 0.20868915787810863, -0.36167778592914035, -0.23493360825335738, -0.26823258940833217, -0.12594625612539392, -0.38622549388259036, 0.3369262701279449, 0.1190547716650392, 0.24627456313684673, 0.29855852703248487, -0.2415599074936636, 0.21211807970020213, -0.007577977812405101, -0.22679011613127342, 0.33921609307846, 0.3696193867897489, 0.04910290067924608, 0.26277255176396064, 0.34849657802213035, 0.07518878443123168, -0.3890436272565535, 0.4692534906478439, -0.12857418321477762, 0.4310899435287051, 0.1917386734236338, 0.14510314736087568, -0.07581179944260276, 0.0106618777310748, 0.061717973707441504, 0.1505164901974695, 0.1554752531105136, -0.23254563234611114, 0.06564115902871362, 0.4134813441951828, -0.09143010225586944, -0.4073491428549778, -0.18874668062817368, 0.24272090009974506, 0.4964255200116652, 0.40837610521858864, 0.3150798619862484, 0.3962983202458159, -0.4158046323047845, -0.1983300335802596, 0.21481323284798226, -0.4257930603069266, -0.0660534710370476, 0.15315252735388835, -0.16095275191085218, 0.233975604846167, 0.44076618823289904, -0.3597058573550604, 0.0399331977217511, -0.17449117195896163, 0.26214110603572977, 0.07362092666192645, 0.3965299357761822, 0.26732820165936416, 0.6145082888406216, -0.22379650556651157, 0.39449570838706977, -0.26345421167318506, -0.2716031493920738, -0.2279303520956977, 0.015873278897717714, -0.3464390226201287, 0.2112953013823716, 0.19015856265835404, 0.16406126060254278, 0.06246133848566644, -0.20484485961466103, -0.007521318742345786, 0.06815005839043589, -0.4236967078658436, -0.14323169063287433, -0.0886433429189549, -0.034860849217305694, 0.34716255922597394, 0.023206364976145054, 0.1794860223299319, -0.18748814796592997, 0.2437580785380249, -0.030139814643692642, -0.38845293679992315, 0.32658711649364625, -0.44451740435775633, -0.18278846023031955, 0.01185740858386872, -0.43849580524727644, 0.43659427924958183, -0.48805376241958276, 0.15538331003710815, 0.3404016696888915, -0.35310579176995843, 0.25595702738396, -0.30917792140442285, 0.138278721763748, -0.29547304573397004, 0.3170750580208285, 0.4352359032831557, -0.0682982484272909, 0.42950087234133494, 0.203141010669123, 0.37762990223361875, 0.10592190945365323, 0.07604620481930104, 0.23286696776919072, -0.054503418537560896, -0.38120219731469596, -0.06978209436529306, -0.40658927514510484, -0.018711239456723303, -0.2633110556835618, 0.1929665159036226, 0.2531979271552236, -0.0935831266712428, -0.16844243604248424, 0.08549328620892556, 0.2872322496339689, -0.09016984311844384, -0.20692257053189833, -0.43318788044481443, -0.20542798252375702, -0.3680663508273257, -0.3574227220100936, -0.37070651449510944, -0.1427690383332652, -0.1950586418242439, 0.3738041041100108, 0.2296688768052824, -0.36613283473308117, 0.008179629047448034, 0.18509352448263394, 0.040083892953018826, 0.21603751097983667, 0.3946309653970144, -0.3497675622551653, 0.17936045963401845, 0.3531442596963423, -0.28018048554810693, 0.07580975757950198, -0.4648414629019023, 0.12538480565211732, -0.14979381454720672, -0.05644978303517927, 0.008249760475371624, 0.15700960526760002, -0.10271639973232075, -0.3547242324332714, -0.48473611585732324, 0.04082599965789943, 0.24925062087226396, -0.18879344060271985, 0.10189156576461213, -0.06868653823635745, -0.3324212744822119, 0.45357189982199364, 0.15850019449417446, 0.23561961049907146, -0.17773248871905453, -0.05126225008826786, -0.2231637341727571, 0.3361976572076658, 0.34476699838348385, 0.3384519843457648, -0.3648420715963217, -0.366458459391328, -0.19192667326368718, 0.045861200914654954, -0.2593406055659475, 0.3881142729448456, -0.5187828908931441, 0.25099755623142433, -0.47296217729504386, -0.1604047857826492, 0.15705952675122095, -0.5103602137835266, 0.10985484164681637, -0.5253070485033084, 0.3868196342165258, 0.1533986307613739, 0.2768314465158223, 0.04842406774849812, 0.18816395780190415, 0.13591136958251906, 0.4066857239748932, -0.2777842238704057, 0.4610111466075799, 0.32289254084098673, 0.19278973882301642, -0.1715007338759322, 0.15317495256671537, 0.12679018392019145, 0.24663234992070748, -0.15146079489337952, -0.47764128852935883, 0.10304258465490014, 0.3301815134303659, 0.22414737407505503, 0.22645121568459675, 0.19368626154147367, 0.36472310961520404, -0.2805521382732681, -0.13629744796021076, 0.18746715385353172, 0.11496129151136338, 0.3753505943921075, 0.18816301654676618, -0.1657481022189622, -0.02077910918971403, 0.11349808679957145, 0.3232334127148717, -0.357751379799775, -0.1910502282839856, 0.10540819569421489, 0.6212122995305567, -0.13129282624349511, 0.5889772070276643, -0.09297835355100881, 0.3712786401636717, 0.3009934421216514, -0.3147194112890546, -0.5879985225831335, -0.3712569844280203, -0.28378950149405957, -0.14010274512549767, 0.013692902836973584, 0.07628118184013419, 0.23463181113005138, 0.015058743558124164, -0.23366786575962928, -0.3722022656839063, -0.2634580293253628, -0.19783167388425718, -0.29151967630567377, 0.008843930631950776, -0.1106868508628889, -0.1135100535026589, -0.3597348739849458, 0.1258628565252457, -0.04149155729416639, 0.33490564795088457, 0.1503638632094237, 0.4696458504980272, 0.03432675653674573, -0.20707053461384817, 0.16877752586102326, -0.37960418057043, 0.168762844428331, -0.19342471798082544, -0.4387862854249638, 0.1554367853401634, 0.29693647827476266, 0.18683101321187479, -0.34619420135447976, 0.3151407494969781, -0.10781934766705803, -0.1618485255712649, 0.014008613736169045, -0.35079492145278546, 0.15770851089719126, -0.33704934223379174, -0.07615654975831014, -0.26512851888248834, -0.49528621340416157, -0.11563827208914948, 0.48330780049906263, 0.2824628100003397, -0.01399327564708579, 0.537927284992312, -0.13158459984252638, 0.14458331032144783, 0.5180361749451253, 0.31337507365486567, -0.14661857439839146, -0.4026967194554345, -0.2828058722437762, -0.5338863700980234, -0.1785870371361052, -0.26462443610675684, -0.07641760294050762, -0.029520641537694008, 0.29692307248467936, 0.3058310775322851, 0.2443405802790276, 0.6240060296842078, -0.022645349271527126, 0.23620990925322136, 0.21658135477295162, 0.38113649590521703, 0.048808625208007723, 0.12585149956536695, 0.1098894247748022, 0.14605169796980172, 0.4334037347245914, 0.266735892332809, 0.335336848063056, 0.45445947245481266, 0.34282592068263046, 0.15145446101556376, 0.26295566876641485, 0.1687871935448573, 0.3102068868451402, 0.30038956849260956, -0.1142318909517541, -0.29598495382568324, -0.14134943245103332, -0.03571626756405178, 0.02138011681329814, 0.5197092511897862, 0.2437985945950814, -0.027279097312581234, 0.18864046173628343, 0.22190169754952618, 0.25584508254658767, 0.27562063557072297, 0.07774139427726424, -0.44848758916863046, -0.3840156382615027, -0.04109746410677236, 0.20077142117052904, 0.4146947990800369, -0.23450450622977972, -0.09967988375859099, 0.202971769387601, 0.4747529065664894, 0.17476720313376093, 0.431200516363401, 0.25557387680072646, 0.4256327889371822, 0.23267779089887955, -0.1357200198322559, 0.17210692239493036, -0.21751433114746402, 0.26655918538237877, 0.2748619333417579, 0.516744889253435, 0.7240683418237853, 0.5618466094877023, 0.2111393441157867, 0.5638886651729283, -0.22990226589345616, 0.13447581798193317, 0.2725675104654682, -0.22768721384634358, 0.33809390410188034, 0.33002278534052104, -0.11405104279107137, -0.1447782492181935, -0.20918249684468979, 0.28745795290383314, -0.36598315084449823, -0.08571235588867693, 0.5948310171180667, 0.6338738615697747, 0.061581832744140634, 0.05347675036064396, 0.6018377164785463, 0.5505328982633348, 0.43969837517495436, 0.21402284187121104, -0.010459290191837233, 0.23086198895407117, 0.05589907663455016, 0.29991056373081926, 0.23033593484188622, 0.6334945154398989, -0.17045896998287324, 0.3821712518601286, 0.2300296959634479, -0.4549673692790211, 0.2489446022921307, 0.3282596910772337, -0.23580004786410627, 0.27743964723326464, -0.3256899873121532, -0.15917904484153977, -0.25353792379905454, -0.1325471461507379, -0.01618792643514924, 0.36375637337862815, -0.053387887346944746, -0.004396928866509455, -0.032856814137732185, 0.566852624213382, 0.04131515921312441, 0.4724647201757204, 0.4656114927097601, 0.7007794081183395, 0.1542571906829751, 0.4559945831267389, 0.3867767521916322, 0.2991519623624212, -0.10216136639887974, 0.3346936052285291, -0.04900304540728848, 0.31000526526519295, 0.4668041625324109, -0.3133363394163886, 0.3724178445999467, 0.4109390976383907, -0.17872707094214224, -0.14764933163375177, -0.18731636637705606, -0.12199316356797926, 0.4506414891163914, 0.1134995832997592, -0.09396360018239304, -0.11256828460658383, -0.11299504978205056, -0.3114387208092749, 0.36183709114825086, -0.2839456042690457, 0.3497357582362662, 0.6128171845230594, 0.3940019428713919, 0.14311049353724428, 0.16363527462418387, 0.22450436096861429, 0.09341895569147424, 0.020339122632325044, -0.09840116982148207, 0.04260131651243055, -0.03978266148488081, 0.6100655883345949, -0.2580141485414773, 0.34112048927277033, 0.26153540893693117, 0.09295013824487958, -0.3547907640274743, -0.10160072183871725, -0.4612988881290842, 0.35201311744865377, 0.21085609734146146, 0.21291834082455527, 0.09931188815355312, 0.30981564765402725, -0.20336525241552783, 0.270126740773173, -0.3116612581299999, 0.2481610933733061, -0.037844615995057326, 0.0406379062827262, 0.13341910347212582, 0.5110690628092329, 0.38683429789369383, -0.09451510402568254, 0.4053239546675722, 0.19140426905062424, 0.28037767529257307, -0.05976905456630149, 0.3866727698491901, -0.1932600894254206, 0.5662198428955667, -0.2649561832321022, 0.07059136540777901, 0.03906787809073007, 0.18960677312154406, -0.4115115954692833, 0.33933471837444956, 0.3097466388227914, -0.22641070590615595, -0.3117233500774523, -0.3185369166201328, -0.3148637437071622, -0.4524295654629141, 0.33377547207166064, 0.017366378834565026, -0.05451620996934187, 0.2548870084509311, 0.16490909502909692, 0.360435405444785, -0.05006468179050538, 0.30539892140951685, -0.1437852086281373, 0.11922984335243672, 0.07962438783773258, -0.39973003308779254, -0.09038502072115344, -0.11886723434462085, -0.3112572719962139, 0.16323333118878006, 0.039776363000453986, 0.20610480020812383, -0.3223011386120618, 0.0005643719569316777, -0.3874281760634589, -0.18760596898786938, 0.4748428296303732, -0.44255861109110584, 0.4735309307830108, -0.48315718916505035, -0.13570101788531186, 0.039838351122790605, 0.2899001908844051, -0.41774729253912274, -0.3390719793938849, 0.2733199933885886, -0.4141819407724628, 0.28305241831002065, 0.3443485931107793, -0.1772052391091632, -0.21354438335303833, 0.16251083706920974, 0.2085820133447141, 0.34149038828419587, 0.27308370445332486, 0.3379205594433088, -0.29655316537648174, -0.21292953265123127, -0.31013699813288464, 0.1705517082110637, 0.436086818602006, 0.17187958143871102, -0.20976742777657467, 0.16498957946570306, -0.04388158211825317, -0.3753554314355919, -0.12017701570634147, 0.36057580454191457, -0.157365043523481, -0.5003309886735257, -0.508580878173572, 0.20584512594020896, -0.06949463530163913, -0.23155722621042932, 0.26073751369890713, 0.31001491947164694, 0.14564999109320995, -0.03670697994185518, 0.09726961983758171, 0.28607910482168686, -0.19653807364603557, -0.0976497576793233, -0.37469622798890295, 0.30293346629313145, 0.592675285539358, 0.6464048905238974, 0.22302200827342827, -0.11414647529622339, -0.23125195262131487, 0.19777925360405493, 0.03596131922563353, -0.279528141050677, -0.09918005023918874, 0.1335097060013719, -0.07772145892775394, -0.1260719838173591, 0.34231185931109503, 0.2866695640354229, -0.04845155734716926, 0.06373114371490134, -0.3186963581191093, 0.08601688434239178, -0.3360829220522583, -0.43686452046888463, -0.025447149410334335, -0.39200664501737925, -0.16645674256579093, -0.1256037066591732, 0.2798217176928533, -0.4294263296548679, 0.25261515583793676, 0.038522150783125896, 0.37905816765142114, 0.05534923057034818, -0.2810802004164984, -0.23128386478361646, -0.40011507226081255, 0.0682769145586866, -0.21033440195589656, -0.2712327736300667, 0.24355109878607706, 0.21186878284993194, -0.030414784337005004, -0.09198359119472131, 0.3407925428129637, 0.36539696764293594, -0.484731828722136, -0.02500720524877704, -0.2559660502827464, -0.2571543749028122, -0.3601777558731013, 0.16668078250030566, -0.2077048474416206, -0.2525445215442578, -0.4980718295067748, -0.06230623869831559, -0.008377146064175707, -0.1710553584443188, -0.20101110637253214, -0.345659794066161, 0.07094326773338056, -0.27793547919907524, -0.13022545563787843, 0.26248692300167226, -0.034535190663237916, 0.3239296560954077, -0.45615848793887004, 0.16334651482064877, -0.11609475143631831, 0.4210021426312843, -0.3037062661714145, -0.2398433959502959, 0.1896900803165904, 0.3491235616718006, 0.1973113003505733, -0.5081441341471408, 0.13910783499653054, -0.17260335101258775, 0.1614543237285382, 0.039420357003916356, -0.2720106299389145, 0.11763105315636006, 0.057536531000854124, 0.10904273913454555, -0.08834265808999425, -0.35233931902366816, 0.14190478176651428, -0.3970885071896882, 0.2542274926331658, 0.12902531171308193, -0.3003966386493455, 0.017240288609904356, 0.3512213156095338, 0.09273549608166186, -0.009871697590522211, 0.17635430395856244, 0.26873929813165276, -0.3413321407240283, -0.15479880099122711, -0.23194354321890076, -0.17388865490828045, -0.36154072119834785, -0.1315468859245596, -0.41991899406402766, 0.294428701720589, 0.0925069867500638, 0.13330157048560964, -0.23231143076804653, 0.03768130508174624, 0.2975046436371464, 0.1739201885597281, -0.283284937607139, -0.31464857711270977, -0.445210528639462, 0.3455998903403069, 0.03182125099367864, 0.09258740386197824, -0.42486971129125944, -0.309949294287442, 0.0012517961576705124, -0.3147671339495233, -0.2657545124505176, 0.42238072286861383, 0.10658650415411364, -0.24659364628175418, 0.20086908429065453, 0.08051227552455109, -0.4054658243943118, -0.428630579372824, 0.08202114935522128, 0.19219330536685927, -0.15835958178827603, 0.3582598299699202, -0.020745506593899093, 0.2150543754483118, 0.0027693094620847487, -0.08227040189371132, 0.32186224044154554, 0.2276704905211494, 0.1771127537775541, 0.09138530428043673, 0.48248460320990366, -0.10229148071565933, -0.16571989068471865, 0.3294427515138842, 0.4957050236403721, -0.01596247596343325, 0.29378892887434627, -0.02947064661223031, 0.14371747148641079, 0.4379310727062119, 0.16242894651814643, 0.45440976857503523, -0.21808956764413123, 0.3973355132039499, -0.4485425845914135, 0.26000277641963054, 0.16449064432481852, 0.33510336946914476, 0.40081411386992505, -0.1734246365294505, -0.3600472322230992, 0.19838123953392517, -0.4363170251421239, -0.1969274699042282, 0.128622582465124, -0.056145655398000344, -0.4485833778914906, 0.05483435122158775, -0.34789527233617223, -0.1331455958915816, -0.049046906898917775, 0.44477166862726514, 0.4894333129195436, -0.3131482069401106, 0.16402614400623516, 0.3306764315749482, -0.02683073817647308, -0.31272684201853473, -0.4472794851771348, -0.2786478029121987, -0.19968097312589284, 0.48360385325681343, -0.1570858478437419, 0.013574620923363364, 0.0011887645846662927, 0.11077278899017366, 0.035383570382534146, -0.2977840232307262, -0.26432025506368473, -0.09118009906359455, -0.21275100432156158, -0.3342402521080054, -0.3306415396884617, -0.2985564110966351, -0.2788683026696843, 0.14439112407195487, -0.3588174078737302, 0.26751994862156775, -0.3287152530914836, 0.358485782456918, 0.013533009305949358, -0.48518790250149507, 0.43675645914201583, -0.14059361124843195, -0.1979999036452551, -0.442639041838902, -0.2651149003063741, 0.43972353228617367, 0.28214056368480844, 0.15783630761138567, -0.41788142638126585, 0.4752534752064605, 0.17322076660539726, -0.473408466224832, 0.3106348786335855, -0.023398039703268536, -0.1531230797854233, -0.48020377034007466, -0.2713999052936685, 0.4233244684924762, -0.15422527707180184, -0.3777060811881016, 0.07959447610768776, -0.3244912365692133, -0.4939145288814118, -0.3286275781401784, 0.40015079441271795, -0.00454959741285786, -0.38121107403866, 0.07566158894628676, -0.2953220159197324, -0.03635888819917743, -0.43566715953337815, 0.3254746924069726, 0.44553096165347517, 0.42077068652950067, 0.07856274108206707, 0.07472023571896023, -0.04718406730995224, -0.1619952157433516, -0.26991150347423004, 0.4072618809667132, -0.500492430998673, 0.3273906950691692, -0.305878050577323, 0.12176108920742597, -0.024767272669776606, 0.030082081139787883, -0.023972322930245003, -0.39273035872883616, -0.13296117611700037, 0.09858494393284106, 0.12276362200513809, -0.628340266852684, 0.1839192485530854, 0.07695635194309976, -0.4536054501507304, 0.13619350926494334, 0.39059321534135844, -0.08419658259287335, -0.11188948023820137, -0.14536326397624588, -0.29475442775212113, 0.3334643028157508, 0.25551344638232765, 0.20135608081662804, -0.26966559730965484, -0.36214503865774844, -0.45157480343968476, 0.24460460375487067, 0.44563681525798465, 0.544934140352386, 0.4637353212147405, 0.2946390254603406, 0.15814888927209558, 0.3170716743516802, -0.2527815244158151, 0.3127846540189814, -0.07082174713814884, 0.1402528196311302, -0.45610969691381625, -0.5058152504728514, -0.022553856336044828, -0.04136806750579467, -0.26187198266710787, 0.007580254208017972, -0.2978811927445461, -0.2962800259544863, -0.5032281128437898, -0.43379537076791763, 0.03716418306739487, 0.2802131159707414, -0.18798484856382713, 0.274812789834253, 0.25558167924814695, -0.02688229508667508, 0.5640743458995472, 0.06380183224198707, 0.390933101349364, -0.09259608178606674, 0.3951866610717952, -0.2489727620090306, -0.2526680860070446, 0.17663077574230482, 0.05507569122458374, 0.12725975107820764, 0.11408587115991123, -0.3141708548884986, 0.017209773557808908, 0.1353190686098392, -0.22430020528238814, -0.5407289354844852, -0.23216114121085898, -0.36434559368146674, 0.2734707492374655, -0.2385333305066625, 0.023688369280887103, 0.1591479876153629, -0.2643633962475584, -0.011740398247377826, -0.3068792971491078, -0.0107843060311504, 0.4496208250803096, -0.2466138709290685, -0.03225451106300939, 0.40677373928729416, 0.02346374050699038, -0.5440780486204799, 0.24030266342991155, 0.0823697472728618, -0.1664717891244163, 0.13584245708004833, 0.3590004996109151, 0.2908862387668963, 0.2604833472477186, 0.3237132913595838, 0.1381115764024179, 0.130438125162233, 0.3056673797463555, -0.37498552818389913, -0.09105306078206606, 0.04877560602144436, -0.5895154304177779, -0.4025998252933912, -0.2970016583069945, 0.05824813194716197, 0.21415440511737252, -0.40331186895948623, -0.4421374748365348, 0.12239521453951137, -0.0697993393385366, 0.3859415025069412, -0.03053390586369159, 0.2550460620748461, 0.14257320476753194, 0.11357256775571214, 0.44400869671309207, -0.10032425635518664, 0.636146362650031, 0.4581726030424967, 0.5756187009727479, 0.304043159990786, 0.7367736914003072, 0.543293917535144, 0.028651061385686, 0.5242015055339362, -0.10553014398016634, 0.2243437169506151, 0.4286239327071581, -0.4843961166945719, -0.189767726781139, 0.2062481019825377, -0.13212959753592968, 0.0491636330002385, -0.18415572653103993, 0.3023830752979908, 0.05060211088598685, 0.5042646062387389, -0.3355584453794102, -0.06228453213334804, 0.20806004520129484, -0.2123028110407375, -0.4209024040576548, 0.4984968114187372, -0.03876867389248409, 0.16339084394820338, 0.515344836863738, 0.036010007361312706, 0.6521654780246072, 0.49027745487186397, 0.46020017660025087, 0.5248581065906132, 0.33675522628665605, 0.19577673473306406, 0.09039853811145895, -0.07578373715331427, 0.07198301260954562, -0.4357593863470649, 0.09832273631805312, -0.2244875164455983, 0.3217816505875055, -0.43544267032415557, -0.3366531915197736, 0.11115532069660514, -0.13995085330552992, -0.06958157321047724, -0.13601234322931868, 0.521342353009413, 0.395557973653904, 0.35451938492970514, 0.3706657396032355, 0.5341897601666563, 0.17291939179353621, 0.1729783677547159, 0.2407420154025816, 0.19018576982528917, 0.6637876050277883, 0.7095065619827305, 0.5383352304880982, 0.014039895798934209, -0.207610331467569, 0.16161913416448623, -0.23026958816183332, 0.35283151718562816, -0.27779698880234416, 0.22229644363201828, 0.14995931922556185, 0.1461079256746772, -0.1664634841763153, -0.37285970067166174, -0.23165374544818482, -0.21952893722337158, 0.09699327419029057, -0.010939398385441983, -0.11692747469432586, 0.5278562756118831, -0.2339711012071198, 0.43597392992369055, 0.14211193966742683, -0.1907905705246803, 0.1308650151046844, 0.34090583213067355, 0.36552961040891696, 0.10989599536410313, -0.1700949914809633, 0.3770658632713132, -0.1857698727676477, -0.13099424339354232, 0.29442023197088174, -0.16413248247188575, 0.617220315929212, 0.10156617251928036, 0.6281545731881549, 0.3835767910931518, -0.030508817027109093, -0.5900196031059097, -0.2718781884615304, -0.40494360507437743, 0.2797155780202843, 0.3322623399921253, -0.04408360198633627, 0.18662802590062544, -0.37076622302606105, 0.5544442457761718, -0.09449799792667764, 0.157098757618146, 0.19246143420018436, 0.2480659523933664, 0.010244347113780288, -0.4131708643692816, -0.20728978950285795, 0.06931461396442468, -0.13907449382961035, 0.17029364086036383, 0.3917894825749531, 0.017859754194756793, -0.04788785035612629, 0.47973288699860145, -0.09015877748525093, 0.5144344767930901, 0.055944955867732786, -0.054962315244621716, -0.22496819243549107, 0.04390141233066294, 0.36677351335392117, 0.02868498120057533, -0.49789177400905593, 0.16878382661988903, -0.09551618091752029, -0.11700524627390321, -0.3286154340943583, 0.47056043327678626, 0.2995900848150326, -0.05621571103132425, 0.38138558878017037, 0.08187987841321924, 0.218745157981834, -0.029347824049617558, -0.14143673733975776, -0.4885043398963086, 0.07731207182698104, 0.5873272658567519, 0.4940987244476804, 0.12371759625186636, 0.025695835830009037, 0.2884345187916645, 0.040123455308376015, 0.2699755621700077, 0.27420781705749914, -0.20159740447964092, -0.45703363106409733, 0.2176494126556968, -0.21416707068457436, -0.1445832673574111, 0.1759032879133636, 0.44021653282988155, -0.15139454776036393, -0.14466518082583676, -0.2314930803485437, -0.16827907608564097, -0.08971476229186062, -0.1360924725265574, 0.24268342515560506, -0.20583160220816127, -0.05923192434697033, -0.3572979752726044, -0.34049608654808455, -0.4902335784298445, -0.039472496994165954, 0.2783718306901442, 0.2240446476941131, 0.5673214568357448, 0.32308953155525544, 0.17016590460357425, 0.20397298402235053, 0.17807264804717363, 0.4139150514402758, -0.2212201628212506, -0.1695805406355388, -0.3578923411680893, 0.2678387480280115, -0.13492155682006055, -0.024371201474904104, 0.3448475023901362, 0.14179161885484737, -0.3953109029810779, -0.2250028820941842, 0.3386235869432503, -0.08297086157853154, -0.3834887075270971, -0.2786496097534729, -0.19532950138799807, -0.12960851367748458, -0.17221118412215658, -0.39126736521974503, -0.23589508756766284, 0.3595552000866461, 0.2857165742249244, 0.21079069324173455, 0.1357944909004218, 0.2422503732642985, -0.10709567634086967, 0.21648445578464018, 0.17336947332660294, -0.3057217818352404, -0.2937818308260582, 0.1422151617910477, -0.04274591973102984, -0.2042485953437863, -0.2046606141689812, 0.47043073256931595, 0.4640827193049799, -0.146073062678642, 0.06777404643468653, 0.33010979911766797, 0.15333347622904683, 0.1890909259950868, 0.2725091925743269, -0.3068082156278604, -0.15808774381767413, -0.18425745800221893, -0.2176294964074454, -0.1497690625252527, 0.041358049816233804, 0.24762667513364348, 0.23783935619889027, 0.48423743494424476, 0.058746018430497815, 0.4529599568460419, 0.39780734531496775, 0.38137432586057296, 0.02334161257541279, -0.17754787240063133, 0.023585673080780318, -0.4172395922899522, -0.052239441423156674, 0.3376577463836568, 0.26988388571556465, -0.45174584996538397, 0.4329381732007413, 0.04395040617281984, 0.2018884495253216, 0.23837323558836712, 0.037465197809211, -0.3465412805468675, -0.6023937468115372, 0.005832937891412482, 0.1789314225179542, 0.16433038239703268, 0.022277240350410565, -0.11340406684070439, -0.2940643600572549, 0.3150668573381155, -0.32800534562832684, 0.18006385030514277, 0.27462173659675965, -0.25929500138179856, -0.07553783494084464, -0.5508076749282763, -0.18226322677649728, 0.2687735954044549, -0.018900926571861373, -0.11590659514360724, -0.3432705587808554, 0.17397764718931844, -0.3719177030665464, 0.3736301556737421, -0.058757600995285264, -0.30435701692222755, -0.17740352718501098, -0.452317445563051, 0.34143718457503586, -0.5790014316694632, -0.1973956698669667, -0.12832654140971037, -0.13407913632777213, -0.2690864725300641, 0.16721792773728655, 0.22120432765929804, -0.1620437376180086, 0.5259396436483575, 0.36427673379606196, 0.19768200975915315, 0.09911146715523243, -0.05327212596696888, -0.27916509651987326, 0.2540358096589686, 0.03409543433278992, -0.49552175226128564, 0.051055565475573675, -0.11673375167163025, 0.29336868935523364, 0.3291902301995706, -0.2176924250823771, 0.4882594547949747, -0.39570723230584615, 0.12639272276633037, -0.003917480064684204, 0.21379809187426074, -0.22234051126651774, -0.5081599921654089, -0.35161600133832127, 0.08274876038583381, -0.07490191639995362, -0.3004451706901174, -0.22460773930710684, -0.30137883236829077, -0.35257253166512154, -0.2377255479233438, 0.09834605552664807, -0.34892759020686903, -0.2304686165331093, -0.08922680510166733, 0.18527526696710303, -0.06372282277124039, -0.01405791146395447, 0.11727434106177191, 0.06969471092591946, -0.4094962069328991, -0.13389107153259353, 0.09650476374654066, 0.16340324837370415, 0.22105355895571194, 0.044767906884559144, -0.017769679558856475, -0.02602791198234787, 0.25333948261205114, 0.26158725187035503, 0.052991840088095044, 0.18918351734534314, -0.49483585112798345, -0.12028328882518755, -0.029069282394094436, -0.1965490403139964, -0.408638200901865, -0.504054511254066, -0.11610991863877371, 0.1724739980000737, -0.007823187550412504, 0.08554473549033076, 0.0857673753994653, -0.06985002108870689, -0.339901692396137, -0.19557049050305195, -0.046966285796467666, -0.23114220468165494, -0.19299948417327367, 0.11244230627531424, -0.3042744859004774, 0.24545688983677522, 0.31530585723780763, 0.05359795611757623, 0.3159523320348333, -0.24069233901305248, -0.29194104980236696, -0.19463967287101208, 0.15685024783127952, 0.07913382663636662, -0.538298593380196, -0.22097177503581322, -0.476612151704685, -0.408531352806259, -0.41751364036697164, -0.6428009393290224, -0.13759130616852971, -0.3865211869505599, -0.2990507266746536, -0.22757540764598633, -0.40121801199069695, -0.02876477125193224, 0.3811451036594208, -0.29940909056705, 0.20140319845921906, 0.05557463435206143, 0.15761007411882313, -0.1770712043707257, -0.20968206887653792, -0.3786307592332589, -0.10990129206775172, 0.2602990000594189, -0.056894838425651496, 0.011606694364324576, 0.2828434328339526, 0.30994886886844747, 0.24202124270518796, 0.10427749030583357, -0.5785448734302923, 0.15998697953094296, 0.17340773432954915, -0.07458774535095167, -0.20318485632546304, -0.17265819474506167, -0.5392301811570814, -0.33037330550883476, -0.16798535239561468, 0.3066064760067005, -0.3281117384463747, 0.24842061290093304, 0.03381783265840339, -0.5119363023890804, -0.45657381537645236, -0.389490087925806, -0.0753712651922667, -0.003545890210848341, -0.29844768476158645, 0.47688870677349676, 0.2948394282522904, -0.18135066289947063, -0.01405698865625775, 0.03206574608640089, 0.09553812888408392, -0.2394694236643662, -0.004545821492162881, -0.5691158849023489, -0.0032550883810386344, 0.27591611944798644, -0.08455362919144917, -0.17867847998365444, 0.09254495285723435, -0.3519186183542658, 0.1839242438483779, -0.30950874237726383, 0.33346254003592024, -0.11353595739857864, -0.07685866655406108, -0.3239181026469975, -0.014220944665884664, 0.12934709192014376, 0.14519890929358986, 0.05094285863383995, 0.29608320031368435, 0.1685327463856206, -0.4823788548230792, -0.1443927721343219, 0.36952812207420904, -0.2370355174615214, 0.1482837413501663, -0.4013402545311536, 0.38116670124319135, 0.4030718969169625, 0.35763137012542495, 0.46866559194471963, -0.012773199939207478, 0.17173857667525622, -0.2202683949713711, 0.26036526203558574, 0.28877501296258495, -0.22912832841234146, -0.03900155251027453, -0.051277607137896294, 0.013666238107803838, -0.04609892614915785, -0.32271426027473776, 0.28964259774862383, -0.21049132365120377, -0.3931007937764032, -0.27978119351745473, -0.10751875539317157, 0.4212407707821368, -0.038594981269311726, 0.45366843636975557, -0.07318159305355207, 0.0221688296291358, 0.18937272577643494, -0.3961729407962912, 0.26347659312608807, -0.2533280866469901, 0.3179149574164433, 0.20363496380480858, -0.14785928101664714, 0.42005846331288027, -0.11446329944384757, 0.33311988909003537, -0.0754393130679153, -0.19429558045254725, 0.5293354960655139, 0.2200289397397591, -0.15968402730391823, -0.37779031964740534, 0.3226654950354311, 0.19965330595586867, -0.2953523808767674, -0.24750140770108872, 0.2174162072555068, -0.09535683176331725, -0.07064364986154177, -0.33328545905445395, 0.0495327663673255, -0.3082257294170576, 0.06689912976390784, 0.05802722458461773, 0.04915825149957198, 0.053320580442301035, -0.054523173260789856, 0.19003473451373856, 0.020524794401586662, 0.50952792023106, 0.42054169615661885, 0.593854179146648, 0.20477530766165755, 0.6978040960229969, 0.6341586270396089, 0.2998467367173897, -0.0026057988681207557, 0.2602165544568842, 0.17646356408594568, 0.29810710745292407, -0.0010473609862774714, 0.5186918935903974, 0.23618003570360876, -0.0629679700658725, 0.1279111815280754, -0.23606982356207185, 0.47483867587367823, 0.3680718221772401, -0.057114175932583375, 0.4032576969832206, 0.022332264384947797, -0.14905002620977825, -0.13103652863523763, 0.45334749328952284, -0.14815294082518604, 0.24689503159823997, -0.28983962857519036, -0.451962963679836, -0.4439197420970034, -0.04271362380639037, -0.14391704017586615, -0.05396232800798997, -0.21738250162643188, 0.44868059027604795, 0.03396841704387861, -0.18753002404213476, 0.6589237733844137, 0.4765442570109314, -0.2651533302906612, 0.2538883007635344, 0.21127410942905256, 0.25037282213971773, -0.10662314743946501, 0.21544513473935067, 0.4730469691935278, -0.22721265632260604, 0.4433432612420344, 0.4300903693484103, 0.2513724773605218, 0.14317778985649998, -0.3405818967853437, -0.41187301525973785, 0.18606570767181496, -0.12827790489973556, 0.47656867091759336, 0.2978580403080564, 0.30393505164280304, -0.06810619398787363, -0.3361178369829907, -0.4109074882386116, 0.45683642689931353, 0.3998441783006619, 0.13779907622243395, -0.08295031831699304, -0.1572505916165027, 0.16060297313048655, 0.387339610160997, 0.27307581214315374, -0.168172362166491, 0.03567626948695364, 0.035521201507741434, -0.17530133827195848, -0.0010462141525573285, 0.415301109079433, 0.2301700726507394, -0.11345864988005439, 0.2048575229477262, 0.27798786125928077, -0.39005206672140724, -0.34857423241884433, 0.24650973912144392, 0.1586722627241296, 0.22981807150050304, 0.10103036846829261, -0.41556185220951536, -0.14197508850959484, 0.21899099359161778, -0.16141534290412274, -0.481111069474351, 0.19055083508277315, -0.28389319277048103, -0.4617002417562185, 0.12856760856976185, -0.38997074625854933, 0.1707273949208853, -0.09138520434671227, -0.37125809556810885, -0.3342061778884541, 0.4099877998927467, -0.0798558420537181, 0.3236072064521165, -0.32497144041445536, -0.31361521463295405, -0.1996884049909765, -0.44047631980838453, 0.420364963498271, 0.2816056734533299, 0.09087371062312344, 0.41662592104530805, -0.0828144223466597, -0.17258955301895637, 0.33061123868470793, 0.4149932481773896, -0.25383683021260023, -0.4732341831162144, 0.07674568788279879, 0.3954716645806335, -0.05472144389019838, -0.455530361717019, -0.20482280669199351, 0.4580334983089456, 0.43418362016496526, 0.0978388340030312, 0.19157023374849597, 0.41153178186231504, 0.046878053206365185, 0.015386491730786421, -0.0856499573313416, -0.22520387014874577, 0.3800444634968379, 0.219379106875624, -0.21691975739444758, 0.23547297030499592, 0.3797923473611031, -0.15915764595912363, 0.2153851100955676, 0.23623634132187651, -0.25928376424015803, 0.38887095996560694, -0.29304892565401036, -0.16612481200473936, 0.3580686253214438, 0.31447359384228635, -0.4940027022535978, 0.45238874612511043, 0.24648755177326687, 0.45673199341397624, 0.3634864173041227, -0.07576704405874922, 0.11223423641091837, -0.19094651966648468, -0.22806909137588396, -0.1615482122859866, -0.24833718569404784, 0.36694269789703987, 0.026946258910030538, 0.37636909718079004, 0.30630921462321786, 0.1681614772479787, -0.3978335816252368, -0.33782436211016964, 0.08583604180532811, 0.06506397151628185, 0.3740976461477197, 0.2035066498630736, -0.1308655601657286, 0.10050399420431273, 0.30503021401219643, 0.09667868217521966, -0.44796185760832796, 0.1399660998557565, -0.0920280180254406, 0.2893360880224597, -0.5082642228910598, 0.20733160092489397, -0.4468982375067293, -0.496871356142447, -0.4697748573686102, -0.37917828244533924, 0.10314354678602453, -0.15891290006675826, -0.04478438053005827, -0.2985288368823315, -0.2948666385128725, 0.2803794170976141, 0.3562792549831064, 0.06147045192283801, -0.09193705122165405, 0.1932577005880158, 0.20481125673703438, -0.21261677404512513, 0.21880099296465255, 0.01842393175804496, -0.05063982311245501, -0.18076634034815675, -0.5071223052991763, 0.20133569462487058, 0.026884940994111466, 0.35787386702680357, -0.008998330524072638, -0.491510160029855, -0.20518187925448647, 0.23968619974257022, -0.35592756629296063, 0.021974014881158795, 0.14344139654804, -0.15804829988802957, 0.25912320336184425, -0.2149825842959093, 0.051639093785594024, -0.24847694151502353, -0.06090397484837044, 0.06611814697332609, -0.08056224254079714, 0.09151002138978995, -0.156161909700134, 0.10710737852251592, -0.4425712936072941, -0.09397151608717502, 0.3273335520636289, -0.33376787909411393, -0.37315374815194097, -0.17838534725581345, -0.5040144571850776, -0.3411354179800081, 0.07059434966572616, -0.4332095182527238, 0.23046995555481847, 0.1489589817521895, -0.06607516157684369, -0.10270883706517484, 0.12525440790410355, 0.12873858023684778, -0.05718350404974233, 0.36424540245532455, -0.07812166624368383, -0.008061207690917883, -0.06664093002105866, 0.38365707869539345, 0.0026630495328114115, -0.09768585102778295, 0.06932324715002501, -0.11189375384875463, 0.28980142465063435, 0.2616997711918706, 0.3520328367904068, 0.2016253345561564, 0.38628084553681413, 0.19540207328415243, 0.35242261097221145, -0.14629262048048633, -0.3900671099289323, -0.1970252403200641, -0.028883712031545897, -0.21446132524458317, -0.04782562525436102, -0.05394885260891204, 0.22813826968062548, 0.5190199016248551, 0.02462282259940447, 0.10271014618794012, -0.19122480852335097, 0.21958015196183295, -0.22236343243235804, 0.006173937215979654, 0.3063481037585317, -0.06651186967728405, -0.24367694328924694, 0.20909597037252725, 0.09719724516143402, -0.19529910461431615, -0.3923936549814038, -0.4252731962745863, 0.14976563254073752, 0.4248022752108171, 0.39346383843324784, -0.09165257916078272, -0.41326115215298254, -0.2724836833216647, 0.015789699870881302, -0.08529028734441677, 0.013576467261446358, 0.5926236232652543, -0.10343093231203303, 0.2887119807717885, 0.08300572632995722, 0.18057973411448675, 0.08921732460120584, -0.01169877158550732, 0.24624463181105435, 0.06512513453419817, 0.14693659658014277, -0.010270948012159364, 0.15659149500578964, 0.2471694894076584, 0.34032497301867953, 0.5145719553489733, 0.03908364547444766, 0.5563272834522137, -0.20416931702457577, -0.3946124797841815, 0.223236142011512, -0.09293733075794303, 0.09351233920162524, 0.039478770197727234, 0.10039503110083252, -0.3767868293019137, -0.06466148321862368, 0.2804634182372629, 0.41658776334205416, 0.2018609747228571, 0.5596177793424515, -0.030844600232938706, 0.49247950690362674, 0.4594181028082724, 0.49126886738341413, 0.5414094430926085, 0.010780814088874434, 0.36187788542778276, -0.07390298778034961, 0.04386099920473376, 0.03989445673385682, 0.03890428655548176, 0.34774700321857144, 0.1736475501689152, 0.4131035995971798, 0.4362819957963017, 0.03686493078546232, 0.03476651979579942, -0.1935895293174593, 0.3458263785438646, -0.12431827971987286, -0.10897635978172313, 0.203971010833704, -0.16596131449590767, 0.11507691984043213, 0.29570665786726474, -0.19143957631960928, 0.6677949470930238, 0.05426276346394845, 0.6044793467679648, 0.06368468673918104, 0.06375549212027444, -0.08164671806361089, 0.4429637789010866, 0.13342398445558995, -0.4908529818795079, -0.6133618420707797, 0.11641013084565545, -0.3858681674692917, 0.29688907693466765, -0.359918828308487, 0.11376303951079338, 0.19786739242289503, 0.8987603484214601, 0.2679667100581258, -0.326224457323747, -0.4248839737239631, 0.3840733041824479, 0.42083892492268543, -0.20680993208897944, 0.32340376227782835, -0.08971495328004563, 0.13358576935539665, 0.4155928663712961, 0.515791678984295, 0.09264165920529821, 0.3284613000175066, 0.2909337650268743, 0.5975834875719797, 0.7786695263634522, 0.5193495993795925, -0.08759885339776467, -0.01713934951844815, 0.03220082010609358, -0.17633660989331001, 0.08710538574462606, -0.1417693265243117, 0.09036354599432417, -0.15105979383824963, 0.03709966534796886, 0.8376904008416534, -0.1300480563516346, -0.11605779731844071, 0.022156604542602105, -0.12114004847149941, -0.20074014260151313, 0.04104629053246513, -0.291671813928108, -0.03654350939383885, 0.3410278414648561, -0.31047210458360136, 0.1772313336306431, 0.527308995771965, 0.26826886289512514, 0.38363742371939524, 0.11439302679971504, 0.06636110049344077, -0.10431910183256884, 0.11922590538678454, -0.08737004314950493, -0.28552885363178004, -0.1265712247131749, -0.3325039106060952, -0.32383703019916127, -0.1539659981356371, 0.10720105570550008, 0.1718728622158153, 0.4046313782752229, -0.03429020511213286, -0.23936442905625718, 0.2328268567089111, 0.35434254721973657, 0.27040287283789266, -0.22120855935909092, 0.38686725472384476, -0.07667913167699023, -0.14365143111554554, -0.04655098147318965, -0.2086212090354932, 0.4349987663586579, 0.5140090147445415, 0.40411191292860715, 0.4972693011498735, -0.3758185761497353, 0.3088538070342574, 0.4122014728837219, 0.12307396476202727, 0.42197631953161063, -0.06870226101867886, -0.0042373501004979025, -0.48148589624543986, -0.33559317004893885, -0.41801873214662555, -0.14828646674738147, -0.20404757103167356, -0.07601510490943554, -0.4204365043225283, -0.11845137739298552, 0.538631816855606, 0.40470693589772344, -0.2991314609378715, 0.055625625378212695, -0.41338385888058365, 0.3325203969640945, 0.3260244857629505, -0.001970397298985027, 0.08660969300681903, 0.3090608339675818, 0.38861051881088793, -0.34009241473598867, 0.37560728425179696, 0.022410759984911665, -0.4228741632884035, -0.12942419492145335, 0.5865584646187987, -0.06472712186709911, -0.25020180745060017, -0.1839368491831728, -0.08702933676420967, 0.3463107323640429, 0.26828203626986924, -0.2955490749554281, -0.0059375307061994885, -0.3717612481251455, 0.15581540557874404, -0.3312445529935869, -0.04952500745667367, 0.09087637509258113, 0.07987806710211653, 0.14450520492617935, 0.4866594771581143, 0.16734043595432133, 0.34006519159778337, 0.39102541588039225, -0.24656349013831086, -0.24808388913586166, -0.1997196694712, -0.4222988909449631, -0.5282197314382919, 0.2549006501988279, -0.1701382610695632, 0.01767440285882522, 0.1604309021510678, 0.4667559023671557, 0.4584786424966671, -0.31599938891958024, 0.08352741820082667, -0.4595019333881184, -0.5905635334656409, -0.014635628173217032, -0.2904815092476017, -0.2148021559133548, -0.4575485972969526, 0.36353199992937896, -0.1661148063678488, -0.2015686535130976, 0.02554520582946397, 0.2534632920550279, -0.10586049862642774, 0.37720577617434864, -0.22688891579191267, -0.21173331325742142, -0.11453565701121272, -0.6021447298151763, -0.6212461467369075, 0.4763976773564676, -0.03973510430764632, 0.1698058450782988, 0.21051833278780502, 0.4986252437132404, 0.6115422642827536, -0.23928325382474788, 0.35174947984926247, -0.009111710257920225, -0.41197561779482156, 0.14299908806688053, 0.20385622297781272, -0.44512961302010884, -0.1970043418393931, -0.1264030915056139, -0.3113190958357265, -0.2535509117504216, -0.04792915738591826, 0.1107346424021606, 0.43829757957008453, 0.4058037608506398, -0.38362005327264165, 0.0031503829169954242, -0.47674399531029, 0.21259485303019243, -0.2314003552147882, -0.1780158163833002, 0.05933684372940361, -0.34146547350713136, -0.2640602548978918, 0.3396582427890085, -0.10065564505356786, 0.22995603826523894, 0.32550361614071155, 0.26240986131884236, -0.0852364915978622, 0.1490724949793873, 0.01604308772091329, -0.4976180322596128, -0.44810249094590254, 0.2595128710289353, -0.20393925499275659, 0.102965096525363, -0.29412356834236625, 0.2967388218130413, -0.2799403489658283, -0.4625065011147187, 0.3535281316602468, -0.2709398563568338, 0.0661893823063369, -0.07672316576042305, 0.07547231970481813, -0.4142188285422489, -0.39382647502784346, -0.12498457638815795, -0.29265600889767873, -0.17486109830940982, 0.3529434520963355, 0.407633096865401, 0.19367669181893638, 0.16356592203192963, 0.48416468573933774, -0.011316380865770623, 0.07267064374938627, 0.013163485975347578, -0.46871517208614377, 0.03722125705225226, 0.02317607733414326, -0.24663685787162584, 0.27681862059357343, 0.09838289889087236, -0.02621329411159212, 0.5201972315838839, 0.3218846494870597, -0.21285411928577505, 0.22796936753604266, 0.01588633454187067, -0.455027295865086, -0.03699056487550494, -0.10651916608387839, -0.6334901133317287, 0.38349760412837985, -0.17601811849633905, -0.1817957084666632, -0.022239065222782087, -0.18216368670868102, 0.25176159441726365, 0.170323606806759, -0.25712632225551396, -0.07921816878044473, 0.07293454234836605, -0.113600119586512, -0.19867010506541014, 0.14604528114742255, 0.17122542029669607, 0.22510649808950645, -0.19108641577690386, -0.26239832014078557, 0.1348789879412294, 0.2175917948517108, 0.4343312597787954, 0.4330705378060977, -0.2079335304410365, -0.4717955954328985, 0.03886677760648, -0.2789267727654305, 0.3307300140877946, -0.0033839082417228125, 0.1882339378398324, 0.05623025845491604, -0.13866885925058192, 0.5561333841638111, 0.2978250381559558, 0.659046192372069, -0.1523918832668004, 0.30798273528508824, 0.18819771450181944, -0.03219712048558588, 0.3125207580926106, 0.11101062705298154, 0.1757905503898658, -0.3440056778764764, 0.06773723378720647, -0.2557202842918832, -0.059492713433012365, -0.17817194317713367, 0.002415447531286922, 0.16957141978686105, 0.4903731431519919, 0.003976028615914495, 0.471942020074532, 0.048078238831569566, 0.48661146461089844, -0.04123281771414823, -0.3290204899565535, 0.317640675906039, 0.3322070748098388, 0.06819743401302898, 0.5372236172005067, 0.1657322284344924, 0.21872034197880447, -0.27059750789404674, 0.4608881638842261, -0.1872233775354275, 0.09261358836179413, 0.42839518130667414, -0.469074323317287, 0.37166191114038427, -0.22955748366651588, 0.1759341851502125, -0.000626263386666812, -0.25942742621411535, 0.5880938187711744, 0.4934930844333561, 0.6083639604031652, -0.3748562443865433, 0.4789300829458481, -0.3263914789371333, -0.3560695119176908, -0.1928608241250504, 0.25312380476317464, 0.46518751711952155, 0.32166170693851714, 0.05872174549863298, 0.30746333765046757, -0.22050636588011577, 0.19307061720943208, 0.4175213936555294, 0.017465444135094, 0.4520642789093821, -0.034012990797202255, 0.41136557429317216, -0.2050469538290671, 0.23647242991038342, 0.01799244464847448, 0.09448779074148277, -0.11859603250193627, 0.34536888658776055, 0.3272161131261438, 0.05827094497134873, -0.0208261811403967, -0.10643045110875808, -0.16388590523877647, 0.36160223629152866, -0.013684405841070637, 0.020380065511916057, 0.38290017245198527, -0.127914247319374, -0.41834638476154573, -0.10190697649936808, 0.19914195065788606, 0.17038283394067652, -0.33800735253100905, -0.4057859051396769, -0.2245452794731672, 0.10429836857924744, 0.22294041031609063, 0.04734512156473303, -0.14185288185926875, -0.13354342083967932, 0.5014280040944382, 0.02154387809132532, 0.03397679100226193, 0.3176639548557529, 0.5384162025150608, 0.16853938890750472, 0.34172718041068156, 0.1420730306060954, 0.4659117296961001, -0.07214822310737536, 0.46461719132506, 0.4245382655037452, -0.43199944745439484, 0.35839314733982874, -0.29633712391446004, -0.11612626374745005, 0.21458396379706335, -0.22263956349251324, 0.29968396472259795, -0.3460976697611117, -0.28313094931662397, 0.4398159116358074, 0.0002512411055235007, -0.19150322939138997, -0.05387588826677699, -0.24502229001714887, 0.2957524719253998, 0.39681577831047626, 0.008511971915162304, 0.3630016817585549, 0.14165921093770625, 0.4295241065562405, 0.0480496705971629, 0.4034783095369538, 0.1694270917327671, 0.4341121786927773, 0.05614868384658904, -0.1860349613317772, -0.16250353152072888, -0.2585538401032222, 0.26346396526572974, 0.2996422428569218, -0.24906812929671787, 0.27988856802156403, 0.33977130540586564, -0.46836861894513027, -0.03858256667717438, -0.24627008696526276, 0.03297085903714729, 0.09305119573192049, 0.081634935069134, -0.4888189029682268, -0.23867223421435854, -0.05371959582076451, 0.1968478753150306, 0.009424274790886355, 0.5416415298917097, -0.12429858360622685, 0.010832920762311519, 0.5443382147629607, -0.21298124785311934, -0.06447849253441958, 0.23088914041074307, -0.342721760657484, -0.09394100236426098, -0.12187453649148644, -0.22101703490937852, 0.08425817802518377, -0.038031382127863694, 0.44215054827598804, 0.22193161113526869, 0.27576845671834394, 0.19474368928169394, -0.455929683965388, 0.4627387332233979, -0.04098945988647663, 0.26667205361905827, 0.15669922217816531, -0.4888932539496359, 0.35724581124371807, 0.12363899688495303, 0.3440865232257953, -0.09383069016220869, -0.0791026438006936, -0.16113873452571573, -0.1832768835047783, -0.3542610786064911, 0.3947864597028044, 0.17875359479498906, 0.06556105537351789, 0.2531384912628937, -0.14548688706011711, -0.34478306911697393, 0.1256275000835458, 0.21250053279115097, -0.15829051384075324, 0.4785852361069051, 0.012366949869021475, 0.059232451227273275, -0.16797977941917308, -0.22715831827498356, 0.13591309010157138, -0.044448478193122254, -0.04727164807966799, 0.3848630602207304, 0.46479377160133395, -0.3075345943634055, -0.41085383422832483, 0.18836715994790654, -0.23493436268674445, -0.3725287676903775, -0.155732357485863, 0.15039678370106163, 0.0025647045429446564, -0.4547654897352897, -0.07334592064622214, 0.3564304758406679, 0.09875384938643479, -0.09319838566641617, -0.23371064084035564, -0.04542749641063083, 0.30228668699467887, -0.1554156840894542, 0.43535164470381643, 0.2451584634217971, 0.2625786746177847, 0.38596614130271345, 0.126690128057518, -0.31261179104364256, 0.053094659560321, -0.471423628719015, 0.11897377845169732, -0.23412691189047416, -0.315174278794864, -0.22060565469785606, -0.2657045634289957, -0.42882123366637714, 0.09326301677696283, -0.2922378839717445, -0.3010002198257578, -0.12629870989105224, -0.48808185316983116, 0.32052844303945843, -0.12066919459639121, 0.3631308258995376, -0.05636571900846741, 0.1211634492494667, 0.15168165458922028, -0.2617315496139539, -0.3120560524244218, -0.10919942389952902, -0.2970842359527502, 0.15041546047201948, 0.4324619618748653, -0.19210497758890177, 0.2647041654267517, -0.1872327097723815, -0.4407978857539495, -0.3174176336279667, 0.0620036346390197, 0.25232611304660124, 0.43244013884821797, 0.3398231639892185, 0.47615825923013966, 0.11413918688930103, -0.21991928165382713, 0.04212839242948896, 0.46367339490306714, -0.04734470559681115, -0.024482810471498195, 0.3733699902554724, -0.41915830290565226, 0.1717896859166188, -0.2970972218392881, 0.1354441057781287, -0.0918547332211126, -0.26715844288425017, -0.01625512247640204, -0.0853531689348721, -0.3933135189710577, -0.11597839611574923, 0.017165273322135466, 0.3317798430077936, 0.3271527301744799, -0.308653252511242, 0.14664024003958775, -0.3426807704831808, 0.43259647744165863, 0.13436780291986908, 0.028768832727584417, -0.2235277260942723, 0.00990935634460602, -0.05372755964544211, -0.1782315898521674, -0.0999769202891825, -0.06779726804822873, 0.13292358774456137, 0.4418283590413998, -0.27232427158195915, -0.47984839923326594, -0.025472717193348475, 0.30122931499889877, -0.40336730382515745, -0.46429765169030957, 0.4187840717780758, 0.2681510137132922, 0.1537355846531172, 0.18758111520922524, -0.44260781983983744, 0.4279410690978841, 0.47960634898610666, 0.2303445179039625, 0.34613735292248937, -0.2332610982805503, -0.08946755554653374, -0.4071343851543103, 0.028116737542704905, 0.4494697543295091, -0.27231433167459745, 0.039892438203158465, 0.413157811431159, 0.05401916157000639, -0.4920793293533336, 0.3605869214758119, 0.24907745138604145, 0.4038354587249867, -0.08473198077929896, -0.205875892236365, -0.3746782215275334, -0.015684087299698855, -0.2965273168962473, -0.10555996541325234, 0.0703004807230694, -0.26166893788707957, -0.49169481729101294, 0.4421647987917678, -0.126057912747496, 0.43311414841412144, 0.2743143017948053, 0.30873670766349337, -0.003651690684801867, -0.4863010702254237, 0.2045321222478443, 0.2858328289564514, 0.21565366863535737, 0.29370979309271755, 0.35641034835179214, -0.4566431412170465, -0.49168735288508786, 0.0018731688172425622, -0.0788353178090465, -0.4731351157596399, -0.3981109817491321, 0.4032297530938379, -0.17149854649235388, -0.20162482789232705, 0.18379271195017322, 0.06834721848925315, -0.11963381505144789, 0.18516695260779406, 0.13175529757938603, -0.09270463560789338, -0.01764618681001374, 0.4807202486145132, 0.36847692595908255, -0.35039207582112325, 0.019097022225365187, -0.3240043711049957, -0.2653476356351433, -0.06254030241410924, 0.024748976891229107, -0.35303219424626264, 0.0881815161922373, -0.02215772951087956, -0.051493068018777365, -0.03408777589909245, -0.18140160213644846, -0.5248239805155233, 0.2544037992933894, -0.15703513986857326, -0.45651288977875976, -0.4976910445750135, -0.49400481567006965, -0.14722242737094185, -0.23287226114842693, -0.19158092856629355, 0.07204220651535571, -0.15791657659532624, 0.06950048598255629, 0.09021310390139752, 0.17924388172621086, 0.32379197884940675, -0.13249503405988808, 0.3843423419802443, 0.08246114960008655, 0.06844614544929752, -0.043198547710408985, -0.16916353441195875, 0.3918632684143489, 0.4823503209075089, -0.48567836668452125, 0.009962915462691034, -0.04299233456143321, 0.19316479049075302, -0.3402268062168538, -0.4532623795292348, 0.05548356566365466, 0.07972842625163473, -0.208737967076976, -0.6112378894408292, -0.11957063721934566, 0.3516397314387428, -0.18785812254617734, -0.2792562853619342, -0.05592861156551029, 0.0357505845699024, -0.3523148688621619, -0.3308223189210952, -0.42474110899993106, 0.16541272715368097, -0.3588199519033448, -0.045291362027116984, -0.21202054567954023, 0.3078143890100277, -0.4245053006707331, -0.4455065208904193, 0.3325058880694325, 0.03032387072948064, -0.385414929441575, 0.4590551133327701, -0.3961657397034552, -0.37217408805277574, -0.06241042777510895, 0.07006624693832958, 0.3155600842676091, -0.25644195581816304, -0.11133715478626867, -0.1175835466509596, -0.046701155472638346, -0.0446020271617565, -0.35296094028195324, -0.29566263245909646, 0.47092174518217006, -0.21584732681957838, -0.34510770455120976, 0.1394688757258208, 0.4469414862284787, -0.1407339555875156, -0.2752942891601301, -0.17712983797837312, 0.4827066872094541, -0.15199809489701707, -0.4434906647208158, -0.04264692414650078, -0.4523021262886902, 0.23489657618959595, 0.3621096605637047, 0.08067330836985641, 0.42584224379085706, -0.2530508811004724, -0.016026371611192542, -0.1501038559814199, -0.5281664460152394, -0.07267688165327787, -0.4516326956723017, -0.3517463891862281, -0.13966296673184253, -0.37991760331255264, -0.12514328504307276, 0.3586891974250151, 0.17918523611648948, -0.10559717568902821, -0.009832885579676022, -0.0508357091856486, -0.011209218546615602, -0.09915753712546428, -0.12729903067851472, -0.29191452788646016, 0.4700584557907429, -0.4448030682593393, -0.15456078431922798, -0.35602574606015663, 0.47822871286484486, -0.2358192379896813, -0.08327451333566864, -0.29609647766166275, 0.06991478926670029, -0.4320853982241334, -0.0622550083146427, 0.2718407994236839, -0.5921301544837939, -0.06828608122940047, -0.5694636413661405, -0.36455606802763046, 0.19539428742097822, 0.2094517028007272, -0.153370541586711, -0.08202940963299736, -0.22190204833330526, -0.24712640553413656, -0.20502388434052704, -0.39041505110751484, 0.10490624813202096, -0.36090434444693703, 0.0008643603728392449, -0.2785530500609171, -0.41767785861393314, 0.19677344259716797, -0.260170769435476, 0.11964340932870071, -0.347177874105154, -0.33519408788115995, 0.4569805799295584, 0.003596123999023175, -0.09156918551576003, -0.22196826280037318, 0.12280485327409454, -0.22144753287821942, -0.5680541066762954, 0.2556833184113494, -0.6420302789442968, -0.03651076202445592, 0.30346781502043285, 0.0005057769035095297, 0.7138078998580493, 0.6819026619667248, 0.19255191818561265, 0.0515633397077587, 0.4018558112687651, 0.4146167594925109, 0.20454361338370175, 0.5415597272616064, -0.324001101671917, 0.3117021235768269, 0.09327577441973464, 0.08436229305569805, 0.30661444249994463, 0.34015596808152937, -0.4607490001465684, -0.36704387796690413, -0.3776164819795791, -0.21185501435556578, 0.03356102065513025, 0.03295519569361114, 0.35334862814248846, -0.4782646657993721, 0.1526230680374929, 0.06645515132749434, -0.4052822908680604, 0.49648268542182206, -0.007085679888200797, 0.22203975361057557, 0.7846011383327969, 0.32694100492892614, 0.45123555858476744, 0.04489667978473715, 0.45994758481040393, -0.13310520280987437, 0.0445257472195835, -0.25798401609320154, 0.3650540814768552, 0.28419657670166765, 0.494171957687202, 0.04076022722113221, -0.101916412201695, 0.31715745624301994, -0.2559315690999134, 0.3024339168953086, 0.37982385445982736, 0.26625022361183437, 0.4200798830761816, 0.4122165078512925, 0.3402315902533759, 0.06840465791589043, -0.19547549718732166, -0.4460845772488476, 0.05186528578540751, -0.2189192919267583, 0.5792811722932331, 0.3539537062259188, 0.44126140604801845, 0.1331440229646156, 0.10543142213620776, -0.2333164401698741, 0.16648999977756584, -0.1973711243784522, -0.25669299710254956, -0.15830298763646306, -0.29739256594295943, -0.2578686048575519, -0.255462196182844, 0.3468905244574242, -0.19624833748555892, 0.3501182370262424, -0.1800694847287159, -0.4426954861689379, 0.1094660869378252, 0.36412115743115353, 0.339647007384802, 0.055417054465961645, 0.08945614181893094, 0.3579924103929964, 0.11414979398960563, 0.44618570595235857, -0.2621068606753822, -0.31548872709344367, 0.3637039441520529, 0.24747425727360342, -0.34564667250518677, -0.45209716971000674, -0.19455783052973624, -0.3307658571081812, 0.07139634324280537, -0.17219847803502408, 0.3018230498397696, -0.467383080694889, 0.2626752415228589, -0.22650372772467955, 0.3115631965840688, -0.43349138287775213, -0.1430694762448792, 0.41190652528194277, 0.48098451643923956, -0.24765070877369447, -0.13409503732724792, 0.11932033087562874, -0.2057565935607525, 0.3607071545633822, 0.268257758821363, 0.06571830947242692, -0.35843072628153755, 0.024845190941290993, -0.18103461913662025, -0.11640728873175611, 0.5115212944678824, -0.05054405782905235, -0.18957399235517874, 0.28029644357317507, -0.42763386348550336, -0.0773806369053801, -0.5003261858271905, 0.37317331216350424, 0.06052535979861008, 0.11362823598282824, 0.3093894002153371, 0.47447313986911455, 0.42692784908427384, 0.25851918140093433, -0.3195907842871021, -0.2676630241932136, 0.3747106281674012, -0.00406391058427597, -0.5019962539999953, -0.16563295965809796, -0.16239354436656553, -0.15402343061646612, 0.2625549412964871, 0.28030727934793903, -0.4274789912220788, 0.10072093975656381, -0.3020660758079265, -0.17064149135866707, 0.42786345521009467, -0.06493214692496573, 0.2395649442926018, 0.09924988417891949, 0.10422755946336916, -0.3970709025580782, 0.13916835481023176, 0.16763591819079937, -0.2772263937561497, -0.30803003205526636, -0.002483179448212989, 0.42732668530870194, -0.09327655507908554, -0.3423684639241238, -0.3449425558633733, -0.40018243746515914, 0.43454314862487947, 0.008528207533500401, 0.09384657519559804, 0.20471240640578983, 0.2654686254151458, 0.3959514865517237, 0.15545802969215833, -0.26464067877914765, -0.027648304805827188, 0.07521846145641942, 0.1925336209397311, -0.12251356640356634, 0.3762719396948983, 0.06285848266159634, -0.36675082135449455, -0.14581455758949563, -0.07155277684840247, 0.016869244937805734, -0.2881512256263625, 0.24167380418095175, -0.2538820835090836, -0.07070036859921568, 0.4541899182630826, -0.3084197556946399, 0.1453445794801222, 0.30148329930418527, -0.26045633078371366, -0.15519887175859387, 0.15374344588243052, -0.2523534047071558, 0.24974443575914682, -0.20586028628642508, -0.29006159628737443, -0.10670652234808024, -0.5443683006342049, 0.3886236329735172, 0.22830696113984744, 0.2699591954248711, -0.38327107494661944, 0.20682206706709316, 0.3494625396087741, 0.295293686350777, -0.4023823270114442, 0.3357841802257918, 0.20153094372525882, 0.2017378036314162, -0.01388865918179671, -0.36323350618108546, -0.09068930604951544, 0.0402383932906047, 0.1513950900395702, -0.2256570770364865, -0.4341933570144405, 0.46102315700391766, 0.15386759353835266, 0.23365641546838037, 0.3614626302306064, 0.43412194426206135, 0.4132762374750082, 0.3423049071803807, -0.05901623546268202, 0.2875879979310373, -0.02759563342073683, 0.34319378801152906, 0.24493988568374905, 0.2844166243577625, 0.11168845009785834, -0.20348052918521953, 0.5051714469425309, 0.19437356886753518, -0.24135221068248752, -0.6952750853787647, 0.2560522725637249, -0.45562917621058074, -0.4916919770643632, 0.11143099882254277, -0.17954219494590756, -0.09278988651934238, 0.011792045045992865, 0.49119353202757865, 0.009731994102361457, -0.266604544178573, -0.47353475535509254, -0.06077491546500645, 0.05667746277775557, -0.15443829236352452, -0.5326982017410372, 0.020951294502139572, 0.3359573174575906, -0.04483177771506031, 0.4565692228780316, -0.25817123239276796, -0.3761926569924185, 0.26401920561139663, 0.32910876932851374, -0.23006724024308803, 0.05809444676907236, -0.6178871071978773, 0.04774905888226154, -0.28312900520709283, -0.5051495688835168, -0.5398736844317681, 0.18444700007007478, 0.16892646727509095, -0.4893431315526682, -0.18438554275308655, -0.22683020376839133, -0.010951911252648817, -0.3343930832715918, -0.02669575089438571, -0.0830101587552707, -0.21265588984806455, 0.16822517456829472, -0.04829359145840181, -0.34254271958633964, 0.20977746537289077, 0.2621120096408771, 0.02134717023904931, -0.10984332225895861, -0.21644274125467977, 0.19410549524570736, 0.449328733728578, 0.16298054331143133, -0.006549505538552428, -0.23953830045871785, -0.3097684746419186, 0.12424221561918447, -0.14162981643718484, -0.24574331117616616, 0.2514662744238359, -0.0666150469760834, 0.42347503083864735, -0.5098643297722921, -0.3603284298180243, -0.248523618784306, 0.08755259578248067, -0.087250542268763, -0.40760432629153753, -0.06579995802126026, 0.5003073214741809, -0.4815199106250158, 0.19830570069520384, 0.42884736024327047, -0.2980775655684878, -0.26438433324617605, -0.33507474083904, 0.12969525505809776, 0.5262472070662432, -0.17824536730935542, 0.4643737332735672, 0.5426478306672434, 0.0022473079806875607, -0.48291113175368555, 0.15465729829525024, -0.22337764111265637, -0.2997572264414819, -0.42575197986867513, 0.01661122783254572, -0.43639009437515375, 0.0005347312161405574, -0.05486848639026879, -0.38850823388026723, 0.030452148628097055, -0.15167313878513428, -0.22460678659789854, -0.11649313686120139, 0.1064379480306315, -0.4879689101448456, -0.12283459830757658, -0.21654462028733285, 0.024739490667673857, 0.47386716154291725, 0.009214765093440828, -0.21107681991957117, -0.13563007316390532, 0.3572224444434366, -0.3038160139669197, -0.07126323555929451, 0.3615581767091431, 0.3219980471072861, -0.35546792067234556, -0.42944987820867436, -0.5213320575943516, -0.07552813188898927, 0.08702096496591095, 0.05701451515833686, -0.09899207765730551, 0.4248659251396571, 0.014855488600871682, -0.4010038385293213, -0.40475891344712267, 0.17824645737504244, -0.31604622649116554, 0.4133086904085189, -0.19964778086180873, 0.1443708150383671, 0.18713823434303933, 0.19777312999470217, 0.2573357269135711, 0.21292938359018385, -0.3071223319012079, 0.4571498862403547, 0.12540971726615288, 0.32160818376168615, -0.0201811908699211, -0.25858143092531277, -0.24238930806050857, 0.14052797496555805, -0.20955596852882324, 0.4288414978598597, 0.22223570818976512, -0.5745789182252025, 0.2263804637880207, -0.1703837352462304, -0.4797652118587894, 0.41049055385078287, -0.27168198234214885, 0.4165842429818981, 0.3685896461650207, -0.36471052331171266, 0.41077495741403114, 0.4531337407863031, -0.338391326210161, -0.3184300485166017, -0.3545293908687564, 0.44959251583125853, -0.3298933630143147, 0.03117471220461181, 0.17968123077686465, 0.20488234068447844, 0.4870177541100459, 0.2749859724237891, 0.2524534300520051, 0.02220818226113232, 0.052995453773674504, -0.1604837956675741, 0.06888134847515345, -0.026757894806969145, -0.25892287540906905, -0.42733801457877424, -0.43818793699436137, 0.09933948568242501, -0.02476009941852952, 0.39193593548283884, 0.279811433631048, -0.2550944839867508, -0.3683347544169756, 0.17538542945075203, -0.2916500230164664, 0.4618572617067571, 0.3287340755962077, -0.058377035099871466, -0.07228931195493718, 0.11552598927267058, 0.09757297146006978, -0.15681424482962705, 0.4903902789473238, 0.003927949324026068, -0.06699643505383901, 0.029912258628297207, -0.05631768004002844, 0.3484612812888914, 0.3654884013878509, -0.059012932634435904, 0.11994568918289185, -0.23834823439867822, -0.1830565351485105, 0.03308804830951605, -0.0060091307721159126, 0.045877429100114345, 0.14372292667893075, -0.509620581212045, -0.0549971232491449, 0.4426480865512002, 0.13131475794306, -0.12060455299862581, 0.46480826490900806, -0.29258461656414303, 0.39291904577766623, -0.10231169222971859, 0.32367456131568695, 0.4694484841859069, -0.48286966667008174, 0.47970975283899797, -0.3537366901337465, 0.29542041710096073, 0.2546857464390077, 0.36519256621487645, 0.15702302342347085, 0.21222002103655555, 0.032292459595026385, 0.3012479528273566, 0.036545103981565, 0.18350570096832866, 0.359753945913181, 0.34856089554779845, 0.4014676145879737, -0.5058997957432054, -0.18572936114380648, 0.18264101295776297, -0.048070826380530174, -0.04786360954243962, 0.1736883007880573, -0.10902489663236277, 0.08703428898275622, 0.3805254054873306, 0.3775757275853896, 0.10430972342986389, 0.07716318689103108, -0.4563704791169316, -0.15063587798369502, -0.22825274027389741, 0.06864013269269897, 0.3991686457219125, -0.05159650712835941, -0.22153382439752814, -0.3485242343536685, 0.1959524918338455, 0.4216049281458255, 0.37544984820252925, -0.2861608059747321, -0.2850927126860794, 0.25822931700789375, -0.11493084927591075, -0.27257905169276614, -0.10472837719643577, 0.45203343019686854, -0.5018928965424784, -0.3764465207016414, 0.4095862897664589, -0.021263560752145267, -0.3786224229525895, 0.0657934671985938, 0.3580217173412745, -0.34214389880504736, -0.4288501394925073, -0.4443203740635848, 0.3570893036896805, 0.3646982856272795, -0.049330579762143494, 0.35818677965217305, -0.38655981947695334, -0.1605028429138042, -0.01604976169405907, -0.14530757032802796, -0.11773155114379193, -0.15231821476955545, -0.3979290318859996, -0.2533477056843835, 0.26844487193238903, 0.45296864287266003, 0.12965478309287934, 0.17728654611010497, 0.346044103384464, 0.0307195997109048, -0.12554383072999542, 0.40123713228695485, -0.1704497426593754, 0.4568405082968139, 0.4872920822758289, -0.3177840675810837, -0.2571607298843406, -0.22530725716374833, 0.14206515535744113, -0.36716175696202746, -0.33843369735674644, -0.40464449200303376, 0.3184927072301844, -0.3572562671698596, 0.22212155205447925, -0.38331945428810166, 0.024254968900863205, 0.40484204900319354, 0.2060720537853935, 0.471282794167913, -0.19176061834241453, 0.10377324069070021, 0.14464202603834714, 0.13809627150250703, -0.28610148527955215, 0.46434762763113613, 0.3724324105251552, 0.31701766928014696, 0.42031464952549, -0.22804845754445546, 0.09211201929560242, 0.34973039049111254, -0.24501268750478944, -0.4883873788050681, -0.010601876341454042, -0.4149130415376695, -0.16505563570387416, 0.4567650358374712, -0.02484575685956414, -0.24434002991055348, -0.3802170877992804, 0.36357953989882896, 0.19376418696112513, -0.05642883099956276, 0.2547164477492594, -0.16294723591908222, 0.09822448339737706, 0.05099778917127458, -0.4986814482017305, -0.17789435556257707, 0.2050550432278478, -0.08366150078101987, 0.180010682645115, -0.37384905298239496, 0.24942977191781796, -0.46628992839650885, 0.0223061874787637, -0.4417567161687771, -0.3956184176980477, -0.0248540219416592, -0.15697348598942518, 0.4819788088223165, 0.49296883768466526, 0.3803069331634147, 0.11055117832744965, 0.40954020726221596, -0.32865113007802393, 0.27411393238495857, 0.4887859307707961, 0.06769904115493316, -0.13256194468306257, 0.4565660038452374, -0.4531649370062625, -0.45736018927967875, 0.2718609759568614, 0.48931485820402365, -0.2504568427682792, -0.2993453588562254, 0.37457091473287507, 0.22381349239577103, 0.1364749431984396, 0.2714338903369281, -0.01607829691325684, -0.44435328260793616, 0.17096913510652195, 0.009314979674357089, -0.19169830267929686, 0.04699414991523967, 0.4622926277070151, -0.36327142713001215, 0.40146394089946846, 0.48865403007568686, -0.11869338623918813, 0.4682025411380873, -0.3421568037923889, -0.2049761072256804, -0.494824606972118, -0.07464885627873803, -0.49634235704047575, 0.13593001893148113, -0.3431980527993443, -0.3614047305069834, 0.43360986069536117, 0.4586150478990514, -0.3492648378402224, -0.13647513351251828, 0.0081934526445796, 0.06877251078767295, -0.20291343612059612, -0.1625498214152139, -0.18944368588485447, -0.13210062730404695, 0.39453868807777187, 0.03858145069907978, -0.01888093315099805, 0.21628138779406722, 0.22013908417126063, -0.4500222778866428, -0.22044921623173108, -0.3248531459623155, -0.342961593174678, 0.18101112184565724, 0.2494321284493587, -0.22686857190928278, -0.03635135822282668, 0.1955423151958731, -0.11046187551628203, -0.09467087317111744, 0.2206375948784679, 0.24914242456261856, -0.29934955036607824, -0.4386750578695124, 0.02366527950235328, -0.5393267078796057, -0.2680280376672677, -0.3599770987579032, -0.5239939734373652, 0.2630377670431364, -0.5256859323208967, -0.22782985578916576, -0.3026961756022793, 0.2535093486576145, 0.23640718404808503, 0.04311874007141118, 0.3603697839894686, 0.17280037029461554, 0.0608135294548879, -0.2030063343158246, 0.4991235037546268, -0.26762577093056344, -0.027349359081998176, -0.23455283336232396, -0.13156684753319423, 0.3249195185208753, 0.0029823801739465917, -0.10977967356187575, -0.3561687172691325, 0.24552375388761813, -0.40398952665068605, -0.05168265876943722, -0.4507179830072745, 0.20714028052435765, -0.4017280072752178, 0.1636426369880038, -0.3348405478099989, -0.053566767778682266, -0.1086027119548759, -0.2609036654149184, -0.19847737605034363, -0.15612115267841487, 0.04152646609440343, -0.3990605102441298, 0.2863811042728303, 0.015420504956841077, -0.20961501244601247, 0.1849822760319101, -0.2233627740823803, 0.1315675862957691, -0.034494855925481495, 0.07836908207363863, 0.23698315217577334, -0.08447306933550251, 0.08952988161464964, -0.0599027053458421, 0.16406891921326835, 0.1795254637702365, 0.5100840109088595, 0.2584390881786626, -0.3347974798397129, 0.03530397312722489, -0.2852054809459276, -0.21937429560323007, -0.047166839921553794, -0.261114641851564, 0.22833695566347845, -0.13733494076299607, -0.21287730355398507, -0.18053963603015574, 0.342678052844541, -0.1985802277731961, 0.33166375389632635, 0.11029538939659632, 0.31593088920162615, 0.49016923320726874, -0.4857976871113622, -0.420261262488461, -0.11623345566347233, 0.2947396697584028, 0.18154878016153592, -0.41185115989930865, 0.4788069792702068, 0.5715162271139682, 0.3043202430294382, 0.5958006848892796, 0.1418366175712517, 0.3482471249101679, 0.5380596305411323, 0.4965062461131385, 0.09904943064677683, 0.40414120397721803, 0.5274465503958352, 0.33978320856411837, 0.35791151346335265, 0.17050981463449447, 0.013350398722363562, -0.22695503604681688, -0.2953741243899933, 0.298794901826869, 0.10415068862423267, 0.2781214972363085, 0.4851383990278288, -0.4184613132347243, 0.17149289652350225, -0.2962970749339913, 0.27339412163717114, -0.39946263623861716, 0.44279794784294907, -0.03429665077264925, -0.08043919033555272, 0.09030161127098503, -0.18340221388601832, 0.42264762483241075, 0.43922568567241027, 0.5282065910938764, 0.42357841850770983, 0.6844011946613352, 0.5124661915370533, 0.35134695586978215, 0.12218799803058196, -0.17352609530142665, 0.10767537473296152, 0.2829787956605751, -0.12509020410700442, 0.5556869023347222, 0.18012901201745654, 0.16529072030441694, 0.4620279694548964, -0.07729264347002865, -0.33001821376951257, -0.15222647118093796, -0.027353881290791127, 0.17673867634698123, -0.40320604050791536, -0.10357290189193567, -0.2634680889836782, 0.27388119774647707, -0.2118472143773506, 0.09547279569823224, 0.27060866094619124, -0.2385820516616611, 0.298338663318244, 0.4064610760971203, 0.30993361817645976, -0.09998416553975999, 0.5826500309691238, 0.20866527775794125, 0.10452742580429582, 0.20747799262786548, 0.4963824179086722, 0.09283243432669575, -0.010820813317773506, -0.23997086464588363, 0.17883051222598645, -0.08936866853810611, 0.045194291858636035, -0.1513073145245504, -0.01860209985336923, -0.050900542156109334, -0.05473024727956679, 0.12570076868137942, -0.1191301927416706, -0.4456675437268799, -0.04560593124389927, -0.21852711491029397, -0.3629340387903665, -0.034098411027608244, 0.28395308089439764, -0.5523363089641825, -0.35803524422510813, -0.1383098244160292, -0.3076230813601761, -0.17683756312632823, -0.22772529532859323, -0.010177430234418021, 0.3380614633882136, -0.4835050863409589, -0.30484069821750714, -0.21262345079489922, -0.028086229271398155, 0.03207403704958634, 0.15177786491069448, 0.381352308877955, 0.36970442677769083, -0.4451334508595602, -0.4425971856794863, 0.014967431747664467, 0.3138820426858383, 0.17735216052289493, -0.2545186441583686, -0.3329915665569691, 0.16998873668027972, -0.438323145597478, -0.46594477955891117, -0.4302674781892165, -0.13326427539957048, 0.17239175757489364, -0.17291014811744004, -0.4328384796693765, -0.5877818255350867, -0.11072178317773383, -0.4155829099285282, 0.17238737136601964, -0.409719049593982, 0.4056782456245438, -0.4002353068470215, -0.11974750483347979, 0.011087676021167446, 0.025049243177386358, -0.6315734054171167, -0.3719200502055459, 0.4902878158193793, 0.42913730916637827, -0.44202193759319264, 0.24027551495014562, -0.28895094057913606, -0.43530306474496316, 0.3654180250374661, 0.05228342584649486, -0.6570458862732518, 0.13193696445035397, 0.13264107259736047, -0.18136810179956017, -0.34338199261620983, -0.389333652445078, -0.6112123990638144, 0.1258933697226962, -0.5694294378057086, -0.1914629445185419, -0.21333917857596155, 0.3864547237128051, -0.3631880190547273, 0.17632487325300644, -0.20423191519213818, -0.6382776440450713, 0.07557172031732014, -0.6050191536785092, -0.43925153216468443, 0.24116377906884837, -0.14438498467996244, -0.1979932225755032, 0.43630003168868775, 0.3553266463672577, -0.21138826793988422, -0.12422620955789751, 0.006780550104296108, -0.5735984795114257, 0.11380797019954265, -0.26874191975593553, -0.17098855616677927, -0.2625369894760326, 0.018296891684564207, 0.04770756283536692, -0.03349844728638409, -0.3089939608807999, -0.21386024961794212, -0.34612396188269157, -0.397770479691715, 0.04251974767811593, -0.32837647041844825, 0.2845372808976723, -0.38010070831560433, -0.5420348253631873, 0.1079107213812944, -0.2665818553940135, 0.20162804159903644, 0.30768939243648025, -0.2882043356132291, 0.27764454445345293, -0.49931471382592835, -0.4123109811916289, 0.3106604875140092, 0.3267426794739461, -0.005167384086850903, -0.09405538716003586, 0.21338411196152088, -0.03634294170368566, -0.26052091799581883, 0.4449722378173411, -0.38872840476833637, 0.35076209936995467, -0.19625035608778674, 0.3072228767666565, -0.2790488145372836, 0.33657104470359206, -0.0638158682421564, -0.1590222478112719, 0.036581750109858396, -0.2934994995940041, 0.2036193817252839, -0.32554498633995177, 0.1439827291931498, -0.5060108326721958, -0.17548331227804811, -0.05700976604559152, 0.3771537131661223, -0.009360700703156083, -0.4222408629722932, -0.1379226280742337, 0.10344677691908477, -0.07251122828609156, -0.24399958910350056, 0.38904625592739145, 0.14559671306221397, -0.2393685324044859, -0.28840845302224677, 0.005183958689940976, 0.19130400668186995, 0.20322396742286977, -0.17314106672764573, 0.3228586572442145, 0.23990441800618506, -0.2843384716880924, -0.1383763189735039, 0.46818013023079746, 0.435937472655086, 0.33178623319016826, -0.06782467485093742, 0.14653541997832606, -0.08628988321701743, -0.12590577882133436, -0.14426050018329992, -0.12719282153496939, 0.08860407825538781, -0.03253207371429497, -0.11446320643886922, 0.11322329564901212, -0.019288947961081562, 0.18468655773103204, 0.38677326988267485, -0.41177294978841666, 0.3018300914404111, 0.05319810828970428, 0.11861556340723856, 0.1520529692187309, 0.49417155728739875, 0.07123000633549328, 0.2667182973506296, -0.2444073152288995, 0.4473685960185665, -0.08484047652105975, 0.29626784958150665, 0.13996883204324448, -0.4042389593767121, -0.2287741099631953, -0.1795166858966333, 0.25401343932432247, -0.5034304265878123, 0.39177495531495016, -0.0042076016849060555, -0.12310354620220151, 0.3391165738947068, -0.14486608018992053, -0.48532054798341556, 0.26459497935557763, -0.00912814754197546, -0.2520065021932073, -0.05639726233079385, 0.13210182879592505, -0.15855918857838736, 0.03550407104890647, 0.38763629501502983, 0.4744099678105894, -0.16475583905464092, -0.21661665316858747, 0.14961025591465402, 0.36574463952355174, 0.08735341325578368, 0.43090501852607715, -0.21365513998831762, 0.37014147386992213, 0.004399756066222842, -0.19207336146909787, -0.06761477101321814, 0.34148762366077645, -0.09029055003559353, 0.3838605847286847, 0.3346489252078195, -0.013546123016764633, 0.5262777226783485, 0.5140067704344283, 0.40245934646990783, 0.23213510329871587, 0.36801120158461087, -0.3809025874930109, 0.041495936122864854, -0.09736659115741259, -0.0002711928339413202, 0.14908461043737098, 0.059462191578946055, -0.32594041177946015, -0.11962384494679122, 0.14862710426854203, -0.2238952289801885, 0.07319468930597083, 0.22597664988665908, -0.38270341469033553, 0.4797902985586004, 0.037852754758581776, 0.4491319317384901, 0.22375996303297657, -0.08388465064299053, -0.18989036698756442, -0.2146710475859094, 0.38632067847046503, 0.016695789293154004, -0.04694016028554618, -0.2696383960454239, 0.3623783365035423, 0.13818892844967498, 0.006068284151161319, 0.4203567248916986, -0.20837535172932173, -0.15787439702506295, -0.004750103663739963, 0.0936480129282418, 0.3391162180562334, 0.0052418901472529285, -0.08308943446055927, 0.1643267896748129, -0.2691822417454024, -0.1453523337054547, -0.16147570809458356, 0.45192081454315036, 0.26277235236409774, 0.38385145378899577, -0.3441583063159837, -0.33875247570158945, -0.2629946417724233, 0.21439339416679523, 0.05772556454446712, -0.2737725562923272, -0.4061006636858126, -0.01665381709102979, -0.3306282360494117, 0.19414244861458813, 0.215135895561822, 0.32266452940121176, 0.3619776916343759, 0.42536243290914794, -0.14229788878013971, 0.046704329521692706, 0.3247471482842195, -0.04732724110091774, -0.5566480034953687, 0.1512406691905894, -0.019921240159058405, 0.10990852504594298, 0.036365173476226434, 0.2607760747370881, -0.18615639089998065, 0.39707105089421924, 0.16214995888600978, 0.16194908213085754, -0.3002096221116347, 0.034403527144316146, -0.38822524602959346, 0.21091151552788234, 0.21589593488363643, 0.31157272907255384, 0.4120951306140361, -0.17557715267587004, -0.11250718597777008, 0.20234202790778297, 0.23920391584565603, 0.287802398321226, 0.26716852062040536, -0.45354758469163914, -0.29362997710348687, -0.004284434231343016, 0.433315018529315, -0.11901645073850325, -0.38017062525591316, -0.47025663464321965, 0.10912215369396387, -0.412020964391761, -0.1399998380318382, -0.003474569162820936, -0.24567355571514912, 0.07125792794622521, -0.2902143564231428, -0.28407779088728635, 0.06383188154445729, 0.10368516700172066, -0.012327754225132942, -0.3573782222513002, -0.19056409639905872, -0.18369574745430212, -0.33407079228254377, -0.08550000350559685, -0.23759564454912077, -0.19096540236499288, -0.3622140054494088, -0.03050090213912714, -0.4202907732650513, 0.04901054944020105, 0.04579005912235027, -0.12952529124621304, 0.18307821006149425, -0.2952620334079728, 0.4340012383546676, -0.19884924727659373, -0.11158176415428349, -0.18917268081251387, 0.07460699354789126, -0.1561197062944227, 0.2122443780404968, 0.03753048130289378, -0.13802066730244503, -0.11846221066196452, 0.22393549765174686, 0.3691862492390337, -0.19289344579573542, 0.1025250979002903, 0.04771198807742381, 0.023893964000317364, 0.5169014031744178, 0.19452387932552306, 0.027283187930237922, -0.43834754068770126, 0.11585277653327065, 0.47552856602506366, -0.4180793974135867, -0.16937716504797462, -0.3502504306858018, -0.4332494938252685, -0.3052783451196252, 0.15400319979450722, -0.35963792281287615, -0.1875686076925884, 0.18352110758752144, 0.04251110806407316, 0.12146327755936065, -0.07587607168181604, -0.14573336826812383, 0.06934003175471715, 0.33600275867771034, -0.2560090886938285, 0.22464876832811356, 0.056698530038464284, 0.07770389459645272, -0.02349341675043869, -0.034716421112053655, -0.16550950887043794, 0.4226945315322371, 0.47084896779210816, 0.2275640804605812, -0.12501119826072443, 0.28255673373287676, -0.09046664764024948, 0.3345190270210129, 0.3671687160616792, -0.004016519316600327, -0.358554554984301, -0.18345035743368934, -0.19766853042890725, 0.5007570303992437, -0.2426539377754851, 0.5417081965726869, -0.32453388938359856, 0.2484868891475441, 0.10129812211539943, 0.2528689704485706, -0.43953126982723, -0.04201374736873491, 0.14686606331689817, -0.06910690847727097, 0.29351367797693034, -0.28846295798244304, -0.019550292930639514, 0.4288048445292151, 0.1480617002292384, 0.15379998410195125, 0.41596538483029527, 0.02062887675255779, 0.20920698348906863, -0.3269412692649977, 0.14947094683910256, -0.009279131894051384, -0.3335015800751756, -0.23473813837283264, 0.4913985661570396, 0.15633923043817052, 0.23957258460221312, -0.4670825021363794, 0.5099177113754995, -0.2215134195994593, 0.09997673122864159, 0.0645449252309702, 0.42495192544545773, 0.05677875715770275, 0.3703048439541011, 0.5768519215713432, -0.36520188529288156, -0.21140322835835051, 0.33897240395751843, -0.27768811209717004, 0.16681525158324378, 0.08245372191240556, 0.3830510401473042, 0.035038366151516606, 0.07680603412982304, -0.4939077837736578, 0.40670871816729276, 0.4584465783712242, -0.12077092829086877, -0.4774649603361507, -0.10574577116556938, 0.3772041957361265, 0.30604064639852513, -0.19591412325154908, -0.08964948230937589, -0.05034748985219658, 0.3081470612904917, 0.2088716518322101, -0.4125595834489803, -0.23494029952376813, -0.47655816143335367, -0.3692702132830145, -0.18405406526282775, 0.15273354360888564, -0.10469967390033869, 0.04338622635299242, -0.03916560722546459, 0.21431142655203578, -0.45741581129596476, -0.11139804681650069, 0.34373454594881636, -0.07088662106548714, -0.21475996203968997, -0.46863343187742384, 0.41363906612290346, 0.03407547492665586, 0.47454171166377457, 0.2698560854963302, -0.34882805207220835, 0.01867900044806492, -0.16293380284243608, 0.3658911844706355, 0.14875634639749916, -0.1214181805891044, 0.05508908928144049, -0.11242112835789247, -0.17398881044546047, -0.11764316588686781, 0.14586312194211884, -0.08830719562298507, 0.21115525851532074, 0.04251034932236004, -0.4336071983926948, -0.26415623885894873, -0.20628609344880422, 0.029535133165652854, 0.13781697247837324, -0.056169160637339476, 0.1447500838988848, 0.07510204532880597, -0.22704796354619539, 0.47491307369418834, -0.19726368123668636, 0.3428209054851631, 0.02211085327526663, -0.3770308677773241, -0.4576807364388955, -0.1747170080386642, 0.20296076473132396, -0.36602850748819393, -0.20144318961373597, 0.27178345298121764, 0.3024266350736542, 0.30700231122560917, 0.26953606940869834, -0.263628674704634, 0.15705050005186172, 0.47705995349185326, -0.3769135304158867, -0.3987354940086938, 0.1993941830883268, -0.21407826564968424, 0.235759013887759, -0.3191190343470318, 0.2198691285436437, -0.39255681028051526, 0.4957115106442481, -0.3872108641440235, 0.23113823469000094, 0.4983862115963479, 0.12944518509683178, 0.42406449476401165, -0.1772010717673227, 0.3237374642112225, 0.2296386025086532, 0.09017339372306754, -0.4178593046970285, -0.09823242144673923, 0.176445882870445, -0.23144474529820463, -0.11727795969315485, -0.36741598305547796, 0.43959758141646077, 0.14621534931655927, 0.044260173790080744, -0.4015272202971498, 0.11682208096242307, 0.1314288154541496, -0.3284929381037912, 0.3416469551433017, 0.2621270217038726, -0.45092458982231226, -0.3247166752475596, 0.4897427156438788, -0.11866599945732191, 0.07702946765281024, 0.2500508925538862, -0.26231188217450374, 0.07259527577027525, -0.4916844158368051, -0.38008355999429044, -0.12903371272684494, 0.32399657960133244, -0.23830444441945275, -0.1452795546384055, -0.21492710131903592, 0.18755566364696444, -0.4723057708778834, -0.10880427676230463, -0.10364433737483664, 0.1122429831711026, 0.46487215597322623, -0.2256622604231403, 0.44320294871801835, 0.20592944574177502, 0.16578742228062837, -0.49479578970304633, -0.22788305257949099, -0.07444346346834312, -0.285204221724343, 0.11282699058400915, -0.05887954119302878, -0.35460312721709225, 0.1270484128856303, -0.0419691922671757, 0.3263751436724633, -0.07457566164412545, -0.37131061935481424, 0.2747407987689138, 0.17389657452906482, -0.376344817084836, -0.1424819943637218, 0.22532546561854896, 0.4658680134763417, -0.49562099012342453, -0.2794229183946766, -0.3848639519953086, -0.2571514906270453, -0.41085311126437724, -0.3729874889420442, -0.5180414148775612, 0.4000064850924664, 0.06637017501746337, 0.4065130941595346, -0.019977457162763064, 0.4491937656994168, -0.09059204852739246, -0.3264076438088978, -0.16787459374168945, -0.3064479190203612, 0.49134605004895443, 0.21670596389337374, 0.009576143912390273, 0.4003255547060554, 0.4365430882489193, -0.07067783721133743, -0.3580539420774469, 0.48783863403508654, -0.06007221938498207, -0.0601756884486694, 0.024442205288799434, -0.2648268432936836, 0.10136547714299954, 0.3325734458440261, 0.23480999173917305, 0.08555065787415762, 0.06946862801869878, 0.07160555392463859, -0.3172057681669997, -0.37720459797006683, 0.054321554724445685, -0.5240070588799821, 0.15021352551835682, 0.2651797256939326, 0.2665509263410654, -0.020818729456565804, -0.05413860324723417, -0.4171619001674426, 0.5974304494507752, -0.05351369256167553, 0.12274437771298276, 0.05970755856785011, -0.03886567481217112, -0.4487500269961211, 0.31893571113389346, -0.08814916864708566, 0.33603643806533257, -0.42185882424779453, -0.29551628273509106, 0.4470257170375786, -0.2679206934568766, -0.37648499936921703, -0.44499575632329436, 0.1073879645880602, -0.23934209107216708, -0.3321028043493567, -0.34826681857983394, -0.3975575400232905, -0.07764638579512491, 0.1672095207895625, -0.3050801652272323, -0.3745890997492482, 0.26980511086001, -0.13599017936561508, 0.1231768670940912, 0.14256672008674567, -0.34886615400630394, 0.28285585486509607, 0.015967707837380978, 0.3110494118202921, 0.13090954717935957, 0.07556242336097836, -0.3723560257381173, 0.21801718652448843, 0.30040526265704726, -0.2626840445421039, 0.12979683389796134, -0.04972728249627235, 0.30194979455635795, -0.4598370561994145, 0.128397632917352, 0.12017708427306859, -0.26947171658864755, 0.310405817129002, -0.1848380588215303, -0.028573586569638685, -0.006880912341498096, -0.3198588524996156, -0.032219671814898584, -0.04053434720571991, -0.054995943683467864, -0.017186426655757706, 0.08885456356598394, 0.07015710335617639, -0.06614056416943297, 0.43542143152144414, -0.2080290962494227, 0.21476849387662725, 0.45843378965553105, -0.14208213695316696, 0.39126438519561596, 0.13877400240228957, 0.28972151318877826, 0.15594571754085512, 0.1110361317043417, -0.11306435935600961, -0.21822229201430068, 0.22411652229278042, 0.008111984525429217, 0.3043619118854389, -0.4111552262703887, -0.045239725473949034, -0.012425794338268676, -0.048693507133218586, 0.05358641126953365, 0.33867176087203194, 0.0623227253627217, 0.05783393569563808, 0.16026682816523707, 0.08155738303599284, -0.14719343548752406, 0.33322110223474766, -0.36898575096217795, 0.2220493241470904, -0.1735067517778624, 0.045928066781165865, -0.06555135196480827, 0.2025578522621818, 0.42171148554471144, 0.002648024809074299, 0.0611627638914182, -0.43486734431297275, -0.08114387885641085, 0.004791284331276403, 0.30701181689830426, 0.42005772922104156, -0.07929612175102775, -0.05339111104024667, 0.1733664782245499, 0.3132736452231853, 0.28782206700690244, 0.06860480060020802, -0.25112597874515147, -0.07410553988261429, 0.5053163094835497, 0.1772028182217077, 0.22291043741808747, 0.32739264950487174, -0.373635727979222, 0.20974028477304235, 0.2938702098499871, 0.3157367089772232, 0.4057076492296455, 0.36446515889048337, -0.3087953680836501, -0.009851676943099854, 0.1220111136872661, 0.4370791420751262, 0.27095492452297676, -0.05218215266613881, 0.43971453136976074, 0.0465604978792408, 0.2159638534865536, 0.011569129862610569, 0.4277086015527967, 0.03719551198298802, 0.28310034489904395, -0.22889627263065893, -0.15618012650132923, 0.28159339491119756, 0.5050988331359128, 0.3567928950772844, 0.27474093310087927, 0.36714552913341647, -0.23968332368476547, 0.1793122474449, 0.5187114656007608, 0.3402760415123552, 0.3812025494660911, 0.2336305857398389, -0.17289667186743052, -0.21583079557484688, 0.06879736060241683, 0.3978072970587666, -0.13757297293836765, -0.22895737057719467, -0.000939876613163358, -0.34889674802585624, -0.32875674824979323, 0.033995341888924675, 0.5351814266113997, -0.2869459624008529, 0.26508935374625897, 0.46774646696194855, 0.15430080509728394, -0.006318808829254642, 0.31425313747008743, 0.39493684505042304, 0.16404815513439253, 0.5983769874955653, 0.3588256529270527, -0.3622455300198012, 0.2388782534644347, -0.18300748910870104, -0.20596662250891234, 0.11638417265774474, -0.21675538853186616, -0.38848720372052986, 0.18825821194416145, -0.3354928700918878, 0.21234620459028408, 0.2389421803717456, -0.42610381239890416, 0.2480106507539043, 0.4841918043869542, -0.3069707828962785, -0.07144787208332541, -0.36539027559329934, -0.28948457650526754, 0.027286166184875303, -0.12303826910805006, 0.2878942052730807, 0.4707407008967738, -0.022006771514544898, -0.04754441398579931, 0.4427891998181471, 0.4988609891337249, -0.2094366466818, 0.33896777193283495, 0.12886838515164264, 0.017198992096878193, -0.14415197658604806, 0.2960414931043633, 0.4335946368320723, -0.4407463949114782, -0.14374239532684388, -0.04678622435897653, 0.17335756377635486, 0.45892496249573206, 0.25603036591419975, 0.00783232304100829, -0.37408883189849346, -0.2592088820555261, 0.18434062130667395, 0.1202907633331734, 0.2127342483013548, -0.024397831122254496, 0.4454580298991856, 0.7254527016991676, 0.4202401308986532, 0.3294528117023442, 0.03724557608516267, 0.28931714020058585, 0.5375034501976075, 0.3624151904319154, 0.20079832599042138, 0.06939116035007897, 0.3102875263086741, -0.22047800761422087, -0.07166843754366764, 0.12281308287799986, 0.20857526758481548, -0.11840950677259286, 0.3919067151497656, 0.4674046432530716, -0.012729498791116843, 0.37769010297890543, -0.3981595462413037, -0.07022694454348627, -0.017214562055935988, -0.4227952418216198, -0.07788543378080703, 0.17566212722149663, 0.09422182196254367, 0.32731287907045564, -0.08373060213556045, 0.15122956839478566, 0.1290149159657542, 0.03640227654060671, 0.16703229865518027, 0.18539696152195967, 0.3035064320598102, -0.19278804927294174, -0.30461928595280524, -0.5775675703253179, -0.360869925503537, 0.39233288972852703, 0.17830323907820747, -0.16211462250396286, -0.31951820763657435, -0.09949716543924678, 0.5946673411472548, -0.30262481337808, 0.3453174238570318, -0.32121777989647976, -0.006243134126402159, 0.25505329480655636, -0.008194318945672647, -0.03290990723617812, -0.1667089909912916, -0.2383106232905113, 0.1403298711397839, 0.5213569861764663, 0.0599308727577276, -0.051382177084758826, 0.29190618867243195, 0.378185693030706, 0.3803261064114505, -0.30372505357407537, -0.5054485444655287, -0.16583355008448936, 0.00923113113580728, -0.33405714127022185, -0.530829543076265, 0.20191231192837142, 0.2570635154615335, 0.16793565004182065, 0.019738828178498164, 0.6033300624845254, -0.06718322487236951, -0.05568586910683138, -0.3170543597814938, -0.2974202560481679, -0.1207309439694284, -0.4699970574434155, 0.15344224039997625, -0.48929344815130527, 0.06537198541482647, 0.09245016220420574, -0.2449772667724754, -0.10721228037340276, -0.09870750061045175, 0.1569185806576372, -0.09797671794347622, -0.30310766413852624, 0.33207880044006144, 0.11295865625168083, -0.012498279898841232, -0.1813622352549632, -0.3677616164505244, -0.22682848847819634, 0.37701528064074874, -0.3537877229176048, 0.06774890652387945, 0.4076459730684866, 0.49788146178998594, -0.0013798216036361012, 0.209768603840226, 0.4867436755293875, 0.2355234537847523, 0.23475188096947264, -0.08243899065706074, 0.12501719310294798, -0.3679736636807804, 0.3606475464033647, -0.013075603292458724, 0.21184296037542957, 0.3921663571885102, -0.01870526069956572, 0.3559040527126057, -0.2953582197486241, 0.30325512212243694, -0.2182681072237776, -0.228455789553343, -0.1576628404494222, -0.41562059455303, -0.5067595922398606, -0.2825416553971053, -0.5733664471965342, -0.018093758427491988, 0.35121962608182444, -0.060418515486837535, 0.08796285097611493, 0.3296315742393171, 0.12239649707952274, 0.5860676161592215, 0.08505071624791229, -0.39877011668972534, 0.18824912007421726, -0.3774387903287473, 0.2727308317171527, 0.399513761344912, 0.114372435306143, 0.19106290858752167, -0.4325014288913877, -0.12705850894855308, -0.29372031335671606, 0.3188882952125682, -0.42770244669252727, 0.10339549558510654, 0.1802870827428971, 0.31633723056182045, -0.005349319747471526, -0.5511043045057982, 0.046406304159828986, -0.49641480644734864, -0.10355809691430573, -0.36573671282998116, -0.118641769551444, 0.012215978077084284, 0.5328041890948548, 0.4104687453680051, -0.006785987527541977, -0.19131229624230608, 0.3647814524987005, -0.16044937485500044, -0.4398715304119421, -0.35805760936262915, 0.1649025979255392, -0.14267806759401985, 0.13130616936432238, 0.15718081418682545, 0.0644449381623087, 0.054487200428554615, -0.13856679594542776, 0.31132496455193903, -0.26011761062261746, -0.07207116247079691, -0.2834773384990418, 0.3644741912666956, -0.07765758145780585, -0.688204865875196, -0.6283578770476502, 0.032190265559390446, -0.17335134511573044, 0.4457992283436636, 0.26537132070046315, -0.17669916060116642, -0.09448035321513043, -0.3837320872955439, 0.2952967311250773, 0.0990794085713375, 0.32025174488572344, -0.10337432084065719, -0.17591805789929962, -0.32595057236858965, -0.00832651097040043, 0.2818981041690618, -0.35220886720216077, 0.30351919068635735, 0.09060366977727974, 0.3297531932501405, 0.024097726101810553, -0.23702374186765268, -0.18466556705123874, -0.2161781382579314, 0.2772852066496736, 0.3028214399738088, 0.11984721170764737, 0.3560290652118237, 0.11703526424849454, 0.024878412011055135, 0.07566579243110626, 0.039814477234892384, 0.37697468360648206, 0.17782631794713905, 0.285840513123043, 0.09313022402371961, -0.1911524530256667, -0.009095277926472932, -0.4414209233362539, 0.09216850930564303, -0.3634524566685251, -0.3854347440334162, -0.46562126750916977, 0.18254526235964597, 0.203721117665158, 0.2839690227727037, -0.5216906079138734, -0.467953586158365, 0.039340086797874665, 0.09020312919890022, -0.15046516700141832, 0.3410421735389078, 0.45304629738048063, 0.030468157653305742, -0.2039062170525868, 0.547744300050216, 0.010594753389508679, 0.31643841554019786, 0.10132002643934723, -0.04847602341757106, 0.44067675113833593, -0.281130214620883, -0.10463615356878704, 0.08700833318776119, -0.3614220888715945, -0.11965437283170724, 0.005202920102617014, -0.3328443353154544, 0.04648239513741072, 0.13900176108071546, -0.3609020916930922, 0.3183784836998753, 0.33677266687273366, -0.39480058024609666, 0.3111659496136379, -0.22548413247047844, -0.05572547121886862, -0.34313979935779004, 0.3419385056499097, 0.015730993544801994, -0.08090023896355533, 0.5649472750258773, 0.040266964260718886, 0.6219592528038137, 0.5006098641490888, -0.16814525896077803, 0.14208607768669385, -0.010128593341831046, 0.11877186181817549, -0.06324272905200526, 0.057928007592822586, 0.07312255031861756, 0.009396988447664581, 0.35267535417297263, -0.4583943288760839, 0.1864919515219836, -0.18151082682096478, -0.2851616615659759, -0.24183951920645305, 0.4053702756603424, -0.3023765811283792, -0.17819364432568607, -0.11208400157907525, -0.27411803489941156, 0.03826493908089805, 0.2582951531023632, -0.49368435684363243, -0.07449233476866034, -0.2470183064263143, -0.043021830031989096, 0.13898518350471312, -0.20784309976944773, 0.4600113534051608, 0.6173762867117253, 0.33471926386167394, 0.5461216792720308, -0.02771301294957988, 0.15056969048359653, -0.15294872840474893, -0.022883971487468863, -0.35576190779277794, -0.4785428474552721, 0.31919239425405305, -0.04758453308657719, -0.4269144714914247, -0.2602826883007102, 0.15349986987811104, 0.09949890677240936, 0.4655951507487104, -0.20628378800162145, 0.21524707403346277, 0.3111525435128303, 0.4010722192242729, -0.0059969875176382175, 0.06947526088872047, -0.11072693670586445, -0.25718432975024297, -0.20658135208119874, 0.18018677053078513, 0.39482222130337047, -0.41298541328530014, -0.03367504928599232, -0.22173076910724165, 0.18555702237908359, 0.022538241158065467, -0.07902198544273951, 0.030713089946830342, -0.4183723335690976, 0.31399422531925986, -0.17139328009058094, 0.4325633715599727, 0.17091809599943522, 0.09245901214399609, -0.17644086002726417, -0.11152376750341608, 0.41038614213756064, -0.11688319291494753, 0.24145289008679535, 0.3046779769402411, -0.4746548856409975, 0.04273700111710729, 0.015215244778528958, 0.290770838587697, 0.2906654667162785, -0.3743504866446227, 0.34011607856524656, -0.4766914242232282, 0.3693113714152978, -0.016736475527690677, 0.1477547573061272, 0.18434884855840702, -0.20464177033875816, -0.25080717087578297, -0.27965925864731517, -0.2118780198088281, 0.08681961313456865, 0.25037965564101056, -0.2297300758153344, -0.11886992376528015, -0.0756600927819426, -0.09188529663531075, -0.37834543400901116, 0.12695019477821556, 0.15107847002860963, -0.45369159881177346, 0.08806008292080603, 0.49002317135312323, -0.44516309372113455, 0.42732170456915625, 0.4769602434024157, 0.29659755175471564, -0.39919940177766666, -0.16001184859918693, 0.3579456751796655, -0.07331438110745263, 0.45683827780899605, -0.2317608868409279, -0.2902346385113497, 0.5549962517900032, -0.033538356386825355, 0.2044221956843749, -0.11089859376654156, 0.44416935066698904, -0.14067749774867622, 0.28532215525767773, -0.4214607979932831, -0.44161894885154424, -0.3159638200974112, -0.34797738662200556, -0.1761157970819712, -0.4761814875516497, -0.06205978045453042, 0.07485798122360698, -0.3492180629012209, -0.4442668065357828, -0.410682350760871, -0.22964553625215825, -0.26777896745169094, 0.38452821415590094, 0.34162185529135525, -0.10648406585196288, 0.06358375724697045, 0.31762084045622646, -0.16291752642026186, 0.013305566915841234, -0.3814094654160405, 0.30998594660454193, 0.18134135229692702, 0.10931796056941703, -0.2879682351629802, -0.05157901283874234, -0.025347074096416098, 0.297540772468228, 0.1890253368955943, 0.2238453723136318, 0.1894387461738491, 0.2511945497431471, 0.37022850440115007, 0.034867485554059496, 0.005687009904290274, -0.13969505166444818, 0.15201503418092677, -0.4578420268939407, 0.4846737500639939, 0.39672045678370305, 0.39118410266340087, 0.37971831158105074, -0.0674553306361611, 0.4878059619744923, -0.27497768327189676, -0.27781884022144, -0.4803087583287144, 0.4901306882514583, 0.2734721911727225, -0.20644116553339475, -0.3931030703687989, -0.4726340402874924, 0.09189960863047368, 0.036690635812303016, -0.11102751503499213, 0.20147279978478008, 0.1687385407633757, 0.442982721422503, -0.18494081048991984, -0.2903385866050934, -0.008571392117482923, 0.15861284668171882, -0.4188071054365101, -0.20282172492880346, 0.3615129747394539, 0.0015522424256636524, 0.1359475533835124, -0.07545814293424258, 0.35186884077702885, 0.228560132125044, -0.1378471418960603, 0.1864794764727008, 0.2164523821868709, 0.0442820454575199, 0.16036204190929326, 0.4988957990217707, 0.2993233015832121, -0.10925287647222093, 0.17436884424806076, -0.012677386452003447, -0.11620541122013628, 0.21072036540682082, -0.28526057652547765, -0.04166689856294137, 0.1246724369674509, -0.23035144577562394, 0.28694461134949245, -0.07424566387166165, 0.32503970111037084, 0.09632678042341614, -0.31922328803495126, 