0.20518427768152925, -0.19759702974892412, 0.2296847615632548, 0.17938905456272214, 0.3053321501976298, -0.17596202568191233, -0.4831828018362967, 0.2853351046091489, -0.4646341040637505, 0.08322883481033727, 0.07154097247215863, -0.19561830399751445, 0.3311288747422051, -0.499756895227093, -0.1798108280456382, -0.3676910065357669, 0.3618776442884223, 0.07473598952457894, 0.21115694573353216, -0.08405374498019647, 0.42901496384135895, 0.36839274980609427, 0.058399403139395956, 0.4918607192129798, -0.34672126164111416, -0.1941188926875278, -0.3573783614038363, -0.20991621912879666, -0.4972151923743878, -0.010302590198958628, -0.34165225973185975, 0.42602518586588967, 0.4966733472758803, 0.08413598663775002, -0.31980225834344145, -0.05868942601835851, -0.2665017486003565, -0.27743371592692956, -0.3777213255243516, -0.27884161281448655, -0.4846626150888293, -0.4945733020049902, 0.27807051228649127, 0.36567178300997105, 0.4951899123688694, 0.2909198821868214, 0.07642475008859158, -0.24768863788601772, 0.046477308639467176, -0.3248427205662411, -0.4958208527974222, -0.3804173226477022, 0.2569354100208363, -0.2454633954561567, -0.487632393806654, -0.2544974024643205, 0.3738892452457956, -0.4495638292384808, 0.1710036271091182, -0.23215106539993335, 0.13058193228630563, -0.4216514119488153, 0.05178101745365742, -0.04879170510176876, 0.061939011855125646, -0.21893214625506607, -0.09733637132095173, 0.3867078924989778, 0.45695433548989656, 0.2992352951846899, 0.4824588076005479, 0.2717781932905529, -0.01823485604532186, -0.18657167817635778, 0.4834362592019344, 0.4246382832511115, -0.1803541963445925, -0.4407577146677836, 0.16173155570002543, 0.2503938326497747, 0.1382609138010866, -0.39807183775573585, 0.18778123792592571, -0.005970547833384576, -0.2218401329845513, 0.07525554611507057, -0.491835422529465, -0.28540229292265806, 0.3196445306895636, 0.33092591612725286, 0.004340125844823239, -0.33230486956587957, -0.2505999569167039, 0.2257277645065916, -0.18643319349003395, 0.013574733542999685, -0.013733408946857463, -0.17872345183141902, -0.12454509792888957, -0.11270722293183866, -0.1633651256375558, 0.16248838774742866, -0.321849949135286, 0.33560051830578164, -0.3831456805285756, -0.3603047704609105, -0.10141837500310086, -0.46000433914589467, -0.1955502906725554, -0.3620617011777628, -0.47638039293492906, 0.40490297061443026, -0.3619781342212407, -0.071261887347155, 0.26766023451524157, 0.2756768946904682, -0.02009454180643631, -0.42668901758072997, -0.39084656912493365, -0.052566113625340596, -0.2876826897514282, -0.27616127353032255, -0.24293510042558644, -0.1839380825947158, -0.4211771403710724, -0.46599784909209196, -0.46253228132970453, 0.020011198553905346, 0.1277322072816334, 0.37320732985445093, 0.32097840060794536, -0.10267971512260747, 0.27701321026656966, 0.01048559637739441, 0.20572450477847487, 0.4487358875825147, -0.3213507401518204, 0.4817202508883618, 0.1499579956838979, 0.20390983519795625, 0.2730248541240715, -0.2782520196335444, 0.0839305117988746, 0.05732068250437624, 0.2532773143260602, 0.07707254108923788, -0.4303105324373381, -0.23589355669595993, 0.42931413699002646, 0.10179058197564556, 0.18751567805550384, 0.16848596775645197, 0.07827577363504397, 0.031127757312199713, 0.22921434064601687, -0.46351581213817433, 0.20980325165787117, -0.03294854427180119, 0.30644008956966723, 0.10326075872468729, -0.13057573309236628, 0.2996005131541656, 0.20684645267710763, 0.4299021186782, 0.0854105814731388, -0.3335500457301428, -0.49137383579430566, 0.3751136389109783, -0.023749345397855448, 0.40432439574080714, -0.34776784507597075, 0.022664164448001112, 0.17967622616313275, 0.36488503142297474, -0.49282912664496953, -0.4553285501982235, -0.14672083529750324, -0.13636189850597447, 0.07172593210128861, 0.23864258507446917, -0.1592634391921749, 0.05908278428616254, -0.008326596456140858, -0.2842775284817603, 0.2743475404275577, 0.4262275138635675, -0.1457558182155269, 0.10443868065315179, -0.2790315930870113, 0.4941297976711845, 0.1861514367873572, -0.22973103367089112, -0.3480806743608761, -0.24532393697665036, -0.24544242744151182, 0.3712761804307463, -0.18104359669888173, 0.30752400188563017, 0.20852691951992786, 0.40079229924932075, -0.26140708769953364, 0.1033707387607267, 0.14104121176587972, 0.0589125306022078, -0.38419283192262443, 0.16183503010890007, 0.30559787206950745, -0.3542466265837092, 0.17893666983440557, -0.0579449746248506, 0.4001909975816242, -0.3313415337434815, -0.20111542156718004, 0.516854100649893, 0.22528733948104068, -0.4300470800223976, 0.2291166078140592, 0.023037758345492414, 0.03898594790464469, -0.3201334068899378, -0.4752495657143242, -0.053738361405316765, 0.18237376031058478, 0.39878610196157016, -0.016108674277560495, -0.02150607577169134, -0.3031974315187047, 0.4822296243764769, 0.43297340391403033, -0.4752132946235534, -0.4685533840091011, 0.1556953127322249, -0.019473845109366943, -0.2963482126475207, -0.02042781656853214, 0.05456439736066326, -0.09458857147337657, -0.032500771714487335, -0.32702895058202747, -0.12304663483801, -0.3252576845025158, 0.10704809285155696, -0.19733356567745627, -0.028700122506145027, -0.16269993834597937, -0.4317177238250752, -0.22815359107691405, -0.3170476833043341, -0.4311021292030937, -0.000965032455090004, -0.2709332416634645, 0.4909785025600993, -0.23853897240571773, 0.020747624615081287, -0.34454493301954364, -0.3850406878320535, -0.07780603558050198, -0.3290912445079403, 0.31365987605705253, 0.2734936998588081, -0.309109174118344, 0.15221081156283373, -0.06207432964982659, 0.08094204917937357, -0.0035640708284542734, -0.3914704187529502, 0.25213295123420365, 0.2533210285197423, -0.3322505199256164, -0.19069722482148485, -0.31487055829947247, -0.49963477842836784, 0.10070794277213896, -0.020593397413343567, -0.4092731755407645, 0.07029547180505649, -0.22990757843287238, -0.3944362066188259, 0.4343696828189031, -0.25389293399362445, 0.24264040759096417, -0.18489207928060308, 0.3960119248378656, -0.017507285092270442, 0.008418631861739957, -0.23519744684420532, -0.4335592131096414, 0.2727823747454723, 0.4522421033930542, -0.36510737557765166, -0.23607049020998588, -0.0008422769390872585, 0.17276049903580493, -0.22076307168945777, 0.060670613132214925, -0.09277411650127915, -0.4368810830789164, -0.14124686815848514, -0.13085565174428754, 0.03669050075283357, 0.26339332015025124, -0.2622256605361598, 0.33546207395862726, -0.23646038734799743, -0.32843785802560005, 0.13128234566842464, -0.3889201396464129, 0.3718929203668652, 0.0643566773054235, -0.3962551283913855, -0.41039670032531894, -0.21252898062113282, -0.498073928022133, 0.39685460514403487, 0.41673699716291834, 0.35125285734850176, 0.06574559626333885, 0.1465575095713075, 0.09085333312827015, -0.217013217919942, 0.17387810608521306, -0.19789993011710083, 0.40948875873605783, 0.5076968154439664, -0.4002019272853839, 0.020032619989786185, 0.42452614687244333, 0.0823960166539467, -0.29812737844014364, 0.48960259086825064, -0.3205750839299644, 0.16160535902130285, 0.37131613477225967, -0.47772018015300555, 0.23704592656936468, 0.3408445048244503, 0.10325601503744741, 0.4333267334326789, -0.3758548651829284, 0.2103425575777833, 0.2701192416834052, 0.4535194849715441, -0.4283712667367616, 0.06776652838673847, 0.4771266917859106, -0.04857614409203372, 0.07029718620719572, 0.3740632595099738, 0.5803753462670416, 0.4671141229678504, 0.596564887829448, -0.045599162099064526, 0.5168794023941821, 0.17116136930716114, -0.11945882094137918, 0.17386414759202304, -0.0768427142491692, 0.07861491606255472, 0.21212297458331444, 0.46927873341876625, -0.11426438827482639, -0.40434795023993375, 0.4833081350761598, -0.4922866418356262, 0.031371241156868956, 0.3563518683210506, -0.23809000862229857, -0.46452153296870075, -0.2520033765423111, 0.26754006784823176, 0.05537794438635663, -0.16111346028252588, 0.1754902031822825, -0.3230975395472789, 0.3979195830149734, 0.40037355113522033, 0.23380935377943687, 0.08141426932646818, 0.3723080699477901, 0.3867442644332524, 0.15991619197679033, 0.16375035618926267, 0.006236153495919173, -0.37611132314753065, 0.29769988812157766, 0.10342596529050183, 0.23409579698166566, 0.5084284574427432, -0.05288903575243246, 0.4532320778002927, 0.09329524536981922, 0.05379208982696704, 0.3957860085773782, 0.2509611771395498, -0.32339539187877286, -0.20336694648354994, -0.2693166640362746, -0.3795853990085492, -0.2115355110015104, 0.51427200495809, -0.3796288765502105, -0.0706104040309639, -0.19526995023566035, -0.155847991561548, 0.4174800053351672, 0.37693704600099515, 0.4736571345048133, -0.2203780684609786, 0.0966116190991288, 0.5025164798721992, 0.17466222043653581, 0.28449529106808896, -0.1017090882794528, -0.44986506579401, -0.21204449990696436, 0.49155419618236335, -0.37764423386240825, 0.33269503007548046, -0.2663934085559337, 0.3154841558724685, -0.23364732558603662, 0.014860299299407687, 0.16710961686897735, -0.3197386551968275, -0.40189797736454885, -0.061988459542543235, -0.21043427577793647, -0.3484434124456282, -0.04527796073136744, -0.06359615143605007, 0.39742062394208644, -0.0372638784404946, -0.3794265334690867, 0.03605745507539235, -0.061584318538400996, -0.017624856164214376, -0.051082526227618094, 0.08092473936035807, -0.24605259087112907, -0.03351559803250115, 0.09543311909647745, -0.14637584346549068, 0.05796017187647822, 0.4323477741822997, -0.1988975034683285, -0.4461380037846943, -0.38038395268324815, 0.3243317185165279, 0.0896182150119309, 0.3220304898013028, -0.43924753874563227, -0.29198141789972015, -0.16526032489716752, 0.38652748821017674, 0.06113069814560938, -0.16364221465136938, 0.08745659165183389, 0.16975814640709694, 0.10736670097677861, 0.06961029057714309, -0.5140523450062349, 0.1502228521245309, -0.39545088218892627, -0.15357904262943176, 0.08441193603003308, 0.2067902571240368, 7.28384017342242e-05, 0.525438495781866, -0.25945536089867, 0.40753426662350395, 0.2622586272241197, 0.1571600316538693, -0.191369969621796, -0.276396115867044, -0.363590564367684, -0.20933543314377717, 0.14323675100290822, 0.46631291684529713, 0.32105007129745494, 0.19049833293788043, 0.4533733745620391, 0.0007012269811425327, -0.17970565823262669, -0.31309302238862613, -0.2936256940042348, 0.20366039719445297, -0.45015606572295397, -0.16530803887247653, -0.09348046686271327, 0.18025442784642823, 0.11562805254628765, -0.0384226184224548, 0.31921639485558745, -0.16354588178861726, 0.24331057035416062, 0.4847568341314078, 0.15319630307933232, -0.08513936058813576, 0.4249433926316911, -0.01802853863107623, 0.15772915387646602, 0.28294762676035706, 0.19948061806895465, 0.394319660615938, 0.35140706859278414, 0.13075947082609482, -0.2556864352216293, 0.18076307261820124, 0.24153862856304922, -0.18850354954323997, -0.15073798288128518, 0.21954688537226788, -0.06527592024113661, -0.058861471702842345, -0.5297303998228264, 0.10024215546925735, -0.2957558727843209, -0.0792330350592542, 0.08157506044250391, 0.17483635275061296, -0.2946189388118422, -0.0902928322308458, 0.32930655980719364, -0.16140355879027124, -0.38336173945619906, 0.2681143300158839, -0.20143899872740276, -0.3143691824739681, -0.4583012954054177, -0.10607632804038411, 0.4679318386926997, -0.3329529333836653, 0.16758096910464193, -0.12993493609977114, 0.04426377474877242, 0.14135039753439937, -0.06508377808563402, 0.067024167595878, 0.19238293344996762, 0.31278852220193964, -0.0542201611497164, 0.3198612352463088, 0.23907660759445287, 0.10896772773460126, 0.2180889978239106, -0.39189213218844576, -0.05791640992609011, -0.3577397482051081, 0.014913190023473442, 0.17865795563498674, -0.3914935299389364, -0.37161708664613446, 0.4265432312754777, 0.170078688916219, 0.3958106185567885, -0.3409357139023583, -0.06516354246744116, -0.3887822397843455, 0.39385300267954787, -0.38396243130549085, 0.42464218770368123, -0.4867101199129307, -0.3678360381092675, -0.008277318982242788, 0.08499616228506421, 0.2778699440236995, -0.028532116217131684, -0.23328974674133868, -0.03724020782836249, -0.2210967730877705, -0.2910087649238473, -0.046736261963217306, -0.307106078926725, -0.3853226929865921, -0.3533145531591346, 0.4437355534793763, -0.11970315406330205, 0.11984395344990267, 0.5258070384182458, -0.2599359515797619, -0.3661858935826713, 0.314635542113885, -0.10250284705629932, -0.36749991836344376, 0.06978471423973774, -0.3716347606459992, 0.4263178670461802, -0.23904849499725678, 0.02787028294644789, -0.34237836024149126, -0.39784626348933944, -0.04681952271676867, -0.08028258987840091, -0.332371072053299, 0.19938048157276192, -0.32838446449578057, -0.20246424665832588, 0.4096001820429662, 0.26413407172849934, 0.09320883219062479, 0.5396078739619458, 0.5011039160382372, 0.235144774198446, 0.1291352509676837, -0.30875994109725946, 0.2398287067642288, 0.29681607953199135, 0.1495131145533894, 0.02957474790689738, 0.4713706209176235, -0.4986576571035653, -0.31232858413057446, 0.14666677553180663, 0.21874011224859066, 0.37970622976488794, 0.37088480477932906, 0.14374562975450278, -0.19993381608725613, 0.0955218690311917, 0.3721870467173388, -0.10714335514942484, 0.394816815001581, -0.14610516227141854, 0.055981862096732185, 0.43926142280291625, -0.19667826899811128, -0.12709309757292436, -0.18385948058996304, -0.22492757086023055, 0.3513540436392619, 0.03471534362483525, -0.15996483561070343, 0.0462922937366567, -0.16865963962161126, -0.16784847089002233, -0.05901808043960101, -0.21670887163746017, 0.037692812878590366, -0.26667750506990184, 0.05497612000032268, 0.26905784341848865, 0.18750886532571143, -0.10180024638893191, -0.423704127830689, 0.3003559226501149, 0.3290806026677514, -0.038647720815483885, 0.009911475229669625, -0.05574191483767548, 0.06524984183520438, -0.31732895254431753, 0.2374553464674705, 0.3498223958636389, 0.17182044117698175, 0.010462721545967226, 0.5739511136254924, 0.12133744907573901, -0.1471850422988709, 0.09080836450369104, 0.3156025241742111, 0.5100973433217308, 0.2109296662307157, -0.233006890139786, -0.014526340669232463, -0.29323762697739636, 0.26069532284323654, 0.4641869714045164, 0.4332674158580696, -0.019096915798296313, 0.37111535395645207, 0.4106991435740815, 0.3685401419537938, 0.06277374567101834, -0.3233404815298103, -0.41787542991157345, -0.21635137324336529, -0.4840440429480166, -0.4388510966505369, 0.11837347353540942, -0.3364485006603589, -0.29456819436882736, -0.10037069503303739, -0.029154553140686167, 0.1578822119313134, 0.4334194853408253, 0.02260343096651213, 0.40876535995952645, 0.3808727426493536, 0.32275785055549505, 0.06885628010393208, -0.16370490471286003, -0.3286651617422666, 0.25687074799791165, -0.12907427701546037, 0.003223330414385019, 0.2879176459829075, -0.4075363294674122, -0.4531218918045126, 0.2075598491966123, 0.4174208363571009, 0.2786442763271536, -0.4502661926525273, -0.43613809552326077, -0.4116938061155998, -0.13579273536941178, -0.25737494873155314, 0.23662866479227962, 0.2638117356815372, -0.12752291249140688, 0.13426694097426914, -0.35330139058949195, -0.32151735143700466, -0.3972074252226295, 0.3004025195362957, 0.10040535970942174, -0.15631778077974307, -0.31138574575724665, 0.4451763034446019, 0.25934745377694984, -0.13848334217763966, -0.4875737414353827, -0.4421251311313519, -0.44216814522424513, 0.14847359022229017, 0.0496009409316628, 0.188395919497382, 0.15528165143634665, -0.15730013873471438, -0.11466971096003342, -0.1994604800093459, -0.43452780889683107, 0.22144534844671446, 0.08153737582105461, 0.3686616658647601, -0.14294593936142083, -0.49105484750652967, -0.17158117732304928, 0.4082200876304287, 0.021418036062561263, 0.42940418448523165, -0.238945426147192, -0.27368651253158827, -0.03514009090117379, -0.13869866845966636, -0.3929391431394717, 0.0831102083455303, 0.2258011802510477, -0.35089600417667494, 0.12713353727456034, -0.33520933379682377, 0.07458707972060252, 0.10691397456868008, 0.2896505765406019, -0.04735805370492596, -0.21813703497490777, -0.0073193035668268625, -0.23748266037497967, 0.35300654339785453, 0.2630324007578041, -0.46971618467368936, 0.13910475953884827, 0.0665425046664393, -0.4543922927177579, -0.09065402854861743, 0.3588963559916394, -0.4507251745426979, 0.4174967392187282, -0.17853543478040654, 0.4491801540566409, -0.4189427397737269, -0.35968700761836975, -0.23574607166528638, -0.058996966349935676, 0.24068764237190152, 0.4120343336787405, -0.2070470338031442, 0.2872451359691068, -0.26509091703222665, -0.3620369603083926, 0.06276715136815036, -0.35618249160270987, -0.03537409747538944, -0.09575980937801165, -0.45407784651478034, 0.4885535434145605, 0.08741034774121548, 0.09320297261278954, 0.047153173734357456, -0.3768751032562203, 0.11012375925950968, -0.4954514825795776, 0.3750873963434489, 0.47879584738927705, 0.28150306856823126, 0.07474438684266416, -0.2572976438706408, 0.025881839607814205, 0.3522734076350147, 0.07164417538236234, -0.13670307662790404, -0.2774387225958823, 0.21942922264796927, -0.18964482867107701, -0.29701221080867213, -0.24999546534216355, -0.4314191011783559, 0.347209629584886, -0.40837299387006964, -0.028008348731625166, 0.22810358503678596, -0.44224430411458737, -0.4902869572707129, -0.16800644321669134, 0.019183300618887178, -0.31617054324244764, 0.27912842881838584, 0.45435837560407055, 0.08800854475537745, -0.21001234014813353, -0.10129367088987336, -0.3299736554775753, 0.0443316207397734, 0.06649719693334227, -0.0210560842049563, -0.06806731440430307, 0.09267652341918707, -0.4399316310478613, -0.07820924212195685, 0.0003248537146366887, 0.2393832424394287, -0.29987052286166294, -0.24123138439303546, 0.007099353203028352, -0.08248903624414934, -0.424011304257847, -0.03572516752048092, 0.14785044969632777, -0.11903914344449984, 0.3735074200730075, 0.2541875030993693, -0.05880673802749692, 0.33856422595956326, -0.16663153671658504, 0.052548629929931256, 0.457321200352191, -0.07999005537299396, 0.006955734920992503, -0.11881631919465056, 0.32352559651378476, -0.0652175344050389, -0.4153343464036086, 0.38988176209686703, 0.1431760092718567, 0.04925733083056872, -0.41993091536652954, 0.10019113469272312, -0.0072313436141276406, -0.1463724312959432, -0.31697043069718095, 0.23039725789808171, 0.44246265568806836, -0.1382018895193805, -0.0557165609777995, -0.0698130429421399, -0.47929522764806587, 0.4792690021450803, -0.2909010834546286, 0.3478809298139537, -0.09174229309016657, 0.3280437274692829, -0.05241807897582773, -0.10028148263636527, -0.3803679571841175, 0.18714966420749968, 0.38571238140016495, 0.05239399107008107, 0.3125433323364606, 0.4385867404879917, -0.35106360534889125, -0.3608963407659579, -0.1867089899390885, 0.36333302248524446, 0.0947280452248753, 0.438821116864689, -0.41369937952926666, 0.06520003672779712, -0.17952236019478549, -0.28408013879294636, 0.3836406559614558, 0.4818452902934046, -0.1765392253378117, -0.4767597734474018, 0.138289496255483, -0.08916562521458338, 0.22425082394589568, -0.07931948981223347, -0.21214850342038072, -0.2994024763393246, -0.424716686749265, -0.07116358564635321, -0.22178402569973812, 0.3106566468683037, -0.0894986022355212, 0.33515632711352955, -0.09171872863539347, -0.36723947615141966, 0.13889046865879706, 0.22199522052535123, -0.3878337688961477, -0.1455111828153611, -0.30700884272957063, -0.25976827726901075, 0.16396637424967864, 0.3165575326051371, -0.17683346295079572, 0.035920785985415433, -0.46790835198147523, 0.4725037890112031, -0.05193337321283863, 0.024229996993867454, -0.4659740786789555, 0.3877481540370221, 0.38102442222979804, -0.26539333809435106, -0.2367619623757662, 0.196353589127657, -0.42548062147613974, 0.20924441619609416, 0.4834520941749552, -0.3819268158308154, -0.46917707127376473, -0.37066457901161526, 0.01122029133642303, -0.2796321569798056, 0.3232352467068933, 0.08003653788778, 0.16581442066954005, 0.035637000811812106, -0.43799752323899843, 0.030553159054155194, 0.05375631484527359, -0.4160812033143318, -0.30863650851982544, -0.3068266589174302, -0.276145773128553, -0.16425818224259214, -0.36469801957571685, -0.44401627972701146, -0.09750421161935129, 0.26050153609054144, -0.4270951398197456, -0.36573971893053403, 0.1997087319437555, -0.19609237566669768, 0.042220275865871265, 0.4750328751511121, -0.4913884281173952, -0.1826161007183981, -0.09105459077731722, 0.15575973438527696, 0.310614633963347, -0.3177567122935851, 0.3011684864477734, -0.07274730596257654, 0.37363060011888377, -0.17229023247165595, -0.5065605701932651, -0.07654516822092716, -0.2823090812496574, -0.24440139689604312, -0.15491511447620562, -0.2784823586750103, 0.015169890542613687, -0.3089271590773338, -0.4435810565073059, -0.19164817027927444, -0.21454629627852634, 0.4225357715801838, 0.13677705910780244, 0.37214387187821113, -0.07576418569905308, 0.2062024701481649, -0.37723784800288623, 0.409830691541718, 0.4111782745189154, 0.0660182566112082, 0.2217636639886556, 0.045307213190908656, -0.1537292938909713, -0.3747395837156854, 0.1330528778090052, -0.14832544654076169, 0.18069038299506845, -0.02045492119485037, -0.12394468584142736, 0.017770203363357506, -0.34963499924515135, 0.19888917988528867, 0.42608528847374494, 0.12011781548981762, 0.5416070943668764, -0.09189923808975264, 0.5251664798121672, -0.1473954325728893, 0.43392535258316167, -0.09916455943602161, 0.24792541825078443, 0.2966160643252028, 0.16282183521397287, 0.4477210037447219, 0.32475437844602706, 0.3804698416080266, -0.4673364268984479, -0.005509883398993921, -0.34787313565921, 0.22382955921354464, -0.22473576163792827, 0.06335816586328738, 0.2750423857139747, -0.42816830026063446, 0.013056302384362667, -0.29953867486011065, -0.1289716298565124, 0.2643023037523265, 0.41139225545892355, 0.1601022703523431, -0.07416778188636833, 0.3781721003286048, -0.39152320854696904, -0.2776718801931908, 0.37797122993894455, 0.49682450875549644, 0.26102204290339515, 0.21819441932666903, 0.36831874567806966, 0.0432969362294351, 0.4457306452286699, -0.3784769887484459, -0.15035298390904073, 0.36945306959861235, -0.3989145280962293, 0.3504376481563177, 0.025441850060727907, -0.09624758752279576, 0.30569365423458456, 0.06071317279124539, -0.34435388602084355, 0.15882634818000352, -0.4280013650759089, -0.36738260956288954, 0.44934681480501415, -0.024269208222262462, -0.320847203862155, -0.27983008991272534, 0.36902289631327106, -0.3335689232043182, 0.2980722540237486, -0.003837852083805487, 0.10327741816459135, 0.11718612625622148, 0.31538176876045726, 0.24354877254661547, -0.4425001878925843, -0.20530001024878608, 0.36659157045422774, 0.2509493137704661, -0.3622941309530693, -0.1828552379449254, 0.12746466343582513, -0.24015661438650884, 0.06529488170643792, 0.18718025060711904, 0.46760468613561973, -0.3515192524129403, -0.3962476696825849, -0.2469340677653097, 0.3509629826595799, -0.1223450351136435, 0.09881785117186877, -0.20031424130862172, 0.020363818214334604, 0.25233410042433385, 0.40368189026270757, 0.4023726245377734, -0.004917428619809171, 0.5425838982961602, 0.4892626529867407, -0.3953912084902466, -0.46252721574249334, -0.4188219436689175, 0.21751373540902497, -0.4903048877197143, -0.1376415328674253, 0.38868720217704034, -0.37883492457639556, 0.29909440642233087, -0.11104566206258286, -0.4548060747679382, -0.16697937323519935, 0.47461667562576987, -0.3596571775116533, -0.3867181901389071, 0.14402952112831988, -0.3415997089087133, -0.332786204514839, 0.13142273576885058, -0.21409374371540957, 0.1821194838575537, 0.14861615920458388, -0.19829109776465192, -0.2440328826874184, 0.20132046028804226, 0.4963018415198574, -0.2919725457427289, -0.12966530935482656, 0.2227117335882647, 0.2128393926950603, 0.3527777779715737, -0.1737006211002969, 0.07305217078168039, -0.4721026506641587, 0.12734229202675798, -0.3731265079212554, -0.30304011796695024, -0.47169056205723314, -0.07722951851791787, -0.250309336303261, 0.5677982825134656, 0.4221002191645546, 0.30209424577074867, 0.47600362958403913, 0.5064040975073372, -0.36465618900175756, -0.3234004855591965, -0.06194784339276649, -0.4956025465240961, -0.3347860031343356, -0.503786842675656, -0.46788252953686804, -0.09183492286242374, 0.3577419830970545, -0.24293273456303088, 0.5256098204789422, -0.3712207985404075, -0.17851650369284214, 0.19967160194160125, -0.3986265235025763, -0.16921522015507806, -0.1496310079584131, 0.24636181092473722, 0.08229179999386661, -0.3864097047770584, 0.21251806269692108, -0.3954300028917501, -0.09013410085174596, -0.1259875460299489, 0.5062901347648135, -0.22583834134626304, 0.2046627074422682, 0.07248372404132329, 0.004958758842894166, 0.15602711141164488, 0.3171863128738444, 0.07921001973919616, 0.05097125814296622, -0.06834108946782241, 0.3079528428829899, 0.35643863247588864, -0.12753384315388985, -0.14447494322250953, 0.6102618222204986, -0.27963614526675823, -0.2502810074876381, -0.121579913340901, 0.375061419198385, -0.47985764339102954, 0.1113192683556753, -0.3878912121523179, 0.22599819414653502, -0.28043843103776006, 0.11341826263892878, 0.5301372860998397, 0.016045447899358897, 0.5054241222727437, 0.4280157006867948, 0.22171666479331723, 0.2855443522102897, -0.38737279684436093, -0.469177740166474, -0.5529114933795173, 0.331950165058473, -0.011619191744622363, -0.06314094672556023, -0.3026711860270457, -0.5406497879900564, -0.26557942087741004, 0.19441575257965324, -0.37245644386298277, 0.6276273459960744, 0.10076007450819402, 0.08130526370714777, -0.1638697749815331, 0.439039005909023, -0.1978837468471799, 0.22111432638398054, 0.12035192562442322, 0.42203305009528974, -0.056679800509546005, 0.37873686073287427, 0.3496139929484141, 0.4668990705779259, -0.2246710099175188, 0.46915142644441704, 0.19747947853077077, 0.5032673596626865, 0.4479642594234915, 0.2846964467320698, 0.2084058104979093, -0.014142706984878801, -0.19133832612651466, 0.202070604042599, -0.15428112344969033, -0.018490367468831457, -0.19358863257466447, -0.3681130070356695, -0.23908806300713928, -0.1389160059257228, 0.4417894621681861, 0.4253579925322809, 0.22710876169232422, 0.2803123354247082, -0.4805270695713877, 0.11348081903999307, 0.14279882986961903, -0.07025875458191361, 0.021522697459621487, -0.2707715941073805, 0.2222984059326866, 0.5551639608872624, -0.17852620749013007, 0.43647174175117637, 0.35920555482119054, -0.3341278430489288, -0.5518869176968512, -0.24846319711711828, -0.5398573527378374, 0.23706880818662712, 0.04872209849740322, -0.42857595932524256, -0.4973778034289804, 0.08560347191617051, 0.26793719159262736, -0.159633452991373, -0.09200563629255736, -0.06768001882432842, -0.018158032083160035, -0.3202065267009423, -0.4410712438372684, -0.26726602095668817, -0.3506037891862763, 0.04677146669866872, -0.06746234021510343, 0.20666091671434578, 0.20433991887652106, -0.48087464330299595, -0.012376284522043817, 0.14022366265492417, 0.6094241285483574, 0.3840600479355589, -0.3563190071574003, 0.4156453147774038, -0.1800962890770972, -0.33843368951052777, 0.3334594328710122, -0.6099394683435252, -0.21820998433376254, -0.4100777461739635, -0.17025958809529007, 0.29123205767318666, 0.3372269930224358, 0.09117607512125868, 0.2357897164880257, -0.17478547650934198, 0.2067174057862147, 0.05451525127745447, -0.3628596540156081, 0.26795849221740337, -0.3524099620610293, -0.275440077847795, -0.10966472694334799, 0.10144975398915641, 0.08483888587110508, -0.3766115806558926, -0.0951022804153856, 0.32772214691130525, 0.2553462561040653, 0.4375990616642503, 0.40902300243079326, 0.4779442195327472, 0.06684402298213456, -0.08251650239011825, 0.1304380094619559, 0.19654750011786976, 0.18319018664998205, -0.47200281608115097, 0.4543068490375695, -0.4090313109371613, -0.07296375266614827, -0.24036007281241678, -0.22091106271395022, -0.281881043983936, 0.1086594454585968, -0.2579766613125221, 0.4017090769392337, -0.36144789123160154, 0.253228765351534, 0.007984973577691679, -0.0830422821133735, -0.4584149408596679, -0.32829460392032783, 0.001858224542401853, 0.38269778577040947, -0.3086710850277178, 0.3504535494874707, 0.39509943026608046, -0.01968215227401955, -0.31558195787463933, -0.23321620242724467, -0.3134314786499053, -0.1868461739710435, 0.060209298737809, 0.09326997473353289, 0.2147240258520839, 0.21540413953043658, 0.4098283663792532, -0.4500041527263639, 0.11669958328114245, -0.4462286139209849, -0.2534511198275518, 0.4553391477616919, 0.34192897634145475, 0.06341184431457747, -0.03268866283513718, -0.22500778701513577, 0.29041507784880316, 0.4567173279365747, -0.014505124977412484, 0.4434921472000277, -0.4535459873886336, -0.09955247271006898, -0.10053292679381969, 0.34051529596504704, 0.3999993436392443, 0.2025337035988689, 0.41618124245659194, 0.41173205183223516, 0.2793906395812392, -0.1607228339106961, 0.14125611309459815, 0.08364691531390632, 0.2665267950141978, -0.34204011996817885, -0.35445150991493357, 0.4582045129726537, -0.16850387301757871, 0.3244858731265786, -0.04048899082743297, -0.4171000309690144, -0.38626611694247226, 0.05441315164831429, 0.07043452033578307, 0.38707101820615963, 0.25459296982772994, -0.09585770162388145, -0.1049696917290291, 0.16968562948953755, 0.3088887674387106, 0.1637536387406845, -0.3285193974642914, -0.03273623148461136, -0.0750073939098451, -0.2643298167717367, 0.04433156416178567, -0.40371871334729026, 0.009153484176923526, -0.41932944474698963, 0.3421999870532504, 0.37230557648469004, -0.21568870124409253, 0.47625075939280015, 0.2597765267378952, 0.1945459635694258, 0.37963731912566234, 0.3301345549009535, 0.2600735116698146, 0.11402454387936334, -0.2533972764509304, -0.45845937987976754, 0.08406388325104822, 0.30189540701144335, -0.1768918098210145, -0.4392759739206199, -0.32730907053878316, -0.439635177326873, 0.2717135434305181, -0.12107731380985026, 0.230961002544706, -0.3484271497775027, -0.33254017021027366, 0.5178815891226891, 0.2921750717024781, 0.3968103906161309, 0.24692216583287774, -0.3152836417443143, 0.38756845706786486, 0.2454017996226546, 0.17265882186519307, -0.06974745824733926, -0.07140048098901744, -0.10457127361216949, -0.2971343173808024, 0.08753559100420473, -0.12387012026618688, 0.06042975359983015, -0.046816371541813805, 0.3658554510745677, -0.37886947608872806, -0.2243489336416693, -0.09697793811756528, -0.2402252838933412, -0.44049229308247617, 0.11893838556460973, -0.4441325827378513, -0.44758066305512256, -0.24406360288589918, -0.39627236816016753, 0.2212555903303533, 0.23328909708099804, -0.0004025578961710499, 0.3550439974267961, 0.20179939935363095, 0.16873580547111783, 0.09442385192424002, -0.16847811537296872, -0.13766539861391872, -0.24778198375212723, 0.06287213077264647, 0.14965711122190095, 0.03933240275405979, 0.3168544308363661, -0.3371573928312385, 0.13962124750321867, -0.352461423989798, -0.2466390214116173, 0.37550405057109454, -0.27780738083202905, -0.44775385338208795, 0.3765056948617923, 0.2332565795201499, 0.34786498899272106, -0.3116049729846334, -0.23454383203258153, -0.4813658219037255, 0.3528307423847611, 0.2021874101310119, -0.240378890073632, 0.13193352804217912, -0.4294054808427556, -0.17453826416845275, -0.4541948379521061, 0.4074006851548752, 0.18710803128475892, -0.2796874548025285, 0.36750482398719486, -0.19511480656469968, 0.23346735052054132, 0.056334881834524626, 0.14280288209766717, -0.25021814288393807, -0.4094637499803994, -0.26598585049330437, 0.2096438869361902, -0.03584418950058155, 0.06304837718184708, -0.19304522676485303, 0.12242311950832929, -0.18299272170138592, 0.24060489623506043, -0.09211995340341611, 0.15666131415584233, -0.35087773148454554, -0.015829016191471097, 0.12454593720943694, -0.407808315475376, -0.2558286535903773, -0.4254915844133245, 0.25931197618392476, 0.09408686301295925, -0.13420293468589453, -0.4976979320511009, 0.12627245292210798, 0.12348936346657229, -0.5104295949765428, 0.28180494488736274, -0.27116088446536085, 0.005193582597601752, 0.03617794703867022, 0.3257593673375742, -0.2908910301346083, -0.2007205923002704, 0.41841516385614275, -0.25690359408869046, 0.15020193254903225, -0.20603193063317804, -0.47680975331352016, 0.3825949390884035, -0.4112881677154803, 0.39020333673012564, 0.040346221797158625, 0.25198387361946767, 0.48029163935186436, 0.06682304326935198, -0.08731314103760278, -0.10321383636549548, 0.08738133048375926, -0.30809081672612604, -0.4075419189437839, -0.18330451495808445, 0.227379540300635, -0.5062506975073344, -0.08784874334332943, -0.3986333663940594, -0.05584821496944599, -0.06128905284397739, 0.4115003365714214, 0.0358424343044408, -0.32811854260156614, -0.215005038078371, -0.10025955763512084, 0.21059697010843614, -0.27924548365422797, -0.2757298115468182, 0.01447995967072535, 0.1772322142702294, -0.03131402350524959, 0.15889692495556385, 0.15546076500090367, -0.45880019158710456, 0.21330303111628895, 0.15794670503674083, 0.24329862699828983, -0.24370793311383096, 0.40760042923059975, -0.0652010476294374, -0.11357802067007959, 0.48559263976461564, -0.11577737189860503, 0.3706515222459063, -0.2710675797948949, 0.024987494119995835, 0.200048803267936, 0.04779780990300601, -0.2719909011550458, 0.4483398966773745, 0.08993649295211625, 0.2262790397898401, -0.33187409063073015, -0.18471204885696513, -0.17314545737020137, 0.047262940615247606, -0.4004786863530825, 0.35702534884595105, 0.2924000758469292, 0.13136624317079837, -0.286289368256324, -0.4876818403400338, 0.4644055647913794, -0.42744619371708414, 0.45776552560012074, -0.4398650454067685, 0.22691344655816315, -0.03708920571566132, 0.395335321821932, -0.40118629465701905, 0.2350762146243437, 0.28199178317395024, -0.4057118328680731, 0.4568745107600398, -0.02701776648391241, -0.35797053152529745, 0.4356987628870721, -0.3213691136282324, 0.2520855213672536, 0.424556423087871, 0.24205712868563878, -0.3035037113879616, -0.36155450085764285, 0.31201642888219505, 0.36626645232706934, 0.3124408017810326, -0.39552286052685615, 0.227309450269797, 0.3755010809112239, -0.12497760343540332, 0.11409910795262004, 0.4717316682673734, -0.22590593041780543, 0.13202641670496748, 0.30430294787809026, 0.034179962819828755, 0.08596203087484865, -0.4839535310822252, -0.33178611074946146, 0.4264678768896171, -0.17476636656388023, 0.11364436433091245, -0.11310761205009007, 0.1649091658337343, 0.05657416541433986, 0.4338101426264447, -0.18608789319574714, 0.16688611992833124, 0.32909077621693095, 0.2906733366208888, -0.011951212010939183, -0.33342612613889566, -0.011550528890421963, -0.12297933156801777, -0.15911411363716668, 0.37030240110176865, 0.4594977414502368, -0.3836461904772833, 0.4461541712573595, -0.06924151475543967, -0.10535954209005315, 0.19974461308321187, 0.3216290850412807, -0.016065417806659522, 0.29875262456705565, -0.016994011933163192, 0.4533152328819521, -0.24304481602347636, 0.31414415794168304, 0.4571126311109208, -0.07034226934751506, -0.08417390602889105, -0.41491527599663963, -0.018028169934711565, -0.012438271496718235, 0.26888576718922574, 0.1712680664587134, 0.17961735740281282, -0.4141713608684038, -0.3996620401250437, -0.28947083340959934, -0.25428479028714046, 0.03829046844779512, 0.3193591787913358, 0.23275716720255127, -0.19911193862454635, 0.02473155700543978, 0.43537519322907475, -0.4451429028379348, -0.4534716206771005, -0.4504040356919456, 0.15637714160876223, 0.3813517298395391, 0.06833476167117594, -0.2399908188175696, 0.4358118043288477, -0.3408363904132183, -0.34093111614442534, -0.4608299693550096, -0.4436561115557033, -0.12970207605096806, -0.05538930778428974, -0.27670200175427995, -0.4779516205541655, 0.13997660209236407, 0.10317419900820968, 0.18296943461897464, -0.3465066744866623, -0.006827610412635132, -0.16213498184456493, -0.2070603948808078, -0.208603313672243, -0.10293331367131438, 0.23010338338964317, -0.23177380816661816, -0.472543102019692, -0.10989542785019067, 0.2751005805805415, 0.4610874164823412, 0.47494017561377694, -0.18282531974012195, 0.5288538543822372, 0.3765432785685775, -0.012560832279832864, 0.2783579064752215, 0.2866159335467759, -0.13976235917301114, -0.1019828147462551, -0.14780267319901064, 0.22388847534406336, 0.09209261318335553, -0.2978257093127656, 0.4132014503500062, 0.1778640279987942, -0.2983819273657996, -0.48231503817818544, -0.0005885125057898252, -0.2842046637039398, -0.3959967970937038, 0.33043964445528695, -0.2466798025804092, -0.15834535244973322, 0.47103786983763996, -0.20773792250161818, 0.3087063502944045, 0.39711899216014845, 0.3050335701430534, -0.3227908853335836, -0.03563321407536215, -0.37741797104678243, 0.05799691703336449, -0.2760238717748989, -0.05889345240838464, 0.34027837718129544, -0.06966310244790537, 0.48170535843863577, 0.08929329785692625, -0.14317270183348432, 0.17840066665157625, 0.23868031499712317, -0.052328285200704774, 0.06189954939277925, -0.4402611047608922, -0.47447152742758814, -0.29106471119667215, -0.2348088808694905, 0.47776151591734584, 0.35240151677839343, 0.10695156335522557, -0.09702375631020262, -0.2999169652090817, -0.4436034030186828, -0.11465004188814365, -0.23029393131757106, -0.24619935899453937, 0.21660486608631438, 0.20004446534446327, 0.45503389922063947, -0.06607767685144296, -0.38951798048070346, 0.06744801326524505, -0.26073699083231244, -0.45370516196800836, 0.09015042223282684, -0.2250093174365721, -0.5541540230076706, 0.23604571871926225, -0.23217728999418052, 0.43163506915448535, -0.18855895473888631, 0.03114542802766934, -0.25245947358900106, -0.28457157274492895, 0.49690371726057375, 0.190889585262756, -0.08928189544158167, 0.17516713096896303, -0.48693923299711905, -0.04487134069816759, -0.4146423998066081, -0.33008654940238724, -0.3691761870844873, 0.22151506434909957, 0.1559739656103579, -0.180772142946986, -0.23820163964124366, 0.5148332266568624, 0.22844776596502414, -0.026462671181139718, 0.29423042242384073, -0.16698001368208826, 0.14622805317049078, 0.096308169535504, -0.08974510757512762, 0.18601771877827605, -0.5042225722293566, 0.3699776827470438, 0.15353324555714262, 0.2519792503145029, 0.4414053768435031, 0.22491332596456268, -0.2084011474742526, -0.08339801033443328, 0.14551814038592265, -0.35674976817749326, -0.2360731723278844, -0.13038077810803717, -0.1395529385890619, -0.34448843679773916, 0.41286319455725506, -0.27921776431542883, -0.01150127665513627, 0.03517669535776654, 0.44841055469181623, 0.22759697221502295, 0.20232951589937295, 0.45872290483427036, -0.21155917474607952, 0.07568501891335717, -0.012887216838914018, 0.40811771608462766, 0.014875680879109933, 0.02135063179162648, 0.2638327244628541, -0.35677269124001776, -0.333315197819262, 0.4026922956356962, -0.010312362709617332, 0.20283769515338465, -0.47598469763573636, 0.006012472760103431, -0.3140568363395217, 0.48412982443691405, 0.2625833035150068, 0.2644265956982204, -0.45136573143396813, 0.33927248718922837, -0.2887352375148119, -0.34775669829482486, 0.11708090084059855, -0.1837938999677119, 0.45985193177799283, -0.33068563706966764, -0.22616276980762925, 0.47465913255999265, 0.4484740826572007, -0.2985561318226164, -0.06002307768119128, -0.38648539750580824, -0.4028489086787431, 0.43892350344867725, -0.4083342777054197, -0.14869005760010812, 0.2441091014048264, -0.06533574987420698, 0.05145688548545976, -0.17218735184832376, 0.2198533530621781, -0.21360634640934967, -0.27513907881574157, 0.08522768703574912, -0.3966304831402123, 0.16128049985133858, -0.4875376848903254, 0.12972117122230792, -0.0822182976486852, -0.18521745829239283, 0.3877665261787913, 0.31236585139717593, -0.09216411318627764, 0.4505951922691599, -0.34527004811505385, -0.21489674051210733, 0.2830942447680703, 0.33238477988095194, 0.5396172286287862, -0.18201799571392413, -0.2437209818599555, 0.17737586554221518, -0.2236325985151306, -0.4684792688012357, -0.46312950321490187, -0.457339550765662, 0.1725517383282896, 0.32810796527376035, 0.29707498274507793, -0.21828906155591915, 0.42756436935394593, 0.25519824435107685, 0.04703245358965086, 0.08678057898347423, 0.027415127185902496, 0.06489773342436397, 0.30859825137011676, 0.19898778824992533, -0.41418719635036877, 0.4263262623581405, 0.31662742679677497, -0.3628886934978903, 0.48988215686039743, 0.022559699754084363, 0.115474486040261, -0.03827906485989835, 0.06107513513925347, 0.48628770319825676, -0.13714871803647974, 0.27208593553836813, 0.4070899476656373, -0.1608910567007412, -0.2753990846247905, 0.48989456093722505, -0.08878363679935988, -0.12786906100288403, -0.4488054527603583, -0.42129044391469606, -0.490747587966513, 0.10940030050986446, 0.21933017997036464, -0.4020336161355334, 0.2315472831023059, 0.14954409462498158, 0.06835992895807867, 0.22280110219656948, -0.18632944331619933, -0.12368874603541458, 0.14359414090589875, 0.27983309254731203, 0.2644333620651265, 0.40126595078565136, 0.26933632928243967, 0.32208274464650594, -0.2227340308752947, 0.057775262109345894, 0.30247731591639626, -0.25531151701684096, -0.053359363747510886, -0.1467696336456596, -0.0028901855161328413, -0.1647838591177987, 0.4500385035033486, 0.24143333489976856, -0.3654682453390717, 0.13415030056785213, 0.2851611269240214, -0.06343492249263212, -0.20488331936721565, -0.16639569583300295, -0.45736938327123366, 0.006860328263950496, -0.18641297756206823, -0.43106461261147355, -0.24755932212530565, 0.5258482725951822, 0.25440194565068036, 0.2414324748413073, 0.0686558323369402, -0.027730435778240713, 0.37331982770831323, 0.11198819756711333, -0.16154488683187437, -0.3135400888597178, 0.5007731886917229, -0.11550045051950493, 0.4732948818964836, 0.2748543165773764, -0.04242473360026111, -0.19620844180874009, 0.3811027834196224, -0.2499575329703496, 0.010432670625463705, 0.14711176542785162, -0.07688740121692494, -0.07681590757919025, 0.2579354401620341, 0.015392159996941393, -0.06257287503312048, -0.23814886545462324, -0.1999127121876305, -0.1584435194163224, -0.3364566439990598, 0.0945563101561187, 0.43921899861505165, 0.4130858756666304, 0.24385119499916963, 0.15148571424574062, -0.20768953167932133, 0.40054979788576245, 0.3900180424580636, 0.42369198421110543, 0.3987390709114095, -0.04748332834249693, 0.10925463342893357, -0.47509499831422397, -0.09523667322894425, -0.028911593862748886, 0.31293168558193024, 0.14418018002820543, -0.4164161920296527, -0.20385022036277803, 0.02580703431340002, 0.24107085899328376, -0.3224522144227349, 0.30299096721912433, -0.13228082943196562, 0.14306429806041238, -0.16313743342588674, -0.26549627421522637, -0.08469236366314159, -0.273071739385105, 0.14485748346740113, -0.3751257237414472, 0.06817632461375785, -0.07746677264444607, 0.19802813186896184, -0.0074578175742119395, 0.0044621914044026155, -0.10027352012544505, -0.057833874996188576, 0.05457245047864427, -0.4378543254335133, -0.3657957108929884, 0.09534990116713198, -0.06862025556345619, -0.2821724168111017, -0.06606823545057164, -0.48403707200590385, -0.1176054159618275, -0.2875023454706655, -0.08478158351715695, 0.0021893388047051557, 0.07737733271064234, -0.0447468904844892, 0.07119762609639849, -0.18292924283313913, 0.21380066414571755, -0.010554115205023567, 0.21150842736211697, -0.03118867466167587, 0.10971366773955374, -0.5559270498103348, 0.17357412594869998, 0.3765125075957035, 0.4417847052771492, 0.17114472793779145, 0.30801390036206555, 0.18155618240819082, 0.28356670071422213, -0.4201477891850851, 0.3098606879608512, -0.4071646123660496, -0.24680623882613417, -0.17074221752508353, 0.4472545788333133, -0.44168089089828233, -0.40790850657010164, -0.1547893834164475, -0.28879445815186866, 0.12508988334732693, -0.41666735905578134, 0.020181755750165103, -0.3236783270589977, 0.049898111641775975, 0.30545822897593605, -0.2852476700866632, 0.08147091952458635, 0.08888555039737131, -0.3363758811017762, -0.3108404025517012, 0.3712677967421166, 0.46653738813338547, 0.49403083455595176, 0.20569426655353085, -0.33572419948694293, 0.44851014155796615, 0.006814218822363054, -0.24890940650966262, 0.42255923232592624, -0.0036842508007066577, -0.4598103045253853, -0.39524556574227027, -0.33684101208058764, 0.5124729351907255, -0.3044459090548542, 0.2526097381419752, -0.010256398064187789, 0.40468447876386887, 0.16845439403957427, -0.32832450614792125, 0.11501644297742432, -0.07044369646180652, 0.008134785305498916, 0.022388913396462314, 0.36911044099946594, -0.38168013934287154, -0.29159463388561996, 0.06926704838336578, 0.3942318241743795, 0.2714050133944898, -0.35960981766230643, 0.33589104607205983, -0.3282972493086241, 0.43638351236341827, -0.03903211511076378, -0.2580687726746641, -0.030653990710662837, -0.4297972349582464, -0.40581444253246535, -0.23050532660152845, -0.23689935452680397, -0.11499670944634971, -0.06322809558388644, -0.3149693572536154, -0.24498174883037763, -0.27949965279038524, 0.3213992438180247, -0.41711920084071064, -0.17661393274158715, -0.39777856703823766, -0.06057316600183955, -0.35674297633022417, -0.4272394156375096, -0.15328974779394675, 0.2842059761330984, -0.23368920601981155, 0.3731600039130901, 0.26422308176099996, 0.22610774976343728, -0.01717685085476308, -0.16372322979541493, -0.1600421342789175, -0.2596306697613768, 0.37235580970092014, -0.019852107231519832, 0.014006553529698696, -0.3404882645426448, 0.14860340538354, 0.25899620441440646, -0.42036874810130953, 0.4247798074370074, -0.295029937054651, 0.16459224271165093, -0.48330008539189845, 0.31678702794609825, 0.17616919329643915, 0.19091034057286232, -0.2492954099072924, 0.10004054365471743, -0.30700210955089857, 0.26683272535535857, -0.04229478019908669, 0.16971477028796889, -0.04877536505287657, -0.4447350629722236, 0.2229965723941237, 0.1043283871405802, 0.40480958350026597, -0.222181200748362, -0.250275866750802, 0.310660329794463, -0.09786681702879493, -0.14130964942076182, 0.4531107616143701, -0.04140790037691022, 0.46989383789366945, -0.04978816913341604, 0.2007609494593196, 0.010465611842699337, 0.2254554697791683, 0.020090931053975945, 0.5147425245021153, 0.5223824062068516, -0.42283719586531954, -0.3807603444216426, 0.4335571809092026, -0.408713870232369, -0.1769224687475271, 0.5115536806526542, 0.04597057420139285, 0.15229962279629916, 0.29151916369819103, -0.4738162816397187, 0.3178583476736837, -0.10196983304361454, 0.0949557019277141, 0.1689475222619677, 0.34895407984824284, 0.4600931381933503, 0.1387514588095544, 0.0765454531765294, -0.2513623607265475, -0.24847273623763821, -0.07441501815812346, 0.42499535032493563, -0.405838407094362, 0.4202980364887101, 0.31371043660357717, -0.14610557157291512, 0.09452537813005055, -0.03067039161402184, -0.30442019974559836, 0.24213111984957122, 0.2810995857189885, -0.021735431594023306, 0.08897733985492133, -0.20517807674133223, 0.2825969485482647, -0.11362082666928486, -0.21640272648601053, 0.06033894827257479, 0.29695852862561817, 0.3610578708406642, 0.26679794587970296, -0.4319873406994359, 0.4486091996497606, -0.18074222147083618, 0.08462510208334059, -0.3500047905703326, -0.09953069204010911, 0.22053848931670117, -0.10752182195542581, -0.05191740648692392, 0.47165864431154386, 0.4191261845615251, 0.22783429988943468, 0.2727173409557835, 0.14735229687913245, -0.21807440348309015, 0.24737077025523588, -0.3508036959789593, 0.30885232019438474, -0.1440649913128482, -0.34512438485612223, -0.27303445659586406, 0.437483084600487, -0.27832328627765596, -0.26658747481361605, 0.36317575782767386, -0.25555314298238013, -0.0833337735319298, 0.12017117406459206, 0.036011004780589384, 0.4545588939331627, 0.004592657822033833, -0.14565904812713165, -0.07869487026953274, 0.31875233852765283, 0.3632223614385106, 0.08884888009186687, 0.31369803828881504, 0.4354746651902981, 0.24826777021606955, 0.04546651311127867, 0.21292592463778254, 0.513088093250124, 0.3225291170969125, 0.43625091011033845, -0.22027832782711843, 0.4480333162735133, 0.16301147231232843, 0.14557063600651562, 0.03486500250224243, 0.13652841634446483, 0.3282709671266645, 0.1981352211374837, -0.38467528461876566, -0.2749269681883298, -0.013042146241454486, -0.14709124035252652, 0.3657374825836398, -0.15078174082150392, -0.21253358545183007, -0.42627248436349346, -0.21192623633453678, 0.19112733333024556, 0.37651501433799894, -0.06331105163832951, 0.16576708499291337, 0.07649906815205826, -0.46371040963758603, -0.24938910163577468, 0.5015544060362793, -0.06201864685201811, 0.19684295782632255, 0.4782676778190943, 0.1226901924605774, -0.47943108611781365, -0.33851834981788237, 0.22767907118730965, -0.3156704169338001, -0.28506213330042074, -0.2516943174778104, 0.35479384372135514, -0.11323353220097968, 0.5099126377706059, -0.18526448026236603, 0.3494103015154742, 0.14425300927508505, -0.1072970912947682, 0.33227044959535684, 0.21603541112324132, -0.3040919316471373, -0.3517275668968307, 0.2260321552159048, -0.3192145406371406, -0.294645403306647, 0.09416878356640869, 0.18188882509536364, 0.23577529664503993, 0.16740624795909967, -0.4690681675268168, 0.10230857138760724, 0.17412675241882727, 0.4882655308942261, -0.07137091552367239, -0.4570671041027536, 0.24671070674670764, -0.4140304438797986, 0.3574643441267653, 0.13938989040047445, -0.33389810513554685, 0.20891242678927788, 0.3109045837935528, 0.35979318199950655, -0.07359415106917637, -0.44684679913318875, 0.184398538653292, 0.4088240375357024, -0.26959586526892954, 0.23543000516797186, -0.045627467596685456, 0.4686909799472153, -0.021146386179009324, -0.3799515513109598, -0.3892707496770824, 0.41341106022414587, -0.2753757560039003, 0.49287240153374384, -0.09469443042086516, 0.4055316693149062, -0.35245293908531294, -0.3377051745219452, 0.48755459274308516, 0.27983471603458154, 0.10831633136910926, -0.3587364070234301, -0.14553773248297994, -0.21970410622561792, -0.39015785116409274, 0.017795985482795755, -0.26837488265208315, 0.4450727955646988, 0.16479654960311735, 0.4772658420510903, 0.1815463713022316, 0.29502613530216915, -0.37212464097907794, 0.17248092164348172, -0.23162867878124715, -0.07575788913406789, 0.22707948801200173, -0.0071079376053774235, -0.053839176668705746, 0.224347798699433, 0.04737362906690956, 0.3074694951388163, -0.41573766044264526, 0.051290265724331374, 0.11666788284370566, -0.38246875633368427, 0.15797505237925202, 0.2721823455820548, -0.3401081870359266, -0.32230811475052024, -0.015364392053612841, 0.22553215132142757, -0.3812638090482581, 0.099419090155077, 0.446869887279186, 0.4485776663669756, 0.48047824485982327, 0.4267474216885856, 0.46108503932557054, 0.008429795587412081, -0.27674747475620143, -0.49176539482617454, -0.3187599610762344, -0.0677896807834506, -0.447126318309222, 0.32719924995730754, 0.382998256836919, -0.009722528950343978, 0.2641967153377388, -0.35731798518210467, -0.08269427699670409, -0.1650120270944418, -0.33993950300051906, 0.4431931479016521, -0.034253796642982705, -0.2738544275351945, -0.1380358645286242, -0.3337600393322883, -0.3988551438928936, 0.25511063974360787, -0.42774263744120433, -0.038393633269415015, -0.0009214610154883626, -0.2693358784593767, 0.08422536415321998, -0.357498863757244, -0.24999922539822406, -0.39006985247551273, -0.06622969708634874, -0.4050188584799017, -0.004293915003246385, 0.10187254465325923, -0.11864815103639603, -0.22388523880319222, 0.30662011659089483, 0.20217635802386388, -0.47057528657543957, 0.3450298546661933, 0.07736042743301061, -0.40468923561576614, -0.36432824486236765, -0.11618378655160617, -0.14071674337075862, -0.1920914285758429, 0.1482543230481344, -0.23030266837830182, 0.38819675544831433, 0.1949433811695128, 0.09391173379369967, 0.36487349413193243, 0.40023427622201935, 0.2140584658910385, -0.009699543745114635, 0.4783893744562072, -0.12381117392776092, 0.48009646312819715, -0.4941302795581931, -0.04005318810748837, 0.03280341945323639, 0.2786085133969962, 0.12222939043624748, -0.374348763274196, 0.3395292622159879, 0.1344922674033128, 0.11422571283777075, -0.31053904280986544, 0.25263985984734755, -0.22203991941064175, 0.15122451264281872, 0.19853646691973473, -0.3175015479590759, -0.44542535221402735, -0.2969720664159294, 0.33883816277380446, 0.3756211418056827, -0.3634082637700792, -0.14074249434972078, 0.19862084503828448, 0.22620399266020233, -0.4388605858750813, -0.3085571542553441, 0.07984196544549832, 0.38531293987358317, -0.35277449691522567, 0.27799794845077075, 0.48909682585744996, 0.14530711794405748, -0.162972948749611, -0.2961747761822533, -0.1085125247021147, -0.31308426821815616, -0.4855929041289889, -0.03150615051776898, -0.18076565952946633, -0.15957607388822015, 0.03306886159474131, -0.4756551025087478, 0.2740762069252134, 0.4500911483824898, 0.11100369393012727, -0.03482835112213353, -0.42693558330477, 0.1548341436420823, 0.04676119855258315, 0.39224978056919746, 0.3057343992736846, 0.22642428682599083, -0.26076241159870434, 0.47580302892160475, -0.46695815390337414, -0.31962985529101323, -0.16773072689311264, 0.27940619504880954, -0.36698418710243025, -0.3138696896003398, 0.46414126773196085, 0.3990401580526972, 0.1908619190670723, -0.12496389463817979, 0.27501154904614944, -0.29229881321053625, 0.0929246858966581, 0.21259018701132368, -0.2620706213437315, 0.47091404247580737, -0.15532684450413145, 0.137098729355317, -0.27148382867318094, -0.1981078009969268, 0.20890256096327056, -0.4602210129348194, -0.589334599889835, 0.24564960088687532, -0.5650678732526067, -0.15563214604389045, -0.1701770516390287, 0.21093274828546515, -0.18495541451303846, 0.2885265842371614, -0.40019567574900317, -0.2906288047774367, 0.46264196291966586, -0.1786027277630417, 0.315515333273376, -0.06114272344974658, -0.3635545701923785, 0.32514687511112805, 0.17096092372421096, -0.2207239327241696, 0.10420658725683031, -0.26558077858024354, 0.30748406832443115, 0.1744707601408321, 0.46827961549359665, 0.3275614408271341, 0.527601356008123, -0.016083053981399937, -0.0421558775414007, -0.34069510294578637, -0.16346458947738313, 0.03994712060697203, -0.2374617895323373, 0.29065345643710566, -0.012111048931738684, -0.06363288662102419, 0.008882780585738353, 0.31898541709832906, 0.11074172424765219, 0.1338736535824285, 0.21515331900373214, -0.2155907466270469, -0.40564555354094356, -0.3267719075608971, 0.2319164276643574, 0.475409579020808, 0.3092043316000622, -0.008469925957692356, 0.26913898511609324, 0.20240274667563612, 0.060250621938378504, -0.37290202249840754, 0.3184455970557685, -0.12239577053433746, 0.32048653518309406, -0.3767691196165748, 0.18979730078592272, 0.15976809631171895, 0.11645239893324957, -0.14531968083005303, 0.30551434474706973, 0.11749563146273012, -0.032366458907416164, -0.3741481478180692, 0.3939679439035026, 0.11431144198252496, -0.06092878966248492, 0.3153792610588433, 0.20271756319595105, -0.18496770663775836, 0.0008071239096371683, 0.42249979805650345, -0.2056806169429841, -0.014652599734113429, 0.35462243040624464, -0.04694437802798043, -0.1003481730653148, 0.49942584360484843, 0.06049588301460161, 0.04377358133258972, -0.18286350971929505, -0.3255645626745458, 0.466836926504177, 0.045448682596688286, -0.3424131991320523, 0.22959395416437683, -0.09040197309456433, 0.004022355200539774, 0.1955916451731488, -0.02410890557932765, 0.17391712074223123, -0.30543415859123796, 0.17349278368197077, 0.3926338896260266, 0.010519783787630169, -0.3125740513715095, -0.06648118607162924, -0.38584329201162004, 0.26267479373280606, 0.06543988925298645, 0.3092925967931668, -0.28796567861712513, 0.23146295222573712, 0.5002252596788093, 0.30847381339255314, 0.37302511272973504, -0.025589305236295108, 0.42961412870609594, -0.3185198239618059, -0.29913328270310663, 0.35614590990069395, -0.08062442435226282, 0.049143008398006706, 0.3350371262474648, 0.11797893570386817, 0.5757085707999288, -0.3342917567203384, 0.46565546081043946, -0.17944094657630022, 0.3449487828271953, -0.06510929120084853, -0.4002389627508721, -0.40793197292131295, -0.4936048723578188, -0.21186872877981752, 0.4775410425599422, 0.25203172760816717, 0.4072119640361824, -0.06533187751909919, -0.4129182000629903, 0.33376523244228906, -0.10898800417110019, 0.4313923065322688, -0.1154469936092195, 0.3606090604637952, 0.07829716515412355, 0.0956490390264444, 0.04546994125749177, -0.30996587517660085, 0.5177235093245771, 0.4117979218083325, 0.502371051057307, 0.28238993299023213, 0.23871316487971794, -0.19136210962079966, 0.2695696789106129, 0.46212763658667355, -0.03216144826131699, 0.24373486367543581, -0.036160423367229896, 0.0760145105879735, -0.02691959626214269, -0.27429478509436633, -0.05008915468959334, -0.18711889582516927, 0.16264897347646326, -0.0513245527650884, -0.019239570023502295, 0.17886503332701423, -0.4476330212338442, 0.046159592283101125, -0.12386535888493089, -0.23802601982303803, 0.2053708243988478, 0.21867184823938682, -0.11159107764514004, -0.14436919114719488, 0.44336518105213146, 0.22574212848680622, 0.6617789914523744, 0.1311221935196186, -0.319918762190719, 0.5954696483870012, 0.06145044933920666, -0.10830487629224782, -0.13143767413649257, -0.23338977434309183, -0.24341302144461258, -0.41834567420070456, 0.23822678436797604, 0.3053330016639848, -0.44825195371590154, -0.2871573923416576, 0.28641679781547214, -0.4574199481783656, -0.44990260340618005, -0.18494870883417455, -0.17067981745193223, 0.25128597016528814, -0.3771977610955986, -0.1820014102013971, -0.25526274098525853, -0.4853890962091312, 0.1985911641088758, -0.3047095385825433, 0.22163026737739316, -0.006306225042934349, 0.3826190138336872, 0.2581315103726416, 0.37206912831889194, -0.07592458082908979, 0.07636884552163861, -0.03455294437151423, -0.2052674293590509, 0.4119341566115413, -0.21577577253960445, -0.13407313928497247, 0.11965676265719635, 0.49102658587035675, -0.4204689256951623, 0.18887690891663378, 0.3759272158652664, -0.2104763640848154, 0.4141036655612816, 0.0975773601174254, -0.09248981886451897, -0.37161405108084233, 0.012076506475781002, -0.13523206511592117, 0.12261450946093952, -0.14600062030919184, 0.14929607197081712, -0.37317498150283523, 0.44143463626125856, 0.6689833917204681, 0.16716625730176393, 0.17966556329538683, 0.26259650062925544, 0.15539962754152808, -0.3078582654618842, -0.04729882332706841, -0.37948075239929346, 0.213852144818903, -0.37326084846959007, 0.1544197580497492, -0.4162742286527763, 0.3484612741352118, -0.09795544812351875, 0.3556212797749829, 0.29036748757899966, -0.05915736096141456, 0.10966015842798242, -0.23216242979381496, -0.27155200555680276, -0.12373290281935839, -0.13941255838699135, 0.22419955572542444, -0.08800223635896734, -0.3394013539720453, -0.6113542971123936, -0.5133537998605179, -0.16466681176786716, -0.250370028308221, 0.0807677028759853, -0.3064154425563592, -0.1272872291328519, -0.12864613603163744, 0.24278510790553168, 0.4357182494354069, 0.399858878745085, -0.16426967163206369, -0.09669465410534955, 0.06883403933637401, -0.28488637054287164, 0.3419072478001466, -0.11761220998301969, 0.3678002210602518, 0.2165609582446817, 0.22145524993606305, -0.3788819577304269, -0.16524436674630846, 0.33535247938444834, 0.3349493320700395, -0.18679266329449776, -0.3171763091194435, -0.30265820377243524, -0.5410931394812671, 0.2865477685897214, -0.1194896339063085, 0.39002292308543113, 0.022595238799552688, 0.16993648226177333, 0.401841657696756, -0.1517775968216445, 0.40225160566011076, -0.15956970349103783, 0.15420725353484108, -0.25490413230205333, 0.3076902026165029, -0.20153095031012255, -0.27178043564942944, -0.39090416115130894, 0.37420807667404227, -0.04445415130718812, 0.02013267551507414, 0.2783890000003511, 0.15472162087366031, 0.10542206364186638, -0.05280304203962106, 0.16539603378342277, -0.19548618712614613, -0.36620483342145316, 0.3057659070767548, -0.3867067100142631, -0.5515144591150667, 0.1985527281473359, -0.287532534104401, 0.29240538818798356, 0.40505011572198973, 0.42526323015892253, -0.27707756560292546, 0.43655026526745555, 0.012662767636493046, -0.41275434473087763, -0.2350285896091134, 0.18682446346709203, -0.15726682357031518, 0.4072092799380375, 0.22317908351082352, 0.12080614567555076, -0.3268530083139079, -0.35183347116166097, 0.12132322716100719, -0.12238253732132134, -0.2371162193614368, -0.19927482661808069, -0.3453846134063462, 0.45048051263855565, -0.02536725291603367, 0.06148132214543143, 0.28030499081590476, -0.0872942880375435, 0.139020794911626, -0.5557720721825552, -0.504718601430916, 0.26728339342625507, 0.01072920947324574, 0.25946911903925096, 0.23533970694789888, 0.38492338842717266, 0.005071505638026783, -0.3270685600146957, -0.21871768878548165, -0.2972034019541849, -0.04878807519124269, 0.3370997274163364, 0.36193947331070025, -0.34116764018642726, -0.3489975973128521, -0.324944574548827, -0.2809742069684057, -0.3468543905581226, -0.05087773187826562, -0.4004312389858134, -0.24424978876608214, 0.39768444013779497, -0.24360908538192802, -0.028745385010199274, 0.05623743936574165, 0.15784124876468272, -0.24160085082722776, -0.16152818959806156, -0.2041428282825703, 0.4187614866047267, 0.5053682994890862, -0.1664655637956244, 0.3519039189457978, -0.0652256562676841, 0.2753879736319315, 0.26655529633038294, -0.4186034015346074, 0.05279186208593005, -0.1295713080252461, 0.11344708872766637, 0.34614645275311523, -0.2805375082774185, -0.12770488428259189, 0.48749166607950817, -0.4501453289867521, 0.13042810642450686, -0.005083755183537311, -0.32179437823727763, 0.25758335288579914, 0.40191703315864785, -0.5581251873229179, -0.501921139201135, -0.11235303750095457, 0.05302817923513912, -0.02911824711265037, 0.19366513201380156, -0.415633281650325, 0.11926385589691829, -0.21347416497577854, -0.001468426741043877, 0.09317051852133092, 0.11622673853395622, -0.24927435001902512, -0.38258806324742245, 0.16151655697517942, -0.38783061856845785, 0.2511934162223799, -0.2264785724224835, 0.02567510236806217, 0.4827262105115938, 0.20127544160395835, -0.15973127493714884, -0.44358419791408876, 0.3152562397374998, 0.019325569897496564, 0.47546518380989955, 0.3448394992375753, 0.3915929501328503, -0.4137553580538775, -0.39723238770940505, -0.08636577965928068, -0.3416306854508438, 0.4564713638762952, -0.19966493068997285, -0.043980839653632066, 0.42559060195626347, 0.37666667385143726, -0.05754917315106548, 0.08836982170048491, -0.39461502055570846, -0.09512068280346589, -0.05259064624059148, 0.2044274780016248, 0.4337695299108267, -0.1632410885353779, -0.2332187619531548, 0.31211427211883486, -0.13339467875323283, 0.3622260831292301, 0.027218498419205796, 0.1877523238163631, 0.3824285715326592, -0.031093316441140405, -0.2256291375901623, 0.29527733972386644, -0.02651471499786646, -0.4831852881658571, 0.1770712514703772, -0.04805690376411047, -0.40010546134446584, 0.19224467025186087, -0.1516104476590235, -0.40646523167028864, -0.027033755090210387, 0.15176509439744176, 0.2997124442636068, 0.4310159819767084, 0.1899151046764231, 0.38891538456841185, -0.006172817029605129, -0.2609172904036568, -0.21537474319352376, -0.2537604494973299, 0.3199585159455265, 0.27154298524831016, -0.17674995400603916, 0.3235942795937986, -0.13782566400311902, 0.03880410646243826, -0.3615802671520907, -0.3854812596251764, 0.19331258820150343, 0.25851344152482797, -0.2601217819816217, -0.2705970896241292, -0.09823327962272149, -0.11874127453000353, -0.1775255883513797, 0.06892778821517609, 0.04721225185039285, -0.4781063260242003, 0.3643491113577964, 0.2308955376944108, -0.3276318939641629, -0.31757931174342785, 0.0709655274360615, -0.054280330819258094, -0.42967815259132713, -0.07526120460499924, 0.260819027238271, 0.2457406430768723, -0.4931846899979759, 0.1627876469093233, -0.1123805002255403, -0.47786067233826185, 0.13944469217731248, -0.020729107430206284, -0.240323491816281, -0.016890103323867946, 0.3998627752854197, -0.01224293499088164, -0.48348439561342377, -0.24765366243732762, 0.43619529079956415, 0.23000137923720537, -0.014754262100457893, 0.37943654374017244, -0.00842969430401242, 0.1353951358901607, -0.05752952126697409, 0.4095001689396868, -0.27643033341846457, 0.46785588979260734, -0.22318421211143782, -0.05807674976363326, 0.3133360277640589, -0.058836520572549254, 0.4613689227966363, -0.11762606412591677, 0.060095005884167906, 0.4276575453187379, 0.35836695155072534, -0.3428912495820208, 0.17207872066530916, -0.40257382110325324, 0.2551518157630638, -0.17581312046715525, -0.32651238144188055, 0.3200669614693348, -0.39167365486040073, -0.3665064920791879, -0.21485450639354847, -0.3207537759669688, -0.05245369839408142, 0.2903524988963822, -0.3570299795876192, -0.24741467446968954, -0.3222199230836049, -0.034374021650446784, -0.3732599568268445, -0.1392048217138496, -0.2544269322194275, 0.2118479018550827, -0.3607897238247555, -0.41621549214775794, -0.23288409947440394, -0.37660979593471294, 0.38475433058048164, -0.431894768421781, 0.1430846951677793, -0.10542802287779485, -0.03378518818115217, 0.1939648469690084, -0.2509002972431381, 0.40126619014763065, 0.20831388517525232, 0.14847422896235568, 0.06651420433282262, -0.4220768391872945, 0.5286687444263608, 0.4205353117737329, 0.14943022385110094, -0.4102800572300044, -0.31721107797905435, 0.5407330915439698, 0.0015632920696681048, 0.5136181544046774, -0.09537068903737211, 0.21983402738403557, 0.060488740475994646, -0.043491700075843576, 0.4526059657081305, -0.3928882263755642, -0.2838376713791157, -0.3366215488847263, -0.023262553835728773, 0.11116933938454564, 0.24800113488020903, -0.15952562639440637, -0.4778715716524894, 0.4079245657589944, -0.1402298914869855, 0.04627201832496031, -0.48421025571296916, 0.2826053294098557, -0.15346556230959763, 0.4523145588151603, -0.4727856822323557, 0.36692169808412844, -0.2806456381559681, 0.47709909299432085, 0.006915249702731553, -0.22403715311877792, 0.13810091906379923, 0.2828207613181013, -0.2663086218882056, 0.42770001753799525, 0.3374087263812063, -0.2646362925223838, -0.043055377213519166, -0.422657139780221, -0.12729659509305838, -0.20575893108734253, -0.11292131878930521, -0.45807315629503165, -0.4068035024522244, 0.2146100828508688, -0.16651128486609534, -0.09885241463850258, 0.2376103549497024, -0.09983684960491479, 0.3721665532929703, -0.3794651468124427, 0.29995965034755445, 0.044200316765352715, 0.46035269406221724, -0.49647836270002643, 0.3206721049274436, 0.1642111390543424, 0.24211939411023445, 0.011826495195204435, 0.20168481965646562, 0.3857951107996292, 0.3556675910521186, -0.09804537302049338, 0.26094612994588323, -0.24497449550634487, -0.28501370163910356, 0.32074133365489554, 0.309631995315872, -0.35414127818107793, 0.06500614571936814, -0.24178668443338036, 0.07708690352386327, -0.3581859508242553, -0.29383742520088585, 0.42852888902290165, 0.1116778098637583, -0.06226749726365255, -0.04284891928049772, -0.01633113493983762, -0.4629200088142468, -0.28287880052020264, 0.3400773895568784, 0.34849400641073813, -0.19050062562560977, -0.05141868163935204, -0.032703172721605944, 0.24518153528279185, 0.2204117413244816, -0.06311825947247163, 0.19633966715828843, 0.006211426741300596, -0.005574053839527693, -0.13333776452044, -0.39742274748995043, 0.2855445125747821, 0.2474895172996039, -0.3341010962711778, 0.3347728104324904, -0.4845918812029578, -0.32032937350015867, -0.03878734327784261, 0.44442721223250115, -0.39646895697435447, 0.2739638283225794, -0.15235098995537177, 0.12648645308662987, -0.28968144611190993, 0.20595020062468106, 0.005502352339000538, 0.27678380884663506, -0.20236515370416158, -0.04557782991875711, 0.3916765157486428, -0.04008695304167402, -0.03131668905774387, -0.061805385531494964, 0.259565266611106, 0.36680095415203057, 0.4914771325819571, -0.3776805251963263, 0.32553002868044656, -0.005109319803786399, -0.06645881738055806, -0.30614867482154723, -0.19061482135375032, 0.4402001205042775, -0.3998970085440937, -0.010670325340394138, -0.26075447988432754, 0.3944331385114611, -0.38853290026977894, 0.41410414241485793, -0.03527154975096858, 0.10684468790923862, 0.13381452637363986, 0.2493987356461122, 0.4121668003987606, -0.11115189775722623, -0.2860005737834605, -0.43077274622026135, -0.324409744481651, 0.4838088095332567, -0.31097660158984897, 0.32904574459308455, 0.46931880702764783, -0.30017664516185216, -0.4925922654950774, 0.09250373459109436, -0.2724406045219315, 0.10432378908492548, 0.3243842871929157, 0.10455084240984644, -0.41036441962972, 0.4164256065798778, -0.14452841946609868, 0.36995192839790014, -0.19428117601254224, 0.129428855790365, 0.20017151896344976, -0.46661271618139966, -0.21597356938224055, -0.03644927153380573, -0.21586009843635537, 0.0628353526035207, -0.1306601000302158, -0.35935725887895675, 0.002085886991319224, 0.05793627002267954, 0.25947505746728294, 0.08250747095723063, 0.15875576841073336, -0.09197670648264712, -0.06611281590941592, 0.25345747133414814, -0.3397880096410254, 0.2703752246606633, 0.13569939348060656, 0.4162483587850172, 0.323014288401939, -0.369725732690925, -0.09253899962266038, 0.12600037284388713, -0.45902607488787217, 0.4847540106525944, 0.4839254858462444, 0.14911712930300702, -0.4477656727517594, 0.16995060213659863, -0.17625703693117079, -0.21686389520337443, 0.38518319917203175, -0.14336170920190885, -0.4495098500685125, 0.2867401602933364, 0.05169399553703512, 0.5469949566109209, 0.3493619603596398, 0.21236120942866546, 0.3394550568041078, 0.23937718840244385, -0.3994576876233421, 0.17205172411302244, -0.12929245605123674, -0.1346026209017609, 0.4056841472286338, 0.0477347681346596, 0.41340730435553286, 0.20432161545192218, -0.17462959302431946, -0.44148227263643613, -0.13061484279260757, 0.3310112659220508, 0.05858364733891601, -0.434748440663308, 0.12185447325211718, 0.2347393954794459, 0.2614072347665547, 0.18012705747910568, -0.23570626329625854, -0.07167976533383547, 0.3107961695743327, 0.28469870830717314, -0.09705552957972206, -0.3933039130875383, 0.12690489361084456, 0.46393317885175667, 0.37063796206760424, -0.020189813951730876, 0.6062351594266027, 0.3237628968204421, -0.25620156205782413, 0.3429959389581805, -0.05337763790526891, -0.3423488466785127, -0.025835405489901625, -0.3977107078580194, 0.025715521831066245, 0.07131728117721421, 0.31081969777304785, 0.43881847455665635, 0.03694495800609709, -0.058805034024160666, 0.3615059072057829, -0.25587321509299854, 0.3727695155040464, 0.3876735391503601, 0.2598315893251832, 0.027614376960518917, 0.48683923362669984, 0.500521282312551, -0.17111028211817655, 0.46987255538520967, -0.1624175883673882, 0.34934733069477786, -0.12052725595112383, 0.3471378472037781, 0.2506944781568946, 0.47640797278721914, 0.422609579962808, 0.16543402759277032, 0.052630821796047264, 0.03108349702649288, 0.09103224165615374, -0.39567684949794046, -0.4843174891936165, 0.06874988844725664, -0.15517435388614725, 0.4434970720864468, -0.4352982906484651, 0.38099153075885794, -0.34784543309438676, 0.26663978788172427, 0.4840496821957595, 0.46901738419660705, -0.28651066705513445, -0.15506177314897374, 0.5184193511018241, 0.2181349305472455, 0.36031393946691587, 0.3844166525104624, -0.005390036490983091, 0.2410340451202659, -0.020643364170198693, -0.26573328129528445, -0.28889097620002224, 0.14315460148159756, -0.17270504362402958, 0.01178219148583955, -0.3573115298683256, 0.0918859917900069, -0.10155046165381479, -0.4419412397965981, -0.24923241855986927, -0.46850044753993053, 0.2242803228754612, -0.27657607727133365, 0.1331585502684425, -0.1600175004612612, -0.45432439027441757, 0.14475354438247334, 0.45651641705452706, 0.36869620497502836, -0.08052079814582092, 0.495475398916151, 0.3335147595931049, 0.3110820027809021, -0.11066049763317522, 0.028750690416595344, 0.4433754002896929, -0.16657887463745852, 0.2587573887349015, -0.0073479381381205714, -0.16212746592693214, 0.006093948629147633, -0.2707137580679755, 0.20579802067944022, 0.3298110461988605, -0.19444081873706934, -0.39310865141685236, 0.15442041458839148, 0.05127754581045735, -0.37146500012584655, 0.14437616843512843, -0.015703812958215723, -0.2639297947566939, 0.4494673498560738, 0.3284186561714328, -0.1725314122360951, 0.09854553739057312, 0.27822287328460804, 0.41531137448971506, 0.0034286458195354466, 0.23639483183421117, -0.2004431213218673, 0.10595200581622034, -0.44836797995884836, 0.36426087980387356, 0.29858656343851087, -0.2592275726567661, 0.05200241091770739, 0.4268669413467992, -0.3250498780456544, -0.07406890346233877, -0.2532232661883925, 0.19594274644602652, 0.20772903427505932, 0.49415531347712416, 0.26985796923122174, -0.0845326898184202, 0.07903826253594744, -0.20129079917588735, -0.151553756912979, -0.038912815509613716, 0.05970940966283536, -0.05786979304837503, -0.448780527244635, 0.29992930235034637, 0.26463413414036285, -0.29414123965018796, -0.38512503652737334, 0.07162803392413455, -0.4228628765311735, 0.10735062294765292, 0.39136875398754856, 0.12674342222048987, 0.3163152750902059, -0.29934986421844195, -0.06441710665137824, -0.43187609651433734, -0.4144328900868016, 0.047818605275178616, 0.15688459136388816, -0.02459933232796356, 0.4567562037524591, 0.26726409301421417, 0.11995706141495595, -0.2922933880482553, 0.34419571349704847, -0.10450639969050153, 0.3337189146934132, -0.4546416631015748, -0.4322091222641312, -0.3284980585315126, 0.33266877077219853, 0.16112575355092268, 0.12390651111394155, 0.34262925646714326, -0.30464720681406043, 0.03778480311905544, 0.4255100944696189, 0.28001484497658724, -0.14103720516200435, -0.46581372994247217, -0.3723743833366161, -0.03768922941207164, -0.2582391030550325, 0.2444815111179873, -0.23176203808755172, 0.03183844867893559, -0.10304389587081801, 0.46394176203936555, -0.007911095430983521, -0.3452943277572383, 0.2333926565271314, -0.14645931055301617, 0.01765386213229562, -0.11351365826308824, -0.34533317050116147, -0.11080447125987172, -0.32359663108142517, 0.14529448373450882, 0.07483730183179331, -0.31074052323317075, 0.009645291112321742, 0.42133956602737344, 0.06592866325070264, 0.22838482863388676, -0.18312099334018142, -0.007237187457115106, -0.48517118670940057, -0.28829178620169144, 0.17139207735023956, -0.40969891373708045, -0.30582263760588596, 0.2375557731952634, 0.3844284585040109, 0.40887638032922596, -0.22748738276680208, 0.6039051421435613, 6.984258078519754e-05, -0.1518731986976259, 0.3529790894997193, 0.19031720782332096, -0.42281243477472175, 0.46138384434827145, -0.13220001380049237, -0.3750320353993378, 0.36293433548357473, -0.4864916257273131, -0.05746770073983288, -0.21197671450394456, -0.10710759908030527, 0.061638208230235296, -0.5054209682060212, -0.296585401287458, -0.30322562822002264, -0.001530241471987332, -0.6296184005533788, 0.2904084257225961, -0.3997399610522347, 0.10720457492433275, 0.013836472788080435, -0.033056617891496436, 0.01581839793292106, 0.48508141105762703, 0.09691541694448659, 0.39732745402051695, 0.08965541442250081, 0.21897077445582683, 0.01534403124442934, 0.24078552520650268, -0.4086128741179768, -0.0340257863446107, 0.3515096245571711, 0.3928485494902134, -0.45237947486041263, 0.4059689251448604, 0.4919291027230409, -0.08217658784228485, -0.3263972469356313, 0.2546777262294935, -0.23161146079021863, -0.231748050188195, -0.2211423756853091, -0.12009650895665912, -0.2819039443084985, 0.2030389518508203, -0.4633581885894672, 0.01987157707058128, 0.05161286280788803, 0.31286963662119066, -0.03883568399326708, -0.022865043455256247, 0.40899732816517675, 0.34775274064360623, 0.04041916448458632, 0.32615719320828157, 0.23055399808384927, 0.4521319992224889, -0.07880464560256716, -0.2792236355008825, 0.10495105105587926, 0.3970028856557255, -0.13568897545189995, 0.33345171622592873, -0.2378755215985896, 0.1106671863326714, -0.4084987172755434, 0.35907428913013295, -0.35265614138284845, 0.44519618677717254, 0.10995007896425464, 0.035437883412306276, -0.11279302386251026, 0.005830375365957048, -0.36279982757657997, 0.19789737841569616, -0.11616859149822568, 0.13486533629516737, -0.34371839674060556, 0.5373375456482369, 0.519623342626424, 0.2797022435520323, 0.11837949147534713, -0.0015250854863440065, 0.44988029696496523, -0.44445915418828963, 0.3686010882379586, 0.36347189449462575, -0.013480622403294526, 0.41481546356029275, 0.11631818254393755, -0.11946906609508201, 0.3312583732070532, 0.4149885235684964, -0.10156115365196697, 0.39352642299853696, -0.2616710851317278, 0.40945184687710223, 0.05347651910519029, 0.48711502118396105, -0.125788855249896, 0.09815604031085667, 0.4693064888827309, 0.23684369049737286, 0.24180588040258322, 0.0818671039122484, -0.12098397722573051, 0.4881042626940022, -0.001073428357091315, -0.16189419171726277, 0.5250873902858869, 0.06224661954120304, 0.17174084654163818, -0.15066346254844168, -0.21741763445309742, -0.37002204517915244, -0.4551039288008156, 0.1414268744889836, -0.3583571823929063, -0.35166690053238214, 0.3878330350056177, -0.1601583261202049, -0.22721499407856868, -0.08271747663679271, 0.2972519384243217, -0.274675494123739, -0.2143210987329852, 0.008765964479014144, 0.4658371261741011, 0.021191304570408517, -0.3096143625060144, 0.33485509256401935, 0.1209097174760312, -0.25277894382869476, -0.16968772510487903, -0.1378458225007926, -0.05933451813448877, 0.2755888761594312, -0.202338638546528, -0.23516962406561218, -0.3483057314747864, 0.24111639508302307, 0.07051575345907987, 0.45981385838641503, -0.009315821571243782, 0.39934529694595616, 0.327967377127175, 0.3332560659611339, 0.408939639419564, 0.31812554090296236, -0.17105586649621748, -0.22561801259827144, 0.4784618257082181, -0.035704625917812476, 0.5592825509339627, 0.418213162607213, -0.16397801168966744, -0.23032434856435838, 0.37380042526365764, 0.5021022858610918, 0.2657368689521566, 0.03463859473191133, 0.09236998738568858, 0.17877303850966797, 0.019539315615654015, 0.05637799071079266, -0.19711396930282862, 0.17321071995645188, 0.571660459842014, 0.07147441733025846, 0.2052832196755206, 0.17071239945418704, 0.11080799769613521, 0.459804924117271, -0.45881542395997355, -0.30166555261563244, -0.11961082012377533, 0.34784404762155086, 0.4838945333827497, 0.46649818640262286, 0.0076816072712898205, 0.0520653745213177, -0.4248173952413827, 0.4604405910220382, 0.36558129811448786, -0.3405605631801203, -0.016185628065190426, 0.13577647781038568, 0.3169487323912346, -0.07262972167832646, 0.2384651437025967, 0.42197468536670013, 0.42515697239542405, 0.20894326204918845, -0.2698922150413744, 0.26898935916241723, -0.2940780682651131, -0.30913314736196884, -0.09954014359003031, -0.3606117229448477, -0.07258419630848835, 0.3335797164576518, -0.4481562072775385, -0.44959024230089795, -0.3699679608812778, 0.2250528238918808, -0.25006793107610337, 0.3474145368307344, -0.022409062613203506, 0.5435937852458607, 0.5273794579018215, 0.39472267403536193, -0.08507437737199565, 0.3660806589318147, 0.028578566416945714, -0.45190869070073536, 0.4077516727778711, 0.32142253210286487, -0.31072894109408467, -0.17188246397045048, 0.5745754593778303, -0.30909689081979497, -0.10979398599722119, 0.00982141712506005, 0.42773095569851294, 0.48612352038426326, 0.25598408651542875, 0.031015897400386284, -0.45575433641157165, 0.40947701843635115, -0.28821850348597255, 0.4484478901637522, -0.40627074743944225, 0.10583787212297627, -0.14664010897284846, 0.31454841533919603, -0.3429849526530815, 0.20563518729959657, 0.3387659702547618, 0.3083294044901923, 0.16649061889331385, 0.3045945612495952, -0.4391170104042436, -0.2977823116911256, 0.49402285413676605, -0.4024012684937209, 0.4064115764845789, 0.17648279842138, 0.2648229900075583, -0.34334517623655236, -0.0839802753255245, 0.5441056744305174, 0.14399569917023675, -0.05642136695935412, 0.01626257673337727, 0.162072655997673, 0.22846745489659193, 0.32736524734228467, 0.04755171849319506, 0.04990591275604184, -0.07517372155166335, -0.009119226254531253, -0.17617859972449407, 0.21184037429044056, -0.04625005349550944, 0.5096006259159906, 0.1768574556441462, -0.4632956631932575, -0.03583185649169578, 0.32680358550760114, 0.41001891629230686, 0.31884771723434385, -0.3658388769878433, 0.008664677756597853, 0.11152282417672163, 0.414562844313473, 0.45572635952843066, 0.541662312269254, 0.4131107251127992, 0.13018218000686563, 0.37925750583015433, -0.29272369863305375, -0.3509323885604166, -0.4050636928460341, -0.06293268545598377, -0.29043261166382917, -0.037483516085836, -0.06802640403555738, -0.06249291512779853, 0.3831892264894613, -0.14648802164003877, -0.24027932277894148, -0.08805163220764682, 0.0930098919274024, 0.2937453233546753, 0.39442858220902377, 0.3471252398677719, -0.17795426662663202, -0.11259839601082842, 0.013193490094510686, -0.2843568132179659, 0.39464326982370473, 0.08893795733891335, -0.09520715093445865, 0.2860521862587193, -0.43961477846649305, -0.36830462881199494, -0.23391034509909178, 0.355857985678183, 0.41450733045844645, -0.09201405463481561, -0.1406559870182322, 0.3193112669393638, 0.3193305345467295, 0.10604264758378212, -0.450366260245337, 0.14117170905198395, -0.13742920406934123, 0.3160969973347015, -0.14189241874388764, -0.41852910863845477, -0.14333174596711773, -0.23083237536066717, 0.379690873158726, 0.37880136484529153, -0.09547998375350708, -0.3818652727449254, -0.2521001980165017, -0.11572472105393158, -0.11766897380440404, 0.3444871747084995, 0.26709289123389024, -0.2972599950962262, -0.1861445704608118, 0.285548375599125, -0.41264648296749923, 0.05653389778348203, -0.2976450559996394, -0.3696309765238259, -0.2699739836855323, 0.11836387147423745, -0.13199395402155878, 0.29765539749153325, -0.06615737505615693, -0.2215284449839292, 0.13998338121516984, -0.34534802245941704, 0.45815737636787746, -0.33909451423298415, -0.037000289243287604, -0.46184034248833516, -0.40542622193630695, 0.22604860267846058, 0.36274432699807263, 0.2244627567698033, 0.3083730467952931, 0.10344991490754718, -0.2179518771352062, 0.29959680043711734, -0.4654146549176223, 0.3970350560568708, -0.16299884906288556, -0.36769637126333116, -0.002406139531796987, 0.36077179453946967, -0.14369048179940208, -0.22097099426688602, -0.08909223132380907, -0.12831975502265924, -0.28933449269418077, 0.27558281236375504, -0.18005092457268945, 0.3885083876437737, -0.4888851979958846, -0.05230835137365324, 0.40392539158335544, -0.30701311191727404, -0.17793085628114827, -0.4996261104972199, 0.3861664051692636, -0.3002806225667024, 0.33822384595433924, -0.3823136640511979, -0.34670601109116705, 0.04255021424081901, 0.12755707609473915, 0.4422820125142596, -0.31412770265495704, -0.024566952017063055, 0.31105929950078126, 0.17773794065079043, 0.20416336560777643, 0.41497335830039545, 0.1465353826502693, 0.32521654122912186, -0.30780824548854047, -0.38538308658066234, 0.1868073411590746, 0.07691646632911542, 0.1640809287866407, 0.424215518220326, 0.05043700547564167, -0.39372105248042877, 0.12339267216949623, -0.2571622874682964, -0.12978635407307443, 0.49960447553534915, 0.3309017264280833, 0.44105375945103376, 0.0058665510897106705, 0.07879972277392074, 0.009573227137765912, -0.08108764389987304, 0.011964538390175875, -0.0615010518866816, 0.2431383903118212, 0.3903075336958775, -0.4920966207350181, -0.30128794318291485, 0.4195449781004064, 0.08438910361546238, 0.18935447696031793, 0.3472259233960049, 0.04835418875222586, 0.3644269141985198, -0.4936941758218172, 0.49842800688818933, 0.47428451773998626, -0.35388145562929996, 0.13292023004947473, -0.23292849442114782, 0.13458873738753507, -0.2623263996606834, -0.1555002444288378, -0.4653609138102711, 0.1506325387916847, 0.4686085744890697, 0.28312574135861024, 0.44870893246051147, 0.1642281667336829, 0.2102385539540772, 0.23260769806784198, -0.26997289186808904, 0.45207911613234997, 0.3660389420424932, -0.2730426116416256, -0.16856491625546643, 0.3516975301655507, -0.39290122941034633, 0.4329953872893134, 0.3433382990368654, 0.3276457912606412, 0.3559429284917148, -0.33297478045013607, 0.16448895132635666, -0.49046156763135407, 0.19447551396453722, -0.22081594784092418, 0.45490504272910937, -0.38106202901353636, 0.44540398133853754, -0.40189778141687127, 0.008047548905063151, 0.38970051588031096, -0.1524751340780291, 0.14646403315704795, -0.3646013390144307, 0.4852786032800534, -0.279723420736423, 0.42996980713257316, -0.05542457571628382, -0.05273715468445629, 0.2689322463092884, 0.2675507613651337, 0.09042884829143961, -0.13927778343106126, 0.13283444862427937, 0.31220039064825045, -0.04268251590358776, -0.49733915572886067, 0.23241255959460871, -0.01883374937506621, 0.003340906468071725, 0.42566773049354745, -0.28715632564811533, 0.39680686232075424, 0.2707619973481201, 0.3226369192513066, -0.19712735588304306, -0.04187742618039952, 0.24992935785330966, 0.010271144131754888, -0.18036598540906698, 0.20773878425318978, 0.3931102926377382, 0.04268588563239222, -0.49096057318642755, 0.49207946745572834, 0.08270658219630099, -0.21882208150460747, 0.18635377316543628, -0.47309650773434647, 0.2858395048123031, -0.11135160114337889, 0.45064035990316204, 0.2260939877979758, 0.31948383923867457, 0.1892437766441389, 0.4518013883571995, 0.38389998912371515, 0.4397343666082093, -0.20221746665179918, 0.31154837283218295, 0.3962545810807183, 0.4195868235221142, -0.04867124832756057, -0.0725205323459574, 0.3406009794052252, 0.48322727755673545, -0.20072636479771458, -0.2091439654068109, -0.36699301228078707, -0.1731006093643992, 0.07312787290822552, 0.2885611952215905, 0.36688683551254275, 0.1774718928930031, -0.3209729637797835, 0.03174381769498316, -0.13145851053953736, -0.42508430210685816, -0.30644294005451733, -0.3299844472215346, 0.0694320909014951, -0.2354572707696132, 0.37924684367060396, -0.460233227953452, 0.2697009893717074, -0.26880380336413723, -0.47227113900685824, 0.1516043583602079, 0.30908653052421864, 0.45079863190913894, 0.10561617413950158, -0.17438013399615862, 0.33399282430597277, -0.02139472418747952, -0.15732021080837993, -0.3845772094978974, -0.043156289828828534, 0.05015809668697125, -0.05408730402491839, 0.2523030728645417, -0.42970534013810074, 0.35455822769857004, 0.11051798593097656, 0.12098752445813646, -0.07876407489641153, 0.09977739406514351, -0.29800558383243314, -0.07196585081719785, 0.0011953092405418777, 0.3425659595262521, 0.43121346021691037, -0.290181840168979, -0.006493252812439889, -0.1982923007384746, 0.0026308306758040523, -0.3861312324063044, -0.4414397953924144, 0.40475611478121515, -0.1640149973365816, 0.26767592245482474, -0.1796730550062573, 0.06021243778943623, 0.04004843867370557, -0.4939642125900206, 0.4361575796290798, 0.40868145502235503, -0.16715795754204052, 0.10945353624766327, 0.061319839102369614, -0.273775759791509, 0.22513307398468924, 0.3049536345972394, 0.22563963923406294, 0.1710798263642805, -0.10433675521480383, 0.27205486802027895, 0.09522943268785065, 0.3890272968609548, -0.4015284247532213, -0.23187419133477158, -0.027250714244987914, 0.22189903145818493, 0.0929834739937131, 0.2509957692852447, 0.4145675026056896, -0.482474715705486, -0.17765526610332402, 0.07727729630866406, 0.10255603365725188, -0.0701015153204116, 0.32555236615514904, 0.40235438349883346, 0.19311491742862397, -0.002181555712435235, -0.11202084179343907, 0.360803996171767, -0.48507379469824613, -0.43230074784917055, 0.212968365400941, -0.543851179108087, -0.2457635336018383, 0.17120571967645248, 0.011012689336502504, -0.43450648397435565, 0.33071245792051446, 0.3897439930495036, -0.44339706575302246, -0.18021150655696558, 0.057411594539137877, 0.2657904586335912, 0.20913231851396705, -0.4780433289770819, -0.47752510351078603, 0.44246294891524657, 0.28852471506691957, 0.4630292479677211, -0.23145446478568102, 0.18367184713276596, -0.3655632552025335, 0.29522629638356235, 0.07173846347771362, 0.05439573998492458, 0.3924730494623436, -0.31699465560637796, 0.06854682376722486, 0.1253735374284837, -0.48580269974603507, -0.4534088813571865, 0.34074440027933484, -0.4263649518000411, 0.23549555899370656, -0.261151605631669, 0.2249475976387775, -0.061282752036689404, 0.08358744055240672, 0.17883623161274279, 0.3942789501463515, 0.4755001961245443, -0.3269797553662005, 0.19386350716933068, -0.3102792107556602, 0.24854105869755164, -0.4187436084523979, -0.21285093127452984, 0.26629430497483586, -0.2375783539574937, -0.2847095489457941, -0.4333779187739227, 0.29840123712627736, -0.07315059294889373, 0.22087362951933776, 0.11090193822523765, -0.3693012277903611, 0.21202862278547702, -0.41054433051996503, 0.3855389790236249, -0.06588670779431226, 0.05686884091915565, 0.3744611943670187, -0.298126007092366, -0.1962350485750591, 0.39030319699327876, 0.0014456661550604959, 0.23209200391396093, -0.30289842114830284, 0.40238427026583157, 0.011591170309036565, -0.032501345669106195, 0.43576798681601514, 0.304686180439805, -0.014251086858030284, -0.2586371007360824, -0.4046904308476023, 0.33803342405781145, -0.21649291682043859, 0.1334941351827592, -0.3666672997614665, -0.07802452807027002, 0.2265102691037026, -0.0613129476999373, 0.05991445723405848, -0.07655418353884286, 0.06329741282728055, -0.40650792912763223, -0.1935750914280176, 0.2289095753610975, -0.24230517992615747, -0.4462737388883425, -0.0626392194805528, 0.48058974593901105, -0.2723564867137092, 0.0013880902477003399, 0.3077732611820171, 0.39856107606541125, 0.35568594295844924, -0.28387132680208466, -0.09414876648989559, 0.4029095226461206, -0.4859634877100295, -0.3567725287885945, -0.13096404547663623, -0.1951179913876903, 0.042907461012000415, 0.27448171504325863, 0.4462589004462041, -0.031058440653248035, 0.5143562047986524, -0.2445200778763948, -0.4631250345313273, -0.3441171548702493, 0.27942852570311644, 0.18964440513899192, 0.07494439174528884, -0.0772690004698763, -0.16485495819394438, 0.36086419415790016, -0.4823935276020639, 0.2224868770914684, 0.036808992750591255, -0.275599220854413, 0.3868039882316478, -0.21081361365946502, 0.1261177360563156, -0.3486157858237831, 0.25371214926433444, 0.21696777961276156, 0.021469100071685735, 0.09172651536222283, 0.4799481248121485, 0.5097969513790012, 0.554983316797171, 0.5281198236102304, 0.20701342436680903, 0.2243360294242898, 0.618415913867656, 0.13493502433302335, 0.13947170941541345, -0.45449013858697096, -0.41394900819802605, -0.3140864707047779, 0.4923550660123893, 0.17869052271691807, -0.22813410467107856, -0.21500913645643396, 0.3459669601611489, 0.2987178471348632, 0.08758584819776877, -0.4533487848791787, 0.47657828861620755, -0.4862231100440717, 0.049419094385210305, -0.4304072286716764, -0.404530427732215, -0.24762258886321434, 0.33520497208490346, -0.009556360923182097, 0.5508363862382809, 0.3580024537738875, 0.11979401485328323, -0.08566471416323922, -0.025137779434911023, 0.08645694822545322, -0.27980889005293863, 0.16381048059673453, -0.14242373040559456, -0.17820256567041828, 0.3405249451527585, 0.47929367430060604, 0.07745330541923172, 0.09097004084755045, 0.4794370083085042, -0.3610303224158404, -0.23547910279455198, -0.05553435244103853, 0.28307212880087984, -0.4496994552609681, -0.13882971811191236, -0.15357868983202635, 0.3930396852128726, -0.0945250143364681, -0.26188612548318424, 0.4525244474393883, -0.08194666103745671, -0.3995763880336614, -0.127463028782959, 0.07105247460114308, 0.39665782679756745, 0.14586792448385763, 0.19379280983158756, 0.009247349284232513, 0.4746387628077282, -0.14922243614460348, -0.17745521253770025, -0.020705966317147755, 0.06888647904074179, -0.23304719158016218, 0.19354345253411517, 0.31455922008428405, -0.158513977146972, -0.24027156746511422, 0.19280941221762213, -0.3202057951176958, 0.25550081323610296, -0.0999675644185139, -0.050059429716100744, 0.4962762262022814, -0.13606479797358106, -0.4909283312317176, 0.4086759386488021, 0.16680128853215082, -0.3940828977231757, 0.5070736125223169, -0.07501779566920996, 0.19579759542080777, 0.6680473173314306, 0.0839053462537629, 0.4697832213959342, -0.1940885141911089, 0.0950385599884333, -0.3421830833692004, 0.05642483905945683, -0.039410158682731296, 0.017714016248815464, -0.20080236444251112, 0.2802245170614123, 0.47298182279520595, 0.4546999921993192, 0.3362380924907122, 0.13690185512563427, 0.164732444244857, 0.172629568178834, 0.32291221778051005, -0.3825567300244039, -0.11235131092924633, -0.41981655471932533, -0.06402253589337803, 0.31941076213773145, -0.37271963268689146, -0.013790635754963166, -0.12563908318612937, 0.24157442426716555, 0.22676947661717783, 0.0782867645481098, 0.2407173468936527, -0.23892285484437015, 0.5287287639268162, 0.37136543551473555, -0.2396861233487264, -0.28778773924495343, 0.18053463324653538, 0.16344368722693633, 0.13423092453097632, 0.13832922829354863, -0.15188750940729853, 0.1953761242974246, 0.10049601352816998, -0.3340128683049311, 0.10306333348330456, 0.28890413592388503, 0.314824997036167, -0.2750202464363955, 0.16568880956274543, 0.27717642410786103, 0.23015435721049382, 0.2882458634634346, 0.33008618237789294, -0.44486165863597427, -0.25241600171935485, 0.4414282839235194, 0.1641478433590998, 0.41481709276851286, 0.06804360487105071, 0.5728522072890382, -0.248872200496217, 0.4992572282973824, 0.3078628598843511, -0.30938911374716355, 0.5771695237793099, -0.24627354103014826, 0.28010164491053474, -0.16608597629639907, -0.24806789527008427, -0.0579268651753036, 0.40004628582134494, -0.42123646993263375, -0.0434346905771788, -0.48776124058758774, 0.4192904431649717, 0.20939131625761417, -0.34167972332513, 0.2731063493999323, -0.4381094928307452, -0.005851556271117786, 0.44001735519302154, 0.0652420102235955, -0.20906316542996425, 0.19043309944816708, -0.10300290006979398, 0.1662902526551012, 0.5348885698542087, 0.267798025603484, -0.20937887474980407, -0.008649347956103648, 0.05128799343022741, 0.004802315571094158, 0.2120929232092452, 0.529979193366331, -0.004479709178676478, -0.2115714735236379, 0.044694324187800644, 0.41680816603659493, 0.28714450065488395, -0.009853678687200468, -0.33825051866761346, 0.17423023239698177, 0.38647899404624086, 0.17815929205661557, 0.4128577625524206, 0.23654124200796123, -0.28727645550686354, -0.2747247866925767, 0.36139300183461776, -0.49957566508838136, -0.49577545305906173, -0.2042613892374661, -0.03842591271946476, -0.16194567781134528, 0.3975757885073197, -0.19970126025712243, -0.26456908323233697, 0.3717231901542176, 0.5210568066967276, -0.35203989633428323, 0.11893458450497578, 0.41312296524904224, 0.42579541918545283, -0.3968203774211821, 0.20011583463802746, -0.36318527835089004, -0.002107842545590882, -0.5233765435787618, -0.4699220075004606, -0.3811025173593466, 0.33922660136023575, -0.08378038379117657, 0.3844261734882169, -0.000959902275748048, 0.4834160670759282, 0.13268021878052963, -0.38530559342002274, 0.23654632037840947, -0.2865342080604819, -0.5066830714884596, 0.24754820904262065, -0.44917595053865356, -0.14006138527573475, -0.23979519027306598, -0.3396379579377625, 0.3635311001543966, -0.16779023957753234, -0.3799207274795954, 0.3693468363335022, -0.00560613961355906, 0.055775854883722706, 0.19064449378100798, -0.3853980393195136, -0.15822310513254076, -0.29557671448765305, -0.5296542402974516, 0.34984781033656176, 0.19132449761153036, 0.1454635987713747, -0.29442268255218706, 0.2366721054439881, 0.0020751934570973907, -0.15372435591357062, 0.4811418104878758, 0.28271149517985006, 0.2204965261515986, -0.030176575363457334, -0.15964082355069528, -0.48753224868211203, -0.3001018924555119, 0.2403431309795545, -0.4313184994051876, 0.11182563896042143, -0.30186761519239536, 0.49955111927819373, 0.1983599512672395, -0.06295351172322584, -0.010780342996234342, -0.2198515958092809, 0.0321364925892716, -0.04319138054662242, 0.33336991574127106, 0.25068123352959815, 0.40375920397548754, 0.29758568716171735, 0.08305401876625258, -0.4072474143710826, 0.4273939544157546, 0.32357286097616483, 0.31145249420915777, 0.44013943023957797, -0.27761447973694636, -0.3646889430971758, 0.10383418365956834, 0.3210275728734717, -0.01991169170430577, 0.1500487732403401, -0.2771668847153401, -0.3844130955071317, -0.37142188997200287, 0.07000064487780222, -0.35752815878553423, -0.20343547243699864, 0.2671976359308181, 0.11643709759771784, -0.02477773012561206, -0.08312639468951481, 0.07901093577821465, 0.3721750407743488, -0.20167231606495603, -0.48955245337545106, -0.2837196445891541, 0.45539262274132375, -0.10607106559836631, 0.04565996554468219, 0.31654635723985347, 0.23762219071024648, 0.4520295369851366, 0.3480773390283066, -0.12211949843106831, -0.4827250050335478, -0.16411666581592055, 0.30692963550489494, -0.31685758005125075, 0.16536569594778813, -0.08766644335194038, -0.19139740236557687, -0.02010401753936557, 0.40869221353072377, -0.0672532698309498, 0.4136008072674129, -0.4048545492322014, 0.19435592709005706, 0.29945919082239125, 0.08152797125650299, -0.4318097988260703, -0.06619751942002201, -0.11454711505506168, -0.14549962561052618, 0.33307943882370084, -0.361489883737808, 0.3640133721600917, -0.32414420429292967, -0.03697772652047197, 0.4560064783703298, 0.15636138404046918, -0.3760812682213496, 0.3953365229577619, -0.2581740181161404, 0.35312814700038725, 0.15752675406327366, 0.019899712848935436, -0.3225600616581178, 0.32248601464882237, -0.03204387739697217, -0.4019135549447111, -0.4213789332609704, -0.46274785635914595, 0.23142543234969704, -0.42829629226969457, -0.27123950558633325, -0.03092909189943523, 0.02405230894272138, 0.30302136011649317, -0.38756202887373425, 0.062154585814676006, -0.3391944035255489, 0.0006724250214220397, 0.4403031377872998, 0.19620839906000717, -0.32590019488355715, -0.1301531561499997, -0.2415219147801848, -0.445541552565236, 0.3798385439484655, 0.05510465147222343, -0.31725531634706594, 0.3073737999027377, -0.4301848629821891, -0.09082933069815315, -0.021022270898042004, -0.09703257683606265, 0.22447762117650133, -0.3066575914747514, 0.40720559153200186, -0.2154845624872779, -0.4195009541274911, -0.388239815444459, 0.262322626776067, 0.3243255483047095, -0.24448669537841997, -0.22522446983985006, 0.20225769961610307, 0.37827165771313864, -0.0862045619590251, -0.3249518973845508, 0.02940301635377168, -0.45929362748541247, -0.4573542142807016, -0.3376937467443173, -0.342150737033437, 0.19905802608958223, -0.47122883291657003, 0.1710996184261342, -0.4317954852319039, -0.384935644887483, -0.4175361035178119, -0.16441185680822798, 0.03561596583351518, 0.021910692960438363, -0.23817822374637268, 0.29441342909972673, -0.16420269492825165, -0.36214825340733453, -0.3082485818561633, -0.4642805634847854, -0.41298289573551783, 0.17541131386177758, 0.39428573672767586, -0.1056805455654957, -0.5124013639110925, -0.18411116891320084, 0.05391267398734276, -0.3370192640037129, 0.0850060244597529, 0.4795194465738075, 0.18356720364275758, -0.25045625733614585, -0.024297364251568476, 0.4706943209114458, -0.1960069070418312, 0.39349647119248443, -0.34036065118464887, 0.3817584334302059, -0.4060767144470539, -0.14759235734499349, -0.2581089699123761, 0.34811074453955765, 0.10606574262339596, 0.3707101335364629, 0.4406436020918342, 0.3249898059843623, -0.06580208232577806, 0.1652246027922033, 0.19799184510138787, 0.41893121005919187, -0.3865816526658144, -0.39578334314023417, 0.38567087921710486, -0.1465302454886203, -0.039352083805429545, -0.3309303841073477, 0.11867426901210858, -0.4783354572946631, -0.19826094566283337, 0.06094988055049566, 0.07377135756207565, 0.4789155606872979, -0.13577311884256527, 0.09956499658203932, 0.0993772147927573, 0.19541760429226962, 0.06805069242477191, 0.2402415585504332, -0.25604261529122296, 0.020236974178849534, 0.4393955289063888, 0.34682496910405985, 0.3814940859540744, 0.46307874537178234, 0.015362770599536371, -0.3395345917048686, -0.13056996360314976, 0.16757265654779285, 0.030454232735501074, 0.07986542943442704, 0.3279755781192738, -0.023447216393353596, 0.12654085818502242, -0.07043340849165249, -0.10896627303367767, 0.39121485931871736, 0.4779726282731399, -0.45800534414944993, 0.18578923312167495, 0.14687451184447253, 0.011456712192682628, 0.33080044555431, 0.39662950276337583, 0.06866500124471997, -0.06014876996854812, -0.4103956361069301, -0.195099480844675, 0.40661180844166833, -0.26837025567233364, -0.3410750747372564, 0.24223360916603276, 0.4290059747160354, 0.19587210748626427, -0.03154437104733121, -0.49775860857689014, 0.19568487267487045, -0.2518266394168589, -0.0986293969117863, -0.40849519440938364, 0.11862729252842918, -0.398889346079751, 0.38408615692734327, 0.32848328636743485, 0.49099581285554306, -0.05678913274555897, -0.2877646573899295,