0.2680655700271074, -0.20396849418361207, 0.11226676454407702, -0.19628031096527665, -0.067129880110948, -0.016153675908513576, -0.17144656387735324, 0.09689965418318847, -0.1345843888971987, -0.1434205963692633, 0.3169164740931081, 0.11527608472438178, 0.14888319402317313, -0.24561053500747612, -0.3309993672158251, 0.4716321662187536, 0.16178636612319097, -0.2758728957705838, -0.11730083408135805, -0.39313638184200106, -0.16235783623921451, -0.040996873695750335, 0.07614417199644696, -0.1479245159466338, -0.48357626254753194, -0.027474343383318223, 0.32143413945673494, -0.39594389673523156, -0.21602131323372753, -0.02439069620540646, 0.47323227915451027, -0.47678962216956844, -0.07757257852110487, 0.1360841080706778, 0.3100758761053712, -0.2323233088817792, -0.11945374995014894, 0.37144278897014665, 0.4094312866452761, -0.4694491893956085, 0.45484979518917606, -0.14708533310002447, -0.42491902150730554, 0.29538606294816633, 0.3430933595597609, -0.31835638141770084, -0.07803334630723331, -0.093522069690534, -0.12105671266388053, 0.11965416323917492, -0.237724395727482, 0.04358860411175569, 0.03823702501232795, 0.15372093700825462, -0.08313729545213522, -0.3555582554308967, -0.24295330822348338, 0.201807641047686, -0.35167316065318827, -0.0504958375001374, -0.4658033585563738, -0.4815060761476412, -0.27421490219774963, -0.3128604728645545, 0.23432614523851958, 0.005112272113341466, 0.18423059665831573, 0.4904285041390002, 0.3023068631043579, 0.4618139808588717, 0.10073117690360359, -0.13666964120779365, 0.228835504521906, -0.345891074552851, 0.24921115217140763, -0.06095898712531287, -0.13911850742117304, 0.14304978647633337, 0.3138504821599694, 0.46156466491975934, -0.2868061231325161, -0.1436399792293354, 0.0899116565822049, 0.46955417032909996, 0.016336381355915086, -0.463246000454297, 0.337820767663498, 0.03175692532349825, -0.2346937455235602, -0.12127970864254302, 0.07103735507749931, -0.4612208683887708, -0.341569207223716, 0.27632615991055437, -0.08618654204407283, -0.058586854072041436, -0.2176319944161091, 0.05233037427758831, -0.13857781205316091, 0.26618166873267374, 0.30811647634677425, -0.2609785554040345, 0.42208303900327215, 0.30701087349200984, -0.26237706651286313, 0.17526462296944118, 0.0601929087398741, -0.14710589232708393, -0.1647548514693789, 0.4437261142542128, -0.26126228251683814, -0.12896957777212004, -0.10235166713707733, 0.024085839668103626, 0.46855954136726474, 0.32774797125030086, -0.12044698755906753, -0.425909989371976, -0.17614910385640295, 0.14665242241624013, -0.003758024528195861, 0.09324253751082999, 0.2903048695140186, 0.2398850871197583, 0.15869594584559077, 0.5408492925477706, 0.2537062526552986, 0.10711548554129822, 0.4045764981187619, -0.04178342405000193, -0.43593674456182074, 0.07186204282042881, -0.4554754507205082, 0.11066081522572424, -0.11358699085899877, -0.23282553811834406, 0.17905538496491383, 0.1749968098794594, 0.379713765229364, 0.12159019076847233, -0.08761687776574911, 0.43318465413825147, 0.3183730436522083, 0.14542013812591864, -0.2991436939223123, 0.32475137854199393, 0.36643013643866357, 0.39953265251115266, 0.2688339411299592, 0.33693361037467123, -0.24521672645031944, 0.039595340387566284, 0.3404919818082476, -0.1037252760711743, 0.4062109194954907, 0.15758673655422165, 0.15075752826648087, -0.21042533740109057, 0.1418949460711112, -0.06450027370336908, -0.11953937482640735, 0.12052568262130028, -0.5603023206889948, 0.19096565524861933, 0.10604701511107327, -0.2508975637788104, -0.27094751951619994, 0.12898624909920836, 0.350892773019747, -0.14629097035180869, -0.027398981841091928, 0.1660197040496269, -0.31457571387419786, -0.2944442894833391, 0.3015594161396694, -0.12003159258631027, -0.2622835774613453, -0.037701699897503216, -0.14401907225645122, 0.11025573851468774, -0.2552378362370146, 0.172911441578358, 0.3543821970492663, 0.4210519329641721, -0.11240141359149325, 0.4132641535002675, -0.37240018162732397, -0.48928824160457524, -0.31840547079149706, -0.3765444595880243, 0.13017889277544975, -0.27612105904970413, 0.08872007654094641, -0.4280749756301969, -0.5209514066257004, -0.18734501300691492, 0.33897038565008875, -0.1398870751973524, 0.33932004618067463, 0.18997466433754784, -0.27397371665633163, 0.41198150458968086, 0.32575935160886277, 0.1669323355880595, -0.37917069934424963, -0.2188744060124978, 0.10748560212222404, -0.4841596913195453, 0.2076083998979901, 0.29694887524195157, 0.04928214536560018, 0.5406172197519781, 0.2539182976749086, 0.20735425438109026, 0.05845975190978245, -0.007831554012605072, -0.03522968383778746, -0.5887331269958483, -0.12743860820278904, -0.28991643716627713, -0.0798798599969144, -0.010507369247335112, -0.4171998966585236, 0.09944459374086784, 0.34523678675099556, 0.11593987359943994, -0.295538602546792, 0.28272885402269543, -0.30672236202865094, 0.21162790140293353, -0.3339823352533861, -0.4411982774815425, -0.46128016764845564, -0.22664885245684047, -0.5534597079957864, -0.13439450452890947, -0.04404502032301996, 0.34059766589464036, 0.25566904969878657, 0.43097762542071283, 0.3864631785848673, -0.05607199940167125, -0.24879475246492097, -0.39098731770627804, -0.20667759900400207, -0.4106010540185185, -0.05234324085962412, -0.2904483985053142, 0.0993257612620769, 0.18367252311809418, 0.20163093326450088, 0.07076771634372836, 0.25957123653921066, 0.10928622282666459, -0.04228430837097315, -0.167381005148079, -0.3899198194592723, 0.09416626120874749, -0.034329084543306, 0.0682316946417879, -0.485692428042125, 0.16947166418349727, -0.4728243502820634, -0.6091522684653272, -0.3376660429842281, 0.16206418427048547, 0.6235901286578361, 0.7132722835854356, 0.029788044580189015, 0.41988134524850007, 0.15009266172454874, 0.06855588296532608, 0.15902040298198344, -0.15330916439193604, -0.43349050030605646, 0.22463684746381227, -0.3258748286653477, -0.2419645806933805, -0.29975658018798856, 0.012300186128988944, 0.44953679540689445, -0.05971548406308925, -0.3574987559998907, 0.14458791052970515, 0.1980513109751538, -0.3292421106463684, -0.3719819797075588, 0.1270049915530517, -0.19551122356611572, -0.10657650706134365, -0.06154131440117668, -0.4067189122170712, -0.18689145942000987, 0.0806396010010088, 0.6197908219261015, 0.4338013762224839, -0.4572743555053503, 0.0370849719435894, -0.1766402996849167, 0.1499304995037775, 0.2917063788846903, 0.045575045647706626, 0.03022612433397586, -0.2953928634550574, -0.40853141341545735, -0.1945817243625744, -0.1575574515305178, -0.41275467798804416, 0.24342371446781463, 0.11977742736641646, -0.0378361734814182, -0.08526753615544906, 0.45688726510371586, -0.02258486612063087, -0.12061445036343336, -0.5096373222330844, 0.07115417518919652, -0.7015883426896905, 0.030721916555195863, -0.07961942684614305, 0.15174318076308657, 0.36052793724317683, 0.06521473059339769, -0.04317213693125518, -0.20661511817765496, 0.015127828801635346, -0.31036910598746376, 0.007694939104932295, 0.04103292411190134, 0.2713617267060671, 0.05232753564671119, 0.30961367120785654, 0.24112618983768727, 0.3610412655511143, -0.4046664646643265, 0.2715100174708443, 0.23270175387401368, -0.07014506880981217, -0.28731008652844947, 0.48833294487089063, 0.3809859776303051, 0.31111736806032925, -0.326303281073214, 0.21292281487941292, -0.006536116795934251, 0.4356444428952803, 0.6230570315639984, 0.1366709900048473, 0.375381467220548, 0.41584615359157273, -0.03209610680599905, -0.2123995182458229, -0.01881497207720604, -0.377389240892517, -0.1588479103379115, -0.3433376795988048, 0.029180300581012977, 0.1498509405971947, -0.31500726131335255, 0.599014463949831, 0.22416199711562784, -0.29911528572302915, 0.06237861686199797, -0.38739963179338865, 0.19672894016148, -0.2186619959239987, -0.23675567737652858, 0.3034476075319815, -0.28240402306862783, 0.07796643226540109, 0.20659722676998743, -0.046147697870213986, 0.3566175222210961, -0.03813947114762059, 0.39983762895285485, 0.28686663679579594, 0.291499319645505, -0.0692421835274792, 0.15570516457604283, -0.6410291657981826, 0.035679978995620615, -0.2865953858363194, -0.07266405056884963, 0.07712631264892059, 0.18815448616986916, 0.21781316029036, -0.06727019434645733, 0.4513576215152035, 0.25174758460294305, 0.41182006785518, 0.21909194736486667, -0.1386977879467555, -0.009405308138168152, -0.40722341282110847, -0.02757747808132127, 0.06910428363840951, -0.27736077921840924, 0.29102867000975996, 0.5993778750168703, 0.4716963817837557, 0.2029135918117636, 0.17563107077377987, -0.03326334405045246, 0.04610317074386061, -0.3730840067433065, 0.17241558801955933, -0.07480508360996058, 0.12882438733418544, 0.07091384613080066, -0.16424415183175, 0.24954947041171782, -0.029545483886989053, 0.14676697246919662, -0.08394758253020707, 0.2902611965551123, -0.10476081547731828, -0.1667719398919872, -0.003346799391831836, 0.07181372500077843, 0.14431609099729534, 0.05467510453171347, 0.43270750017089443, -0.41958974074286054, -0.3753254721906271, -0.3000752053863405, -0.13414198316325024, 0.4348537346029265, 0.32362150761560116, -0.22489458597283773, 0.3571585957874932, -0.06478206166415305, 0.29326274023308907, -0.39075497030000667, -0.544770526041137, -0.2246948751642581, -0.48939894860159483, -0.40124841809697137, -0.3296902564478301, -0.002566100142380996, 0.19222423305326947, 0.05641444806681104, -0.0352029454844791, 0.1900585832828813, 0.053995591771808425, 0.19956173041873126, -0.16104118895827987, -0.0473189822581344, 0.3748048267801318, -0.03276527582626416, -0.07536707019256025, -0.48062140037286777, 0.185911220644842, 0.0324991389434941, 0.5723288517096774, -0.0962721523219624, 0.35081243757744823, -0.21431802262142166, -0.2698107161574769, -0.041426136634690164, -0.015892047397187803, -0.3510606848806172, 0.012403668775599456, -0.460442300734436, -0.39573037985612103, -0.26086113947379835, 0.04304425120274207, -0.2221674466706015, -0.1949655884649418, 0.5747960269665794, -0.023757771714784926, 0.2343689860094819, 0.4943894601440139, -0.36579035134550103, 0.0529263874705872, 0.1932052611611593, 0.3345133792598488, 0.39239107810026896, -0.3904646035610012, 0.5119623692282188, 0.41532434677893015, 0.10048835860078768, 0.5574478556008304, 0.0018145825844259535, -0.012893221714882717, 0.36720069050495174, 0.2376689165529535, 0.26596961442817674, -0.5667823192939869, -0.36570058388762877, -0.6843673790337832, -0.5197032356935691, 0.11090040534810033, 0.1379311223719776, -0.1310791997618091, 0.5153465932875883, 0.13375863651857947, 0.18937955961398104, -0.2559223242331613, 0.5198069718334297, -0.3227422548407857, -0.27185709553836, -0.32184880276420863, 0.01727436677355434, 0.04588179985886936, 0.4107343312085636, -0.2622037705037118, -0.409585644832873, 0.02728279636358048, 0.2888141775768002, -0.033458399954336096, 0.2696713046748998, -0.16718767529707204, 0.2875185545790206, -0.2881848505884845, 0.5126618290766882, 0.14805359874370083, -0.5781689463260054, 0.13605903179838216, -0.38420001450141067, 0.1921600003184982, 0.04737103764406766, 0.059132067947353574, 0.36953530824053715, -0.06392479508896404, 0.359792128799552, 0.062346247953113706, -0.22294430378443847, 0.07255797952371966, 0.11004233330321378, -0.3079387024770394, -0.35461359916716684, -0.03830451613257021, 0.06367166950397507, -0.2220995953619134, -0.0018145843078397875, 0.042777963075830906, -0.15414518909670816, 0.2159256732813911, -0.2149884505835138, 0.2085664628891113, -0.15185453040857735, 0.08208438298445413, 0.5310202947163247, 0.17872880969880206, -0.035415328664809405, 0.20592695464553704, 0.4685571259910541, -0.41551799386928323, 0.14322327805113746, 0.04940670399668838, 0.01744268599421831, -0.062194165309861896, -0.19723465732618867, 0.6549384283143158, 0.5659601934335087, 0.18729190498465037, 0.3337416362021549, 0.37086565808422345, 0.19512927193741772, 0.28662664182965436, -0.3972360376033638, -0.05564208173097226, -0.16508919006217596, -0.31438260005476426, -0.2578086676773158, 0.17687772288870132, 0.21100199515441115, -0.38881772771463097, -0.10586667380171935, 0.24659034723128334, 0.14700138796659415, 0.10357800107768124, 0.3497715648225913, 0.3001624176257149, 0.0017978103479323081, 0.5637456462690057, 0.04848495804153346, 0.0369358877234359, 0.00584961153092612, 0.4123500376677918, 0.1980255942996265, -0.24662781962407698, -0.5374416118149905, -0.16357475998472137, 0.3560679503134793, 0.3125848857439426, -0.13807382019522838, 0.498328075906986, 0.39769912322638135, 0.15626195234983695, 0.31109472030279495, 0.41996006167610483, -0.10463884346785247, -0.32663915456813386, 0.3548072344609798, -0.25269260117081627, 0.27207584093139486, -0.04970409444849159, -0.08097171138306664, 0.12402584068103752, 0.1737581335020029, -0.04379550684684595, -0.1511259372202665, 0.10518985744141061, 0.11974925224961479, 0.338020082314541, 0.3496332385398414, -0.32925495243988906, -0.2612014253629859, 0.265522689187319, 0.31892745504992887, -0.21688272619977306, 0.10237244309974329, -0.41066949802964275, 0.06481976724172767, 0.3353854638666088, 0.20616238425676536, -0.09995361701722827, -0.17561944405808502, -0.15954678930015742, -0.2701189571779606, 0.04892066173136816, -0.11330469701778521, -0.1661167469030167, -0.2500885576297113, -0.26133749337596635, 0.10232406347337031, 0.04645308108640058, 0.4722345197108941, 0.0501642652489279, 0.2569102365380384, -0.2704488575274393, -0.15396681218249383, -0.04729798355966353, -0.2808029992172981, -0.3528085278031661, 0.2365558051388995, 0.08488143327688645, 0.03341951788548468, -0.25562231208365965, 0.3657552349391039, -0.48689445748011095, 0.36166059322089095, 0.2240531724233148, -0.07978313080001564, 0.1548478227637634, -0.19397986851668816, 0.038793160522139956, -0.22090695124252188, 0.06525841061618322, 0.3207392468341242, 0.0199428462705643, 0.16674391559610185, 0.30890843370014154, -0.18576437457588263, -0.08251360066873238, -0.03655953817068733, -0.179629901534297, 0.38653919428526634, 0.07131675515598365, -0.2055552862170864, 0.05718991697586304, 0.41394795977072535, -0.5042351095195695, 0.37127300818439934, -0.38526059486611963, -0.06353797469781444, 0.06986492234412112, 0.21690222568332837, -0.19392216921386082, -0.2387960608063076, 0.28095349575802797, -0.18947654059308672, 0.1912147383064633, -0.04998028105447077, -0.33436289499397126, -0.2430934298720323, 0.2661105710376798, -0.043426057831838345, 0.05022994484588529, -0.04976852217193814, -0.458899935864315, 0.30595022763739094, -0.04090511452630046, 0.10974396858784789, 0.141399692977627, 0.32939289625834034, -0.3377087924463407, 0.1983858114085042, -0.2412029558523153, 0.286384561993259, -0.3236230153585606, 0.42068131985969476, 0.10651084943644809, -0.2520076607442918, 0.4076250481101756, -0.2043696288854417, 0.2022580224649597, 0.1753720918256624, -0.13760410973859138, 0.08176741497553386, 0.24956430691136855, -0.33396981314174906, 0.37709212933938424, -0.13520532443419078, -0.414101856652835, 0.31936602056368896, -0.315100881433215, 0.3747158592077131, -0.14924985145102082, -0.3894792647113653, -0.01959026053780223, 0.007285224587991629, -0.0975915346588963, 0.11398781759880944, -0.3775933401078955, 0.3466189761523046, -0.42724034315638293, 0.3652117334975732, 0.4025602566261973, 0.056324251724838716, 0.23156692861188674, -0.3274605427693903, 0.3709279094871578, 0.11749942466413045, 0.09805754636750523, -0.0816360446288794, 0.11357431051120681, -0.05560249464554223, 0.3059457697314002, 0.024088307083041216, -0.2935122964957916, -0.16555116085020236, 0.40858476512151115, -0.02029827173043503, -0.3680139925295915, -0.35981724922620767, 0.22186217976661224, 0.3246218354785918, 0.36809229728020176, -0.09772247398061021, -0.08141562327840934, 0.2057003969623015, 0.45348057661267427, 0.26308677324084484, -0.41092403298136104, -0.4628676644892508, -0.19092971805643988, 0.31646938915790773, -0.35993289551662594, 0.43853048568495184, 0.1854716595316017, -0.4464156545420896, 0.4162618597440476, -0.2552699765975961, 0.14950742287178465, 0.1142220585321031, 0.438710912367002, -0.46553455216552553, -0.4974253344607278, 0.03550555339884475, -0.15310800065502775, 0.3966222672004057, -0.22581833042523067, -0.4208490593611973, 0.04212817300888161, -0.45002338328376223, 0.4205341056184941, -0.503381691112484, 0.4266205160782222, 0.47961476477068554, -0.020033254914658932, -0.479522634913321, 0.05594881184977604, -0.24983652218477698, -0.12213417285859691, -0.36165677108065103, -0.48781041169054873, 0.41022982596031166, 0.39581017645140393, -0.15702851302550314, -0.04039730795649488, -0.05037191602256186, -0.4449481708979218, -0.04406367770423669, -0.46380276935600984, 0.25568570762760034, -0.22409501519417052, 0.15292898407148403, -0.33448591635065883, -0.1365875183287396, -0.48546410743297275, -0.36625807929716336, 0.4762339770167793, 0.30211071086858565, 0.2236653647575323, -0.28687509679885953, -0.4022476842963547, 0.49933704896727354, 0.48904737312192037, 0.1568551025929833, 0.4825368576089216, -0.29523720439580337, 0.1817413460628593, 0.12557233641332455, -0.042862438686438686, 0.0154500688915159, -0.40417130472530016, 0.33970218085378223, -0.2721070307620358, 0.4048557468178213, 0.2528718766627849, -0.3193145909457239, -0.47200160682470427, -0.4399855827319846, 0.33595458823169744, 0.14158809056675464, -0.45741728452147684, 0.2531074430840813, 0.3499911514217012, -0.03699764486392523, 0.4060933521106738, -0.2412002591503961, -0.3305583348072159, 0.4530192956303349, 0.4146951408152477, -0.3286009275580131, 0.07762310186407913, 0.0959543371104158, -0.22561396614631832, 0.4451212701004004, -0.36984151836458906, -0.23776623931678995, 0.4745476928796891, -0.3316013208071547, 0.0663888167679481, 0.1266184749372814, -0.250174436876791, -0.17429626661205522, -0.3150967488317139, -0.09936495365869125, 0.41418181083306604, 0.17523013020717193, -0.22743955147975092, -0.2525646489597019, -0.36408646415956103, -0.2327085465942931, 0.15439374696466754, 0.2691791913729092, 0.1443698373950691, -0.1273015104843638, -0.07088735594069769, -0.06110316545373739, -0.4134539331264208, 0.22272689165113382, -0.10345211713146285, -0.12343634917755465, 0.3624652746336376, 0.03722995631406076, 0.41790400909597125, -0.2640232881809439, 0.3556305614060176, 0.08911056833141685, 0.39730726768632024, -0.16772908497423913, -0.008953030055285898, 0.10522633322081376, -0.4256115739474621, -0.3327078165899163, 0.4375780369995065, 0.27339616635408304, 0.02648485279569735, 0.45418167201278725, -0.3876303660469023, -0.47822373970858606, 0.23978039086309735, -0.33522915950069726, -0.042525575029542184, 0.12349718952002281, -0.3330503041054226, -0.5786169866125777, -0.15372198579683008, 0.11115841904673819, -0.2323279884708005, -0.07763335051658975, 0.35368458700842365, -0.5322465576241151, -0.001466651364501885, -0.5237645232789686, 0.4651847548391878, 0.29450785032824245, 0.4303791195384316, -0.10224350704976008, 0.027604455132804538, -0.0604032088613452, -0.2032450327064339, -0.48381289787244997, 0.29186312689137306, 0.31033441709451576, -0.06336141343893215, 0.24500872673163432, -0.35759656293132436, 0.022357649016130507, -0.25230060236820023, 0.19134767320890386, -0.435458217782535, 0.14997323707133303, 0.11290386267753799, -0.45829459470249484, -0.056087363057604506, -0.5494179488538179, -0.22108747836640272, 0.16231306719106398, -0.6603499344048285, 0.10638365417388852, 0.19592615659162574, -0.05698671387547828, 0.36269675407710983, -0.41491619231626814, -0.03462934879548288, -0.1017917483575515, 0.06344741175293152, -0.4650387653644618, -0.3921313759242069, -0.4933537230133338, -0.004543533857330528, 0.012644622733297856, 0.3635676215500481, -0.10632018776143687, -0.1965617214360946, 0.03850930912822686, -0.1562728655953465, -0.009008493915234934, 0.2733234384618031, -0.44816770335830053, -0.015471543614739652, -0.3540710155640938, -0.3565239872680379, -0.24974294599002003, -0.18363901111990377, 0.19347292753114875, -0.03111316507649569, -0.8139693533961296, -0.15602119148485127, 0.039940610786752546, 0.2962682318644568, 0.08357805154295818, 0.14384196111604586, 0.2901713100497622, 0.39350314967923106, -0.1410040394917853, -0.31115757002017813, 0.47068226878048813, 0.44810291842635463, 0.03684933666044294, -0.220085256806982, 0.4883175533333437, -0.2785567846032424, 0.06675807256440668, -0.3218026060441914, -0.10527931313417371, 0.25297157421622574, 0.1303998459034998, -0.24486384545301193, -0.02090369479543731, 0.03406869619815817, 0.5054963953945933, -0.36192786230588053, 0.4739890284337193, 0.21863663353889853, 0.35125267436019814, 0.13005285061582503, -0.1330839710223004, -0.6031139157503025, 0.3354376957716283, -0.3525632348411587, -0.20860734060036562, -0.3968370439091354, 0.23127013366575186, 0.1421405865771571, 0.45164896871154137, -0.3438257867873051, 0.12520736738072188, -0.370415657432898, -0.47948497713888616, 0.1599914247466617, -0.5064165269966067, 0.27558669612702974, 0.0937905115767094, -0.31970380327939424, 0.29644313841585956, 0.516900358918943, 0.07661660878604495, 0.3568663901206134, 0.6010794695992634, 0.21072349966288292, 0.8659495178233527, -0.004502343519137582, -0.13490242528642102, -0.40347123692162135, 0.28007968462110494, 0.19888399010089766, 0.07490512020330815, -0.29394109226353116, 0.307036221148803, -0.16054776284898883, -0.3693928177803152, 0.2614899826984776, -0.04271995472735179, 0.4831346267296335, 0.16324149645908276, 0.02951383535061858, -0.18414421645697865, -0.13213572605865298, -0.30118971471234524, 0.09674187004189833, -0.3503473734122793, -0.19928970878440658, -0.4083294188696448, -0.08143421244004907, -0.06822431389152767, -0.21740934021795655, 0.04237891846711798, 0.05923839096554398, -0.03774256936063795, 0.3983340270856963, 0.35757271052720957, 0.21704639755686858, -0.43512303613081527, -0.2842171364418278, -0.10461357166791688, -0.23055329673471453, 0.3108332875824682, 0.3494355846596496, -0.08224691064113199, -0.12274717119963094, -0.2842846505950803, -0.026541612806372288, -0.19530041434672893, -0.011234302760873918, 0.3784782169606254, -0.0712218420534049, 0.26958810324154003, -0.14695506542374376, -0.07540992044895639, 0.06698855811203701, 0.25867840069526493, 0.16600540976727174, 0.3968366417252924, -0.14648860711659514, -0.20956798723512568, 0.48271662665901127, -0.19712283356148302, -0.24062392159640608, 0.13720736967404545, 0.06820857791615216, 0.32236735198935784, 0.14217843083831203, 0.17537706050731375, -0.28479130602552555, -0.5272188739120443, 0.30713481691820577, 0.08922333837105886, -0.3419403868434076, -0.4430050013474062, 0.2931167593672086, 0.04691858872544214, 0.35338247163749287, -0.09003979163259049, -0.29872020636741475, 0.1632569811020526, -0.1912122801539007, -0.08819224567511336, 0.06659050100380688, -0.21353520490111852, 0.14140144453114856, 0.09056499107964054, 0.15067683272953192, 0.042719994563852524, -0.2547018268009262, -0.1213323792226361, -0.2694294636300291, 0.36688480856915573, -0.273066735041975, -0.20392453563679486, 0.08271621833984395, 0.2658739709452997, 0.10799891461223346, -0.4216426853296935, 0.22501398920901247, -0.025386814506437202, 0.42039726848002923, -0.3416621254616383, 0.21406202108021452, 0.30662958695674136, 0.24510751773201095, 0.0027530327329760265, -0.07290665056677686, -0.26774132037568676, -0.08352691400377354, -0.15458744268304575, 0.13574508909779895, 0.1887511590627676, -0.12578852332888435, 0.029937514446370626, 0.26400066367504277, 0.10731766329048009, 0.4531989314145783, 0.39617602381532213, 0.5199106095027968, -0.1283751021347008, 0.46306848817981544, 0.04189085825408782, -0.03545845830108669, -0.04155253605732305, 0.09459671303650327, 0.0605272711243596, -0.36504296709315637, -0.3781148744210502, 0.3936281137393505, -0.1368366171576418, 0.06355930993649975, 0.2908066898727043, -0.3093900998444665, 0.11081870600514052, 0.03994427992102991, 0.46885430965735325, 0.305850476579438, -0.20680407571717532, 0.10803561686646443, 0.2381754250528835, -0.017835731069161233, -0.23337156735073342, 0.10710685010899651, -0.1376847849028942, 0.32709780347574, 0.5137330511888946, 0.17673620576845936, 0.6515473141244552, 0.4031407839029291, 0.322884152865913, -0.10935504047617763, -0.030103074112237938, 0.16413552863858133, 0.10618818846873253, -0.34420384376333724, 0.3703255369610563, 0.464724341746945, -0.06876120910522654, 0.1907348624224483, -0.017728733556958313, -0.31036960609452857, 0.7277951574650818, 0.024933611217733798, -0.11652358212609099, 0.37899167359386393, 0.2841300339151957, -0.3889224772239956, 0.4264929912078207, 0.41873510022796795, 0.14459635419493494, 0.07131630085597468, 0.08367085754466616, -0.08000942229934459, 0.1437043521783367, 0.17027571511269737, 0.39976207834727456, 0.32269847540960905, 0.6353352015337458, 0.11435496715629505, -0.05030774523423612, -0.2828040239434233, -0.5256723336727059, 0.3909739329832073, 0.10286117341065716, 0.05445876703737069, -0.4492653920151557, -0.0232376488314122, -0.015036712683829058, 0.44283765605153186, 0.32768880909777487, 0.6012421999920057, 0.29555441223718143, 0.3482971491420507, 0.40229212784374796, 0.5869902917243451, 0.583473035665783, -0.19954965431051452, 0.10139064404555238, 0.013192891230956473, -0.04377643757724832, 0.2021116743997937, 0.5752842168178013, 0.190666357225641, 0.5316104656964931, 0.18432521830905563, -0.0004916827067570904, -0.2300645127472772, -0.30356800118493366, -0.4724588365563459, 0.257833012779997, -0.40140061838669205, -0.1468328044091035, 0.04507519621730411, -0.18780798996946296, -0.42224702029015293, -0.238425829934755, 0.011318177682844299, 0.26155007897681226, 0.40167763626330916, 0.08132695460563269, 0.3575932857909897, 0.24601491111338183, -0.07451352494667186, 0.5532203338119304, -0.12035336092563866, -0.18715811252592285, -0.2616223588955183, 0.07632516700717168, -0.23328485718475808, 0.03825466945920041, 0.24071718069108206, -0.1926479908658689, 0.2837240201648577, 0.028654657688037436, 0.4891973563671528, 0.17725792370837598, 0.07128093538594014, 0.05075743442070506, 0.1144046132928406, -0.31728030168722116, -0.06807764859544219, 0.30489553946196984, 0.0670297747562666, -0.021716760441735105, -0.11854666161070923, -0.16522858870548013, 0.3206287774253273, 0.37684938646871924, -0.06218247889360113, 0.026268348067344193, -0.3444647876898245, 0.15358957928150704, 0.29340990733066, 0.20824887200234085, -0.25445605026711593, -0.3659842825174966, 0.06742677449907133, 0.3787902622383484, 0.6414728859225295, 0.3873786480011312, -0.1319527483991915, 0.07501634350645923, -0.049514152950102946, 0.1450769308774395, 0.16284388176607528, -0.2708199133571975, 0.2655270509297843, 0.31664950952568816, 0.4590134611147631, 0.4363834468592954, -0.0432773716105843, -0.15431183220757044, -0.35538592241383876, -0.07672229403324098, -0.20157134392821668, -0.11657119823138329, 0.5108229245139042, 0.27500895024279076, 0.12347936231721039, 0.6233957432244023, 0.1922848728904782, -0.09656324016909137, -0.11323106791716818, 0.010371881414409718, 0.1557041339783267, 0.09987651474280076, -0.19580176075632624, 0.3328216048476531, 0.16163048659307933, 0.275761854687913, -0.47962309429327554, -0.08360028180681149, -0.5905059494685273, 0.15828845668933364, -0.37509386133514444, 0.44778864892987064, 0.37137558930173864, 0.3416050682217518, -0.2856439190087097, 0.2884440190110753, -0.3567888003104634, -0.386439468013312, -0.11838152743102424, -0.18096227323184483, -0.4842194290924568, 0.05906215370542251, -0.20506875451798584, -0.1842031214644831, 0.008871561217681238, 0.19457422490148069, -0.20874886410625504, -0.35565758204453973, -0.18665862693503255, 0.17333391934970346, 0.11212927749884466, -0.6423211558095485, 0.20047577368661826, -0.18204308746856937, -0.23544921268985816, 0.1724618490661531, -0.4385218257206716, -0.5402369290549659, -0.10052343825247269, -0.3331870004070722, -0.25598382284060556, 0.2295753041347669, -0.16413085142753536, 0.17897337685104475, -0.25046803025036396, 0.10760671491011158, -0.5991342533102206, -0.49929853842012284, 0.1414938949785742, -0.518008621763007, -0.518195519368411, -0.2664256424166657, -0.2962214173289972, -0.5392596901834027, 0.08634481081644399, -0.03980593746000307, -0.21144366931180472, -0.08743666339125054, 0.2991998286694571, 0.04121098683629882, 0.14606920615448357, -0.4761669625454861, -0.23042754032472368, -0.6170655590339796, -0.06837831513241328, -0.41089802712439266, -0.015732959782692256, 0.10238761306796493, 0.07341116296207136, -0.2876563352506959, 0.1777691629536864, -0.09357592114059125, 0.3824050353903688, -0.6146356992320846, 0.004788178480105648, -0.15425600205078993, -0.761259970938933, -0.4303103281680691, -0.3826038788062892, -0.5682156619137293, -0.5481892134596819, -0.12313790561028289, -0.6479021684553599, 0.04170755331710327, -0.4079820598298059, -0.07057285089296003, -0.3241387383367561, -0.5844485243819131, 0.2528221422092037, -0.40890122151725133, 0.12551533511757912, -0.3690798925599583, 0.2535088311581907, -0.33677886010949537, 0.46106972599505647, -0.39808956468380624, 0.08982722302583478, 0.2158556061974526, -0.21002011851743127, 0.4847936647303339, -0.26447811709035196, -0.5915695860391269, -0.40632172779345116, -0.05773419976750574, -0.7057137516358529, -0.5201238903124409, 0.020260577387309728, -0.2838392604082528, -0.2526290549284429, -0.5409704984924005, 0.03670357442755219, -0.47362257225833937, -0.3635996111364616, 0.07740473498130854, 0.05029109854411366, -0.026805762928147073, -0.2322408078089303, 0.19865100655812443, 0.08648968126165578, 0.2310901118464826, -0.34084567435076796, 0.06349462644607468, 0.4450578997089824, 0.2177704153324497, 0.4748033424067504, -0.13977640158231308, 0.11140336826838819, 0.2568518780762663, 0.20621498714912498, -0.5123396660955208, -0.11546597192223405, 0.22841023115249356, 0.34415227265891674, -0.19994931255523476, -0.39862499862278516, -0.3274051595316883, -0.4422274050702616, 0.237956730091787, -0.26791865993526714, -0.3489916519014451, 0.15239051250692867, -0.23014171522216992, -0.3407967708186793, -0.27102277666577473, -0.4568212513790531, -0.3166677807848976, -0.1204878717543051, -0.23179431972732528, 0.4221368777756804, -0.01951443173667001, -0.3582231280401833, -0.43118671278075027, -0.14606734881914474, 0.373061776483831, -0.2952683164531579, -0.17784781929284074, 0.2219649987424115, 0.09696492038218148, 0.31721089881857245, -0.24535454714298585, 0.3435901954526146, 0.14493692386885634, -0.24289391292993914, 0.17834896177512682, -0.09700650496943233, -0.1772932641509892, -0.0900533991169263, 0.11228733550283959, -0.3456699108540252, 0.05213429166270754, 0.29361568048713255, -0.40046417348877433, 0.1586920317445004, 0.12642171950357042, 0.009902613957941297, 0.4000521668353153, -0.42257429224821064, -0.42466483332135885, -0.2274896747468282, 0.33368223964382043, -0.3553823998080057, 0.11237735196581333, 0.0736671262980989, 0.312839736104576, 0.2173012348570382, -0.24364073005696735, 0.04351100674014294, -0.08458723719644261, -0.09525779621429074, -0.04112630148078135, -0.15359833734560943, 0.46014626234784023, -0.33062782974011956, -0.34110570634592297, -0.4064999509142993, -0.04433421869610234, -0.5080798434845679, -0.15058378258862948, 0.004035116128991629, 0.09765525136108975, 0.41627060807923155, 0.5248980373456642, 0.20687217468313818, 0.12634292743908276, -0.43847401434918903, 0.36738060913484116, -0.14255631222190232, -0.4286937043411062, 0.339652030403375, 0.26877057663881976, 0.08907154250501137, 0.010519058461834341, 0.30333092448720655, -0.18454090999790115, 0.38600249285393873, 0.436751487720063, -0.07558344721007844, 0.4312786849218, 0.4313456984214021, 0.10896645403029798, 0.3019242388213384, 0.07733946434051474, 0.002907439314660076, -0.05631449454085195, 0.0013058877034950046, 0.1090256042384116, 0.3216256711947869, -0.18291374817298287, 0.16937025457961777, -0.16101389067688307, -0.057016549344208724, -0.038112833615911154, 0.40347385208813175, -0.014992463030145283, -0.011905978076784274, -0.37948214460017204, 0.37057104440933475, 0.2256438493490115, 0.04837785885179724, -0.4167200016383066, -0.41725290467177395, 0.04893073191541992, 0.27066714308188955, 0.03773666089200187, -0.27335440564431784, -0.004440543268326535, 0.23662370468474633, -0.3367426218533038, -0.27988382609334084, 0.38256621126286844, 0.4644901751431087, -0.051433495010940446, 0.4019952220617266, -0.07257003837505077, -0.19899370266020155, 0.02532898604939341, -0.1611140610917337, 0.5176723053723938, 0.526192510028678, -0.351109431068761, -0.3410710541593989, 0.2581779042039277, 0.4547219542522698, -0.19760244024511542, 0.2410291078299367, -0.4904214565791689, 0.42648198053297837, -0.17260363414120306, -0.012673271809185316, 0.08269401637640017, 0.36748268565845615, -0.4908909304814124, -0.36846985542186256, 0.1215949867486121, -0.17712275989055937, 0.44194972481878575, -0.2004272628335386, -0.2321532268695911, -0.0721973095061339, 0.156000619283262, -0.04867254702576865, -0.3764067589042308, 0.4828278156090056, -0.07723074785290641, -0.07573858615059764, -0.017190574428784314, 0.30763386597165776, -0.10915887230295902, 0.3980275268563088, 0.07035910400092726, 0.4611073821963978, 0.2388120164286135, 0.20082039871132862, 0.4875955114408109, -0.44886143144526525, 0.4390000737279546, -0.19245645460159677, -0.3652435447833683, -0.14605789930625657, 0.4495524003884298, 0.023383976662571193, 0.15316414348196417, 0.151068162149963, -0.17227288951560804, 0.3183338710128931, -0.4761351331162236, -0.42471397087188345, -0.39259695961905094, 0.10616770111877538, -0.21555690279061712, 0.30584614190452, 0.4795330564145627, 0.49300263228969454, -0.4863879466828127, 0.1699263735278923, 0.43849459953190606, -0.39407377790981657, -0.2865842767785166, 0.04809633983396133, 0.23832637191138561, -0.28890831798191396, -0.47280221861121075, 0.13529086928742406, -0.3418102821255754, 0.19718039168542456, 0.17192566671704518, 0.07817840157726876, 0.397569963444626, -0.17990639427344732, 0.17139919399149753, -0.03496068288196352, -0.1830603957400736, 0.059177182040997964, 0.2943062455948736, 0.04782728814881358, 0.264986011390284, 0.3497282817022989, 0.38848193007948434, 0.2528557539053809, 0.15230961157597964, -0.005969448563141266, -0.036656718298141565, 0.4020289472879036, 0.3072708045693521, -0.4372647133010851, -0.08819516229295499, 0.46787521174861946, 0.23716587093965769, -0.19045383422308437, -0.07800437691719098, -0.16044009426331207, 0.36446344118421936, -0.24244777350364577, 0.4199221755555093, 0.3412975392776567, 0.1429722432291432, 0.2071754106765317, -0.47451345885927065, 0.44468187442573975, -0.34947418874920816, -0.13284229358711344, -0.49419835964317355, 0.34866872008125854, 0.3663254137683831, -0.46548054258456156, -0.29399924491876933, 0.12432224056643318, -0.4057024352409252, -0.08158471625591876, 0.3057360852222688, -0.3097558997080518, 0.004144957614221806, -0.4057804422397972, -0.15397007527968132, -0.22741189192654887, 0.3695769123142195, -0.3512271880494581, -0.027994750689309567, 0.4168549202841839, -0.28408541499729434, -0.07345516609884338, 0.17886126164966995, 0.22542916998679968, -0.13839649892613232, -0.1568072323014155, -0.008793367323257022, -0.08521367714789985, 0.29403202285327507, 0.0080576750849183, -0.3160883743707907, 0.22893287503299212, -0.04095802040749519, 0.18966061115834082, 0.3018475099721552, 0.14614707417973988, 0.2959502908032696, -0.2322943384709534, -0.17633961947834942, -0.42375341010604556, 0.4975643754222395, -0.119745924201245, 0.4996308577541488, 0.20044362585029551, 0.02900991487471611, -0.42939197620297964, -0.28727691635012187, 0.24148486289779453, -0.2397019764442452, 0.2525767878913658, -0.18738662670177536, -0.10584640378762313, 0.24834917574645488, 0.47563274229809677, 0.3798237281446017, -0.054108108650397405, -0.028331918183517425, 0.5782084320123215, -0.08336875553131703, -0.223608764559865, -0.24237242655255734, 0.23862698090702852, 0.14143970064319744, 0.19982548132527833, 0.08902178479458368, 0.2797656706387906, 0.1617987027249811, -0.019647452043118817, -0.3352550609879851, 0.21585833930045503, -0.15891546345852753, -0.1700734476083692, -0.37368675188671, 0.08103064313825459, -0.18217013819437233, 0.23240719319136793, -0.3877029692568494, -0.19501589425883195, 0.4675327223132504, 0.3901222602041402, -0.03927519400447158, 0.4257651001547436, 0.2197021627643945, 0.37231646257115303, -0.01548551864040428, 0.42213503061055474, 0.1404600244778577, 0.30863652031068434, 0.24545708376361824, -0.12373328139433433, -0.1400756761166307, 0.1984215925575291, -0.28678363007878377, 0.3444554383092851, 0.04861118149343557, -0.38149797055962786, 0.15150753822329632, 0.2953025633241915, 0.35625205058387927, -0.2629401965840215, 0.4108165671358675, -0.3245387444118125, 0.4395918076986832, -0.07949326898662215, 0.3027548743099391, -0.26242112692525993, 0.4400255612944402, 0.12233715280099, 0.5644026684620248, -0.39183092331817504, -0.142867580470479, 0.25568796771661384, -0.020885246336589947, 0.008367685952426556, 0.403336652578528, 0.3904231981928724, -0.1005903496468125, 0.35756689835808475, 0.18457000362073944, 0.08103811467384335, 0.6270000165501068, 0.3434544464398889, -0.33384832610362675, 0.30230255813145573, -0.06015318401196543, 0.017227195329247727, -0.528972665526125, -0.36569002974845694, 0.09687962640744835, -0.03609757026684081, -0.15440201874328993, 0.03850792759271306, 0.059226675693847895, 0.12491463795159771, 0.6003477189357752, -0.2826992726857633, 0.029516346535041326, 0.2742502819017582, 0.095557780944295, 0.31623965085504757, 0.6007041949520799, -0.0820378668987767, 0.28213286992167524, 0.6539964537004609, 0.3149063296117, 0.0830915952646523, 0.5918161737414485, 0.07355584582539428, 0.19034524725230784, 0.39033976880550186, 0.40193884332903557, -0.30192868187551375, -0.47259053019830294, 0.0142634293167406, -0.06383748196190955, 0.1665440723736485, 0.46395870238320047, 0.08059410107765837, 0.28588450909799484, 0.31753523428892727, -0.12372412387658326, -0.31607008594795155, 0.1302533488754527, -0.09203929164624731, 0.5630885387380987, 0.13553348260604817, 0.45191819148562873, 0.025957357025947536, -0.0058928017368350865, 0.13574241122778588, 0.043868882066675816, 0.014787229940755018, 0.26629722657379357, 0.6332038627588412, 0.3436516932879426, 0.11043053266746539, 0.22790624759971528, 0.004655945393670165, 0.24224632804003102, 0.3016070416566626, -0.16344453538242662, 0.06424908086005879, -0.14929277881122155, -0.17253573351634097, 0.09741128897937278, -0.021400681518873886, 0.4093818023399798, 0.4376170015003411, 0.15988356444833554, 0.026118155457848555, -0.09634255241330168, 0.10941945642557614, 0.6474930990021442, 0.125949086052558, 0.3946790861816155, 0.5142029073358882, 0.5241495623807158, 0.42703633602638824, -0.2772527707097436, 0.5128030190037525, 0.6637056017205151, 0.9610851110644215, 0.07987706260468098, 0.5800505545767649, 0.18653101364210758, 0.061523923205717104, 0.1311918323753359, -0.18277280813300015, 0.24604730243931863, 0.34019808882618674, 0.31645043391216005, -0.09298562991895294, -0.014809457523036612, 0.2865987485134042, 0.33156604949709545, 0.160723054129635, 0.2767730104917366, 0.4593172755843882, 0.11499352110062919, 0.4918733192175976, -0.10940680170433366, 0.2944253033526437, 0.1621198071781482, 0.5313296122907276, -0.3157338890280167, 0.3350064549477264, -0.30939520033034273, 0.12134855803438602, 0.34251957221478857, -0.15127125372740882, 0.05050218380970678, -0.3447677756609431, 0.3700610806848815, 0.07338601114080746, 0.35304179994665036, 0.3256980835067719, -0.06671728073417466, -0.048078278166922415, -0.44530066597873347, 0.0689851564070139, -0.1580975808876017, 0.12767313974762848, 0.15397640056189724, -0.36008437074321886, -0.06240977486196791, 0.35936101603499515, 0.6424858740912996, -0.07118511034517534, 0.1897402405933712, 0.1458423216308662, 0.2640300910861017, -0.3946372378422913, 0.251982251046917, 0.39152043762124444, -0.2554778296352913, -0.06720042200931507, 0.4166241448542898, 0.10598079681913437, 0.4309310638058192, 0.2245211734058251, 0.06286941025659036, -0.02832170123452017, 0.1810006534670061, 0.35653696466694773, 0.4107660631811374, 0.3569256110124831, 0.17074247149966768, -0.04388645580850583, -0.40693089070618454, 0.4065485043720398, -0.469693865419593, 0.054390554251207195, 0.026604538711277465, 0.3311900458332805, 0.29901428623008075, -0.2027896733233825, 0.1621820478657631, -0.06159216671730649, 0.013450540684704228, -0.12152922388178689, 0.026052529910458498, -0.3966376094070105, -0.31006347374847043, -0.2513394778239838, 0.028711990127543465, 0.22615329901522563, -0.09836601973732242, 0.42805688852303947, -0.16169976339172532, 0.14569228665074316, -0.2991484974096895, -0.43492793828226417, -0.33414941398639625, -0.19222840397542568, 0.2740867547077573, -0.3372591151052089, 0.2852260333940145, 0.34901005649050937, -0.27461715555598487, -0.17728555052571401, -0.10190442616214372, 0.015935854683240585, 0.21913669501156366, -0.011323450541266348, -0.5517522029395016, 0.3748203726601548, 0.3086406935163464, 0.01636038589187342, -0.06746673816110164, -0.25736850400494543, -0.21001381275556033, -0.38544547642266497, 0.12736187112666233, -0.38497057090039727, 0.1606120766183447, 0.03487291611840903, 0.4665165880280238, 0.0017865007365925002, 0.14686357762125815, 0.11657834854904853, 0.38739154004473053, -0.6074998864082739, 0.26455318743240785, 0.44261706574025905, -0.2022894132648676, 0.40792493407208713, -0.16208221740832432, -0.14685850755938964, -0.11441022888027495, 0.06556327368140999, -0.12746901551418885, -0.05617333992897735, -0.2324849199815196, -0.36921443385070835, -0.41328063083592664, -0.049954560012655344, -0.22386543622036287, -0.4931488880038383, -0.203237736845282, 0.4250166811653345, -0.2513777337489273, 0.26155707046807875, 0.10096673276158967, 0.2424464749069316, -0.032361174594735545, 0.4656961583393062, 0.3431425621895226, -0.3177640744415117, 0.1524299183035278, -0.3134245854290196, -0.4863474286491254, 0.31366327200863514, -0.36504366333468874, -0.11326315796277311, 0.13953705442856354, 0.4942957290895897, -0.25784529598982814, 0.2995762201839451, -0.2154114288261292, -0.2731905677951952, -0.1639637588106056, -0.4109730836797791, -0.6653634505343562, -0.6253577876749499, 0.08043322910725131, 0.02709516630194279, -0.10357506041687885, -0.008331409167940394, 0.06942167858525133, 0.009194436035362262, -0.3118874168840366, -0.29336585006808796, -0.024668137987584635, -0.06898641079437003, 0.18295251993077627, 0.22579566141297897, 0.20416727102565707, -0.2684403358345168, -0.23555647279318428, -0.05051772580431079, 0.3903547756586089, 0.027477484908695532, -0.320792522960671, 0.09650723469934537, 0.43419685635523136, 0.13107128151089723, -0.5452692610861388, -0.4582785617595647, -0.6068292584321155, -0.025745093530392588, -0.18068139338637285, 0.13419238302786304, -0.1535564224239952, -0.42226070911834634, -0.31637403900882877, 0.08545821170488162, -0.18059132417682022, -0.028759066553816184, 0.24743413779823392, 0.35070566813981996, 0.42498234984994165, 0.018284306846984625, -0.1864677510927488, 0.4025078230926327, -0.3713112443416962, -0.20038686846987028, 0.16474170095019988, 0.45491845428554695, -0.10372278822971952, 0.24065289121704753, 0.3136702415580843, 0.3900185644988491, -0.375122960109741, 0.4512247013345006, -0.31749257447300705, 0.10650113415395307, -0.423886962982537, -0.14631242749836154, -0.26408412680326865, -0.23598142411982354, -0.265760919357453, -0.19495900126064722, 0.2815066375825666, -0.17991816775134423, -0.5158853092611346, -0.32929599930615655, -0.24830968193484865, -0.1739843096619124, 0.11322232553506692, 0.14671803854224463, 0.24126622026763767, -0.0958327373274283, 0.12156352299960167, 0.37127082020923907, 0.5190491042816108, -0.3654644141022473, 0.1387083065729323, 0.2347885565481228, 0.34217448190170857, 0.14374262753873504, 0.3916703528747848, 0.18091459884987776, 0.2905507989627021, -0.18366712755277195, -0.3653709247883924, -0.2782776643298594, 0.05448708945552718, -0.6924732537506864, -0.003955115412056449, -0.3892705738307717, 0.06314174966434762, -0.05815208947910878, -0.49517358700810904, 0.050296545454355884, -0.21916083858655552, -0.1975599327326651, 0.13871087962275563, -0.1152417117003018, -0.3499886660145505, -0.2478630323641182, 0.08651881179918239, -0.26563165967264263, -0.4725837456652787, 0.08906997856487774, -0.02643106181978803, -0.3590251704504143, -0.1168819272948989, -0.2897545497196454, 0.06236456347332117, -0.4248400253631369, -0.20157277651072927, 0.02017407591956641, -0.13090847129857272, -0.10569246269804253, -0.4183872407128341, -0.2497111639783805, 0.3176584186323403, 0.026250806638110004, -0.016517258369193634, 0.11207406172350272, -0.06338641954634686, -0.04020234420276885, -0.08346779947213304, 0.13191163835643097, 0.29251710801449243, 0.4595789377041211, 0.28590212357382266, -0.33958620460296357, 0.11678498051227192, -0.325648120037018, -0.0010438875220211237, 0.03149571473806742, -0.48709924624963724, -0.043232368491185946, 0.25829676715744476, 0.2979308022339513, -0.22903182071606623, -0.27256777808730115, -0.08592251087569423, -0.110248787553234, -0.12893812892580617, -0.19848144369496415, 0.052630738521568333, -0.1003686970936095, -0.23756212302862253, -0.17272932846523817, -0.08362485230259427, 0.25888616455225694, -0.002923929159096727, 0.18126470742625037, -0.47126126528953505, 0.3934652824885649, -0.36044653628871165, -0.14033697467905767, 0.16204281782390612, -0.4767056417862056, -0.2819865522514583, 0.056553810666754765, -0.136323051541871, 0.4854589359135975, 0.06875854315530561, 0.4150590931501743, -0.259415858203728, 0.02356283439654852, 0.36977173293399, 0.352434526126987, -0.22336409363272133, 0.11700712972401918, -0.2125299998720659, 0.31979071496091405, -0.39158319614085135, -0.13870093268093706, -0.17399540883366704, -0.11066082054187669, -0.2792547111574302, -0.0155938381054464, 0.006201063826413212, 0.05786307483442911, 0.3542995808038803, -0.4604485485326752, 0.2672875073661429, -0.4247191955259715, 0.10900582179883234, -0.44240162323372706, 0.3791455079288602, -0.3058983664972793, 0.1591175855336225, -0.436155240398115, -0.17698411385339755, -0.3426657262414495, 0.1992899607154289, 0.3238237725725165, 0.0851481955574913, -0.13325545374601205, 0.10069826753546376, 0.050962312874088124, 0.30103725985539104, 0.11668102689578128, 0.13677453330528022, 0.31579847923186427, -0.08605459127434727, 0.20159738371374586, 0.06789201974236259, 0.2994089919273472, 0.0264932019564095, 0.018680674155574117, -0.12426837325507212, -0.0662459618219525, -0.15438897034920784, -0.36769674215470355, -0.4861384154869153, 0.027928385066100854, -0.16367744757037175, 0.16159521664841284, 0.1924348982304982, -0.24765967506572886, -0.25789307902315584, -0.47012474913819896, -0.30676037416160196, 0.4871300655743821, 0.06957636310321598, 0.49476294708383506, -0.23477880707137255, 0.2829696970019597, -0.16952628913246096, 0.30407680034634826, 0.048717122776661244, -0.21605218687590852, -0.40455501797993104, 0.41494170672846903, -0.3353529110537309, 0.3967876676648244, 0.49452186151261646, 0.08207232076459772, 0.15026448409124085, -0.0933171669308988, -0.08596554296058889, 0.2787786862580525, -0.5500898195002364, -0.4682689413245836, -0.03533204431589259, -0.161991374012571, 0.04883143659477623, -0.2845125786264215, -0.25925190220132843, 0.38936633444244473, 0.23763211859732547, 0.02731698269205962, 0.4538720622965623, -0.17664721782934856, 0.20284601200455848, -0.09640971230318622, 0.07847812816333688, 0.006560748268617879, 0.09813688665360155, 0.5242492811138488, 0.05094768235542273, 0.014798113221564126, 0.38615325227841746, 0.3123942227268662, 0.1895764589247917, 0.4826345437537504, 0.028936587607448865, 0.3922915795412318, 0.07725249931821143, -0.1918611687451286, 0.08348437367787954, 0.1069741280247788, 0.08617772688378258, -0.34549289031353086, 0.08315062598656117, -0.2717147777854154, -0.1357542548632763, 0.09364731663448977, -0.1077816751976759, -0.1079046707030914, -0.4048320019441495, 0.4032449711470458, -0.31368912151483347, -0.1002958119763196, 0.2991156831476067, -0.07280327309822403, 0.5699044492099524, 0.404103263635458, 0.05217281473551508, 0.23217206946587463, 0.10784674078553186, 0.09523022574973501, 0.32787004180251916, 0.6367552822342982, 0.3548838808596833, -0.037057959456400724, 0.4096214630155202, 0.6464811815259827, -0.09045689867292292, 0.032736977328072965, -0.3606452871993234, 0.46286316297248026, 0.3589305734533854, -0.06910642078117604, -0.46893925738622244, 0.12226696674842497, 0.058437147113914345, -0.18893429141355944, 0.4042304797491163, 0.03877996216122581, -0.08979509238490965, -0.24572721153269309, 0.06598541922354569, -0.20636895697721, 0.2357937461252806, 0.20913677936565592, 0.13203231917969513, 0.4417447677736244, -0.2866262741993921, -0.2622850077681148, -0.10555017890112757, -0.02258344707121359, 0.11330675918730128, 0.5678540866174953, -0.15344442569293418, 0.3290870336529278, 0.4143497150558773, 0.1382384305067265, 0.27362900130792744, 0.3308434462313405, -0.46019409041906567, 0.15156481049359602, -0.04458257559092638, -0.2905107877267693, -0.1283769009538428, 0.08401551694831588, 0.12244964620073817, -0.3142951561716216, -0.4944413023116126, -0.07281646003818648, 0.17082503095532658, 0.2780154485382864, -0.013131006421886776, 0.43621049915444465, -0.41497423947899154, 0.42076412128369933, -0.23159203329109138, -0.23993584507172938, 0.3325806035562496, 0.19098425380661263, 0.39493093918870303, 0.37374117904575727, 0.4948345347243747, 0.47318273904249686, 0.18298532621318683, 0.09071370469445583, 0.3978881652208166, 0.09962865228623513, 0.3496797752688616, -0.47300062245808605, -0.418585857415415, 0.3845344928382116, 0.08231777766667558, 0.13042107765614752, 0.24063827112691683, -0.42889189081352164, -0.35790818466322694, 0.4763558416598753, 0.12842797655693872, 0.31167490764588035, 0.11813436348894124, -0.42864609252411534, 0.07350159993273497, -0.06945958668135932, 0.39774273936580784, -0.3358260581928476, -0.01097031292235462, -0.1446221757737659, -0.35302842344166263, 0.45653312895285825, -0.03062467564698068, -0.05648176897929724, -0.09862723393676642, 0.4503053775902828, -0.4478425652122314, 0.33296465749271165, -0.07563776962580027, 0.4009279113252864, 0.25669787165577307, 0.28101151348209275, 0.10727946908207231, 0.2139242974948472, -0.1761253246782596, 0.3834715679878167, 0.480359309618803, -0.30417332095776684, 0.3753349837710712, -0.3889794179884031, -0.49148223284953846, 0.06359336131412581, 0.42158310737502497, -0.24500839229991123, 0.09652081610022659, -0.3712198901654069, -0.25999095677649287, 0.1616678221626766, -0.08822959339042115, 0.47026018433027833, -0.2434860153828614, 0.4819329088947243, 0.4538415544202102, 0.25965079512253, -0.0004134492681322488, -0.2825978598789437, -0.49247924256587083, 0.4931515537266685, 0.09143110190261983, 0.4725951903638117, -0.07632192530004489, -0.3968562544009777, -0.19808503450128678, 0.09204096762739482, 0.05813420986598246, -0.1309660838035359, -0.016233901109261338, -0.05770362465669802, -0.24983943654923454, 0.31452340760444214, 0.21542998544863703, -0.5021907743041591, 0.2635385803726275, 0.3419250472697666, -0.055287049401662874, -0.5194854092559907, -0.04550420774902909, 0.434018692032131, -0.25033958644479987, -0.3627667280015385, -0.18012559945239878, -0.29807078009095794, -0.4396682946114827, -0.13108860973666447, 0.022268216120567785, 0.300843267825122, -0.11586212713223454, 0.3184461006453534, 0.04695258241751599, 0.4865762757269627, -0.40398324352103643, 0.4059556243632253, 0.47296810864360544, -0.24817157124716607, -0.47973234850480423, -0.40079349508403517, -0.21054418342352577, 0.19631984458696958, 0.4113304360618003, 0.3672989504226253, -0.23784328486504117, -0.33643507359227787, -0.33637301932853136, -0.21474785332931565, 0.17284273988750068, 0.27420408321864986, -0.2534431409474251, 0.17081556419683358, -0.17583484155927834, -0.23254892968921467, -0.44834195093003365, -0.4513746910317368, -0.2641431297953581, 0.24771609541104891, 0.39849112051297786, 0.2468775866926768, 0.26454777694211873, 0.2607639845413451, -0.3155443446696213, -0.3919830441191485, 0.2656988408507188, 0.1464334709106937, 0.4326278591762911, -0.234037192085607, -0.12624272840588938, -0.14952340004867282, -0.27685553999881557, 0.14159718195376925, -0.3626700562013712, -0.20621121255438885, 0.17102025896289152, -0.42432905002492, 0.3616061109661169, 0.06944853378844666, 0.16558818782989917, 0.279251177292061, 0.17998223829391743, -0.22526909001037554, -0.16420108542950687, 0.04188261870113157, -0.28509834069844514, 0.12104613224850838, 0.49583722914248884, 0.0662710461327527, -0.3750159498307195, 0.47473557984338877, -0.16569715014330877, -0.1387930913074056, 0.1173488526071637, -0.35282876219374765, 0.10552183374481693, 0.032305020231400666, -0.17420430508390408, 0.18434857163626905, 0.2385331093456944, 0.23183921687996797, 0.24015008592520287, -0.030927167933888403, 0.3455392880084112, 0.26374183612653584, 0.38424549278217573, -0.1678408583405469, 0.4919197734671653, -0.01846373981405513, 0.04869726920596547, 0.580968832246962, 0.024123779999786744, 0.27328699474681845, -0.31650290156814737, 0.2779044407306397, 0.21506301328319277, 0.14157544572483258, 0.03811637874794227, -0.41429936020477165, -0.4357112203280033, 0.32724097739436914, 0.07363373516431747, 0.05311651237549802, -0.0031792596227938697, -0.35510008271195215, -0.2300082814800541, 0.14492593430243267, -0.11957413977328502, 0.17032355808641483, 0.47436508807944305, -0.14470975536611747, -0.03433784067860797, -0.06543544933668786, 0.4225945138053778, 0.34818308623361205, 0.31495744961830135, 0.6995931661502635, 0.46600910213495006, -0.07100375829287209, 0.04851316969086133, 0.6255189673017978, 0.2798306505492858, -0.086013613755652, 0.4568404904107595, 0.17299598722141937, 0.432947139685347, 0.3345833367077633, -0.29600044395622094, 0.41404727300266014, 0.0892821703767924, -0.20880516629555054, -0.4259980497844311, 0.5214161812996846, -0.3902326747293349, 0.2208384651804083, 0.343017582098165, -0.267518450861579, 0.08007006132867699, 0.4286053545521203, 0.3032963288094134, 0.22599232340233788, 0.41459586780769075, 0.006497372881889377, 0.7013618043442993, 0.14457313561221707, 0.4625238447775664, 0.08596870381471168, 0.4348057424317513, 0.23662369996252625, 0.49851569625225667, 0.6001931889351945, 0.29686170296540987, 0.1789557898350667, -0.09949107769944444, 0.11115798787925334, 0.2174283407981463, -0.17246592373232456, -0.04762055444094444, -0.19746001059265542, -0.46214276823783484, 0.13680588916048717, 0.0070863758385356825, -0.3207654681141682, 0.3566366730431143, 0.4057062210937031, -0.18093998271451267, 0.22249009093431882, 0.19214122852913643, 0.28270429648513373, 0.24967777437581098, 0.07467292533140898, 0.3021941706009717, -0.05869332217025216, 0.38591949187420127, 0.0824795580486732, 0.31050502332831625, 0.04382576132601481, 0.47689125325267673, 0.39152418788446997, -0.09853704856993172, -0.29713062384017597, -0.41682818346946193, 0.4711407226796411, -0.37841792588882645, 0.06033820607701547, -0.16564730739103017, 0.15381446851017294, 0.32279569786483503, -0.28338108626301506, 0.004003804602718567, 0.26328506512495, -0.057237635846394845, 0.3549737732694595, -0.08708445219718898, 0.04677311624233399, 0.21130612300877386, 0.18920852457224221, -0.020627211675704325, 0.10939427704843367, 0.29745040989627136, 0.20689884742906164, -0.0836007395331237, 0.06528528390803963, -0.22438571876884866, 0.16824255034921728, 0.28461777152859546, 0.5474323073854481, 0.09967009929540958, 0.007045855413701261, 0.3093501384029483, 0.43735920738433803, 0.34501960567856865, -0.0311718260117859, -0.24838402024690942, 0.10925628920432433, -0.10469608839710229, 0.017456879928946904, 0.40680343600141944, -0.08665259496106582, 0.03250010654974343, 0.18288792171143523, 0.1444744421084628, 0.44069177110729707, -0.3725790742478642, -0.5133358924091389, -0.3161045879697836, -0.6455394398121047, -0.20897848682537717, -0.8289655574994313, -0.07781184353820804, -0.36965627460578376, -0.4831226910526968, -0.4230945500321348, 0.41457949043249315, -0.4063130061860764, 0.3828896525755543, 0.17044965764303874, 0.05545978991919467, 0.1942576408354621, 0.42945916302666043, 0.1915884195516592, -0.49237132243377124, -0.3468135559218251, -0.22651367372458409, -0.28745096485030674, 0.07407405076418197, -0.14510689442008032, 0.03994773339460796, 0.22496385974449423, 0.012957163254556215, -0.2894722867869952, 0.0618991459486627, -0.5349234005545455, -0.3148938901476488, -0.14812604845672703, -0.5032729519953163, -0.25295866097619707, -0.7889092932629479, -0.22758637211794494, -0.5734652222582601, -0.3836988019240599, -0.2377684151940922, 0.008079151748763906, -0.4091300923115988, 0.3026837616522732, -0.39805345117413, -0.34791646656083025, 0.3453284026923652, 0.2899543003072979, -0.06221824950425574, 0.49239430288176717, 0.015689867734647468, -0.307583695118262, 0.09383084694168911, -0.14236611070217386, 0.3310652748097396, -0.08159590906338364, 0.23704370189217655, 0.2953208902849677, -0.30386890747676965, 0.06800446074896692, -0.2748311302405636, -0.5092626079676593, -0.03515690272845621, -0.42693881617914387, -0.43561444103996994, -0.21845564736113984, -0.01971703671028687, -0.5374579877452472, -0.13502296944878134, -0.060352437918097, 0.3238448618827697, 0.4163503417122127, 0.06511298547336164, 0.11006903561019374, 0.3095358703279593, -0.09711384952438862, -0.3563158604123739, 0.03839231444497406, 0.2912304167923928, 0.35369758676434027, 0.23396963514397323, 0.07463644362326674, 0.5454078218250984, 0.3281134531316801, -0.5105218690458347, -0.08235449380409904, -0.4903643900216659, -0.5524241704331339, -0.4068114783425137, -0.5042808244698117, 0.08635693684202565, -0.13466369924411692, 0.07391208286453028, -0.17003361375256595, 0.14591466626301405, 0.15257334558232646, -0.06575349908544076, -0.4484086541183475, 0.26561611717770633, -0.21927962232524162, 0.017594057358948804, -0.46966570160728144, -0.0619104240621012, -0.2959856998853327, 0.3276924216902457, -0.2234180897882544, -0.269168084102641, 0.16167402945405424, 0.29336057690847794, 0.28333047651648946, -0.19340143907918914, 0.02630774279657413, -0.1643840379240968, -0.1454274287732456, -0.07809125924297573, 0.16238614149510958, -0.5888343681335595, -0.09666412092357807, -0.06116114581865091, -0.131006384108155, -0.35104751981796795, -0.373579988758175, -0.3504535308385484, 0.33094434600743544, 0.13261595225609424, 0.034363898336803755, -0.08643377358501063, 0.17134271755491728, -0.4506847442840376, 0.21566741551606433, 0.492093363306681, 0.011211653218235185, 0.0016359721870162541, 0.12269837700690649, -0.32905469371690144, 0.22919840937880137, 0.08324107678994332, -0.008809745460963804, -0.02492165659915155, -0.5449751238021114, -0.10999545902080606, 0.07304335949961653, -0.5224596679316926, -0.32371658753994725, 0.16074041143597054, -0.3875085554812349, 0.05876228080026163, 0.09327637051331446, 0.43403840129795734, 0.5553891849267256, 0.07291522923251137, -0.0583423208344607, -0.3890716689056169, 0.30391775807742927, -0.09937154582841065, -0.07652702705752161, -0.08705580556136994, 0.1853492838221165, 0.3110877381170163, -0.01390586792720029, -0.47787272348200033, -0.04638676533507472, -0.07406274761315788, -0.021208331741527003, -0.1501675657777468, 0.1778820908786594, -0.33147693407181766, 0.30701443116270644, -0.4113381519550526, 0.022323190945829095, -0.37200697767398405, -0.34441338026581914, -0.33607994949912645, -0.17475762279884222, -0.13069986127657582, -0.31998383818939713, 0.20324158679147938, -0.21585143989678024, 0.48416033525820745, 0.43706378463855083, -0.3444247778735154, 0.40682265378286153, 0.2551883033989174, -0.3224387399958509, -0.32036216357638314, 0.22069896847683537, 0.33190793751657743, -0.06779666243744577, 0.35123860776625715, -0.28410401847810396, -0.043745491324765726, -0.16474386864281795, -0.453807738589126, -0.4918675468213662, 0.08428282232609409, -0.6440014897019763, -0.20425360305589538, -0.5970628042542031, -0.1350000782086462, -0.25888698216580514, 0.008944052081907081, -0.41624743338338716, 0.35237169351663034, 0.0629330319225657, 0.2781985562191655, 0.16661551980936584, -0.1490784524348948, 0.4957396036184324, -0.2219284398761906, 0.043958204576177995, -0.17143399142196275, -0.13525664916518002, 0.001816365819677146, -0.4031651008271519, -0.4410105729266297, 0.4008070541945248, -0.229838684283631, -0.09444608626793285, 0.012934349214114306, 0.10073791317336611, -0.11071115093664206, -0.4827187384832809, -0.14783517617301253, -0.5762249947951384, -0.36955375811848357, 0.11153790668140362, -0.4409226867970396, -0.5031753992407986, -0.2826932341522212, 0.36669887579558735, -0.169373363633586, 0.2758860644421928, 0.17773008703403728, 0.15689802722102314, -0.22446580969122984, -0.38294736305538185, -0.20820689653090854, 0.3495454912717691, 0.459144858515621, -0.21238252815726813, 0.25986295511736746, -0.3013622894562334, -0.30294776979547555, -0.08008133473028275, -0.3511944970557012, 0.3375479856641361, 0.26089010587982486, -0.27634917378211815, 0.14125639011597402, -0.052182782886174436, -0.21999721130042246, -0.1436567380504667, -0.18638355149402233, -0.5442627078442009, -0.23786500478460473, 0.1392062811567027, 0.29258063605834134, -0.1601144857503422, 0.4378198843224912, 0.25452845661426937, 0.30049620282870926, 0.046277031594422244, 0.10647221590988318, -0.22326128657935113, -0.01984987304589098, 0.11178139401536917, -0.37490724529600916, 0.17716442652762396, -0.2616605578177851, 0.40649033264968304, -0.2699005542733355, -0.3529619102028556, 0.39650307339007274, -0.17777279316251743, 0.14472377223531702, 0.3777266799376789, 0.027244568254121863, 0.3793430732445604, 0.29646599965662823, 0.19403397623928234, 0.24365152886057698, -0.011145948726344765, 0.2107515461238273, -0.1849912807431455, 0.23825016403142302, 0.3212493813319913, 0.2159858517416348, -0.2908398169913772, 0.0780738647768893, 0.06443483930396758, 0.17920625475731577, 0.15440480869229742, -0.22970275919654712, -0.10832662962323053, -0.2346347090314341, -0.4840091922970517, -0.47841931283643724, 0.1456755398122885, -0.17531166242440338, -0.38668320246305843, 0.31448854967621154, 0.4874309224424194, 0.1141506220362945, 0.39634520040981114, 0.4052467486415711, 0.12406240386735135, 0.2829433650230289, 0.12495069044252843, -0.0006003042351083828, 0.28954613117315775, 0.4320499841826709, -0.010053510639539557, 0.11648203632294493, 0.06893015657516391, 0.14972174982301298, 0.25666600390832095, 0.15825912732451622, 0.21383205077837314, -0.012424164554939152, -0.2108159523915776, 0.4155788771959282, -0.2393470710299912, -0.40617287651736095, -0.32888490620146293, 0.3638088892398127, -0.19136856843464192, 0.15921417976904087, 0.49473358461689715, -0.2127823965243691, -0.2547691448631775, -0.12061102397583846, 0.2375421772611523, 0.05419866597066344, -0.1799798875624955, 0.05026280754858492, 0.5869653566025977, -0.03245430257265529, 0.18586475056043672, 0.4248139764806351, 0.27925237937447306, 0.4987742474719095, -0.15905777520963407, 0.17120428347205618, -0.29786919844177706, 0.021318742042954874, -0.06739808862146737, 0.4216001874681035, 0.119244748185502, -0.2813947230793343, -0.23626878063879658, 0.3101463793077491, -0.2336756346417787, 0.49228138214990913, -0.25158928619106447, -0.045621828912482495, 0.2632486744529808, 0.4240371792935439, 0.2825379640698935, -0.2657241252216312, 0.30419910064430356, 0.016200550055627715, 0.5866325552214648, 0.5217707646576503, -0.039243504010972076, 0.29993872837352936, 0.39429713412380746, -0.12321512696411488, 0.431588666918293, 0.28080592098090246, 0.29263010138428397, 0.227350997204012, 0.09620759568744283, 0.2898389891269952, -0.2976261420225256, 0.1854598607669663, -0.04789635978826777, -0.13658366486057416, 0.04366882075543745, -0.054225623824567436, 0.13047003254168088, 0.07926540835610696, 0.025081267434024834, -0.29330230175447747, 0.08845740538844812, 0.08546142432562936, 0.25115653622472883, 0.37993946898152403, -0.2627736206998657, -0.09602835484390991, 0.4777666043358669, -0.2787854925435169, 0.4255508388075679, -0.13719996995264566, 0.4223120346672541, 0.11132192353653202, 0.10146568632224227, 0.07208324985920439, 0.1829228550251647, 0.2958815339942179, -0.14515420889418718, -0.15298472693591486, -0.30531584007774526, -0.3294523109031468, 0.21438026524576914, 0.33158723978029986, -0.48687476623343334, -0.033976590651265015, -0.10367229792640431, 0.2851996198923412, -0.0258279708087088, -0.4738877566231836, 0.09956748399992058, -0.2568552499341291, -0.48442048084100514, -0.3545321186600591, 0.05447284127169054, 0.2758350199606981, 0.2368989950183906, -0.21245776904551641, 0.013251847263318007, 0.1001509578923009, 0.24532318794784627, 0.2690912636822549, -0.13772057546262004, 0.1522863783817895, 0.3564732782655201, -0.15283345558613973, 0.4745969630695744, -0.4361510975256381, 0.012117059870774384, 0.023363324580970405, 0.2132354101650185, 0.26704924039146727, -0.023784632634657132, -0.11961965042406641, -0.018703979254255265, -0.35316642079522076, 0.12123886664928074, -0.3667357367819286, 0.41542052794247497, 0.39548041079628965, 0.20323979454253707, -0.16656713852524951, -0.3146429244333688, -0.12327520745620385, -0.023063434213738136, -0.3389776690972512, -0.21136174713407724, 0.42091308658043197, -0.17299207097915464, -0.48088445072464114, 0.21558986473432207, 0.12335057786710674, -0.1299066087645417, 0.15990350025275057, -0.35772221639654983, 0.4332391598001455, 0.12844275585921663, 0.4315374535207628, 0.18138665553051928, 0.37293035886766124, -0.17077962007333913, 0.467146784135857, -0.013770290838924781, 0.33059579171604425, 0.16170668107462738, -0.07678416908175378, -0.2754381930654842, 0.3864676871408795, -0.47525791220591496, -0.5001589824259213, 0.28029268504442073, 0.023448405708045506, -0.11821677472431576, 0.10688642744995587, 0.04519619970669221, -0.09152511772203101, 0.4500541860343531, 0.16565508787017277, 0.36632676848623014, -0.2360070128598083, 0.4736972489170831, 0.27154669724989927, 0.052543529610830524, 0.2827711822407073, -0.3158853849437321, 0.48293940678169484, -0.37630294108114654, -0.13427147190390054, -0.3953511898515021, 0.004804120962150771, 0.37262431147087627, -0.40699314112778817, 0.12929510609454498, -0.13733788648361311, -0.12539760731856076, 0.21688004844151976, 0.4368557500621293, -0.37873782100898723, 0.18608702804587973, -0.022389426804402812, -0.02547573222579269, 0.03916354428784019, 0.2809202452984413, 0.29420126366524246, 0.17575831284887367, 0.20221656633825133, -0.39776697115676257, -0.3322674850359576, -0.22062832734808502, 0.1835167859471215, 0.11021700546555113, -0.006386293078737837, 0.4738336949082175, 0.018108048532235244, 0.2534732791417218, -0.40128942640210075, 0.1517750225969554, 0.2857187362733221, -0.3788765351024608, -0.05584351644028407, -0.23123459987844708, 0.025965909738620785, -0.05054721738111678, -0.17160118046022838, 0.1891223744172346, -0.02927901506697905, -0.40630245794375197, 0.3469812889772018, 0.09486274969509466, 0.13504384422022872, 0.3855220963640618, 0.15140763430673154, -0.18069320460892707, 0.21904504990987578, 0.4836276951058887, -0.4387617348620779, -0.2623360845328184, -0.2565587259104035, 0.23955265566611653, -0.28928336305874236, -0.4122219951209676, 0.3799452182751896, -0.4416402899252355, 0.436348878269999, -0.28824834529898313, -0.13743125879893126, 0.03563317555672618, -0.39804456386637677, -0.00966462610183294, 0.4678213014292423, 0.3798893361068067, -0.11884219172531446, -0.09038924257191305, 0.3630335619777809, 0.029869356082967997, 0.17576744423262217, -0.24293613046102044, -0.17528973019836597, 0.4546397656538774, 0.46892131543867244, 0.13804643347495585, 0.25103925126014365, -0.41234735773038755, -0.12101228490627601, -0.06406702161972955, 0.3084069493892719, 0.5139091894634963, 0.4199003717573216, -0.07302594205242056, 0.4011212337567461, 0.029402324605033725, 0.2492398299044316, -0.28420793143755885, 0.03723427936652379, 0.46904521553085265, -0.26277355475944064, 0.07425161915384537, 0.046892248937542985, 0.3685781950733006, 0.4964572345523644, -0.11362785139580332, 0.0940334232604349, -0.43408120775110454, 0.013691317305146545, -0.30656230693391634, -0.1873904779899081, 0.21136482092713327, 0.2760524614590942, 0.06994452004385891, 0.16775658593299964, 0.2459199351164219, -0.09047424235159028, 0.159822039919707, 0.027473451305062062, 0.07979920346341014, -0.08511499512341295, -0.18058228174526875, 0.2515962808194941, 0.40346935333777906, 0.15167888382209815, 0.187239813992094, 0.03816305169071535, -0.48263086905302777, -0.13811281866644776, 0.18760894188573038, -0.4923743824584355, -0.1851046866510898, 0.4769106860683027, 0.4269577832671773, -0.2745188020106532, -0.09646992897544898, 0.20531335091127548, -0.1801540085441616, 0.1928199740259583, 0.24911901753931898, 0.07757257637310283, -0.1534944746993002, 0.41594849482724594, 0.39444586352601646, 0.2946765083636403, 0.19059619063284067, -0.04657895507735184, 0.2784644978559437, 0.3258040283715538, -0.3639421143124368, 0.009782013981521369, 0.32867388031523387, -0.035673555070554114, -0.32756799007994675, 0.21056668444073803, 0.09461465888213416, -0.27291965972596666, 0.004838040266894494, -0.42090059090448406, -0.06000727071044664, 0.3835806511515026, -0.01198334488326692, 0.35288060484932854, -0.38384397163561096, -0.2330690959499068, 0.12030914742240502, 0.23206767665247605, -0.20822380043172617, 0.37069254016427844, 0.1053284175879828, -0.17447070813122217, 0.5483543604936897, 0.4207430561701714, 0.1303418336283802, -0.026576952923636852, -0.025488069834279196, 0.5271845925820895, -0.43469585687278367, 0.033453840062984394, -0.38941546295202334, -0.4413272247841006, -0.09939367016096975, 0.26256444649899807, 0.4415128953036987, 0.4169289816036893, -0.3457384950468066, -0.22967194847843012, -0.1249910086264481, 0.3464048801535459, 0.32450601729843986, 0.15651574381936398, 0.23919795523868198, -0.11587632733909649, -0.13792641906201225, -0.1755114441929889, 0.33169012536547654, 0.09062436317111965, 0.2122320210176038, 0.5590428124601208, -0.12248467303052785, 0.14997089974648534, 0.4042159092083134, -0.1124606557652118, 0.40760545048938546, 0.2094679433204084, -0.025874002344702652, 0.2790998390926415, -0.2790552798214848, -0.04429982709421491, -0.3511460360724726, -0.4764069088064503, 0.39744326649604417, 0.01883249307017243, 0.22793472673110576, -0.3483609831270903, -0.33867573697056363, -0.4209440815691231, -0.5351485831019022, 0.061660223061838736, 0.20834158671464917, -0.3792652576819578, -0.3151196001674067, 0.31196229566316114, -0.16717155041518286, -0.12056855206737739, 0.24747445635387286, -0.09169643768664199, 0.1167881688918658, 0.6616920530682815, 0.25093929659663866, -0.23859749402111524, -0.18854484016004694, -0.029067627696069055, 0.04272788683953107, -0.119460905540584, 0.37951840841855583, 0.29010832916879725, 0.14299016856775845, -0.02092639268296017, 0.14139686946382904, -0.49309631650991287, -0.012756486437465476, 0.09315729899559291, -0.4413411577611341, -0.4083751351163625, -0.4950133570448822, -0.07233082755817033, -0.17908659721176182, -0.030481678389885764, -0.3823457936106686, 0.4911418227713163, 0.3466783558036073, 0.15518407564032613, 0.2958083948549798, 0.030989860646102513, -0.06531145366357533, 0.08218590192048042, 0.08891733483344846, 0.6168314530565013, -0.2553648326508404, 0.43657697058540357, 0.06541844045777238, -0.18937978536554723, -0.004087816801483987, 0.5323837223790019, 0.5088144014679468, 0.482719768385646, 0.2568106944051094, -0.16267770331123943, -0.004545029972768166, 0.2770854982636644, 0.2553246910425661, -0.46602856966214373, -0.24550242617119797, 0.24813199904078562, -0.503476688035222, 0.00401081229920979, 0.25098848291868087, 0.04776586891162645, 0.09514635245287802, -0.09757570397761921, 0.07841730894632123, -0.18658976013765902, -0.2705534704496963, -0.4021268462244065, 0.2924644213034315, 0.08284927750993383, 0.18080049620300973, 0.41112410399736216, -0.2982503273085808, 0.612346467308714, 0.30386315761916427, 0.3119743614863456, 0.5416831511604359, 0.2222320366249769, 0.17143006637932406, 0.3152891136282279, 0.498468715599329, -0.006722151159086579, -0.48449911083057057, 0.12936583472485022, -0.22943686215629727, 0.26853123871906076, -0.19704921604908535, 0.25427553307453077, -0.18128283074391055, 0.2460305747223779, 0.13562326164204, 0.41014588566032917, 0.21070727716596585, 0.03904382666306785, -0.007978121558849126, -0.3416471565791823, -0.2515745771262856, 0.40250773073582197, 0.08012609436000574, 0.09128216329439355, 0.15375555922841916, 0.2092979764479085, 0.22014706783795265, 0.5883434617760608, -0.030153336429374213, 0.48947946037005413, 0.051716211472719355, -0.3217075511393223, -0.4118318668974552, -0.4240269174341583, -0.2988632862481979, 0.1936557087701356, -0.09197409601304508, 0.13949734900704625, -0.00015457665486791615, 0.30359630049568503, -0.16316585523173974, 0.29061465899761796, 0.08557837803023935, 0.287137610547308, 0.3111463506444335, 0.04041656965759815, -0.10625408196566478, -0.27208510303909555, 0.02129503426893157, -0.139822848538573, -0.1303667834274818, 0.22988245348890451, 0.46430788305628184, 0.5853337275419634, 0.8453217864776887, 0.39833908217128394, 0.4706131376300024, 0.16296398764389605, -0.047209429441100015, 0.35422757646577896, -0.15071026827949427, 0.3502121305423277, 0.2753813930033926, -0.4718154935801218, 0.5024025803266796, -0.14936288935688188, -0.20382153269044054, 0.16783032401837847, -0.2729488381408773, 0.0533939341152176, -0.0767780117598663, 0.2686514641445275, 0.2672816578525774, 0.5059189215528359, -0.3205097039813294, -0.0011280691959832897, -0.4644948363706925, -0.026674140509638438, 0.38889850898469125, -0.19936292169462805, 0.5380253520640257, 0.4678159948384081, 0.13104241574535366, -0.10202142705091903, -0.38260263585894005, -0.036495352206471626, 0.42979705945347846, -0.19451800418614448, 0.33586064727811243, 0.4333316968805208, 0.33446698756119025, -0.4452128426463916, -0.151063264539436, 0.5434257132562129, 0.4831068844481861, -0.17313469732501002, -0.1314344577441949, 0.19723818579479444, -0.35785749536429123, 0.5947558692042169, -0.3007054269224629, 0.40383429494261786, -0.14247204540824215, -0.295697310042782, 0.21283919914720983, 0.015329705505987612, 0.301964458877513, 0.5593844763080151, -0.18827950145167838, 0.2881778359982691, 0.6885993813623436, -0.31814607010982643, 0.15796265361092168, -0.47572690127029493, 0.11766179554549394, -0.4961667478062581, -0.3827648320258099, 0.057570244923363795, 0.04807138406564575, -0.1346136064995833, -0.021545744689946213, -0.022126876163574512, -0.32048503513868637, -0.16178198491650586, 0.38645792309516186, 0.39898485884643875, 0.3603931848139919, -0.21664052707981749, 0.07195415251263222, 0.15879327451356817, -0.04145109048430864, -0.08098270589621633, -0.017164215959352355, -0.23057082404243656, -0.2585738673072052, 0.1425915121099337, -0.4338002933512589, -0.18878778851868377, -0.1560671503842479, -0.1009487774725897, -0.32929417282244794, -0.4175916586114298, -0.36145109471316483, -0.025399386453928616, -0.11085559825480716, 0.13135895584209215, 0.29836826808488626, -0.3665625490376151, 0.16726874301548766, -0.4429633119439768, -0.14835446183720127, 0.1412071478530849, -0.15049219292662164, 0.4378317214152317, 0.4476387589171289, 0.3755760857180266, 0.047521078021889054, -0.21637536539330862, 0.07677611213865175, 0.03319928844663037, -0.10125598653261479, -0.11971551903874979, -0.028787827845638374, -0.28012680793803746, 0.12048337551931544, 0.27453788273007573, 0.05889891674688347, 0.3335442921866478, 0.25370205054723804, -0.363586798819259, -0.40777159014923603, -0.09679992944622381, -0.0484074014763176, 0.21895652593468476, 0.20567410375134948, -0.4607388362819196, 0.1228998864990134, 0.3436946904793401, 0.4937423008255387, 0.30348933233148934, 0.23164804027221778, 0.20844461739639003, 0.22335183116550322, 0.07848571711386104, -0.01762900488410323, -0.28803573758002304, -0.2372038079713969, -0.3818605897100989, -0.24034143364165844, -0.26102561873754726, -0.2567120170106929, -0.048952367437020285, -0.2662351674425228, -0.21024632496326323, 0.10003360999716672, -0.018977532668815723, -0.4751846976907543, 0.23919634024277295, 0.08177854689349368, 0.29001781858155096, -0.21551853189406323, -0.358798470754469, 0.19451642830477386, 0.3465233458486112, -0.0490909341983574, -0.1572062090884194, 0.05117524680176262, 0.3319185646663825, 0.19924104445225194, 0.7239446592525859, 0.46961541913595223, 0.2161199141564899, 0.008433114933749425, -0.253254132648907, -0.4027024962994617, 0.2241951487333727, 0.33510620576227734, -0.40625279895568517, 0.31376341286591974, 0.1567987053568094, -0.5264913379582327, -0.5876321019199439, -0.6292115267312068, 0.22239388002343938, 0.12884381081965962, 0.30367303445611804, 0.22158114767434262, 0.24912990199014817, 0.03830797396828487, -0.24591818885218344, -0.1681807678346729, -0.5767577298416868, 0.264657893682211, -0.17913955097013198, 0.33714407772616045, 0.22968981572678565, 0.3912358964639054, 0.5182122520340142, 0.2170068141483988, -0.03928686150372597, -0.29913390528327605, -0.23146979036913268, 0.3268603594169295, -0.26612751324923317, -0.05561683918097547, -0.2882304391106212, -0.4387942030924832, -0.10266882656876224, -0.26495560481283464, -0.3002118043650926, 0.2578886397382166, 0.12572626428277697, 0.2981065165754486, -0.4700903011351733, 0.18724865989371015, -0.029895700840189037, 0.2300667417157799, 0.0644645781315914, -0.4553271552885504, -0.5532671883321009, -0.2641112411000877, 0.3447595270911234, 0.40886337980855436, 0.007002759587736995, 0.5175228889002973, 0.5363601968719138, 0.16170388702032248, 0.08501654142580921, -0.02350105564906108, 0.14486511904523477, -0.05721695941429678, -0.18504438099588524, 0.2565976999092235, 0.3883731281425357, 0.22112703437716869, -0.21049337220183698, 0.0821489409583619, -0.3132396735741164, -0.5170494474029671, -0.5377696554223459, -0.2283897908545291, 0.45949592881287354, 0.3071543936038444, -0.09056782894490012, 0.19391352883818427, 0.4223717517313548, 0.29852676385523796, 0.25127231624979235, 0.5109524360247915, -0.25881324282673723, 0.17874644060276051, 0.35791201865538397, -0.28703956189376384, 0.46420697568141805, 0.4186602790999953, -0.018930791076250456, 0.6065444891494417, -0.1450699745083022, 0.12126663391938362, -0.013551454278613904, 0.36424141663341164, 0.291867740652267, -0.1652682412584125, 0.28149898702427045, 0.17244963999845908, 0.03600755449288776, 0.5033556893354126, -0.10180055573336544, 0.0909204140698972, 0.1935160914702855, -0.4746121657895452, -0.057457472941160444, -0.02952538936066949, 0.20841472142704584, 0.3519504674707549, -0.1722916206792741, -0.338276274432954, 0.4711265923225043, 0.21285419313541196, 0.22846930611241617, 0.0064798615057863425, 0.16452397534276103, -0.018767941853060535, 0.26486353028074894, 0.053054344592364536, -0.21769862909354165, 0.2262476653010179, -0.20817999682693417, -0.004489153652693021, -0.23434911758542382, 0.14613923614657331, -0.30964965625480706, 0.17170367756843308, -0.04819957156983581, -0.4183551359722197, -0.23631700446893977, 0.06543462891069764, -0.11942813214121134, 0.1664881566218782, -0.2572901511402043, 0.11442726864884777, 0.029621914489205137, -0.13377859056235836, -0.20050285796876824, -0.2699025805044135, 0.3014081459740491, 0.4212913889079892, 0.26813096473181885, -0.09638149265600672, 0.2930908609810979, -0.07443055918311352, 0.18090173220143504, 0.4995559498004389, 0.4421942401653576, -0.23729490689776583, 0.4833754275813112, -0.13785143497607025, -0.0953920088386348, 0.168969002519591, 0.2132831124792622, -0.3318976142749284, -0.026346838417163513, 0.15422417108902478, 0.4511653256178805, 0.030405410197015793, 0.09870121664833224, 0.33583913572239926, -0.4223665928308863, -0.11271597199922223, -0.13605000009799753, 0.0010107238657945867, -0.32751635772143395, -0.08111686163078677, 0.10270363909150432, -0.17690416744352525, 0.07805612722386135, -0.10289075768368607, -0.04557102602942292, 0.25400884283972514, 0.2688689256759474, 0.5068332030756187, 0.6756633528615921, 0.06278169648874621, 0.39233111908080404, 0.026526578690746833, -0.16055488743036064, -0.20029570790985748, -0.16436544273096582, -0.2345514192377459, 0.3873352991925649, -0.16084558273773886, 0.4184867262776879, 0.2665009361446298, -0.18564332281352627, 0.15272338972982347, -0.4893112241213107, -0.09414931338669696, 0.30491814600760925, 0.1859677555445178, 0.35681770756644116, -0.20042889432271926, -0.6423151387808834, -0.5296570563619318, 0.0962569125715537, -0.030982542610756038, 0.5225553684676764, 0.3134173326032898, 0.2540632650140249, 0.21818447146997258, 0.03539803497046886, 0.32863697378064466, 0.2587762918826207, 0.42825003025406294, -0.017654859708250543, 0.28028667685727443, -0.3686175089338142, 0.14770588025642545, -0.4290173101720776, -0.08125088485322524, -0.09804773394849088, -0.4747584579721578, -0.25266573244307194, 0.4875988350156253, 0.01524875491439548, -0.1144348365593415, -0.41477162402616174, -0.2901951178556089, -0.2936026855649292, -0.03190954276221284, 0.07259762090749952, 0.006866505680622569, -0.20852068816452488, -0.3478005807807553, -0.09312631659780325, 0.054565705027035276, -0.011149393375452668, 0.11830486948380531, -0.0766951010850104, 0.2969013578795616, 0.0939153908772082, 0.13424647605980733, 0.5853264554288513, -0.3636513128899408, -0.414424171494101, 0.003710701332898163, -0.09619867237537884, 0.263519202866907, -0.30981022481443055, 0.34462176840507347, 0.27599687994838235, -0.47757119366803635, -0.480413954841285, -0.2179128968313192, 0.2493500155802646, 0.28142039596553065, 0.36442565195408966, -0.4839328935379445, 0.39131233385194697, -0.00045925182474709607, -0.09088814701187063, -0.3141986462005227, 0.37846733639386415, -0.3792020281015983, 0.21197416709041406, 0.13368105833615684, 0.443036129064015, 0.3258011721251407, 0.09637063951451677, -0.41939778269969513, 0.09004922470013575, 0.41680627426037514, -0.2236110601209119, -0.42723977642711825, 0.1391746234836755, -0.44869632149950617, -0.4286519185937245, -0.09143728619290141, 0.03297425579747115, -0.24932755121801298, 0.39621766676233117, -0.03145142306350879, -0.27888588776329704, 0.3271320228902236, -0.1640830852564431, 0.4007940656386899, 0.08160512067545846, -0.17713031358992515, -0.34585816478529224, -0.23304366417736758, 0.26383957209823816, 0.30571829703739606, 0.10987738055586586, 0.22636944245256302, -0.2750160527453971, -0.12177090836815246, 0.16386812241075596, 0.01997771786554917, -0.35748347988751666, -0.042589426697815326, 0.2457325370721478, 0.06196470750686175, -0.2893522831354763, 0.47982143992084153, -0.40908131552518434, 0.4176183915658823, 0.265016107267401, 0.23968121354428296, 0.35716591436994083, -0.06810914640352894, 0.10871477708448885, 0.1618949193145166, 0.2085014087846122, -0.22755941872516017, 0.045672096540747886, 0.2814339015575401, 0.03696773994505742, -0.12434526897831655, -0.0590721105257348, -0.341886767450684, -0.23039926939867392, 0.3881066557033231, -0.41885067736643594, -0.49409583570950794, -0.46012291347274337, 0.42037517137835956, 0.012267139651620074, 0.06621481620336334, -0.039629636680436175, 0.46088782531661177, 0.10695914865732059, 0.28964279004091253, -0.07742233031626955, -0.4697111571351661, -0.40266882807131354, -0.1761250996761916, -0.15548284511179966, 0.10546906021321045, -0.08067898002871376, -0.03781507385696048, 0.3054027336451304, -0.4595583880818337, -0.38034871713596163, -0.3690086343368362, 0.330651531379223, -0.3248864406370232, 0.30703112269354216, -0.3216838347759563, 0.1829987678511186, -0.15580859410454698, -0.4360165086619456, -0.29522448858952005, 0.3243076526024528, 0.2762096810182791, 0.3348145021774653, -0.4953061456547499, 0.5003888099789112, -0.4224126658600185, -0.01531825358085858, -0.08364662099826348, 0.10028410218636019, -0.33924471354454033, -0.18939253922941457, -0.2879278850247472, 0.1096148751209296, 0.37474813647927485, 0.1630303912775755, 0.04718722702414021, -0.15988546915198795, -0.28392598151585513, 0.15507639714605165, 0.21914012163203309, 0.4235595158294308, -0.3041395384584177, 0.4015501548485459, 0.2306247088900937, 0.29676036800306566, 0.26258634484456816, -0.20499601422272373, 0.24569216481177897, 0.4237182541270986, -0.06369401777452724, 0.2860802840201435, 0.1349923499057188, 0.39956745270776345, 0.007209585901703673, 0.16219695194919298, 0.005511974732984451, 0.2119371328265846, 0.44126408722103017, 0.4074031941618871, 0.30821307042823587, 0.3964541237553244, 0.12827722795038288, -0.20711012534523035, -0.2728625171152338, 0.016201267060742573, 0.0321858926019748, -0.43475224655866684, 0.42543833779120305, -0.024865960245385288, -0.27171274690852454, 0.14574782231266922, -0.09837373481796782, 0.006137170577341031, -0.3590284110246832, 0.3607195477975308, 0.27668123618689733, -0.25392078566716686, 0.3157578236681597, -0.06331956466431558, -0.36784902923041923, 0.039392780593561494, -0.13531977612481977, 0.10211096266565835, 0.07263275453954941, 0.3000289614802978, 0.28250302218530526, -0.2681567304277841, 0.08223606204035905, -0.07136752463507035, -0.11184635151682226, -0.4301902636425988, 0.05827505912886661, 0.03290774291011132, 0.5076177364526697, 0.03255159775220212, 0.2637221030128472, 0.014950276174186324, 0.24141718966729947, 0.09296818131614097, -0.2957423351789926, -0.4068600428319327, -0.12082523454375367, -0.10794261784141936, -0.012323354942949928, 0.4378291167229642, -0.2905894827438606, 0.5360732449529749, 0.4459751070074824, 0.1594423207452145, 0.3726366211759276, -0.2255657616907828, 0.541590158390463, 0.14809855894196436, -0.41035242073357864, 0.11207281835263784, -0.3036638729265978, -0.22921484371667522, 0.32082975193682584, 0.012384253163615553, -0.43828673560607617, 0.20723755247294606, -0.35388447603116663, -0.2943800201796067, -0.34378692600651645, -0.40046649833455056, -0.3187322943500627, -0.5119247938921352, 0.3752687636896127, -0.4860090548425081, 0.0852924297158551, 0.24704481459650368, -0.34246287730838915, 0.11378031483214023, 0.33670466550454686, -0.03935216097791811, -0.13478644853467883, 0.5079624602985597, -0.08634735529426626, -0.08071374974369284, -0.16448398842819417, 0.4609334532975498, 0.37055837639313555, -0.20768944869776454, 0.44396888167755166, -0.4431448395467835, -0.46564630190665834, 0.01423593037988683, 0.39423024575519755, -0.49539667745548455, 0.009320899393653439, -0.4549218222241269, -0.0371022764771718, 0.06584864174683833, -0.1484230836854107, -0.6019048897287707, 0.05321087036835518, -0.12854347590002463, 0.418592958278034, 0.13168350183304162, -0.19950469324995848, 0.40188365887483624, -0.14785961860378344, -0.2505082529849009, -0.22172779248729685, -0.22887099879713924, 0.17454568275049112, 0.3066286560661407, -0.4429417412096081, 0.16399651418858974, 0.2512042730837333, 0.061693831698325416, 0.05353621335922449, 0.14074843648016955, -0.19399651658352793, -0.22388237550541767, 0.36366958721208587, 0.4606435845879845, 0.28157842595559834, -0.19727378326544542, 0.14060624985556117, -0.03376529410914435, -0.24670819671403715, 0.020506993815404283, -0.22629093013585358, -0.29155293126089, -0.24688003840934616, 0.4054789399587496, 0.20755135889420967, -0.0011561998605020053, -0.06840949841690973, 0.33971010639754645, -0.0015803998278364835, -0.3149231483211386, 0.002749495779033922, 0.09649022989365022, -0.17307699611299976, 0.31040104500764637, 0.30590875622325747, 0.3833346947211632, -0.18236392221146544, -0.48087394834193486, -0.3874534502607418, 0.233596105959575, -0.2862120855482135, -0.41202331148961824, -0.021274291752898866, 0.07305636891197696, 0.07587342769004175, -0.27861521886190305, -0.14619358134208177, -0.38682851855198913, -0.32028137255985684, -0.09536978670891658, 0.4038278323488686, -0.2951465000607081, 0.2740344311031773, 0.16893100321219787, 0.10336430773940367, -0.2571525148820123, -0.2596743593648526, -0.16238478039008866, -0.13772345932734423, 0.0645977004298918, -0.016513655830029783, 0.033999348820509714, -0.4283436893796243, -0.44688157835614406, 0.24517988843088234, -0.4947825836879708, -0.0714422456121493, -0.35520291304248985, 0.13706654250881947, 0.4285073418575933, 0.17005482118534604, -0.30727737109375725, -0.46284798415717715, -0.5178123682791496, -0.38187365521279837, 0.1756875369535404, -0.09984900939828004, 0.08213388416570823, -0.5121309273761626, 0.19717704668223088, 0.1743758216336572, -0.2042358681410177, -0.42302195705460005, 0.13610226666364397, 0.3299815663860024, 0.13797327351860886, 0.27087410523827665, -0.10598306971511427, -0.06287464652130807, -0.22150934581579532, 0.2540997832630275, 0.32730727587496783, 0.2339023516296742, -0.2637357221391662, 0.10530425281767129, 0.07023688243391979, 0.3083548267900772, 0.09531196745762383, 0.1967252998666274, -0.3565933854474805, -0.5680104070235382, 0.26357325605953513, -0.1755671426963887, 0.37936302439055125, -0.07491208943164013, -0.19197027904998418, 0.2300536555488571, 0.19412746610359977, -0.4840730134828406, -0.12015068256404321, -0.35433331583279415, -0.22772677053702284, -0.4645544190166309, 0.2633493025788428, -0.1623541880079888, 0.29810713458042576, -0.10418103651614388, 0.02063652429154477, 0.44978853264563573, -0.1543635484014177, 0.48970893879273225, -0.4567805354408615, 0.13693281040550612, -0.05147591599591235, 0.13069162589529057, -0.2225945934239889, -0.21333378784469245, 0.14592880564405986, -0.530392884562945, 0.01083629016689247, 0.07752603859238288, -0.10073507894228713, -0.2814920874368867, -0.30867086644387487, 0.39817293416053995, 0.4954544318766295, 0.4121545762309263, 0.4100611948079698, 0.3059241921894349, 0.24092854313007298, 0.28993275949923747, 0.2709427879967287, -0.2583773109456719, 0.2681174140809786, -0.3914904573233988, -0.21314984530089096, 0.2737359074859225, -0.15158329715332708, 0.37115989331881516, -0.08346302549172836, -0.36257511031474915, 0.42591723115134594, -0.4763607284946949, -0.3806846667179291, 0.4217957762502081, -0.47888958793556685, -0.5025729303568084, -0.5919409596924142, -0.5339753867363489, -0.2443107325472709, 0.09952485774788847, 0.28771970227672183, 0.020887177301760117, 0.4170549388286928, -0.03435305322166476, 0.6287312743406769, 0.27617544334910765, 0.34943389487630927, -0.6107433456266876, -0.11306984404532118, -0.06204044420980702, -0.05596694005885151, -0.1546141078812195, 0.06774957106948996, 0.3802230832808713, -0.34133892259329807, 0.16193293203154702, 0.1480665489957864, -0.05033073431126561, 0.13714362357457865, 0.28544853154223043, 0.3994365190146996, 0.2086363637456787, 0.3300525047923161, -0.03633898846279318, 0.1927711229184354, 0.1779246735235901, -0.5226860832316457, -0.238196027947175, 0.44168764866352506, 0.5473009693732216, 0.2440033636501397, 0.24145675661179272, -0.11331836122170715, -0.09478947031348142, 0.07140514028389888, 0.2597662797320702, 0.11034408153334385, -0.2480258140767133, -0.22476622418656655, -0.27692273906719195, 0.32254810845401566, -0.06696161120475524, 0.17610824239473552, -0.04031316403803239, -0.38037115360530777, 0.3918000430511843, -0.13597213825419854, -0.2194316719142696, -0.15549632911009958, 0.03838059829326595, 0.2887801030799109, 0.1805075593892633, 0.10332135799560224, -0.3621101574247035, -0.4545107386778035, -0.16663723549671033, 0.2920705319513375, 0.09066969966071427, 0.06012172432089946, 0.401737864866288, -0.18482218131830128, -0.055772804625911825, -0.24384093645812638, -0.17830158670975754, -0.402840527683882, 0.16562427690327663, -0.05582192620946498, -0.13244106782951803, -0.39060786006129006, 0.39949456883077966, -0.3862037797610965, -0.17292208827882558, 0.06270153399317756, 0.4414590552073392, 0.22872924608685447, 0.13289269086939745, -0.23661944875136892, 0.31657637517777915, 0.37897186055306564, -0.49965474657948533, -0.30084981350217277, -0.33408366750595747, -0.6931203058863347, -0.11258527891057014, -0.29891577574465655, 0.24392344643467787, 0.12782408194810946, -0.09478554318133268, -0.2055910740621463, -0.12268149672696911, 0.34231293614094355, 0.269612191938608, -0.40970876768402537, -0.35535725882964986, 0.27522297712413785, -0.13723424151602454, -0.32569092696453084, 0.13025576598835878, 0.14818840489947244, -0.3526455845307564, -0.23252915254782924, -0.49322194738571123, 0.06834481269177424, 0.17119815596581842, -0.08211078950714659, 0.24078587454207284, 0.4862558446958523, 0.3769067115648534, 0.21436984170161083, -0.23655544479935078, -0.5120395727545214, -0.29019001414193135, -0.15932961180419872, 0.09917826721710787, -0.0698219268069058, -0.16667350325918637, -0.16460574605191225, 0.3245357292929387, 0.19639827613947225, 0.18460434088499036, 0.3964282832329812, 0.30821892212201896, -0.34514629388111423, 0.14642686126554577, -0.4758257380861672, -0.20555670479360316, 0.2899983320681131, 0.24138553710317442, -0.036234368673117245, -0.010890439445904152, 0.10929753751443248, -0.08647528896369391, 0.31704844723872055, 0.5317596453927105, -0.29515471147595557, 0.2072942491639476, -0.13653503855255872, -0.4809553170834767, 0.13050232172499804, -0.33138927987827327, -0.28605029309388835, -0.4945073548880099, 0.016243011804691603, 0.11505825612409468, 0.03109971267788861, -0.2922776716953258, -0.08786586652034871, -0.0018728649331596664, -0.15931296461606673, 0.029816738308507864, 0.3060352110201642, -0.15999218319531477, 0.16354651648845778, -0.44896511292133323, -0.2238260626510931, -0.313229164722464, 0.47886097310627546, -0.04400004141110826, 0.22675839040746423, -0.23106500558837334, -0.28799187795763814, 0.3587689656453166, -0.20211333741383888, 0.12292144483766562, 0.17468519118182838, -0.2382265516869627, -0.4657959485639669, -0.30313512947914784, -0.1452839854498542, -0.24182757451214232, 0.03676367354893867, 0.3043213570799004, 0.49756921569151763, -0.28656981176855634, 0.41820894027778993, -0.41805437380431826, -0.21120160120265352, -0.34296693710851595, -0.5428840939040642, -0.5826644577226505, -0.34921767047324426, -0.01791251590099549, 0.3509593287388539, -0.2794372682160311, -0.36491627752534495, -0.35747370601045036, 0.010782640386281607, -0.14577178444702557, -0.11973943436889037, -0.09521068158628358, 0.17056909218503125, 0.23245981316655012, -0.11009023237400979, 0.5160115709916362, 0.4215208277134557, 0.5759353808025757, -0.1255784994836364, 0.39386759161146856, -0.08001421499044134, 0.34689953214935276, 0.38659671045115607, -0.27365107367738634, -0.10511423581080635, -0.14868735269982386, -0.06405874073816495, 0.12912903815335502, 0.23186010845854352, 0.29386461914283296, -0.07766309740528153, -0.1899392922247603, 0.3538185190086279, -0.19423335702341707, 0.01727256252238707, 0.034150663899761936, 0.038926819421479075, -0.3344956283250857, 0.44296791246608075, -0.27537451570969024, 0.17930425009181294, -0.032323585997218955, -0.05894846484748326, 0.4664455254733827, -0.1851994422205902, 0.19455112547163855, -0.016924314276149086, -0.2622726332982782, 0.47847519491072166, 0.03403920393367066, 0.3821247064688063, -0.2784415107753332, -0.4429212031181855, -0.47619496939278005, -0.5415972884582346, -0.3437744916854078, -0.4706130543913029, 0.2012423597996443, 0.17879556057617108, -0.2753489820999404, 0.45370387013975055, -0.2412379449688242, 0.12366545898978774, -0.20247574428034634, 0.0672230677249326, 0.00010985447662801167, 0.12470933532235598, 0.07717910811636143, -0.3277647035470148, 0.3073599588572508, -0.20584987779364525, 0.2758010209879262, 0.053221140777817595, 0.27478927667944325, 0.22374853145772058, -0.34349276437917714, 0.13798848587525714, -0.2682052302379226, 0.13772507439616247, -0.3299197446963194, -0.10326444859479952, -0.24576848793821104, -0.4204927649261837, 0.09684151070151582, -0.2173320789492688, -0.3473209916515402, 0.3521517543780072, 0.4054942253513095, 0.3993914571337043, -0.2989807941933257, 0.059848556389513155, 0.4286550358200822, 0.4238375882680983, 0.04336967497931861, 0.1759109256955149, 0.28857230740572765, 0.13188722700360647, 0.17540628661781837, 0.07976488768936206, -0.04892022474206724, 0.25505845020538837, 0.39462900408439666, -0.041494133223654237, 0.5534075226714055, 0.3679920867579524, -0.17367303374524098, 0.1858803634799479, -0.6144735501078424, -0.3239156663023783, -0.32073902955839817, 0.12640723744738067, -0.11955431502538862, -0.1482635599802108, -0.39271187928077206, 0.4204702834897571, -0.2363664045876698, -0.4422662336660825, 0.2485025221686139, -0.22359642012695002, -0.10554953937729694, 0.05962104058694702, -0.29293262715142954, -0.18970309996799475, -0.31772143073111725, 0.266316143091228, -0.45784130234155723, -0.23701121442868728, -0.14608404507051784, -0.22011675950036072, -0.3441451798092652, 0.295977512872399, -0.43582878490885124, -0.5144378129061916, -0.4412919048561, -0.4914166224891167, 0.14705430667944872, 0.3494551538795786, -0.1783128508425953, -0.09235379078424796, 0.19983112465588213, 0.27880253866971744, -0.43373121354537003, -0.4205748503764719, 0.25858850010024687, 0.010444508964851166, 0.19157141212260054, -0.3478240627018262, -0.11559701957629709, -0.283841174595989, 0.41550070613859935, -0.18865318711009796, -0.2311664253268222, 0.014023569782770582, 0.4258724538905394, 0.446120999225429, 0.2358361494195592, 0.07390221164917171, -0.1081096167119745, -0.03182025964873577, 0.15468273302643654, 0.4049082576707646, -0.0738105001633623, 0.1482008355279629, -0.059674562451049386, -0.27107096169269446, 0.4546472049669302, -0.23579420158371459, -0.47973038078378766, -0.2954162575098221, 0.22865797424063927, -0.4981051237523782, -0.49222964591834384, -0.14633034740255066, -0.36965623888764254, 0.48620363737390204, 0.07740797954675949, -0.3564104991712888, -0.30093726607235466, -0.4304820028546438, 0.06282230111139679, -0.26416057315406966, 0.48540315479307033, -0.18891434676916619, -0.33808351653924423, -0.004157424281893312, 0.3713261658854518, -0.49013268838751906, -0.048436839150679215, -0.3973027060863316, 0.2471994529445983, 0.09399591962765674, 0.30450356542597007, -0.1298617705964693, 0.18098517616762722, -0.4973382301610014, -0.22178240110564695, 0.12054006193279741, -0.10899123090009753, -0.3001021506409138, -0.40238177903462036, -0.12455940117223852, -0.021984986820803076, 0.4428681127856334, 0.26037213341133814, 0.14031471671422602, 0.4399724743284644, -0.17334805108440662, -0.4842055512494692, 0.1928765413658763, -0.43874522321737147, 0.047783966246889735, 0.05027181572333773, -0.4046346154983429, -0.07525705895621843, -0.4674730418791976, -0.2835587553703517, 0.2615867652485299, -0.2773439619913206, -0.2051010939769655, -0.1823250041578419, -0.2253539709561482, 0.4431859432369158, -0.26479109227976505, -0.485291823647049, -0.10571107418528035, -0.25343458167677424, 0.2666895751770173, -0.23835088760805673, 0.3084558445098434, -0.11999985958600201, -0.2695888613890035, 0.2726085537915025, -0.3105542284961301, -0.42253556479044974, -0.002181979948362328, -0.37735783434357606, -0.2346940939821129, 0.33377969294090304, -0.16827435710402996, -0.2379215878023562, 0.4303227198757063, 0.29645189024311136, -0.3648047217669488, 0.4824295570221155, 0.06916529091527819, 0.14151265102214547, -0.2860663017507927, -0.025585708171377106, -0.23014057553928766, -0.03686640556617038, -0.29925125708590183, -0.0754471456505521, -0.4653615078566554, 0.03327130769641007, 0.2617111139541931, 0.3979410707578517, -0.14902488812245307, -0.21819158027108065, -0.15229824233604317, 0.08135540108198647, 0.14066962122589677, -0.4996296247226061, -0.27521706971299964, -0.15873725078193923, 0.45635023885025094, 0.3200627344315684, 0.054464910420196744, -0.0023388493160830803, 0.45325284830939505, -0.4166921528726657, 0.3088593550873764, 0.47722634840483696, -0.2560414799704482, 0.03392898572520788, -0.03622109110624838, -0.36710444135847353, 0.2817341157777844, 0.3058488837366786, 0.0943200133204064, 0.41887014298740133, -0.063539480706306, -0.48863204889722955, 0.3873032455301225, -0.20422120187388593, 0.4782704423261189, -0.31747598013602363, -0.2307832883038453, 