0.47664643206892066, -0.352834376650784, 0.08672096351857672, -0.2252815593537143, 0.19031981956345534, -0.08350917484429565, -0.3984490936545513, -0.47719387100371446, 0.39077076428934077, -0.4692899663615725, 0.18680461413301197, -0.174148273512177, 0.4156707310617376, -0.39434425598036066, 0.31112137640123444, -0.09244882188094382, 0.45707350320115925, 0.403663556134788, 0.08932134400081204, -0.06214424581365119, -0.4229387917920737, 0.09334270622714091, -0.16586315547437602, 0.02052640101386949, 0.41312645541503457, 0.36720952371195514, 0.02676326637188453, -0.4663938016799738, -0.1506597109615444, 0.052317282894234984, 0.33058854377015134, -0.4350245241453953, -0.3837061783054822, -0.3962587995076822, 0.02849243218008942, -0.4651446298531047, -0.3473115700377171, 0.12369729359725132, -0.15814994305733532, -0.3537553944462766, -0.13707221306539077, 0.47322909081864745, -0.4445461409938694, 0.4529902965987733, -0.10533605928982552, 0.17932730873056052, -0.1523067178481535, -0.3621531936897718, 0.49522918916093545, 0.19374498933214043, 0.1783484180189061, -0.43616652543306034, 0.4392609221112804, 0.029468567882774632, -0.38630615620868836, 0.4329551734573759, 0.36343164712093967, -0.39668535791043114, -0.2760545533872384, 0.09845132224364282, -0.0379259215536076, 0.12030006065349644, -0.007183634258546472, -0.3522092439072381, -0.27578008278123634, 0.2264322435487926, -0.1287182411668979, -0.18299907573677235, -0.11754488749918851, -0.36380877153233504, 0.3990426206530766, 0.40073543909931225, 0.16413166084689848, -0.5245418744538516, 0.03876102077127593, 0.4313570995867895, 0.3415844632310953, 0.2992060353843178, -0.23204969410550208, 0.20969202949229862, -0.4060661684605166, 0.09975582886852691, 0.18307954188784858, 0.2498031799358723, 0.242460023935394, -0.20067519337212425, -0.0016562147985586403, 0.3640933135886797, 0.40180774379279766, -0.15139121774964098, -0.46213482559828145, -0.14074472860300483, 0.04420205844515257, 0.3632656720432851, -0.07934528793429398, -0.2173320926143759, 0.3108318446046783, -0.06180115465875169, -0.02767055987826205, 0.10304237749898824, -0.47098928490945, 0.24020190988188556, -0.17547437486430711, 0.17216857274424577, 0.11785751467262488, 0.23990298543094657, 0.36130492195488845, 0.44420219631825636, -0.2058751934047171, 0.07239969026016181, -0.29660306722032465, -0.08131283052490224, -0.46256989397679826, -0.09303846126098927, 0.08531863049384611, 0.03435865133906364, 0.24993404285546683, -0.38310900203018594, -0.11362563434854879, -0.13382571050505296, 0.4596050902414911, -0.4201529212155547, -0.26887579876800793, 0.21856753726395467, 0.3061691720129641, 0.03615232371511772, 0.44346151658062255, 0.24679494150970502, -0.26978087448167587, -0.12913475229390006, 0.07912901009388443, -0.4333062766954223, -0.5245918856191369, 0.24990662568083297, -0.052875152020439437, 0.3519907834381006, 0.2556900393824546, -0.1641845075438558, -0.03824728626294403, 0.053645772439521566, -0.34589215402778384, -0.42141238895706956, 0.06755758347219261, 0.3223124865265683, 0.20520199638886724, 0.032728420819369754, -0.02060853326812469, -0.13156788887060206, 0.42907510216599254, -0.24635976397965204, 0.5249715239117407, -0.19179795059003624, -0.24030586848557645, -0.08511146117142482, -0.24483221080497433, 0.29231300393673476, 0.25355470926567064, -0.26403604577405787, 0.3510964526536608, -0.20837073852788254, 0.3250351889259119, -0.03736972920486164, -0.32632107150843775, -0.1211330962428336, 0.08542732896636404, -0.06543560802369078, -0.07412689816987485, -0.18895894041556688, 0.2206757348315428, -0.10008747052851072, 0.4441287996421424, 0.3726539588041876, 0.0895968835268954, 0.18081347279927476, -0.4495378392369807, 0.2063364339212223, -0.17446284970743886, 0.026971591223441595, 0.4171327164880028, 0.4013470284619998, -0.23151928723172907, 0.27312849863941985, 0.2979073715796374, 0.38143195845426586, 0.4988562831152362, 0.22978508119622987, -0.029087141172505163, 0.3046361474105588, 0.5013872467520575, 0.33208062220196566, 0.02446677376455437, -0.4647555108976298, -0.4672946421452933, 0.22456279317662303, -0.17236898108244714, 0.3358910649017028, -0.016103764926511163, 0.14967411438268988, 0.26783220609174846, 0.16793792718527678, -0.24070368538885367, 0.415002153899055, -0.266797492056833, -0.0365519835794309, 0.11294624833914585, -0.34393338895542536, -0.1717851971394703, -0.04787655388098243, 0.414444666703329, -0.15168571402882816, 0.5927473841895787, 0.11007886454304752, 0.6309931004917129, 0.4717654729528478, 0.7064692382876616, -0.18804029708796055, -0.29248021125458035, -0.3758198348930866, -0.26179005630759666, -0.12997185316157875, 0.031581637037961255, 0.43434568041907157, -0.419617000120279, 0.19366820739568655, -0.4624783430582049, 0.4611364217708953, 0.16203803171884254, 0.4103142391970002, 0.0251584349245525, 0.10073213854722639, 0.29480579025319525, 0.2034771475110283, 0.23674101733858863, 0.23008906875744511, -0.22648798039300716, 0.07237473223127196, -0.29204242957025306, 0.38050961912969905, 0.4127243200696411, 0.4763734746230857, -0.17254446074857072, 0.4067965271477746, -0.2502355395575955, 0.07710729827521846, 0.16852438520997673, 0.406996080930012, 0.03342943165929465, 0.15919187498186282, 0.0361179921561579, 0.30466268489041837, 0.38030590203887443, 0.16577203326898857, 0.42825376630789586, -0.44170195440341214, -0.30191648554250017, -0.4823382576516468, 0.3646265806773636, 0.4241545123803012, 0.14938228607004628, 0.4186300548908626, 0.28150005134503037, 0.3579244039298135, 0.395887463018242, 0.11247050497952246, -0.1805338144398825, -0.017402016768140537, 0.12356651952860509, -0.1219946497374547, -0.12750311819060203, 0.03190095308679984, 0.05610121552028243, 0.3344860127380001, -0.18149443797111905, -0.40706356030006885, 0.366160668488336, -0.02867936440036755, 0.419675409776304, -0.14964426761903762, -0.3087188430878171, -0.4157538639879291, 0.07820816654024772, -0.26357719718758826, 0.3916307432916626, -0.41413858315274016, 0.30003313316241514, -0.3588331459185918, 0.43725852626978856, -0.3457619630513426, 0.3288613177817224, 0.3736202107823359, 0.3711165219715892, -0.16604013673927323, -0.07908764899499236, 0.11037663979831207, -0.16306789932783633, 0.26647885992414294, -0.26871206320594426, 0.3245662767816084, -0.23415040790442052, -0.32991249965993646, 0.3082586249987935, 0.33006291563861917, -0.39313898573976824, 0.4619574143537448, 0.13477620950509958, 0.48578336130099864, -0.012584947786631566, -0.16303726829016799, -0.45358830835340425, -0.26116942626155554, -0.22140715434298133, -0.10265932467131758, 0.367683195511955, -0.25447601757399724, 0.10922609073813208, 0.30793690434202114, 0.29173117165179757, -0.15243376788949525, 0.40753036922708236, 0.34696640855637106, 0.5919636581475034, 0.22965647389526292, 0.42532682326367655, -0.18807846870024988, 0.24594999658125663, 0.18116434734980755, 0.5523030918462917, -0.027617224931658, 0.34415780864762113, -0.34926923638427393, -0.045315075607172246, -0.3987186500371165, -0.009868892152189033, 0.353450994065715, 0.19939318778502219, 0.354381250216701, 0.061609952494129705, -0.09189670668026002, 0.36200702345730745, -0.4788898970332534, -0.2387103106573692, 0.4171768911349785, 0.4647868227998767, -0.1878145416959924, 0.31794981116810966, -0.2511927187782824, 0.16885598967187443, -0.14607139653902126, 0.16328696975247226, 0.4186475519052366, -0.1826097191895777, 0.003949230957242614, 0.2572262436762487, 0.2579026254818348, 0.2970089317658471, -0.08780757551943337, -0.010424537042092357, 0.3551079163566803, -0.15672387889920017, -0.3467101053154068, -0.27851315580708574, -0.2895337771071773, -0.28923521842338473, 0.11066129199702311, -0.22393693394572325, 0.3513180147637235, 0.42019438630741257, -0.26773876742292596, -0.13627867445838174, 0.1226041030134249, 0.27792213994356224, 0.11314280276518629, 0.003592375281926893, 0.37575879508631543, 0.42573003392887837, 0.46653371753155176, 0.19092420521207187, 0.22596367767943293, 0.23128381218196498, 0.17715608753219012, 0.09499616639876131, 0.0363230458526367, 0.39889132199584865, -0.1142535533862408, 0.020219627089830217, 0.3089405715085951, 0.08303667827922184, 0.25461136442439686, -0.40906473468820237, 0.15345921037277988, 0.4925511042494857, -0.276357251472694, -0.234959815796921, 0.28153001107206893, -0.19837835123802633, -0.41019546941462237, 0.22262548943642843, 0.2176254838079406, -0.13561933600170392, -0.3668326733133516, 0.3179629719708927, -0.39248811403273326, 0.09538910149608719, 0.44549453124422844, -0.1574428714787102, -0.2589843581223397, -0.048245350865218944, 0.24005949144658403, -0.3087026647580006, 0.16166685185906962, 0.18166931290227797, 0.2802071151228561, -0.05693211283300838, -0.3675977575775078, -0.3577067368708784, 0.15930527256320054, 0.3527635631936665, 0.4377051095577293, 0.40251916803031934, 0.40330953072471015, -0.20393884949469593, 0.3326521998104942, 0.034766771691897305, 0.17425402667664164, -0.04321733666321501, -0.18719257275805112, -0.3537216180067581, 0.30075609008770415, 0.023538006009759284, 0.25019553985256837, -0.08835672867287885, 0.39454144135764746, 0.03985340939092126, 0.3846517058992035, -0.5745144444867796, -0.1845961424744729, 0.3061049888542336, 0.36542512765576607, -0.06083283026453319, 0.5261566667043951, 0.31192989775960883, 0.036153544455236275, 0.4259989472101121, -0.11394997577539619, 0.010752020546529188, -0.3247739319401388, -0.46688153681423417, 0.060776120423555784, 0.17389336007041747, 0.19709285789619252, -0.0721448860565798, 0.4987965083706551, 0.33701655079370496, -0.12533252544490348, 0.3423014311113916, -0.002935502553779208, -0.0189456589154293, -0.4162644492212147, -0.35715646432495163, -0.057909427884156185, -0.2321173009347653, -0.24516422137138622, -0.3364378414801978, -0.15471107150096194, 0.17372594316578563, 0.2256061673374912, 0.261314128193789, 0.11584903787808866, 0.3717325466931966, 0.21900412011449216, 0.1986219299358931, 0.3291093551872304, 0.07814563643196687, -0.18361327336527739, 0.32761883649092816, 0.13455101231068864, -0.144192740473834, 0.18934548270596438, 0.16161378500933787, 0.28608634038629427, 0.4400269210593584, 0.22023662965112178, 0.3769922014713649, -0.32157153771292446, -0.4114600833315893, 0.3881676793050942, -0.37343403609818926, -0.14857962370462563, -0.24406559593949867, -0.5984009600712179, -0.6020220118280426, -0.5273000352094165, -0.12500345438581226, 0.14316057769009433, -0.26789111301545754, -0.3471402592620759, 0.3660018940466059, 0.21608077194962735, -0.36795809988309375, -0.06542506363862755, 0.23398461394273073, -0.4036376738009255, -0.43828775435849515, 0.38779803981038297, -0.3534477408002874, 0.44655749722104227, -0.19511216437591605, 0.37124734622655464, -0.38936926838648206, 0.10733353555900699, -0.0505024370616198, -0.39018706320466023, -0.0430852572804899, 0.22228268710812507, -0.15052792003281087, -0.0010988096734222826, -0.11069754714791234, -0.08971998544589503, 0.10013228506065443, -0.3562237718478284, 0.26442039151131963, 0.43816380969107627, 0.26584242764526805, -0.10410900663027525, -0.3433363456295637, 0.48878831747396184, -0.4015784557911638, -0.4018320992666513, -0.22881455417278465, 0.06878001519196594, 0.2493252231568307, -0.44199255416462635, 0.11442836329437649, -0.438594708921933, 0.46361559003935526, -0.3826979672656188, -0.40999932700733005, 0.12727886362962038, -0.3786562133090997, 0.11851901671648392, -0.3771938843444435, -0.26531352601206204, -0.1823665283681859, -0.6621291722468788, -0.788626616765128, 0.06181605316066302, -0.2573972260838488, 0.22666154116202344, -0.18543838432299353, 0.06514072963837075, -0.023463683124047233, 0.5038665732283715, -0.01737891646149811, 0.49969388050611413, 0.33578470924385184, 0.3596518513926382, 0.05161620662002787, -0.08250207591788301, -0.48643882259206966, -0.13965243558808038, -0.17919508959394992, -0.27815696245691235, 0.28601276406929615, 0.11118075121070535, 0.06588929058896917, 0.4153794611703796, -0.20240934145142225, 0.22693987466714857, -0.18583576367665203, -0.033555313590088245, -0.1545477149040063, 0.056621568300882774, -0.7071053010337319, 0.14075319412670528, -0.3417716002105506, -0.10350002426013401, -0.09482748436396089, -0.2111268842974592, 0.22925842087125445, -0.16031888921133344, 0.2424306903656686, 0.17770293118878583, -0.48144569682328303, 0.4101143987144833, -0.3089971256729944, 0.3539773855958378, -0.10585052124918803, 0.49935212328869727, -0.30080544662545633, 0.26914115915991726, 0.43754489456986023, 0.16916664051350913, 0.4092954040371675, -0.009345277864651983, 0.5440435884281366, 0.19476990775664046, -0.06157247066004098, -0.24267774092188846, 0.005102489428548449, -0.2953175112273197, -0.36070709789870753, -0.10948228450335093, -0.4503383064165268, 0.5310189113576094, -0.28944270444923725, 0.023981004804075088, 0.4395208905933726, -0.2645671898457012, -0.008353466977132866, -0.29886394306618547, 0.4225364475720192, -0.4118269926639516, 0.4041947676816736, 0.3176472742346482, -0.1682957251143709, 0.12082232702319871, -0.05718859084673714, 0.09221697234144964, -0.43748775368883414, 0.3754498341924049, -0.12120717473486801, -0.053582138135561945, 0.03775146520388172, -0.32585017941024713, 0.23048955552824654, 0.3272573757880856, 0.06664777792021405, 0.14734273972725617, 0.02588857205265228, 0.17662755453570558, 0.3722348588755168, -0.18648970085967173, 0.3506566219376222, 0.009540474957213005, -0.1363425617022085, 0.23639110232725838, 0.36314625260868466, 0.18298672347929093, -0.38781266693575517, 0.08001091455461921, -0.39823770525727176, 0.005092889248772814, 0.13418779643593232, -0.016533152317416522, 0.009914840950809523, 0.11030580846048277, 0.014725495433076871, -0.10392300340137582, -0.029843516378276744, -0.2498318769426727, 0.11079319035993551, 0.03401502943523666, -0.3266155932949598, 0.45497167945346095, 0.21819522068645694, 0.43331298085418124, -0.2114299479283282, 0.3226342850722969, 0.36196064769597097, -0.3074094720589291, 0.45568053620275245, 0.18398793580330064, -0.4170364782489626, 0.06791675842775115, 0.32168304932928754, 0.37013157937146596, -0.4271264882860455, -0.21372336313081333, 0.11757711416569609, -0.38994673040909117, 0.41842593357922836, 0.11874429436055856, 0.4204626518193869, -0.10603750448834937, -0.2571887908567053, 0.0918398449167738, 0.3643879202953993, 0.5272699852355965, -0.07789527590460318, 0.1636406438807181, -0.06233545896001915, -0.3293123079829708, 0.5908454183126005, -0.24189641153587677, -0.14672767745046064, 0.21401714300174055, 0.2478812464236377, -0.340502004403215, 0.26344116400503914, -0.14996024381380726, 0.09595224838662199, 0.22000192854764844, -0.04253487537142163, 0.4619001929613959, 0.0023526572058059875, -0.16202894001105517, 0.03438314912239699, 0.48298012407410107, -0.14893608610105113, -0.33149896650678035, -0.4712584954135687, -0.33935629097071285, -0.33798787342603964, 0.2480958694182956, 0.20339721035255284, 0.22435649338078031, -0.23852963525963863, 0.4567015035650105, 0.33241341907960203, 0.19184888436319467, -0.11498344127352556, 0.23176873231546613, -0.21261523987146724, 0.5741007759820275, -0.3009250294679452, -0.16596217280099726, 0.3835339896341765, 0.0782090508211623, 0.503921023670072, 0.0537465016937343, -0.16948949464765062, 0.00045476861100791937, -0.09895832712601256, -0.15581467718934536, 0.07403651315537738, 0.2240517934819459, 0.4411442093088851, 0.4185158462396924, -0.028491336848639914, 0.43255401374686464, -0.1824668590163918, -0.20990346536368043, -0.4116692611742043, 0.1453569679074288, 0.12236024195486593, 0.3013462503929988, -0.0010423411078533138, -0.32700341033024294, -0.1489733175076471, -0.06428036289015152, -0.11790689549359507, -0.022115237362354486, 0.44757538514904477, 0.2717577093351693, 0.04132415199488251, -0.03161729361841276, 0.29215410628207766, -0.39149163831767714, -0.08585855165776723, -0.21010360959231403, -0.28109867090818924, -0.38626025841275585, -0.1092353591497639, -0.4465037033288717, 0.4429490288976933, 0.07047366576062375, 0.48350179312027153, -0.4369586017342255, 0.26879341612733, 0.34862861859615857, -0.4052596862428697, -0.3198296352945601, 0.011244815172765923, 0.45228178481389003, -0.13090768699272384, -0.4343100426108053, -0.10449063496306044, 0.24710263574147304, -0.40224997705961435, -0.47405926302517165, 0.28002252686849083, 0.1802035802612781, -0.05735695650407793, -0.40353670685746806, -0.4041303759577057, -0.23898673243306795, -0.19390037532536603, 0.4387979963521271, -0.17231787673329577, 0.2674241611995957, 0.3161388919983138, -0.4054797529356525, 0.3332990445565708, 0.23156202543625992, 0.10228573813127939, -0.4058340210869362, 0.11420524206207816, -0.3208828184881254, 0.37415618703352116, 0.013551047135989536, -0.07695688224099284, 0.2548467754883781, -0.3407174169307533, 0.219535724327662, 0.1083723252074581, 0.3117019734767231, 0.214754474242688, 0.3272114525196529, -0.3183373422314969, -0.10825514840709227, 0.3404134470420065, 0.2872501017522453, -0.4919338507002141, -0.3887643391419776, -0.057454626212606, -0.16799683525930464, -0.4156411288831947, -0.15259710999150644, 0.04365867240177801, 0.4947740977009477, -0.30762307077667506, -0.3097279276837146, 0.44438242033680897, 0.01167777141992421, 0.3026554068858498, 0.3609112216678043, -0.008121120730334885, 0.3412297252099893, -0.32937317963286217, -0.27758151719913815, -0.39333101187401065, -0.07705646752008019, 0.15688039311604812, 0.12782116503726845, -0.3434915707795606, -0.2691769537272785, -0.11874279209469364, -0.42722136194950544, -0.0602151422204258, 0.2967001769063666, -0.338657795377698, -0.43806250928942053, 0.06582273704072805, 0.08762826776798417, 0.254750320872377, -0.2833689426085535, 0.42529451059022305, 0.38802181396640434, -0.047853365462724895, 0.0076093887136921, -0.24974067259242383, 0.2168795442047705, -0.20317095654355533, 0.35029385822438563, -0.30708144869569154, -0.26149899552013317, -0.1424586050185122, 0.2811713742005079, -0.4826907193279225, -0.3201271338094884, 0.34197161050081293, 0.4931596707312875, -0.10453538444610727, 0.13001198076222398, -0.477753040475723, -0.1564514571791118, -0.1636545712585793, -0.04774878322123811, 0.30941650628209383, 0.025419449878623313, -0.2720691584477753, -0.31365040578403625, 0.34942447232885243, -0.2653678415065249, 0.02494792628044637, 0.310965966614069, 0.20106375760094897, -0.23754527504490408, -0.1760823448219161, 0.3171929548736865, -0.2564020551743729, 0.456615924976732, 0.366621622844522, 0.16072009678412283, -0.3510197537619803, -0.17639304605830802, -0.09888560197566489, 0.014498034179169401, 0.3067595571812637, -0.0008811650574882977, 0.4104072550123037, -0.40186810725302907, 0.1702560019043506, -0.18462465463605085, 0.30061448783190087, -0.0550636716419407, 0.33534028845897124, 0.3057466983514962, 0.024357766107466816, 0.3730675197356753, -0.08025078950985949, -0.33861040382495416, -0.3186540225645652, -0.14934457532318007, -0.15130328928820613, 0.27293470417902643, -0.15320857262448895, 0.2903684772496815, -0.4586752884582629, 0.32631974867046787, 0.040028991321998976, -0.4385109778891702, 0.27204516508248267, 0.3491098727579354, -0.276407772399112, -0.24542607185490165, -0.21581327879927772, -0.07054412239820901, -0.1406106957903289, 0.27861771765308996, 0.1925034670215105, -0.030865485609746675, 0.19879468539523998, -0.1636696244085308, -0.004364896853409737, -0.12219250310425264, 0.14411937623280507, -0.12891323362163207, -0.015752752234713188, -0.4215778682818444, -0.054325895513945836, 0.0979539326054146, -0.3514259036006566, 0.40785463441712455, 0.16433106391517704, -0.034742990700443954, 0.4530843048749805, 0.051398457204262296, -0.4279518177347425, -0.446456379028259, -0.4724476078926992, 0.3461419999453715, 0.3785080794635812, 0.21339015280673473, 0.0935105010581728, -0.4080411487166058, -0.4030894328844241, -0.13412383059103214, 0.2560927215721493, -0.06893424907865785, -0.43803994395273427, -0.1763137883185106, -0.15429025338660446, -0.2629325171923476, -0.37979233723418543, 0.08688180050690684, -0.45490719945615576, 0.12080205599193654, -0.42453016132232035, 0.4405616098091502, -0.265133558524971, 0.0006609991281788519, -0.36702612503881493, -0.2832808282384158, 0.3351004229420392, -0.47392026174613056, -0.007602199937791325, 0.0918632924875736, 0.3873426647288531, -0.23753102516817215, 0.09989607886852396, 0.4382706255468477, 0.0120048371137295, -0.1985731666975587, 0.1638340210991169, 0.16452975084475144, 0.030688639513604954, -0.1436759788275308, 0.17637950887596204, 0.07003153372142512, 0.402160820434069, 0.0800303815404619, 0.2108888517698483, 0.4653790244415469, 0.14258485935656662, -0.335300538969465, 0.2809059415465473, -0.031192667548578367, -0.24476488345459974, -0.4652905223047431, 0.42962842294295434, 0.2067179845459162, -0.2458759596568206, -0.19872928405951434, -0.33762850942595374, 0.2683353160867818, -0.13216669275019297, -0.38259550157106054, 0.023933375536526063, 0.4096187923086905, 0.38298417351613795, -0.26258026323120653, -0.14163462383786105, 0.5031445709538306, -0.3575170141887483, 0.22560986206137296, 0.042130895764569284, 0.3018789606953955, -0.24237888063102284, -0.006269779281929435, 0.094463798714905, -0.18690138909874132, 0.4819210896932483, -0.21933816970161188, -0.11797994269343277, 0.25663610982475277, 0.43950749671412676, 0.2341532151938814, -0.3286741096673248, -0.37830588714322566, 0.1457808778024743, 0.49340617524418007, -0.447081514862477, 0.18676688506426567, 0.2954963739675221, -0.3855975325092617, 0.07549378467234055, -0.2348775643320432, 0.0305107340509821, 0.463557469960077, -0.3747293002347812, 0.5327494774022039, -0.2408276713436328, 0.08654192552822156, 0.38840423208100355, -0.1443363027217688, -0.05264472715409654, 0.3190928203007704, -0.14439644749922204, 0.397493214184133, 0.4802152938167462, -0.23004618725822315, 0.3858720313149023, -0.24367911453752586, -0.14665749579566684, -0.18926586359631337, 0.41376208049884844, 0.08463196385890545, 0.17783810834720767, 0.3383673875225857, 0.028079373625564737, 0.06359013536633079, -0.23407850186954549, -0.003020936804098436, -0.36167862648877724, -0.46016920320646154, -0.2780661786795805, -0.002431472495914014, -0.08089431014761342, -0.22948784320103532, 0.04806169876134764, 0.2931996504449565, 0.22159836090014945, -0.2804183100663873, 0.17236190246992758, -0.42362057319147545, 0.24344014200075093, 0.29238979239265805, 0.40389668350823765, 0.29846379581794935, -0.06522373841582099, -0.19156619741334285, -0.2334661945174809, -0.4321663535108788, -0.031184257369146318, -0.23915133724234755, 0.07805214059941516, -0.26671488287900214, -0.049332321150499917, -0.3323505605731725, -0.48448353344343664, -0.10863593238843318, -0.27771402337689305, 0.12077770513232619, 0.25589414556891565, -0.42707850480417425, -0.22708943985640018, 0.11900701333157516, -0.2876334893654992, 0.08459411384075494, -0.09807918986718363, -0.14382494474138843, -0.17885384961427891, 0.006943728020977127, 0.3773603665556555, -0.21235956844487122, 0.09419523806594486, 0.012937763962650742, 0.41413612440431247, 0.08862736189884696, -0.24773628483791682, -0.07212390263923245, -0.1510016027341602, -0.4079386557906364, -0.48376345368028867, 0.274365356585604, 0.2518587807033028, -0.4686840147673392, -0.2784003531834283, -0.33313346858003107, -0.013573890044872462, -0.19559138800140724, -0.2142644405177434, -0.35921475942761605, 0.20408237692280856, -0.1860327617617169, 0.44505483085213215, -0.282970065777189, -0.19376938638269994, 0.14238674166288237, -0.21395091362877178, -0.3941746880998684, 0.5053542310783854, 0.02396148275446525, 0.23966173298025661, -0.36099998568591124, -0.19005122411450878, 0.2410819001920373, -0.25169301813614026, 0.2717343960709418, -0.45655489156194606, 0.09259563690399493, -0.3557956585130253, 0.08170111210904246, 0.412189646949486, 0.19622866000151457, 0.052587555348995264, -0.03294514310841123, -0.1471215128429402, 0.36667168921092674, -0.12209519759968838, -0.19832557413656016, 0.03483838928378596, 0.5103723142563731, 0.4891816094791197, -0.014469793998140024, 0.10199488124236236, -0.1543701983743267, 0.383724117849524, -0.2710385451235127, 0.15143841627215593, 0.3366241186807504, 0.2690199665147337, -0.3655892744283189, -0.10868505638794795, -0.15593477983846668, 0.016059188816871107, 0.011672579233458436, -0.28105071293976436, -0.29228416901709703, -0.23695682575452262, -0.34719082679374547, -0.45560336876777985, -0.036325674848851026, -0.08001019622447673, -0.25488461805986895, -0.47153104235343446, -0.032235645355283, 0.22620814975564218, -0.11138589810532326, -0.03520452924011973, 0.009827277192981916, -0.0176433712366714, -0.41577324687226824, 0.007403701885014671, 0.07554997629952315, -0.37801100068058147, 0.18338817558503798, -0.200319769578093, -0.176475248734573, -0.3152021468399376, -0.20351723139158423, -0.3723384577738521, -0.10178703006221587, 0.4960233449708972, 0.4607358711676598, -0.09786869821113564, -0.06023807090318345, 0.1613556094478193, 0.2565798452248282, -0.047360126137779186, -0.22389766384932974, 0.13427582747678796, 0.16162443370432245, -0.08769547933202207, -0.2842083631855163, -0.11311615203336431, -0.2694102491502328, -0.33991266953655713, 0.12028619974498089, 0.22167661481127401, -0.4255364366665095, 0.28815854116336687, -0.1521945164939, -0.4516069843626305, -0.38855206037978535, 0.2776201662921722, -0.5300711427070353, -0.46918102151186347, 0.1667088862465419, -0.35643301478530304, -0.23148442976712405, 0.44591164606062655, -0.4578097322928186, 0.29090590945069084, 0.3015228423881836, -0.27089345290605027, -0.18811012291863094, 0.23473213339106686, 0.037346612158422825, 0.2723826421518425, -0.22318589453903254, 0.2210469180284084, 0.4946722943194137, -0.14560383968807755, -0.06625882794320215, 0.5386519878088756, 0.45108435220156895, 0.2543881953763727, -0.030539932566561963, -0.2087631973089789, -0.16203710511518662, -0.07132602541812827, 0.41711554410563445, -0.006046584783781923, -0.05764673213480039, 0.28442299125229387, -0.33927209897472044, 0.03325435103874089, 0.0975816528101793, -0.0041086437175508785, -0.4715177561877529, -0.2550943429081922, -0.19724409286274705, -0.15763634213230251, 0.25865322947831015, 0.49594367701659275, -0.05122617318103606, -0.4470916115866166, -0.4772527718281899, -0.32430987926459015, 0.43420580104703443, 0.15408407150258083, 0.11179080240862967, 0.16502521661204678, -0.43992072208186606, -0.3089604545739787, 0.2654762973820122, -0.011774141528218334, -0.4535780768312404, -0.27904604544163963, 0.4198128026866001, 0.2711619522627907, -0.3210135558714609, 0.00725237576706103, -0.22826712550417064, -0.3899892982527232, 0.2899728512578878, 0.09162514988947033, 0.2747973499214015, 0.15859045764068558, -0.10785434062903056, -0.4009768178534944, -0.277335588918122, -0.17805478500214017, 0.3781567536059625, 0.24232688642286604, -0.36801710829412676, -0.3033066037146323, -0.006442631372033337, 0.17848873711086924, -0.3929929683881769, 0.1685411483782321, 0.026395937555029076, 0.44828592690066804, 0.5403624783350716, 0.27565663990311884, -0.25432448668368324, -0.02817079764430694, -0.3678350849666718, -0.22238186532618706, 0.4158201602196951, 0.09105211167502453, -0.4851746186399714, -0.043681250274532686, -0.1759995849207956, 0.25229082379203766, 0.06980910243104171, -0.26576807100932026, -0.4698658993457665, 0.2948723273680414, 0.1836754315780036, 0.04602608416141441, -0.4684776265088766, 0.3809688282418505, 0.1257972619498367, -0.18624869064939642, -0.4604520585991549, -0.2610276358935743, -0.3257706583529168, 0.27552596454912837, -0.06663368543337213, -0.4437781351844353, -0.1423621014960216, -0.2613714357771742, 0.26671873217176595, 0.565865864282928, -0.1320308674451002, 0.4501024323495901, 0.41009138339657464, -0.07280406621327755, -0.093903481759545, 0.45089524534416014, 0.4804534288126768, 0.29692108932546873, 0.4894364371078657, -0.028548578399097038, 0.28643740444508775, -0.05152880657220655, -0.060244429229793874, -0.19601474584501383, 0.11680558391785219, -0.15705909335056265, -0.4618580675330747, 0.31045184506722173, 0.05345698660606661, -0.25331991643675855, -0.34773354720338245, 0.23692444809995372, -0.3636834275609831, -0.11240041629168833, 0.3710636163967062, 0.028178792608380084, 0.28558104469031664, -0.07736396432672929, 0.5649967339782983, 0.240234493188545, 0.10894310410458781, 0.39325486444219365, 0.10456831227007332, 0.4816856702276432, -0.28257730703122724, 0.4649687023415281, -0.1702806572241041, -0.25890163873628624, 0.029552486431647762, -0.2492315789038936, -0.2576806693464047, 0.16391629963409807, -0.2601071248440764, 0.3503111998065767, 0.2533838449349229, -0.2674282480024185, 0.5039424809461647, -0.31238072154174307, 0.19865510513740287, -0.10798490718003047, -0.45861632074718345, 0.1351954569237947, -0.4253798154698114, -0.38497935193534083, -0.047292845684608155, -0.18179136457641082, -0.3731473065657833, 0.46392116521311555, 0.0683264161943494, 0.2486297975956972, 0.16316114828536607, -0.1317439798733908, -0.3514789335260045, 0.033364623922415904, -0.05276029065171469, 0.12539363012993177, 0.4596567511896292, 0.14084110401434569, -0.3474420784020842, 0.31914524761240903, -0.07321188925345698, -0.1985877382167505, -0.1962849888772886, -0.18720907190571345, -0.33033497532536277, -0.19651839272603588, 0.34775712678850584, -0.5480173178630025, 0.15865242425185902, -0.4098173422515978, -0.15604230747822895, -0.2462558822649502, 0.23280084084798605, 0.5472256835620128, -0.04461789716940116, 0.08269769584726203, 0.32359780513373176, -0.25751350929124844, -0.41020861939354925, 0.4082503254472624, 0.20570711572550748, -0.05658236653930713, 0.45670857611125515, -0.10263698040336343, -0.4950509131867557, -0.4151234250219476, 0.4396960052136822, 0.24699664389378786, 0.019488755615639747, -0.05169654378812139, -0.020964262296902788, -0.16134106922833705, 0.19866168353850452, -0.044689781634721155, -0.3374539345346917, -0.05800601250387101, -0.49833377205092266, -0.3898040111425897, -0.19631646619230303, 0.5232604455372966, 0.006325525508616521, 0.31258359937485836, 0.27243470482100246, 0.07519406994303005, 0.35394375530703004, -0.13541040148876346, -0.27830554166050586, 0.1617924320916396, -0.4083930168583399, 0.3020564582476949, -0.07939823102977095, -0.452118887490516, -0.4596629178282219, 0.3304659962941552, -0.06515129335792819, 0.08341564932687023, 0.42144479042644223, -0.34662138645757223, 0.3384240820545216, 0.10044051150723489, -0.08660141407171636, -0.17831369130993038, -0.38465850746538227, 0.24983817546897896, -0.2140313250723918, 0.06707030788324034, 0.10169514554077862, 0.09200142529312189, 0.36352897668091627, -0.07947317640244733, -0.2583912169655399, -0.30560142449311983, 0.041408496440613035, -0.4334777702283085, -0.4864260457682606, 0.24075742462204947, -0.28560189476106157, -0.04740087384188597, -0.3629990336546166, 0.3375029261842898, -0.11101320024797579, 0.4044167624761276, 0.19443525645164356, 0.19184555733564795, 0.11584458409235188, -0.444015159093494, -0.06571236237003503, -0.2610288992083764, 0.07996939884259568, 0.20648163543894776, 0.17873398875265195, -0.029834737645541082, 0.5366205901614143, -0.02771065583809806, 0.16138064237710423, -0.24953630967209087, 0.2438639312457495, 0.2855898739296463, 0.031528141522184826, -0.03003265030267501, -0.4241864392516545, 0.2725362200457449, 0.04993686054714654, -0.46608771367590707, 0.4339222482516431, 0.17898015525801675, 0.18568739424139258, -0.25820930679787024, 0.4210699810978821, 0.42767366904322524, -0.15923661840802328, -0.4354425972383829, -0.2755691327477148, -0.26942654552999323, 0.31359864425923184, 0.298762213525082, 0.5182129756296114, 0.19751931388760197, -0.2930273026992817, 0.048094875581356, -0.01507956044429028, 0.5731053740901175, 0.3110849706779635, 0.011396385973020381, -0.27854176959122295, 0.1543344585813889, 0.28593538403736507, 0.2877231829286672, 0.09709006318659558, -0.10310081927208876, -0.47427550286176584, -0.34792429191199026, -0.29234656887392485, 0.4422832727589725, -0.05166093860728349, -0.15903807977397932, 0.3984968619831958, 0.07227702544371262, -0.16573591333762128, 0.07133994606819954, -0.43740101973202783, -0.19658571460506363, 0.26739029254547003, -0.33307350434494126, -0.29227358390989716, 0.3351318680850065, -0.4711343786375357, 0.3034930456315979, 0.12970924515194449, 0.06083958642475351, 0.08134787248873711, -0.18660853892288157, -0.4409536925659941, -0.05073537413661077, -0.41952975734994696, 0.38604454706293667, -0.10243020464268947, -0.30203434683394215, -0.39933217388231634, 0.31698378426606966, 0.3552815982585519, 0.24351822549124091, 0.09856570642885243, -0.3732117675729858, 0.4668006562698721, 0.30178374101938865, 0.15423950430203315, 0.3071035972382935, -0.41649963885116625, 0.1738560160309477, 0.3669634182112659, -0.17284800055957805, -0.4751163191079738, -0.11384323341010334, 0.22246877640786825, -0.24939614956997555, 0.24566572682725293, 0.48399474277282795, -0.3135431787369719, 0.2780870092506393, -0.17213025096833282, -0.26409102739971435, -0.3845160625236271, -0.21877999690933705, -0.33733651249114105, -0.22068613110147084, 0.1411078911005157, 0.1594573297370393, -0.4347321050560784, -0.3358214510075207, -0.19904747866046946, 0.4296595368509457, -0.12105696658783494, 0.17358381368625808, 0.028522765862666, -0.00902924839586372, 0.1405537839320763, -0.2541362854034074, 0.07657464095422473, -0.4163078955606392, 0.4711451761052784, -0.47702758300736137, -0.46396605187310314, -0.20383811938331975, -0.3538148548095654, 0.3607941135245335, 0.39444865731903644, 0.24061181076168958, -0.19835694106481339, 0.04878195347378256, -0.46066182294165714, 0.11125255657710076, 0.13064765947007795, -0.015497775167537142, -0.1057847658519514, -0.16819583512004166, -0.009385519222773864, 0.3724549608007237, -0.4338200366809605, 0.38297844176410967, 0.4261934535858568, 0.10775842370235256, -0.2823447186932142, -0.0898371452472097, 0.36725209892428395, 0.35148091357966005, 0.03732489636888108, 0.26230110542120605, -0.498317832431053, 0.22492572228703828, -0.3322933001548859, -0.4860976641641817, -0.27585859505180066, -0.19155504199600548, -0.48119803420616997, -0.3825357071142504, -0.13141305663240638, -0.3800170222058014, -0.360305159876599, -0.019919987257385387, -0.12230733698078251, -0.19040838826481604, 0.3621364631777864, -0.30805469860847656, -0.3279758828162914, 0.31942863603470073, -0.2774459467377387, -0.38419180600439373, 0.368182106794387, 0.18533323316977077, 0.035054508285537994, 0.06747078834096294, 0.4289513502229221, -0.11107759313649589, -0.041077635522372, 0.434060541271252, 0.04903646971959301, -0.3287915226862822, -0.13673420596335353, 0.07700745259426002, 0.034713770943555586, 0.39053147366837143, 0.35494824432819294, -0.010667671887005202, -0.4261388079236649, 0.2649764353907779, -0.32712676740247043, 0.03920884077026374, 0.40740272185893056, -0.013057887922542463, -0.20247365180329904, 0.3647243296812858, -0.052914611161229544, 0.37819001707362565, -0.22104145369677664, -0.31497517011819165, 0.28477458435914693, -0.4568924301509373, 0.1927862719175861, -0.3486430883869507, -0.5007336125711301, 0.07063125768873195, -0.07057117886853315, 0.0707847062640355, -0.1452714599902687, 0.06874316366204161, -0.39143695605610357, 0.2144061695920463, 0.29071338992037127, -0.2714261812807645, 0.322923274482888, 0.3719467560191613, -0.3242809736411147, 0.026385884058253543, -0.08931198891907233, -0.3438118799044778, 0.4096310109375607, 0.4488212710414891, -0.3797943641399008, -0.09763826921520333, -0.3415382864004212, 0.25533339279561723, -0.4380528194316019, -0.24587922852886712, -0.11131229450650915, -0.32385474872146125, 0.30935513463957026, 0.1868237383653309, -0.09212205719328971, -0.21309770724831062, -0.03746906633018537, -0.530924342823114, -0.478710495806351, 0.2295376351723466, -0.13737568350468538, 0.2170055825384572, -0.36173011151680784, 0.2217386191846616, 0.02468453329114982, -0.05165790250486853, -0.09691061628236397, 0.2444828139691508, 0.06699488643542943, 0.06806308345697384, 0.23680121540957152, -0.44131496981461243, -0.1878975288178213, -0.1275737296247515, 0.22074333293797346, -0.34373002236150907, -0.20205057884597438, -0.19594898231055802, 0.3845795616850196, -0.0052730199395064695, 0.2793112596992343, 0.1475202958101978, 0.40701028285298757, 0.3569761698609724, 0.05351206076772423, -0.1190975212324463, -0.16926604050051844, -0.38933775073456106, -0.3183092863927035, -0.3117505861751753, 0.19250210128420184, 0.1096955061456924, -0.18792851866875063, 0.038480928020424056, -0.0486849054376284, -0.2936786166354183, 0.26105741911222186, 0.31121916212373774, 0.1692937691761854, 0.06019277166124108, -0.1037507551148313, -0.2318829715609809, 0.27833434362342974, 0.17787691014409837, -0.4791511525285929, -0.31509012599290187, -0.41461754708346477, -0.22622300145847138, -0.15402723160042703, -0.09252379056720299, 0.0033696281020102383, -0.03362326744499255, -0.32487612539762184, -0.3544436177441234, -0.3871661160319321, -0.0071716737558304815, 0.421744858943781, 0.06134423837875289, 0.1790451160448758, 0.3620755094787844, 0.25809143565426396, -0.25284166227544586, 0.05105653224567499, -0.2055848350661809, -0.214213834064569, 0.03733070396529879, -0.26571892533761826, -0.12343320339023978, 0.10179740817543607, 0.35334854729930426, 0.4920211881374948, -0.23012203063839026, 0.45194970800473017, -0.3861653748004164, 0.2093173465633777, 0.15061033424296075, -0.1498364894687457, -0.4771946424930501, -0.30420534238041047, -0.10761337379279312, 0.40395625947447417, -0.005361870585278283, 0.050615662977519134, -0.0005090036053152402, 0.34152602742377564, -0.30728662797218076, -0.006268755622393962, 0.4887083422441839, -0.15049081235585446, 0.1523732406715361, 0.34219444564145884, -0.13074403842530963, 0.14966245712494444, 0.05122972349960116, 0.39910041918526623, 0.2652821782463341, 0.4051870353104391, 0.08285270305055205, 0.4081563400821121, 0.02174336590295056, 0.17802458649819422, 0.3779016408733475, 0.11934618123674659, 0.4108762712319155, -0.061539511099975436, -0.4093633443185687, -0.5657639347144783, 0.1721130033001831, 0.05855542026345047, 0.1960238227925721, 0.2554541088456069, 0.004662223770466895, 0.2510937954309557, 0.41533881593468125, 0.11117794902601827, 0.10406411471293701, 0.17803665418302356, 0.2544230812980007, -0.36750912808790487, 0.42578998264975276, -0.2580341500492868, -0.12642029974593919, -0.3404989837701814, 0.33275584962550786, 0.5484859363522162, 0.1638480787421551, -0.23670243456956816, 0.18313596821314124, 0.34164374777858597, 0.3025536443475876, -0.403408127897964, 0.37765707438423807, -0.03860296630205522, -0.1674525597224178, 0.2575101765426903, 0.30586243033941724, -0.18116133784754976, 0.3454477691048101, -0.04840118317950018, 0.3574468722598995, 0.1507777976619163, 0.48273307082099093, 0.6022639816353521, 0.4201189743581605, -0.2255755225820665, 0.12048373534774695, 0.258981169846321, 0.28954732236578257, 0.029135654657697848, 0.4174340316947098, -0.10131682357074641, 0.33043220948842733, -0.06783997253467666, 0.13627134893125223, 0.3033400798066865, 0.12829622834325283, -0.42429377236808546, 0.14997874640135878, 0.46790314651264, 0.2934946013538582, 0.34418545308600274, -0.07006339797574508, 0.3099997321917623, -0.10365490712647074, 0.20815126386810248, -0.11866334577651427, 0.2294410120767928, 0.17919588024567415, 0.435018685537068, 0.022934724337717045, 0.7069025401175767, 0.0886461459537066, 0.10699218775926239, -0.5140554961240699, 0.0391711622587357, 0.09939836663705716, -0.37570506056358755, 0.4636484345468642, 0.08743400412139313, 0.22104633302523718, 0.615450508411946, -0.11857952510937218, -0.0001958861032199712, -0.42034041326683025, 0.011316010898841235, -0.3310375456864189, -0.49309375319126963, 0.04486595684945095, 0.12483036249173457, 0.34920604380207004, 0.3004933829465257, 0.00422491075818787, 0.00010849661910366363, 0.09153921147269, 0.5887886481925284, 0.3459795359858757, 0.4931875665138463, 0.15559689750575698, 0.24638220730863508, -0.003459308990486883, -0.46673626900006365, -0.04067849890635672, -0.3768714803432901, -0.45281597319171346, -0.32570167449251786, 0.10628397516635822, -0.035613681105224435, -0.022036290149252003, -0.06782737246557918, 0.5411005745583286, 0.3358577846712421, 0.29128219555330104, -0.08198480522378096, -0.22084899658181564, -0.23139180051473848, 0.21612559482509272, 0.05112605078723717, 0.176011148019209, -0.35461009262226645, 0.3987725458711865, 0.5730836430084807, 0.136849332836876, 0.42924741907948755, -0.02793495334755684, 0.4488312165979231, 0.4094696959861761, 0.29694753909338745, 0.14423152211505402, -0.16147108963632265, -0.6537222326893511, -0.3283858103383528, -0.09678561163578742, -0.23984592597717963, 0.17012340263683332, 0.20721904496809582, -0.25459708148149623, 0.26722371729671873, 0.5226285733754015, -0.13173997518286798, -0.4009170577973512, -0.10254719626072394, 0.16844544715338772, 0.01744055005542279, -0.39947945945307, 0.4735528611708388, 0.29837413271502644, 0.20613306120077232, 0.061396500763201994, 0.19355830001457094, 0.331662698249915, -0.19927731093649603, 0.04815915588635042, 0.08077722808311949, 0.22266612069869346, 0.09933054382677006, -0.08243345478394493, -0.4366910524518539, -0.07021635758622051, 0.03345251901867839, 0.07303679508837448, 0.2664743503679868, -0.6069477332635625, -0.029629820016723662, 0.06042461944477129, 0.19531562115125425, 0.11683841318955507, -0.46238671669681203, 0.082933257273736, -0.49217541553231714, 0.06951966491833741, 0.04570849700939923, 0.08477901581115403, 0.1783496379424269, -0.4078754116066692, 0.03903738772343715, 0.41061322789013804, -0.07045768533555853, 0.2409448981736098, 0.21008289414121514, -0.04085560612938561, 0.08184691116286592, -0.011258864570585003, -0.18150264548158396, -0.11669886875145864, -0.2604083422172544, -0.15314026004400375, -0.44379539187506806, -0.14926642334698312, 0.27229982125076363, 0.16218437122059687, 0.3739730782623304, 0.280857758379052, -0.11474545896329354, -0.39224563614120633, 0.27992831082153985, -0.1695003948908769, -0.23285399030318238, -0.03172158031707583, -0.36095926990411414, 0.32797204856987106, -0.47925850975665657, -0.06339925090324042, 0.3297762190200756, -0.12776905176192918, 0.04564169554150795, -0.3301537433699629, 0.49867837251243097, -0.2866145387596112, 0.14001330947158036, -0.014085762521535842, 0.12761909289871012, -0.34283322291250407, -0.33388909603775596, -0.42105646788229323, 0.15170855605842648, -0.27227096288031977, -0.48381985407908173, -0.24060434752355606, 0.16696192071455876, 0.502840672210749, -0.24655414304985923, 0.3306276861088685, 0.40693037302744106, -0.011976400895523012, 0.1741977160196459, 0.1479492517951167, -0.3808399486744105, -0.4900227107073991, 0.13011175143384654, 0.012288382434473779, -0.2706916976860445, 0.16896868318428343, 0.476694877972979, -0.36593830315726467, -0.02920112584333674, -0.3092554500889359, -0.24189649573458258, 0.011736137823114752, -0.11910955732243216, -0.41026168628124426, -0.282151602410906, -0.0033781737481165725, -0.29355055505370026, 0.19563054441815386, 0.07903124133204384, -0.389283237962532, -0.4454858485252407, -0.0704952260551777, 0.3783590027566532, 0.4244869021051115, -0.1776071416996671, -0.42836397950498545, -0.0818075482436883, -0.08053440340612406, 0.058401303421776976, -0.3294493739698074, 0.21792378045559632, -0.20740241974722712, 0.15416961571351415, 0.4454575868706171, -0.2986096864669459, 0.3419345067062499, 0.07784008018890924, 0.26859770667576405, 0.4447081730720029, 0.19952704258144977, -0.2023227869453081, -0.4006749611604742, 0.1862294299291985, -0.27872194237237835, 0.20240108001145396, 0.027413885272465723, 0.12145187893905623, -0.2101363833944041, -0.3599251152466208, 0.3683854256026005, 0.16436166675034128, -0.24885218188378289, -0.47946691710386397, -0.2459769689872226, -0.29426060220478417, 0.0015874842273492554, -0.21678873359155973, -0.06425751699262135, -0.2876784920305296, -0.08901529623389279, 0.06891090982098, -0.4197356524504482, 0.19085937590085042, 0.36533733337407276, 0.11497700960602017, 0.02582448238583954, -0.23070156201537256, -0.3884735998454408, -0.2052647196919508, 0.07847825171498816, -0.337327955517509, -0.26940513951527956, 0.5147060225589454, -0.03121760714828227, -0.43836318180691447, 0.1227053384756845, -0.20024779038689475, -0.3929519888371385, -0.3644279839777826, -0.4454046526029123, -0.3209283257240397, 0.24755530113984459, -0.2161721357099234, -0.4472397806906663, -0.10993222429225111, -0.07398435006041064, 0.35534661077317303, -0.3196659576113501, -0.01250750799971401, 0.14996666004619777, 0.29221540213227154, 0.23774533816690913, 0.21802115248116052, 0.6894107562303688, 0.27475904100743104, 0.14395254657221027, -0.12758691544636072, 0.04489540842394287, 0.08613436180075269, -0.3981032301375771, -0.3877067091294262, -0.04506499136321253, -0.10288116781406831, -0.19113671449976677, 0.08322090125533321, -0.13440991236159913, 0.2635387990444001, -0.1323284966486574, 0.3579694124795941, -0.3607080959467873, -0.23099837874666637, 0.4760673240174962, 0.13392938478318953, 0.37100470916834744, -0.4741915131706888, 0.294103310158264, -0.2161820807014053, 0.27401219001678634, 0.11893252667069681, 0.4311751336615165, 0.1239729975791959, -0.15804459548927272, 0.597909267758707, 0.05675469158921914, 0.35582361319938327, -0.16851019169926193, -0.05648475318496805, -0.028109478298704818, 0.18669318023411116, 0.3279073421507744, -0.18307391735810097, -0.42262533138490704, 0.05287513940037654, 0.049830488840535106, -0.5253745683262168, -0.16893280461378096, -0.1828837236675355, -0.47468626285006943, -0.2594385301314198, 0.46303005148093324, 0.4327954750933951, -0.39706485947969605, 0.06490297245730063, -0.23240461552366712, -0.40705800957394467, -0.3859637929255698, 0.02304237923533172, -0.4134585583484618, 0.4417421921496115, 0.5118110081194147, 0.45298477908431056, 0.24249092876187914, 0.15739529502005473, -0.13121314389708102, 0.4001237346010607, -0.028183901740164535, 0.13354449836185714, -0.23793145835484236, -0.10868850909228366, 0.3853753704827945, -0.09004009520143529, -0.3171205951576299, -0.160862243762964, 0.08712945040090747, -0.12087436345998209, -0.31774669420145524, 0.29385974324489583, 0.4080376775020257, -0.023432039667705417, 0.28423834684271987, 0.33722650472353466, 0.1119951523962455, -0.17199061821897513, 0.40268737478650657, 0.09436443287404715, 0.40724377077255824, 0.2119751212326341, 0.1840423393502126, 0.275095133355515, 0.35335181527979453, 0.47792455712523596, 0.19771360391888845, 0.08391007016622631, 0.27993433730329803, 0.38595813103800103, 0.08951808682819683, -0.4524787364644751, 0.05180694141470239, -0.2371902522123996, -0.05692875241817642, 0.10594996144356077, -0.18961458485772786, -0.12759162276255226, 0.4066052372492998, 0.41075047088384714, -0.4260568927647992, -0.22378269751823865, 0.3047769731068511, 0.33178924934020454, -0.15168320973320643, 0.09920062759721472, 0.07259535290304714, -0.26726014287460315, -0.024648648041174562, 0.26002259969521313, -0.010886989856597125, 0.09807390814038773, 0.09724563848017108, 0.31764592213154813, 0.5363735948972043, 0.3998868358968359, 0.11967865346547578, -0.015592472957520477, 0.3599647233693842, -0.024048881363165433, -0.36782215044031813, -0.43964872066468214, 0.2275101521159739, -0.3209877100031939, 0.3813981978211238, -0.04390462661465839, 0.34889990164775525, 0.19910748705572312, 0.004875462626794502, 0.352193758386272, 0.2254102988641637, -0.04276038661702371, -0.06956778651248288, -0.2794428701640521, -0.21193812836752743, 0.006025211916527208, -0.2831032776463638, 0.3644211969971233, 0.45969125587743837, 0.05367212259743547, 0.33582429778552025, -0.036811397920147954, 0.43340705517941625, 0.23163341672947171, -0.09410071933552477, 0.1432523047492155, 0.25980367262864473, 0.32729445352059183, -0.13549540842559699, -0.23857585117455815, -0.2808246471812195, 0.37929568646160744, -0.438931624255171, -0.4178363053816666, 0.06704666508848767, -0.12957054553547964, 0.3357569479369634, 0.10494605600408247, -0.1076528445994842, -0.2618264712696752, 0.38878215534487043, -0.43963538760060894, -0.05726938957770542, -0.2115863393285258, -0.009655100488996378, -0.46937611999623846, -0.3221874838459736, 0.02210600709647816, 0.20963404244027867, -0.23516433598146244, -0.3110338415892192, 0.40675191345623724, 0.21133713977294485, -0.40761820823804157, 0.27497079790087364, 0.1528344749563951, 0.039847734096595915, -0.2700934799769529, -0.41107741542948784, -0.2056536539899887, 0.4654768286517072, 0.09055342642642421, -0.010036826420814679, 0.4415484681820281, 0.43004829143324363, -0.2556099634298432, 0.15587221143991337, 0.16165873330048713, 0.3419308565649465, -0.15784280164595385, 0.141769198149046, 0.2619795065645265, 0.36119952346778955, -0.4638406788957028, 0.4430676015293615, 0.4611122523011498, -0.26363159089527083, -0.027348441591741334, -0.4566710910853322, 0.059306403714327556, 0.40884788088889673, 0.433826498323655, 0.15568418511257046, 0.2950852809427185, 0.4720444233114561, 0.12753765525287017, -0.45256739134553803, -0.11872160441170193, 0.21901309176545347, -0.20992510740641548, -0.17255288472120645, -0.3495239267652308, 0.004017100427587739, -0.13869040019675993, -0.10957058766237071, 0.19914939742459792, -0.46290171783428774, -0.28266742675750833, 0.08095692746155103, 0.25098317553097543, 0.07251818502551773, -0.052781161885461114, -0.3629516173453812, -0.08723124261103612, -0.1735884960318332, 0.41294497637934574, -0.12481475183820799, 0.4555719270443411, 0.009303651371267705, -0.15468429070822698, 0.3517345145656536, 0.02932462204246299, 0.01866464567726694, -0.22125481543627604, 0.12913712569938926, -0.27124489845197725, 0.1289125364040843, -0.03604719060740069, -0.29661551628835836, 0.12782909325367908, 0.15420803290761742, 0.1703158851856723, -0.004749879916434052, 0.43116084208018124, 0.47992377291530375, -0.2762064607187076, -0.4605463980734932, 0.08914983596169945, 0.48495589237760417, 0.4359593992527593, 0.3145146317360674, 0.3387905596941392, -0.020854274700376818, -0.17170448190251342, -0.48856250166454374, -0.3931791837501616, -0.020243566121694978, -0.05754833244980406, -0.03551306397892828, 0.15301650828762037, -0.2303214904970452, -0.4103207164897933, 0.18926900415898618, -0.02789578828278816, 0.34849881923789716, -0.008530804481500898, 0.22452171544790467, 0.20609125140141038, 0.47829337121043114, -0.18928328065089772, 0.3372787945995922, -0.22893447962455127, 0.30469050835421196, -0.31513405984332366, 0.12361951840587188, -0.24222714192201392, 0.15819497009392042, 0.1794530612431822, 0.09336581927391105, -0.1165180396943127, -0.09245261582607203, -0.41228749744873155, 0.42572733327307116, -0.02523361321875493, 0.02615534953721149, 0.27620516483525315, 0.2194174378458566, 0.2865323728664321, -0.009805283173163733, -0.13044113470523463, 0.31075447977616594, 0.0998306021963292, 0.28215336990850115, 0.07599000700327363, -0.45426794343253984, 0.38698357667435757, 0.0640161645549161, -0.35126656861549277, 0.045799917263274925, -0.3406663112054993, -0.41954923457742543, 0.23833355228175096, -0.16549562956110983, -0.29219686817808405, -0.3245846304399019, -0.16473524714060972, 0.11560967984341433, -0.3744464121242099, -0.4199493872378628, -0.27363950922588826, -0.4472367905966374, 0.20309373526737412, -0.49719378009813897, -0.12301145523791242, -0.1533970079152444, -0.3265301127161924, -0.3914049149606663, 0.43818607327542564, 0.008861455361150782, 0.08658200067319925, 0.2872024313318992, 0.33698554348763066, -0.18035359281143715, -0.021052244128915598, 0.15138429732982728, 0.4297984448862252, -0.21515911749483463, -0.26602839667228195, 0.4983064635152166, -0.14017035060782812, 0.3553239628626371, -0.12001747495947254, 0.0925021626624367, 0.16951694603403414, -0.2870817470252532, -0.15192294295803632, -0.22162813359056624, 0.159770232149479, -0.41535850700770044, 0.04978323840591011, -0.039842548368837646, -0.3903208932266221, -0.45189974653315607, -0.20105806840660792, -0.13724637826955843, 0.3156781106386712, 0.3087624224048086, -0.11317819849173445, 0.4682295678199146, -0.009777708510267462, -0.2067349881329945, -0.44136512583564136, 0.30020170492023257, 0.4103838756444209, -0.26298482402897544, 0.18699723801734372, -0.4416014697951919, -0.05186522812213283, -0.04177868892460136, -0.0975780845502609, -0.06218029421152019, 0.19806500371186242, 0.26883913613791227, 0.36914130003953827, -0.016515279662142467, -0.06444234795384236, 0.25917378693440407, -0.1296748446897564, -0.482379614014285, 0.19249761881174393, 0.37927694277429114, 0.20011035831360957, 0.3326455400661958, -0.33423763938692186, 0.12757300460939835, -0.08855939480648459, -0.17463374023687753, -0.3447813758719498, -0.4149780740166964, 0.44362030308868705, 0.3844103860269763, -0.44118016058258325, 0.4154878431035329, -0.2620938335076068, -0.06673555794403137, 0.4306964325788011, 0.45476089920342516, 0.16891636806452817, 0.03578610467276137, 0.27707338270750365, 0.03487844544677694, 0.0694006829339002, 0.08810530661220918, -0.07262011921639992, 0.13395915578305084, -0.2733824659118379, 0.46187844914688725, -0.22480298041530092, -0.4956812810828387, 0.4924778266053724, -0.4613102572771405, 0.4007117163536629, 0.039134480150928866, -0.3682773130114254, 0.3275968332365552, -0.3222205481906065, 0.05212757706688898, 0.08545260724920421, 0.03861023827410359, -0.45171278845765095, 0.3343790846604209, 0.17202974872387536, -0.04314310785145811, 0.2094145407673197, 0.2177828601272072, -0.0252915694005741, -0.21556468419361652, 0.2687825559344458, -0.009358453580170163, 0.4144069756974909, -0.05178090006598085, -0.027960940299298027, 0.23691796769491474, 0.14226741139704258, 0.1343810512050567, -0.03457999017395874, -0.158388801713289, 0.03264751411158258, 0.24007295027966186, 0.015054557454024375, -0.11471528679346427, -0.3606257307972149, 0.37696743245519126, 0.3004848199422691, 0.09854010311727053, 0.11511377022563733, -0.13426201518352332, -0.11929723192285918, 0.3824838192460946, -0.431898124377459, -0.28620270654272956, -0.2645268436433139, -0.3259431937514599, -0.1982358159964611, -0.3201872444794479, -0.36320850976298347, 0.03930208642411003, 0.19908659232175976, -0.11361903678183585, 0.3126574130492795, -0.45891655674150134, -0.19575864270136936, -0.045057025430611096, -0.40107048262727296, -0.23726971149259443, 0.022284207416312273, 0.5132896398814852, -0.26527154230520017, 0.24111540212045032, 0.04513013430377448, -0.2979121332073594, -0.19079420090255964, 0.47496432054494003, 0.37154949315210983, -0.17866058469150747, -0.1332385313148869, -0.3766734012292354, 0.2625711273376869, -0.31704766626615316, 0.32951043729785123, -0.26781872937926676, 0.34038616367924374, -0.48596505501963744, -0.3710444160671731, 0.366025293365984, -0.2925595391596253, 0.026460271627605763, 0.0806259638876491, -0.5172268208710086, -0.36694144404738943, -0.24464462720499497, -0.3675880025451231, 0.03168445035030197, -0.44354640206317775, 0.3712166079250799, 0.03168215634353181, -0.46109977489395837, -0.010619874381401625, -0.12409539119261952, 0.328322290889938, -0.19704327594353527, 0.4200556775598532, -0.36398506788151347, -0.26504886587864407, 0.40226490918572805, -0.23767257094245858, -0.08723271648230443, 0.06093430356867503, -0.12329880660961123, 0.307891038438083, 0.33150665112570166, -0.38781496902194984, -0.08098054578482036, -0.3858132835750002, 0.22439278341708693, -0.19937795058638827, 0.4003460490880934, 0.0989250324279646, 0.34181865889312407, 0.27633221064324104, -0.11453258397281717, -0.2446610387579999, 0.4164418733101781, -0.03900857210465258, -0.3504693482946215, -0.09055337789197379, 0.26719290633543474, 0.16458509477518382, 0.17991690109772904, 0.0429777385112585, -0.03440540563804857, 0.28445486474685305, 0.13706983118402338, 0.4262496856351073, -0.35096437229059113, 0.02171134548837445, 0.350582652474156, -0.3191549872324838, -0.24521169653128064, 0.2194178228342365, -0.13493060332600704, 0.23412076703147294, 0.45616673251243106, -0.4276111059773238, -0.41674672907876337, -0.08463722059700172, -0.20957176819542245, 0.08955233912312287, -0.3108103410936991, -0.28436266923246817, -0.21687351180199116, -0.258802618447622, -0.4388945624270878, 0.47256575670484563, 0.0069780689450847375, -0.4753376722922404, -0.09511075720581477, -0.17222337405570276, -0.21679304762650237, 0.31832998172418886, 0.07300197437255491, -0.1813966769127442, 0.11847505319109056, 0.3652251138991905, 0.42853553052884963, 0.26471204219707895, 0.21420045232151774, 0.1687217568829912, 0.3582719707873942, 0.11044922352629036, 0.23901811961225244, -0.004091053946996671, -0.31948308035846673, -0.27627501361176743, -0.2509888272523716, -0.19420006705898907, -0.029787523449323214, -0.3506247875162823, -0.3144732372473467, 0.19515049818362, 0.14211329422175162, 0.27189883043308855, 0.16008325630417705, -0.4791280305464635, -0.29136362695001045, -0.3392277858771586, -0.32969744052525385, 0.046773273911977, -0.08582849143986304, -0.32302711382033367, -0.1590643537365635, 0.31291478175242765, -0.04705491997906116, -0.4047015194255963, 0.22916485182288282, -0.20365693752173722, 0.2593715588243441, 0.37588945724452527, -0.26979193482331154, -0.4479707004995048, -0.49424269963398476, -0.3245982103090483, 0.06090811345427599, -0.22270253991438568, -0.2848444581620439, 0.261848117915842, -0.24001393245600536, -0.12213705760256421, -0.11477921881694948, 0.27194785261671406, -0.30544918485812333, 0.01630169295077913, 0.10069050510690064, 0.3252118306967894, -0.3577430879253214, 0.08311735828971763, 0.49135135921161915, 0.49353833862085705, -0.15635257478119255, -0.18483795026183988, -0.2980781485709485, 0.26191221578920415, -0.11361128394461012, -0.034559899473616144, 0.026988876191731435, -0.3645025090314429, -0.14566808482973692, 0.33611136126072844, 0.03297551420030058, 0.16571815496012954, -0.04109646569299338, 0.20129257909269221, -0.41061880303378595, -0.18114971633018373, -0.4807372212263524, 0.08903884516294971, 0.042128546885068174, -0.46262893179278264, 0.39484745615597155, 0.09914701751575569, -0.34582470135930005, 0.33660988028410516, -0.12007975813576999, -0.06290447110538633, 0.20234059777900967, 0.17760418841076892, -0.018746171244905796, -0.27509089109059165, 0.09689949596738902, 0.31023679080064254, -0.1625324949304278, -0.03493005677564732, -0.12204363803006847, -0.3054336244637529, 0.4270876031854668, 0.18685960176109895, -0.12663489820365084, 0.06841768634306092, 0.4571074315734635, -0.07811834483302478, 0.41817193778850853, 0.06435452582625978, 0.3774769873127333, -0.2062162793920007, -0.2071542630729115, 0.29889797943998864, -0.1748981312615951, 0.10848218521367264, 0.32693906600785916, 0.018530276060214252, -0.059457693438729975, -0.24282660059245342, 0.09061626121125264, 0.12718743070341756, -0.32868162611644774, 0.31263920211742996, 0.03535061916936823, 0.2910925492090565, 0.21390065348635662, -0.28128990580481505, -0.2808897236220557, 0.2909385078055321, -0.1490904513122194, -0.3277523109804606, -0.4557384272220936, -0.26250233040130194, -0.0753681953266925, -0.4113660017017076, 0.17371617364275113, -0.0620056969042542, -0.09867630822790042, 0.1085626597498196, -0.43527870129519314, 0.10628837149942269, 0.29721239441789393, 0.45581696956497364, 0.1276280346338337, -0.2446628288046745, -0.4935732590924894, -0.09222157784677598, -0.14797175629519232, -0.4097746633519258, -0.2979162423132885, 0.18049838569482954, 0.4223507879756909, -0.09636896076742271, 0.06623929144974303, -0.2728197353308478, 0.2356986465579651, -0.10319218446026211, 0.3833766876006963, -0.4800208083565327, 0.10970335470325814, -0.15551941286213852, 0.36512701733254793, 0.11219240237951424, 0.2945440158608597, -0.19095980297706655, 0.3172602602541403, -0.4933759502473778, 0.40675860370418304, 0.18514467019992184, -0.019015093727053543, -0.016409295187208905, -0.253600813015111, -0.28251294944748373, 0.4492409816131482, 0.3872284316292629, -0.12921532560262494, 0.14919047890787848, -0.060432335743248765, -0.47991249304340694, -0.01047613522743712, 0.15393920918235238, -0.2192013271849046, 0.00821103935533026, -0.27425501038361244, 0.14340226297832417, 0.4291433933786822, 0.3214860959046112, -0.4090354122455657, -0.21667069960866525, 0.21193002618507012, 0.19766508196598917, -0.2817148511343481, 0.10616593027433764, -0.13551084642702185, -0.19657341288554556, -0.16604260827229117, -0.5019496481083099, -0.08204870871743017, -0.3981145541013415, 0.3757273659244875, -0.4789872916224959, -0.11147867699580127, 0.44346281083220873, 0.43733021292476665, -0.2163158695417766, 0.45612820921544034, 0.051649552673922114, -0.03526777654171874, -0.2674001834095304, 0.42085289899445116, 0.28086927909470144, 0.054323778379960434, -0.11675494829450062, 0.05251233314754317, 0.18447997525742973, -0.19439036249951697, -0.09821706329610021, 0.35403215886780254, -0.15876064083926533, -0.4576323435892353, -0.3625307768883743, -0.34841212142461214, -0.30816128334088067, 0.3687728589417336, -0.023265289374500692, 0.43176373921624867, 0.4304585354687192, 0.4287030015379337, -0.4258202928451135, 0.4528376897214422, 0.46076608517240936, -0.0988084793157428, 0.11658334125794853, -0.34686059323783364, 0.33622523028526585, 0.038836413765716615, -0.3292890529915651, -0.10607156267323183, -0.2572061984138793, 0.35098312238749674, 0.24146949424323022, 0.2853439961449259, -0.11410821042043338, 0.035978247874476496, -0.3302995157690217, -0.31407403566440956, 0.10592971270551015, -0.30914143609224515, 0.36646466519310944, 0.11214594973650832, -0.17140868002247522, 0.0532961674968902, 0.017504730383814227, -0.3704112269622531, 0.2006805486461157, -0.26815848362123107, -0.033036390589171745, 0.3324588450962974, 0.2518426293289646, 0.22463894388656294, -0.22090605522001242, -0.09548008731791081, 0.2503676469785524, 0.06646901261598001, -0.35585669773936673, 0.1851818023724703, -0.12375141535726358, -0.0015956051387441697, 0.08573267972910686, -0.22233613993896537, 0.2541923157212537, 0.44073556116246, -0.499743816260014, 0.09356409923483222, 0.2039725611399824, 0.41563946289424486, 0.11428261793986193, -0.4742961012395654, 0.45753688886639, -0.4740002630998901, -0.06049925467002105, 0.19552392811539498, -0.3924141525816039, -0.29665685933832103, -0.3481922678933117, 0.08898192706780461, 0.06940200756253956, 0.07082988276852598, 0.13551688231469855, 0.31850103850456885, 0.014910633253729945, -0.09375000921404751, -0.3965521236138149, 0.2260415992970611, -0.43189851545669333, 0.11515571483898705, 0.27514672515075295, -0.19498583171697748, 0.2579924175311299, -0.04877115925858223, 0.33279004718928423, -0.3395405870359778, -0.07253926485965538, -0.12481614546031616, 0.05653104583997275, -0.13528166909577258, 0.29704914153438, 0.22380746690837383, 0.4789475117236489, -0.21515334342505454, -0.4842504281830761, -0.12119497681357692, -0.16115672977618922, 0.4733780075117735, 0.47784172552276916, -0.017875015080374708, 0.09861185103270058, -0.2807872276053741, -0.13588789820325936, 0.15844386876814714, -0.31341167902844985, 0.2585427350208711, -0.09399835826316913, -0.29130809512564987, 0.05479490889574161, 0.14950120250156967, -0.4238304732127325, -0.5283867348152637, 0.35034863288668133, -0.29995665314712483, -0.2290736037594336, 0.1545595598255607, -0.21020292459843115, -0.2817530879532589, -0.39957976805882855, -0.2593270730713406, -0.24288802262789297, 0.14848129476976413, -0.00963536341644725, -0.4108991433803433, -0.07557992396402236, -0.08826988469690833, 0.045892265842241375, 0.19134414482298367, -0.11433304404705268, -0.4487397715268105, 0.2416547291131175, -0.41376062022425236, -0.0016276936711307965, -0.08190297095407811, 0.4909996405062927, 0.22847188706786775, -0.373647528424834, -0.2892871350333911, -0.2683140154434779, -0.18978331027501677, -0.026523065409658864, 0.13381031673895716, -0.332106982183126, 0.35506869648801037, 0.42418388614161273, 0.16270153149546696, 0.1828242291957909, -0.01539747679626745, -0.07340091805472194, -0.2250200455302908, 0.09203318785060166, -0.49749824317458136, 0.1800196805983577, -0.2830220222314307, 0.021817103316173925, 0.0012896853765779204, -0.07067503825115441, -0.13375799574965166, -0.43339611559274693, 0.18781980351680028, 0.21959686291593966, 0.10623747144808038, -0.3221347497348718, 0.4476003764232365, -0.4483389823727045, -0.173703314248693, 0.16313144944725638, 0.42776421989277397, -0.3616239511524944, 0.26605158695527337, 0.2164594980088901, 0.41941500428660133, 0.1737907504364781, -0.17979967583584577, -0.16147125850812408, -0.4887977416194963, -0.4990943251509103, -0.4092949205714547, 0.10043926881544596, 0.06856229535739611, 0.27598818530523095, -0.4110109013599833, -0.36316700087379283, -0.12811903257892943, 0.25134393418003775, -0.3879115980936445, -0.11150415225199681, 0.39364482377406873, 0.45317701574280006, 0.45996234545125647, -0.12437923777413616, 0.038958966911829956, 0.3517784424970822, 0.15587029995669613, 0.14593082085004644, 0.23021377756607056, -0.3913908464020668, -0.13811612743683327, -0.467209030079054, 0.4472090991065076, -0.23773435397494502, 0.24986943978736653, 0.13118697196863396, -0.1496520823322403, -0.35449625781245553, 0.11314572423153228, -0.07006838406347893, -0.05474560917975091, -0.3633057045477389, -0.4760584152573738, -0.07736927783248138, 0.17726570948291132, 0.16482203544223217, 0.47436279497317835, 0.03345417820243129, 0.35586428907394396, 0.4757539568529983, -0.04225592274941785, 0.3866239064381808, -0.3497852506963804, 0.3743256683373097, 0.43181635212379704, -0.32166361862683435, 0.394052321984393, 0.02313130933406545, -0.2976886571665172, -0.2464598090872682, 0.13078183096815454, 0.36396670439631357, -0.11085333355773792, 0.23723026700639466, -0.2040289036328535, -0.24065398251023784, 0.12605784293344702, 0.30146137361499875, 0.008863147991225562, 0.10324030501597936, -0.28720586140029136, -0.21978869992561634, -0.08503521397293601, 0.3640917098256906, -0.3528836343178027, 0.1887335779382101, 0.20946289494662432, 0.08555440344466854, -0.18851587755536264, -0.2254138245796041, -0.02610081890707006, -0.14270091531824072, -0.28889843392300424, -0.48899585124256684, -0.07167641827249975, -0.49933912878941294, 0.11235090946447703, 0.32420572020407445, 0.011475387981817894, 0.18340613797861965, 0.009406586420080226, 0.13491805422771252, 0.1426681554572488, -0.45480280933860007, 0.16211743696433867, -0.10898750581358962, -0.020702924914505427, -0.11367468032779515, 0.34387303807930236, 0.1163035217300844, -0.20939123221805156, 0.3742529476322469, 0.03100433531341007, 0.227725776148074, 0.17144299892346115, -0.3498921946565583, 0.3676071746133006, 0.3216486075622743, -0.14056580985674638, -0.020768298871895907, 0.10617188459612917, -0.244332653651612, -0.2102208885584863, 0.46603765955132137, 0.002511081554986805, 0.3544570432329943, -0.07282575601638519, 0.16265920449759053, 0.3971129249513887, -0.09268368422875661, 0.4221380611665092, 0.2286044572083591, -0.06112916420491388, 0.42708144972542883, -0.38972890404276717, -0.012232194627641801, -0.10814806059576343, 0.17912744064790498, -0.47546488890846894, 0.3722994041280052, 0.4448317718609618, -0.095526839808357, -0.2963033457657673, -0.42466567538351047, 0.277738381536944, -0.09954695609061846, -0.11195789662612515, -0.08477154900493669, -0.32232145186285804, -0.11391977539594876, -0.16278670513991317, -0.3315888387293128, 0.14169208506075803, -0.41391315360248226, -0.0646184233309386, 0.277400738346026, -0.4038512931419317, 0.09369733293459494, 0.42217870464874313, 0.13396880552622614, 0.437313562898778, -0.2229277775128068, -0.2353663076003628, -0.20640070650534825, -0.31951290674678834, -0.05796023800370864, -0.2758669452602597, 0.2072553067451916, -0.13819249921443275, -0.3743266893389308, 0.2892489788978771, -0.12129486050763544, -0.021620085811234688, -0.3731674938240183, -0.18985148088253284, 0.0663033485745122, 0.436668081644914, -0.25263661203171456, -0.0954751175419489, -0.07873389460393006, 0.33156226498612945, -0.13799204378843166, -0.15339716455711955, 0.11015399132579017, 0.4208251844119594, -0.20954953960586167, 0.4726798535809657, -0.08396276128397077, 0.49207492490688987, -0.1553775456711073, -0.15531130722451358, 0.3933416989390305, 0.33701328830280697, -0.29522910700032434, -0.11659022743007752, -0.41404999990074953, -0.3520310602970227, 0.4974257610105957, -0.029878296889046616, 0.06773037129591407, 0.37528405181944996, -0.03542253699815191, 0.3250723796876078, 0.08938356979912171, 0.2269738969242431, -0.08065684061906118, -0.032449047101033184, 0.09264554714600298, -0.3161768963864966, 0.40974537815737233, -0.26823683610222815, 0.4591129745011232, 0.4049834184911828, -0.0669827377698942, 0.2650926657791278, -0.21755819051631198, 0.10640052136649633, -0.15388459650087158, -0.24644504967292635, 0.4688607419995615, -0.058594963196040184, -0.029138990995067227, -0.35028673181330056, 0.4896742630000578, 0.24818731005389358, -0.31360491457315814, -0.0912418357129949, 0.43024279217896283, -0.09197624329265632, -0.2639293065264721, -0.37018088616770467, 0.5089294189141527, 0.4414572756482761, -0.40673443357311656, 0.43923004297587764, -0.042059576960275756, -0.5396200306323264, 0.27392690996824853, -0.41997518862548633, 0.09955593600850843, -0.35691039215090775, 0.0677858750789403, -0.4611867807922033, -0.2303410658682976, 0.1643181194972087, -0.09558762484020586, 0.14589709142379456, 0.3511501168096389, -0.06732437462434371, -0.1801588507338998, 0.4210978786640871, 0.36114673662934293, -0.12828515944055632, 0.46187937785393834, -0.41594165616075734, -0.13101455014825422, -0.43767967020416043, -0.027666915117140187, -0.2214239890298883, 0.048987723364275655, -0.4101536428031363, -0.44903559909174173, -0.1885028192583187, 0.03479445612959728, -0.18109154865800492, 0.0354232110761548, -0.5920901010151739, -0.0561487630483394, -0.505580597450112, -0.2745880684290499, -0.16134653480221528, -0.47856829208166596, 0.3118713774075641, -0.42290567039129956, 0.3254494505288245, 0.46676400286652187, 0.4115916507638193, 0.14525634641217544, 0.4094775371375505, 0.3898249508509881, 0.11978139314115288, -0.3812466566885518, 0.36194584854055817, 0.45947977119027233, -0.21927974627735045, 0.06955840614255049, 0.23517352839760292, -0.4786807467278539, 0.05933797793853547, -0.16370207231288733, -0.07860273378706943, -0.43873947168880717, -0.37381115399314524, 0.1244011005477654, 0.3221818728585744, -0.5869302824413373, -0.1460116515409728, -0.1875795821335485, 0.21288500638435948, -0.37044139369137935, -0.4102692072853169, 0.2608334377793341, 0.3842145988907067, 0.4017029658329186, -0.3998531917388386, -0.26656751440564164, 0.06966064658022311, -0.43110985245554995, 0.3422745855719297, -0.17212530281334287, -0.13894525577511382, 0.2151498806665163, 0.44419851027676893, 0.45582321526298236, 0.17162968974521278, -0.23146767231145485, -0.0789461788060314, -0.44088593526278363, -0.2483606637612689, -0.20936788843817425, -0.009155507343293845, -0.4660350403183697, 0.05276597665236287, 0.28431230998128604, 0.07547639697400828, 0.3515403815985283, -0.06261855885060093, 0.18390757711981046, 0.4820259694654895, -0.2932612206545343, -0.4380860875956593, 0.054230728705811325, 0.25142480991161903, -0.34685211894887635, 0.5051321054554576, -0.26638939691728447, -0.3448804229348506, 0.11484818209760776, 0.4932642373749818, 0.5194106660835585, -0.05606168840679952, 0.4665447846011478, 0.37281376719754905, 0.13035675692140528, 0.006443335542521454, 0.43795030351993924, -0.3747458880427507, -0.08640293665380468, -0.3986125675483271, 0.41173327037237584, -0.1278019611905421, -0.22181904448187423, -0.23553499229732078, 0.3663575517413583, -0.2456476402669193, -0.1249918481597278, -0.18014532822242493, -0.17408208979178347, -0.21269395103291627, 0.19078639712100823, 0.45923393645976357, -0.1630322734562778, 0.48419168242322363, -0.3959300972499278, 0.28821097081313746, 0.11890781715245174, 0.38385817826743984, -0.0998837183815239, 0.4277828925439865, -0.040845049764317014, 0.0877177801587214, -0.20631970525883506, 0.31438195972698857, 0.36485986963328426, 0.45032901166534056, 0.2677359582632803, 0.3859769175278342, 0.42517031974122776, -0.35634800745538026, 0.05944782871515513, -0.2481333067328578, 0.08215920931965019, -0.2330681357437949, -0.35254402639704363, -0.19124809944874882, 0.5089376547161766, 0.4337629336148622, 0.39231879844410544, -0.019985338442252684, -0.03821760236740171, -0.44994510853977515, 0.5291125933739578, -0.2874742509726669, 0.5677816207925538, 0.4813612898563842, 0.42398270400357074, -0.19315363246797312, 0.32024857237382576, 0.5606519147021121, 0.19183782171966005, 0.3121010158733836, 0.3681097335600727, 0.4331963123994942, 0.3852057310228713, -0.33462769487050803, 0.04158922693761998, 0.17138619357192156, -0.18824235578996737, 0.4574529722679615, -0.3498709257075644, 0.22925050592371268, -0.19083262029946135, 0.37095115061489253, -0.22364238441187131, -0.20791638349918273, 0.34090760499685324, -0.3683810327860311, -0.298252745752987, -0.18151366072562136, -0.24294135800265698, 0.25260460880538343, 0.013302980915530851, 0.30168383749568206, 0.10015865255818267, 0.1543616921633389, 0.2069860906001013, -0.2372899428594269, 0.6717327615928367, -0.2568832270847623, 0.14420139067729404, 0.35238172363853265, -0.15347963327215247, 0.2226351837004305, -0.3262582122958671, -0.23844889030420263, -0.12302827654648284, -0.24030067695871657, -0.17011494530323829, -0.3029485962764808, -0.13873665611752975, -0.46535494412762163, 0.17336165675145787, 0.10901143829679398, -0.3355746952301583, 0.08897897924529538, -0.2914461933336033, -0.3230917869721933, -0.4838358485649433, 0.002203177944213861, -0.3557267667467327, 0.030074868560023123, 0.24564524423522194, 0.14793800465682796, 0.14727095163394485, -0.33312331590166677, 0.382192745250376, 0.26188127720232596, -0.3486006243741888, -0.2336018623812792, -0.025008581527401617, -0.11297477350050532, -0.03472030958434198, -0.24224607254942188, -0.33157489764947984, -0.07731811379902669, 0.21875634938256686, -0.2604613414881676, 0.07489588005440351, -0.485629699462352, -0.19638018506095378, 0.0761376294149605, -0.07558357189689162, 0.45819960961690887, -0.47146484150520307, -0.3755555279525312, 0.16271055474168875, -0.5326282535739165, 0.18008130378794054, -0.3405731218280604, -0.20431541090881108, -0.0916062046060013, 0.15612856661275806, 0.03422678284400377, 0.006962632814190192, -0.37191492842835516, -0.16146402869689727, -0.13601746090583386, -0.20921832708773952, 0.2366958673296313, 0.3847587588887226, -0.2598372105627046, -0.10321471102723372, 0.0724708057868345, -0.45053532531451423, -0.3018804017915868, 0.1532607013884876, 0.0904063873769851, 0.15726165818499543, -0.13170449393706388, -0.28608797133780656, 0.2998117544697476, 0.3028942935491311, -0.3042318393595023, -0.43093847600570784, -0.39833569059916596, -0.14068505151234986, -0.12733456202757215, 0.22116821306330725, 0.0935672203625938, -0.47011703917856534, -0.6184552751143972, 0.11332859426682809, 0.12072996190272903, -0.6433996292103228, -0.4591757894324628, -0.20284384090202975, -0.16848625917689605, -0.010685701579271982, 0.44116650248069084, 0.4242930390678186, 0.47806965978862614, -0.040737766548591244, -0.034717857910721336, 0.2927889152895186, -0.3340897590878372, 0.07643634363631994, -0.21380479047080508, -0.15828729297522512, 0.1326948551559416, 0.4870123121848011, -0.20255398527033075, 0.4300929660588729, 0.16025221506444312, -0.40623226184558076, -0.43242038549465645, -0.3171709192089701, -0.004471838943371531, -0.39959142493923067, -0.052280067386266386, 0.2525291436329459, -0.3957048675573674, -0.23927952888211346, 0.33227544042882473, -0.25097010491863175, 0.32551581467193963, -0.14225266544245638, -0.34826790216232023, 0.5529134894772526, 0.18246434991549892, 0.45672192156448865, 0.3645146377077675, -0.1330870426483667, -0.23252349407429007, -0.12772850242330022, -0.29772966924512123, -0.05506605319959793, 0.434587976495169, 0.001732475838202181, -0.06035549805028054, 0.07761908325737266, -0.4834326096885295, -0.06870223391236376, 0.40058496032079277, 0.32682854420779317, -0.42493261639428426, -0.09107645772864609, -0.3336794416283188, -0.22648842083922138, -0.287756699815177, -0.13481373841260225, -0.23262520631818295, -0.11626060758717584, 0.18733187823240965, -0.07163282099098095, 0.41838205571473974, -0.03370786582380963, 0.1776358118017055, 0.3587655010615757, 0.03255039751857913, 0.5022503367269809, -0.26454484764410924, 0.02009409856982362, 0.29681454528893825, 0.34405935084913714, 0.18428881234449024, 0.4627618437406254, -0.13623744280426286, -0.1958927225845837, -0.42756696041662645, 0.05420852008775475, -0.5363902594289942, -0.22048539404778136, -0.3963328496335779, -0.1258295538826954, -0.15853789945243107, -0.21110209450099776, -0.21977491573928032, -0.33201510976421794, 0.32624267879689506, 0.3175039894053833, 0.17351103746236363, 0.18436040723378574, -0.008095216187186864, 0.4890165444134531, -0.05559324374293011, 0.5301746114710918, -0.30445499089360856, -0.3033421151194152, 0.09519707255313017, 0.4505932358795439, -0.285196241867439, 0.10040392018381128, 0.24320185207805778, 0.05992492610065431, -0.043085305412168415, 0.379464630935891, 0.4229446361725928, -0.5002544257037721, -0.49127288039404227, -0.11408647918569693, 0.09945823360157051, -0.22446773024663264, -0.09785342636338132, -0.14546571318741774, 0.08009267096129281, 0.31753671713853804, 0.2320769737478341, 0.07192019890662694, 0.19372982648118475, 0.4894431009542221, -0.15094714550546418, -0.047977356077476656, 0.26295475080358577, 0.1486439187992961, -0.05270077833878923, 0.4018342698855715, -0.4514501649176723, -0.05866217464385353, 0.20073294013441595, 0.024222459018016763, 0.2761789280453054, -0.4881646884887408, 0.052688015989005535, 0.3197953003099904, 0.38958728652151836, -0.083498522637476, -0.38275486462764086, 0.19467198810509642, -0.25207316812988867, -0.39680791557407347, -0.2084334403474194, -0.21776832268329405, 0.1500886428121433, -0.040599711984214804, -0.008732744232987477, 0.4256862523875176, -0.3165660383056803, 0.11225762323221555, -0.32253381422894073, 0.04627602177692246, -0.1915625534983562, 0.17368755108825576, -0.3672804134101762, 0.2764167198228644, -0.22317260718616663, 0.47801887001770693, 0.014118629865284971, -0.2762873270224946, -0.31519656402928775, -0.003216535864988701, 0.2362105916172093, -0.20557817400876094, -0.1739424069231312, -0.04811355160004155, 0.1073684750938855, -0.3363762057656006, 0.28350954645686005, 0.43090160302926667, -0.34917168601072285, -0.0009644191529142813, 0.03837885449237215, -0.3925460736290374, 0.1175682171874581, -0.2808797863741997, -0.2297917899858822, -0.35706022784711405, 0.15739885613768842, -0.32399478066788256, -0.037367129852391164, 0.30934892392616253, -0.43112411637663184, 0.03182015781018644, 0.36470213443113747, -0.06515810212046054, -0.3622764070151266, -0.24584836176061292, 0.37804203286730476, -0.31027356977814935, -0.4211110619135811, 0.32733078863907034, -0.08005323742504311, -0.3298902648390101, 0.39792455445893815, -0.17805148325949574, -0.34578264382663354, 0.1805622983867607, 0.47791168792454086, -0.3622309344451914, 0.28851181245688373, 0.3998354412516297, 0.3768569151727052, 0.43644126370559355, 0.1441520314024291, 0.33868291859451216, 0.10906542452004835, -0.047388779911042275, -0.1304375568878656, 0.11356142607963066, 0.2954429476662852, 0.2674071361254518, 0.1961270353891932, 0.09159961727364366, 0.12858791271055767, 0.35711248055751443, -0.11846806489155759, 0.044457468985896934, 0.2564957369496682, 0.4626535824483269, 0.1925166619392628, -0.2738178468081409, -0.20193713229480048, -0.07665805715099884, 0.024072846251080006, -0.07214688075451543, 0.5238216779897455, -0.13162456097911324, 0.31187169963913397, -0.36722200264892685, -0.11180762950867631, -0.385422035477157, 0.3516227395726703, -0.4699196402121938, -0.4321341730287545, -0.5654040062498853, -0.48804642544916893, 0.16016626899539485, 0.013426032829348919, -0.2764577310530617, 0.36566426747785546, 0.07370406010321127, 0.21090729956248253, 0.06822758032627196, -0.21580694137819045, -0.12506508662703653, 0.43700483413495805, -0.3099097418883917, -0.03027160001662629, 0.07001029390783087, -0.0010864700118563538, -0.30788443129357795, -0.02294181719525098, -0.2860670039143222, 0.30680032611019753, 0.4244447984282216, -0.2178468421689294, 0.12436105144715828, -0.09337747702631745, 0.5503385585825673, -0.2999428630766003, 0.0676632499765058, 0.19711579249439615, 0.30120450141250504, 0.23632785677856474, 0.01773373324839318, 0.23517709138298565, -0.37064852475918686, -0.08128908186280173, -0.023803291810289645, -0.352613407086487, 0.29490619455852474, -0.07568174461477395, -0.448839015348829, 0.3248470710925122, -0.3452069314542423, -0.25733107336680183, -0.04459148579141651, -0.23075673629048302, 0.23132400030465966, 0.10540726094295268, -0.04702925989842131, 0.2283944292065418, -0.30880332169114005, 0.327869017250538, 0.357857628460201, -0.19877030433757945, 0.33894603551286884, 0.4523858828793108, -0.2258315942855513, -0.4180639325959948, -0.4201146530251569, -0.11333616487914383, -0.049919836809841384, -0.4739503359868941, 0.11057815043125924, -0.30223852306168325, -0.015417546748508131, -0.3369753723850196, 0.32737845264867593, -0.4096194336950236, -0.33318018977958663, -0.37504942857650225, -0.4578164653236985, 0.30268506816635127, 0.3323243342212363, 0.2810996624445787, -0.2204931333424526, -0.12243908387073511, 0.17494899103068323, 0.12278526261550482, 0.16894773763770585, 0.27047136971842445, 0.13821056470051113, 0.41011962128868146, -0.10287209939036016, -0.03861120711102435, 0.48966274989935227, -0.3177439802716191, -0.42749142143926505, -0.3307588546776019, -0.4384467421117273, -0.003399728248664528, 0.08522114748540356, 0.11885975994104811, -0.3870303006630128, -0.16802028767318045, -0.014915493263146118, 0.17245839087521353, -0.21900861463133892, 0.34811727216032606, 0.13854322351234294, -0.26239625209449235, 0.28069282056278755, -0.2392511866625569, -0.21847370751393494, -0.2918588827985971, -0.4774200447545265, 0.28734067507636646, 0.30214793537628, -0.34809714790262575, -0.23534513847690583, -0.23645647828229802, -0.23537373378512907, 0.30643591622038685, 0.13662744111483358, 0.056343587812764655, 0.005320230008112112, 0.0572233365470287, 0.4304401306338073, 0.2121394704909376, 0.3244123156469704, 0.49390479082879846, -0.3420586958918114, 0.30573094885487784, -0.29935560304919917, 0.13272808401022462, -0.48086734163903344, -0.027934606556992425, -0.17906786537306196, -0.12344203027299723, -0.2823951918026361, 0.27458023129733733, 0.349404699682558, 0.06921797072669267, 0.41890430477394774, 0.35183505106227864, -0.1006531674926791, 0.495695655189068, 0.15471934885955438, 0.06938008530921606, -0.24573288830281323, -0.18988821225993893, 0.03562029704260508, 0.4038425552321384, -0.15233040671661033, 0.3012503544598497, 0.2583350537899017, -0.4685118335907237, -0.4016008718048188, -0.3130476154419136, -0.18569453083089238, -0.3238935898121166, 0.3921000657636645, 0.2830313860925022, 0.23921520617123115, -0.013943041931353317, 0.09116335095781203, -0.015992576521038804, -0.1216153610645977, 0.19714463680271388, 0.18393096198433467, -0.3811565636472387, 0.3277940292905924, -0.3375563312088554, 0.31125791654410884, -0.36255473007846506, 0.3025268391929256, 0.0033935356573914525, -0.18030396701085769, 0.2228325129782679, 0.15346011446008245, -0.3082334450520322, 0.4603326734278247, -0.29468691785575907, -0.45128412202385393, -0.08621002289943147, 0.10591830983026829, -0.22082842306510952, -0.2183442754283833, 0.46007619542893685, 0.10638724813962208, -0.4244683513946844, 0.3338083642868538, -0.23032545980661234, 0.498954713650986, 0.2281582117129475, -0.24264615117091393, -0.33594306467882357, -0.45802851777524173, 0.10834081718792499, 0.14337584742968518, 0.448012185492714, -0.05199033907294604, -0.2858742603333238, 0.38853843277675865, 0.281686775051613, 0.43413313617338434, -0.14006089812549494, 0.26601313301268975, -0.04073218147121172, 0.4324784787156669, -0.3558326187247501, -0.4212286222892994, 0.24954285987026345, 0.14982065418622936, -0.28199008773740986, -0.1530363707671536, 0.3275227154251026, -0.34491462128036954, 0.032584695981142664, 0.27258810486506824, -0.003634411993547301, 0.10947889059923424, 0.11443656477770899, -0.48775259328049964, -0.22195695310995942, 0.017393597057836795, -0.4490227217100745, 0.46906281167380837, -0.15581133503344666, -0.0868870858682678, 0.12762050378303552, -0.08670619623629845, 0.3675289673196675, -0.10161798775213013, 0.23350942932348875, -0.01472962690154912, 0.33353475143501826, 0.1261949791052415, 0.2403678385788806, -0.3277484046459628, 0.2766226523610271, -0.08192579159979307, -0.14210258491317038, -0.28317933456579647, -0.3869555551711479, 0.3671516331534119, 0.205251411591433, -0.34725334142797515, 0.26988864644531857, -0.1474378531422452, 0.4812596557865667, 0.06689338473648317, 0.4532861585481244, 0.17318902513309548, 0.034138906048947246, 0.005747801055699348, -0.2495525559392154, 0.09404816280758145, 0.31861931429762375, -0.30615823560878086, -0.514899272668744, 0.015554651907977446, 0.03430854034915234, -0.47944394111746147, 0.1917321857839164, 0.39096794688492287, -0.109561372809424, -0.43097466081765384, -0.13286740653434853, -0.26946614103474786, -0.3536168128528792, 0.47817876675699095, -0.007015858118857759, 0.4411613095305861, -0.23967769072938783, -0.4438157164933614, -0.047086915947933475, -0.36897201438612137, -0.06024154719040965, 0.4549781759111174, -0.2964480692617957, -0.10915364868310629, 0.22065131818313763, -0.5113394128600716, 0.37158602491414255, -0.2760826706391623, -0.3542932026677927, -0.26348187236866605, 0.3411524975213506, -0.11077612884755321, -0.3935686826813937, -0.14024367654250514, -0.07404223381015358, 0.14508218934004757, -0.06053195451255629, 0.12784171636824349, 0.240661081847379, -0.1868814394621593, 0.4122476275077218, 0.26028287071849693, -0.14403817021845547, -0.25727590766564246, 0.49669838168102687, -0.08330374845785027, -0.29911955984734384, -0.4324310255002891, -0.06398772308116624, 0.44858570233395845, 0.2146882508354421, 0.38916877141491685, -0.2170499670233016, 0.38525508737901537, -0.09662141080507254, -0.34104667214805295, -0.4699880276524331, 0.3529000443703739, 0.2985314476379061, 0.4337448821657462, -0.21793505187473927, -0.1899425217035439, 0.05052008799483055, -0.1618955940501645, 0.46527916702290134, -0.21198038048258933, -0.367646125233062, 0.5205853301395638, 0.2535307736758866, 0.38389324028311544, 0.0785776394291261, 0.3556143420419974, -0.46745629271986855, 0.28991018396394047, -0.22692277562908741, -0.049802830489817033, -0.18455265805837684, -0.37628405505318985, -0.15674885027230687, 0.3103238033339721, -0.4604570686328948, 0.1295536150467457, -0.1943043038696813, 0.19391941191077547, -0.03456482840356419, -0.4592299523888476, 0.38546932849704635, -0.4523736267610366, -0.13387884397377459, 0.005748754807808043, -0.3049938158589544, -0.21926942445971004, 0.24002732080284567, 0.4122927905720047, -0.21990066525327598, 0.18491231623129095, -0.24324025267494642, -0.22844125261256448, -0.12129074783538889, -0.11582678438588083, -0.41982272748722016, -0.1331450281523231, -0.09798927979467242, 0.1948077033713295, -0.11565974241802288, 0.28488246936124795, 0.3527547792210004, 0.24605773964884897, 0.19955020010078456, -0.11143445086168217, 0.1912511914773321, -0.37238277733610414, -0.43911420295178794, 0.24738616064106086, 0.12963832595379463, -0.43805924501861987, 0.027754286257874624, 0.39097011865426723, 0.38168518019275716, -0.254921456739435, 0.23431503803335632, -0.39562426933100076, -0.2810757727952416, -0.02179661989945323, 0.11350755976596005, 0.05638961176883654, 0.3461025452474543, -0.3697921406448731, -0.009359891926984573, 0.4713512453966679, 0.16292933697272477, 0.24328714068586121, -0.23517954414860448, 0.24905544967847634, -0.23889967931509795, -0.02461874133893475, 0.1647589189831518, 0.18322788579556093, -0.2560803705553392, -0.11782899758555579, -0.18653350140481728, -0.5524721419737645, -0.05156085474390953, -0.00936230873295886, -0.3405825342649187, 0.3066135190466548, 0.24582823331423143, -0.0292387092726469, 0.26091514189582227, -0.42931506455886215, 0.38548031444849534, 0.14662232450507673, -0.09861430920932146, -0.29221127412928394, 0.12209289665336417, -0.11645001002971771, -0.1505739839419532, -0.37891056474402157, -0.421683791806405, 0.1476540544969185, 0.3950646233318688, -0.3171089762513687, -0.36086619676516635, 0.33563611668405696, -0.01736333242493973, -0.1624182264788624, 0.5449380313972847, -0.2562541702728857, 0.06643205495718024, -0.2284791520729396, -0.14504596618254068, 0.06719136253824295, 0.42803111085781836, 0.2016748811592847, -0.15758562630633122, 0.007527021845879531, -0.34409782690324664, 0.17884621103976722, -0.16518402592918854, -0.6175297320044421, -0.17923951267365446, -0.1524458927119857, -0.14861470255654843, 0.09841983081834355, 0.35872823488786193, 0.03683440989812703, 0.3345391915653887, -0.21390307907156275, -0.44533634928961346, -0.21113392825257557, -0.1543510146631307, 0.4018508002310339, 0.08824373220096278, 0.2711097620572632, 0.2613578362018109, 0.13142624593111432, -0.4135816102930794, -0.2587298352564209, -0.4003050897784279, 0.004838869024549865, -0.24829970319464936, 0.6162235156962202, 0.652643698179307, 0.13169920031336693, 0.27382558446947713, 0.19963422741516718, -0.13643443543188566, -0.3049081713792664, 0.13355864707101112, 0.29967415558052657, -0.4370677795571005, -0.12777189298851785, -0.15404303614677903, -0.22078013384374515, 0.057239131874650066, 0.4498791634957141, 0.07784298808704757, -0.37133501204281166, 0.0848561179732005, -0.2460023954750701, -0.286894894125762, 0.17672929858402944, 0.04437412889457623, 0.42520153155756535, 0.2943058341789316, -0.02018261911729189, -0.2956788703070131, 0.09647332242731275, 0.01220656832168227, 0.18927024730724698, -0.22920610019363322, 0.37773473387541584, 0.1318604254824966, 0.45871652862897244, -0.06267231618933986, 0.02476619816314514, 0.16534067605322592, 0.21519635971987536, -0.33329625981315636, -0.06624498440690715, 0.3700127407636228, -0.16488375081531395, -0.2100296565194989, -0.4470740931970892, 0.21454621860998555, 0.49443070315394627, -0.06110844488526007, -0.09003022384867201, -0.06496656600044134, 0.49136820363762895, -0.05015870985629327, 0.054079854463317784, 0.10660797019701691, -0.41870123204615456, 0.06950853144855831, -0.42946433803890516, 0.504187003021563, 0.020562675529497823, 0.6721192303149418, 0.4408987622087701, 0.1024192085573979, 0.49999870713707917, 0.02448081280892123, -0.15639972330129367, 0.3231969374271658, -0.5254551600863814, 0.3222823122103737, -0.006590283255070647, 0.20229321372135997, 0.14122966785406815, -0.23760020952985905, 0.03558157190025743, 0.10852599944552413, -0.1812225367836935, 0.5467876723826343, 0.29950291219992653, -0.10407778712773168, 0.5340369777141287, 0.3943583660125664, -0.40118479572230276, 0.10610136860142609, -0.5175552929431272, -0.44666915149337705, 0.16541356411913555, 0.27453307522846904, 0.2031248495844471, -0.05858604543483516, 0.4172454938139863, 0.5313017707914679, -0.027451820305278412, 0.4212639988786122, 0.1864442791920491, -0.11367832385063689, 0.3481624503059071, -0.20680958015369502, -0.23477522424052, -0.1332272403378217, -0.40646879834115224, 0.41277170405766106, 0.33480627792320633, -0.32602707858470553, 0.1409265764509746, -0.07818365061246473, 0.09239211165848538, -0.080257584631003, 0.19924156928433776, -0.03241187682521981, -0.30448706761789107, -0.07141668184821491, -0.2611009422631975, -0.665680395059444, 0.17437039319239586, 0.10259151310209194, 0.6988166827675492, -0.09989777957035761, 0.582080684612234, 0.25155578407035173, 0.16744742617457473, 0.6289017548859864, 0.5461738781188923, -0.16446752654971764, 0.3988106880936096, -0.2754302866745199, 0.1158537510944589, -0.46185327423394384, 0.4312281758173245, 0.02476807770675692, -0.37991953966760267, 0.19618457604499606, -0.029266046046154293, 0.5587830007359659, 0.5385937390555215, 0.6172846811673914, 0.18543778387435833, 0.07328748045825202, -0.03013492960310502, -0.435745929221682, -0.12864730248994394, -0.2245745984535755, 0.3166986262517972, 0.140662210234228, 0.768655848552953, 0.6044945199974311, 0.5030559120246123, 0.05717533946901569, -0.09415865250780822, 0.132613134461984, -0.3018506030151669, -0.21105983689236885, -0.24738647596031013, 0.2238636970323863, -0.42532937385365877, 0.2809528521265994, -0.29124682926115675, 0.024260118592895605, -0.1624777303338264, 0.025778902123701545, 0.0503927959577402, -0.14266177452052362, 0.05139461471414218, 0.16586609624174192, 0.23162957844602747, 0.2866004061094157, -0.35030823430771385, 0.034577169008670715, -0.3687038004953018, 0.4032102351031085, -0.2104325637311456, 0.5265870645118373, 0.3081082330901655, -0.06608621497519189, 0.40748802105997844, 0.005224801501299346, 0.2834997110457655, 0.061953746883302255, -0.2762267688167254, 0.492559098368828, 0.2534461792199825, 0.05926868991436538, -0.48981243052748796, 0.21303940243763342, -0.2396048218872481, 0.09030187586476697, -0.40329870703202636, -0.098440464643807, 0.23733479939457722, 0.17875917001374883, 0.420657248568245, 0.3476138765685332, 0.43145037356742394, -0.3852125560635944, 0.4849096748178618, -0.18360191164453132, 0.3173583559752539, 0.4610533285739892, 0.5528974877847713, 0.43285665532127926, 0.4582641796742216, 0.1688013252072648, -0.3699015255531638, 0.451108529951719, 0.19702140645402522, 0.3117717257892801, -0.019610508032477582, 0.023596113809276363, -0.3306929598349363, -0.4345670745864086, -0.09411845642862522, -0.10999355120558935, -0.1993455865050812, 0.4503134681048447, 0.22949044503353225, -0.10328086283100797, 0.28034226594063927, -0.4481565644415071, -0.4329816255584257, 0.20740224905181714, 0.17782125195570725, 0.1513127761435035, -0.09201297789557583, 0.08773978820861705, -0.21088821185215315, 0.1459372299499073, -0.23774290997695607, -0.4298195783765535, 0.28554529798948053, -0.2853743889508118, -0.09740133011936336, -0.25472390765720543, -0.35612092556296243, -0.1945537902772891, 0.18306747096744383, -0.2659712794385993, -0.1804516259239053, 0.18683555819027242, 0.06309598747555686, -0.4072069930213591, -0.4018777615872488, 0.4514251304806539, 0.22801043062542486, -0.007195732953475921, 0.011093059498307582, -0.3434616943876004, 0.31780102430079815, 0.3498636357815553, -0.08439999408127342, -0.3250910012836464, -0.24177350265891906, -0.09987533288302045, 0.2671020208762853, -0.20999104925453135, -0.09793952611128942, -0.009237745270028798, -0.16374866137327607, 0.21989480456565613, -0.2522404208627235, -0.0006892934122983579, -0.4311765177248196, 0.24088223806201287, -0.23364800836625754, -0.24919486869883994, -0.028337393454921374, 0.38191905343297433, 0.03301201537227707, -0.2469722284774012, -0.006252148405851199, 0.17724812824598946, 0.40347516778505593, -0.5320375344702682, -0.5128249282389561, -0.21694258250141477, -0.1323624092487917, 0.2845835135138032, -0.47251553878150526, -0.2960380994512724, -0.22768783125191125, -0.18826425357072663, 0.3702941231758445, -0.2434807406938541, -0.12801887777468487, -0.10390397520637336, 0.21673125635558457, -0.2710447506620303, 0.08805992605288787, 0.23550923420624767, -0.4696613500863213, -0.3144117398306171, 0.27558430513461474, -0.16572045730843163, 0.317257683084878, 0.4015633510058838, -0.42112580460477866, -0.3796431164014259, -0.05525734587549782, -0.3461880347599213, -0.0826495752175886, -0.30100183206302256, -0.26951481197710614, -0.38793367557494113, -0.4062829776585358, 0.028008844174580945, 0.0862752540267826, 0.08245811170699748, 0.33013241517865355, 0.11546729811594167, 0.07755469737297235, -0.2618291604649337, 0.354834505556827, 0.1359623611297636, -0.2428896478005814, -0.13463142511156595, 0.32666369863773975, -0.43972320930771963, 0.1145016531580665, -0.24796214935919753, 0.22712480292115653, 0.07365076349082268, -0.28453734144865866, -0.13811430495829605, -0.22855482241870545, 0.25326047241358995, 0.24200062055855265, 0.23089997293554562, -0.4218092989504726, 0.21097641974136222, 0.3274791041950384, -0.06324231887351194, -0.3687825622917617, 0.341139681447704, -0.02127158484283852, -0.11541710679418633, -0.03743890912381745, 0.28012152151354447, -0.4459859087680802, -0.037818989619271846, -0.25017340077666256, -0.24221469420964611, 0.12023252264090319, -0.15320822659995845, 0.21443770351261465, 0.04896493170775757, 0.08409254199041108, -0.32149018110525146, 0.21055822581235084, -0.062463300300456936, -0.07084330648102426, -0.21382219040728803, 0.26839641497756656, -0.14740857601118962, -0.22754823886549447, -0.19799389160466696, -0.24977877217901495, -0.019143766275124312, -0.28849153550445855, -0.0030565133373287104, 0.024838745132046685, -0.17958099575888653, 0.48544972957414495, -0.21540611309491775, -0.2141605390505064, 0.031732138672268304, 0.38631084221015216, -0.4408553026997903, -0.16711181684315418, 0.07982551471261867, -0.10866464247859924, -0.24699952147786422, -0.39905612768772103, -0.38180748774460616, -0.3493635337940502, -0.10743062508028539, -0.23208321505219884, 0.05596171074596835, 0.060740411118832, 0.483656329599779, 0.17489269556261222, -0.21326808090767546, -0.04156623975841256, 0.49169957905313555, 0.4803183316880042, 0.3081386111337917, -0.47865685462803265, 0.10497715697764555, -0.2765164367260801, -0.3952518089622085, -0.12759597309584794, -0.34946770784051034, 0.1890283105771903, 0.23639494335036512, -0.5310621102676406, -0.10892899478534326, -0.12265587494851017, -0.08247301790041846, -0.0013762582968046522, -0.41382379497927035, 0.4946624808912875, -0.116609188721347, 0.1705107283512712, 0.309887805909302, 0.2604070079526934, 0.23488957386092935, -0.42506557788335586, 0.17238059081759058, -0.2923667427377924, 0.4235118092427622, 0.47659346855689144, 0.280445287492542, 0.47667361107394235, -0.0957772571194414, 0.41862800558343727, -0.048471439569788194, 0.3347696730951047, 0.3627718713582107, 0.012434187233017384, -0.20396832151397898, 0.07852450239611351, 0.035889297365554546, 0.31557506032443394, 0.0030542167914161507, -0.2517728421037313, -0.08926082525869472, -0.24412636601523288, 0.005145989613985005, 0.02869776151344806, 0.03935063860105613, -0.15021821520319042, 0.47659996352445916, 0.18056704763822823, 0.3377882753681995, 0.09484431858621073, 0.08864806020443398, 0.2038820773629353, -0.15341211350099904, 0.10804296062616825, -0.4254696701764281, 0.11492348376757602, -0.39546992809981146, -0.1668204654779767, 0.28256312307682424, 0.39596041214640915, 0.015468366891140967, 0.3248800723425806, -0.25980475589166063, 0.03322787451778834, -0.0005055948703687054, -0.4052660796001888, 0.0827299824712416, -0.13076733125898793, 0.2061960284713021, -0.26333016080196003, 0.3318595821264297, 0.2190543633430848, 0.23862432857907087, 0.4146645905390558, 0.236818822310975, 0.27822610141865495, -0.32559013844418727, -0.20574334018094412, 0.14448228182950096, 0.03962210178888004, 0.14724286455630264, -0.08363317775600665, -0.4197030225244617, -0.25663688657204564, 0.0567759046008363, 0.09629771765575673, -0.4356259653188093, 0.2621436040417068, -0.1598226025679841, 0.4314147562955358, 0.468355277539555, -0.25651435737171097, -0.40922487783033296, -0.26923518405898195, 0.02821101232219546, 0.4706419054458805, 0.05666212338246053, -0.20392906213141537, 0.10127242884666604, -0.4511311545045703, 0.0462709674368558, 0.49301712734987935, 0.4449951309709431, -0.031092279874884846, 0.11118050399323398, 0.17924010444502192, -0.4362879399442431, -0.10272524173183084, 0.4761250062194555, 0.11692885070904946, 0.3787259084294624, -0.46052207941664114, 0.43316769458275917, 0.14188319771416602, 0.4095165042857132, -0.2832201011543536, 0.3344251203463513, 0.36586362354317703, -0.11666760723584269, -0.12617598905412641, 0.11950930028606846, 0.1231372034363223, -0.48537028394737525, -0.1917390102477118, 0.43616910235332496, 0.2640623503422651, -0.16841294148828478, -0.44120266130389807, 