0.49469184513380915, 0.20237044897260692, 0.3044615723912676, -0.3109450687026182, 0.2233294328001909, -0.4807013059379599, -0.10932887084650666, 0.0791871804763361, 0.17534958377989673, 0.11511830762030828, -0.18438881463015966, 0.08222508460903255, -0.4928434900802739, -0.14079004928979297, 0.1861063890789478, -0.30303087042574584, 0.2389197418246557, 0.0572172460144551, 0.333902532625422, -0.023890883762394344, 0.16784969134720884, -0.11417290726521934, -0.26023123307807206, -0.3396939001112018, 0.3498482600266921, 0.40753993563937785, 0.027432013289567125, -0.3672052180696638, 0.3208076462753381, 0.4085680846557235, 0.2971843327310464, 0.2761260530745224, -0.4578574239217492, -0.3164455797349503, -0.3981488540607807, 0.219451927923409, 0.2192131132750229, 0.4682285244319811, 0.3359117511568624, -0.0804611475494253, -0.13149083896020508, 0.00677505620674174, -0.25590884563668065, 0.40097813055559994, -0.18460773053956264, 0.2862201196669346, 0.33359001250560877, -0.2915189396148632, -0.40719362415299726, 0.19318360041825808, -0.27745621727450936, -0.19893270903047958, 0.22477799727446646, 0.21519607408875374, -0.4361567280204772, 0.20871723632382455, 0.48847915966607514, 0.43018679165830176, -0.46774318803095477, 0.47448858979873965, 0.4563263120986501, 0.2582956968263408, 0.39243628586936835, 0.40593275432658177, -0.080422963558838, 0.05085869496171447, 0.1647298567291229, 0.31350210465542694, 0.37877808407148644, 0.4300407107630656, -0.3918272590264719, -0.0741146739430629, -0.3026045984182843, -0.4377174621795527, -0.4168852821305611, -0.2584098545476064, -0.17780264622197595, -0.21130492314827326, -0.46237146628197545, -0.026482416504614494, 0.1332104829710387, 0.1551447092514484, 0.4473777545675648, -0.4692286668785923, -0.38412132996712034, 0.34061002285743447, 0.03021370981961554, 0.22845107651009272, -0.34294876353905357, -0.0371807487600454, 0.36042572265430295, -0.11477591094935088, 0.39646332151752034, 0.10556815568975093, -0.14191250552159765, 0.06651632837425103, 0.44728913535416914, -0.17602996638809512, 0.004301021454693317, 0.17551847565204629, -0.034877123917529555, 0.11609137868875663, -0.332040086868883, -0.010111360679154422, 0.0828269780562755, -0.44964455071699594, 0.32296083604862297, 0.10849029893490146, 0.29965103623007144, 0.23807969455549924, -0.16841359191645633, 0.2979165591113593, -0.0715067641206405, 0.15604303668834482, -0.4615433499940135, -0.2611629589966807, -0.42993438823118635, -0.21376175126334235, -0.3782354048909562, -0.0532165443199847, 0.2748359676917316, -0.38728184396987564, 0.07581654275982981, -0.18487185484931337, -0.2529778677051596, -0.36064925069034975, 0.11683806072103772, -0.1563149427973503, 0.006004821839539032, -0.6165885959600278, 0.14764013258765551, -0.2850290431854692, -0.09875282670090008, -0.1153315524871724, 0.025508758449881982, 0.1574815258101422, 0.15999072305981324, 0.3447767643770667, 0.15126261459401544, -0.18881166440087585, 0.4384232904008528, 0.4107637891798853, -0.42993903681148943, -0.10330918885536583, 0.16201015341914157, 0.10095859211587604, -0.23968543890833446, 0.1729410938365364, 0.2382140137486333, 0.4946532743556046, 0.2190803665943613, -0.09916065258979505, -0.06244979158039104, -0.10904725261656283, -0.6097263358518852, 0.1593304862545279, -0.49963451291166316, 0.19290434578221186, -0.10664805199991136, -0.16263977004615024, -0.3823748162124792, 0.301218910420323, 0.16165242838983823, -0.0862385557089841, -0.00319351686357169, -0.46442999327673073, 0.3952648749123163, 0.11049570069293657, -0.466408303509127, 0.47697146394174567, 0.04033474027986295, 0.07205389881636115, 0.3827465323750137, -0.1839853696684741, 0.41975546165953176, -0.02379292338736891, -0.04855441470865978, 0.14994620470919146, -0.12321985466703109, -0.15527617678495803, -0.5513683911426817, -0.10076444146545285, -0.058808945345924, -0.12807866041655838, 0.1585081553389423, -0.1653276356533859, -0.05841773690704338, 0.014225192237805167, 0.33617600659668545, -0.06806056477359024, 0.3403258022013852, 0.0783449308996289, 0.14739938309429693, -0.25634137043772004, -0.3036323206895965, 0.06783690090023758, -0.045540948721616896, -0.3203711790753766, -0.24772449837392804, 0.20125326450855513, 0.22963117051231632, 0.3365491142500889, 0.38496850892633283, -0.39515113002955105, -0.29291382164939855, -0.41500116923661323, -0.05234510232870813, -0.0343910121210078, -0.14350288399416675, 0.16899834628760993, 0.043585512539973614, -0.26996719655398604, -0.20787791533117897, 0.06341476975849095, -0.020118424952679407, -0.022323191971258188, -0.14577151159929255, 0.005203110899174128, 0.0073424696408827105, 0.19790988488102226, -0.06100144395294441, 0.23283974729764162, 0.03788666647304921, -0.2151409433183102, -0.024458707104678117, 0.18633272740075063, 0.1847979685818679, -0.2567641166179246, -0.011742822935788235, 0.27146442869990406, 0.1721556403947866, 0.036847358977215576, -0.4245746208889004, -0.37675460778230513, 0.0961535966309831, 0.10950185934345262, 0.04739774556949629, 0.034472675042236736, -0.20994464658298986, -0.023355070756353156, -0.01923286865917812, -0.4080988855616344, -0.39194402411562274, 0.11452855173479334, -0.4247953868083978, 0.10209842837913308, -0.05075637808157142, 0.17228826846450643, -0.0027771154012153987, 0.03814250764428264, -0.2648521612212537, 0.49147683990286645, -0.2639604350253289, -0.22813103457373135, -0.4334210642204511, -0.015511083635523799, 0.3661447970114323, -0.357971398363226, -0.12474359928672711, -0.32668458290719615, 0.06705832996712482, 0.1916944254825335, -0.40474238750649966, -0.28884120290874904, -0.492388816420057, -0.3670012493956162, -0.5985917453831866, -0.46070675737656197, 0.06710294240839669, 0.05190657333958216, 0.1874665700475383, 0.47822293666801585, 0.2601738732997364, 0.10356155645404208, 0.024724614357066348, 0.03189567338874762, 0.14487681622334725, -0.49877522467443647, 0.42705094651261777, -0.3513472717462457, 0.10804558664822914, 0.155598959482912, 0.4283884548663091, -0.4587124193923937, 0.025722040335382806, -0.18225554575845127, 0.10818444907410033, -0.7072031363131853, 0.46427144264119413, 0.006216557513038667, 0.08274936587647758, -0.09875333008522158, -0.20240040421492822, -0.3682969157500105, -0.5332788759628944, -0.10768775341995546, -0.04659309619445898, 0.5671898814516589, 0.1070555457459483, -0.05395844486932348, -0.013721893086894643, 0.2026697456588215, -0.1898092658711043, -0.27673277473480923, -0.6645312043462467, -0.5754420754877454, 0.1825527490239001, -0.23999524958230867, -0.09588450554004685, -0.026937518484736998, 0.41174608811489344, -0.22769191344201706, 0.20179040052560485, -0.5215805506828984, 0.04885292662347018, 0.08971461449786543, -0.24110932459026713, 0.2941353744771558, 0.1515079159421493, -0.43470156391486464, -0.07649471935185032, -0.27863934243176186, -0.15295645530173793, 0.5560041960410761, 0.3017061972011844, 0.49204341747667635, -0.01671050963828101, 0.38851417691417395, -0.020544171857160003, -0.04047560003481144, -0.06900478279165598, -0.32865944589743, -0.3111772383808732, -0.16141966863922597, 0.23177145397446633, -0.19253913113560336, -0.33697356046056115, -0.366312110245079, -0.25886334130972116, 0.19434093704747307, 0.1471131088296412, -0.25403732246473637, -0.5228214945242344, -0.002937022246470951, -0.06737564783651473, -0.09535067359896263, -0.3073700515797891, 0.2662867180516016, -0.18453762573683063, 0.20404720904403276, -0.1583570460576367, 0.12092369817631024, 0.01607307308603985, 0.3845697398529137, 0.6006332434658876, 0.5151946212863301, 0.18895719957495716, -0.10966687730733629, 0.41531372045362935, -0.47749966184143133, 0.3030162770558977, -0.1158590129413024, -0.3781926026595002, -0.44136137518503715, 0.47375093430660153, -0.40131197610727426, -0.11634618984966152, 0.010967283278611512, -0.28178048465309297, -0.3900778687305483, 0.16541769296622447, 0.221674026949194, -0.06819085910570681, 0.44612589277801773, 0.12306284615792548, 0.35871143182895754, 0.2305067220360795, 0.13199690191544633, -0.4079021403706879, 0.271889386338286, 0.49905022338274385, 0.3744500263715519, 0.13744315884165748, 0.1306740895135108, 0.430069780644674, 0.45236886095798173, -0.012274828969543716, 0.13926561296718182, -0.32577103140946667, 0.005857063670426283, 0.346013817542968, 0.2199724695498245, -0.2769053676377675, 0.20376586514591424, 0.2528495182666185, -0.30702357293645727, 0.4575170523767387, 0.33237434464192184, 0.10252200995797604, 0.058690028368413874, 0.2918109805076376, 0.123482759722365, 0.15516022301201565, 0.16529644873287277, 0.12467020950029653, 0.14151101260922774, -0.35179896859997617, 0.45130453432683276, 0.08483157970354331, 0.19767460252272945, 0.4326903851895069, 0.1331434310531633, 0.5979923911651148, 0.08483612707543985, -0.23367645828768102, 0.2624070211750208, -0.13670916701074015, -0.42511753005042296, 0.049815054954886945, -0.3242268269758764, 0.18897247465798225, -0.26336643327229053, -0.48901158337516615, 0.2013498651951783, -0.11797841295795893, 0.20162890493503874, 0.2392433957077716, 0.239815223557407, 0.07364827205913102, 0.06368058926061217, -0.09974536591529298, 0.4167747116027421, -0.32659874133553635, 0.053996194464213165, 0.22146935025738462, -0.04147174041011009, 0.4323533858003076, 0.7579172103947343, 0.40502311753201287, 0.6208194422059955, -0.068901069529829, -0.10450217838587304, -0.17493568612927088, 0.3078108823201078, 0.1318265152134, -0.16703151523732104, 0.44385131546852263, -0.39200104156474797, 0.26496973348781955, -0.4292885289634827, 0.29557607872153036, -0.4562631454407006, -0.008293678935109476, 0.3663284776675827, 0.1360423632720143, 0.5467001169528789, -0.022066057502411123, -0.32429352862874883, 0.13207614009711674, 0.014870253018954982, -0.03240735866949204, 0.17823967010095798, 0.1984748514400222, 0.6957186495314106, 0.31348618926952687, 0.6515377967616902, 0.4021874513761302, 0.4890765054821231, 0.632261639734055, 0.6320512369507071, 0.3232551443383547, 0.041960371234605776, 0.0511528795638335, -0.47196496171415453, -0.18875205796587166, -0.37607226865249593, -0.11125892469901821, 0.3306621778224259, -0.05346596534186247, 0.10790637630830195, -0.19750005145363272, -0.21807708114030958, -0.30405946628005376, 0.406269070584243, 0.21747311564936972, 0.08236240682421811, 0.0836068676228325, -0.0873840145891168, 0.12825084099076675, 0.09310399526885962, 0.5159785186808489, 0.7394491716159228, 0.6100119472380557, 0.33428299414486895, 0.1580728457606626, -0.1470286128098604, -0.2622337887645165, -0.11580443376410103, -0.21764577326808632, 0.3674940077478737, 0.06434920003420061, 0.4400877116235888, -0.2347670889190173, 0.02479884608051052, 0.15746242911765868, 0.39254649731440244, -0.36299259603587264, 0.03777559859685304, -0.32286332747691987, 0.4040358755534874, -0.018905215446716524, 0.3384237126806419, -0.4317528119318859, -0.06479468118607155, -0.5618354869522966, 0.3004092435867234, -0.005472982937782732, 0.16618539025318518, 0.48840474566281084, 0.1179222392886969, 0.9765194236605539, 0.4819698599386901, 0.41532735584033614, 0.007476850971060598, 0.14773977132515703, 0.11253281227475974, -0.0110569121762266, 0.048836503452280355, -0.2087432813927215, 0.05666068971649469, -0.315321357892656, 0.3446293145361559, 0.02653934847144379, -0.15288169406106691, -0.4303743132358283, 0.11679572161277198, -0.2205048946191704, -0.03111866451969585, -0.17969977857264252, -0.15281180191816734, -0.33315842045076105, -0.4220487472380505, -0.5626122935842722, -0.16504861401189405, -0.040502645593043334, -0.039753379678013144, 0.37983247934599895, 0.18598970013130162, 0.37708217206528816, 0.06932261852522235, 0.30005747145641165, -0.4130140410211216, 0.3190341297029403, -0.2880848581236262, 0.11260568379639782, -0.22115120047914172, -0.11646375430382012, -0.2904778794475745, 0.3721285634137494, -0.10557730238694588, 0.16935806549870835, -0.026687686641127407, 0.328451305653325, -0.01385846071883972, 0.020362624511422393, 0.2495413411234817, -0.4108002768244921, -0.1956182098563224, 0.1104330920043951, -0.5291677413873025, 0.0834317684690395, -0.731355707804112, -0.74383247360065, -0.01958582793210666, -0.17216448242735963, 0.18072046751775764, 0.09727582525423702, -0.15804021671288887, 0.2735660344918088, -0.3349910276838246, 0.23637279909003944, 0.12660016758150414, -0.11233271439866584, -0.3845427635426912, -0.34760613080912445, -0.05873582021232892, -0.0069634557077702325, -0.11431984417493975, -0.4752113200813539, -0.02581861815743559, 0.2360635968868443, 0.06991002176531282, 0.2296113222675907, 0.14880304856092977, 0.020832747211851372, -0.10131913960340835, 0.19720371582493193, -0.019693688906906724, -0.5428376773292317, 0.17037076960432274, -0.33813576381275207, -0.1709769389890512, 0.003006825627722864, -0.05136865131028296, -0.18931761729174076, 0.1340967146914244, 0.1053743587659088, -0.39807929080398163, -0.2715679184300996, -0.23673654145600667, -0.6412853173124915, 0.3319354658613663, -0.11286740359900936, -0.22969479185526187, 0.3773631277996229, -0.4274591587666504, -0.09342956798362978, -0.29086522866149533, -0.30602608159641337, 0.16587764343094732, 0.26611848551835676, -0.3372326622523578, -0.08592378145165518, 0.03283953226615001, -0.5020379945364957, -0.2270939965061069, 0.04978716297271716, 0.08574718090013303, -0.1698509768741604, -0.4253477400066446, -0.43115996334011286, -0.16981869627892252, 0.29714727754417536, -0.3748503736829289, 0.04549367653080541, -0.49140684832073983, -0.35685755129789326, -0.2206979266882183, -0.16724668897667824, -0.05298269583896446, -0.15860283927463398, -0.3195561738699992, -0.3385886027310568, -0.29039592729202424, -0.31699769359089813, -0.28072632293182676, 0.06013850474415451, 0.09229681922814668, 0.33059282882454666, -0.21816936563201733, -0.16035061591777852, -0.007535879032474343, -0.30947196148681955, 0.29506906788052434, -0.16603721126003063, -0.20792961256760187, -0.13205008158599266, 0.02402136114015232, -0.05073803103777471, -0.4635029206154175, -0.6382911773125267, 0.059947005018601035, -0.31416867274342625, 0.14590436681074165, -0.41946984673008636, 0.0190022971922209, 0.3086474905390893, 0.21247846189271277, -0.5079611183668356, -0.43223330110374236, 0.44403229226634955, 0.17245949132698513, -0.3658087644423337, 0.20957800271478577, -0.4410281847848041, -0.22325178246952146, -0.48591514478638115, 0.520278066314843, 0.3899551185354917, -0.07557791775636778, 0.43617852030167736, -0.3238986465282841, 0.2726672942290974, -0.1268928455762356, -0.36946491689824956, -0.3591119988009935, -0.21283400548608045, -0.005848722393275357, 0.07195032258027252, -0.2687616416524334, -0.060703867762223855, -0.1006432385004051, 0.22336989963015103, 0.3568757775131932, 0.0026640017850353736, 0.34519725606957063, 0.40991833635468466, 0.2621466209284144, 0.36814662340507476, -0.21882626826724527, 0.36478286537817484, -0.20315731635249368, 0.2585768310978385, 0.07094849773480429, 0.3025683014112541, -0.23061315475968072, 0.4419387534573709, -0.2803245850007867, -0.07520073311157392, 0.08957153002268516, -0.18928898107702477, -0.08931774778967118, 0.014318485489807789, 0.04580856353849815, 0.05325412915210556, -0.22487193937030486, 0.09563294950912277, -0.49083312425358405, -0.4484585131642583, -0.22220825999952756, 0.127076454417161, -0.31752421042040724, 0.27806467236206456, -0.4281853605543715, -0.19360628155948156, -0.2730651977616422, -0.231925606274027, -0.3243898885975056, 0.4106702430982532, -0.47030651494221964, 0.3342288829315606, -0.46718357596443516, -0.36395870407113157, 0.16361391127771663, 0.4619180378756523, -0.03078000352885195, -0.11847941174341031, 0.37990316213877723, 0.4163315664728957, 0.18633469533382122, -0.26162863668543823, 0.18496684814592274, 0.03419727504345574, -0.4007460762748759, -0.40779941603718434, -0.09417978416428444, 0.19446366847863825, -0.3316999824854003, -0.18810804221920993, 0.3905811768062477, -0.2570707450893728, 0.23658211035196125, 0.10478956311601233, 0.46200331148242296, -0.12845115043195965, -0.22026552794088972, -0.4054912953815568, -0.21382854519127115, -0.36552327030533294, 0.27319771549848015, -0.3767155024791324, 0.002899437421739608, -0.46057913989575955, -0.15921762768315284, 0.03260734430497596, -0.42589940458400627, -0.1937283206291858, 0.09378796153931199, -0.43088228163725534, 0.27044151719665094, 0.08965560639758204, -0.29305295120877256, -0.3062048592599745, 0.013082823559492838, 0.3294896639624263, 0.350271807199074, -0.06655293019556764, 0.3834289508278098, 0.3013294957218502, 0.034591142180968544, 0.03545199256623299, 0.051005292010328995, -0.4939086521971363, 0.18443569314117803, -0.01031520500617944, -0.14478900574133147, 0.21822898682830782, 0.24281204579152127, -0.47331844623173347, -0.25310759366818436, -0.18107763137017907, -0.198705607556931, -0.05211145035294429, -0.33328185111376085, 0.23651056340563126, 0.4861706988750186, 0.42324860283487586, 0.2903411890877958, -0.48429666611694033, -0.4323482194882098, -0.38388827163083084, -0.10169250534609031, 0.41067798994727733, 0.09610134755014565, 0.46197618220542835, 0.23836972175230908, -0.25743529319633174, 0.4185536756894438, -0.4977377306687486, -0.4583194233745489, -0.12363516452766699, 0.4399589045189526, -0.49691041750969545, 0.042006291767360926, -0.2176684601211748, 0.3841785132652149, -0.4152603478248418, -0.41747599872801566, -0.36320685406165254, -0.018302716626079983, 0.03778464201439076, -0.4688938384637062, -0.21403863405382523, -0.40809580954580016, -0.43228775790936486, 0.09647907454637464, -0.3556228393879168, -0.33649164160458905, 0.4981692124495347, -0.09262633322095061, -0.3956960338341678, -0.24398736988010655, -0.025055399708662322, 0.39282679671823595, 0.3528170480515764, -0.03791713153909915, -0.4929204836299096, -0.20090735514749725, -0.0542001643514215, -0.03894133318162851, 0.12098261478997119, 0.020203513185876765, 0.033354511281283195, 0.2415914070211228, 0.16530113559498813, -0.1921693168916296, -0.13440791706760974, 0.49528275908114183, 0.0261231116063154, -0.04828952147185838, 0.2895055565313311, -0.15702990552105367, 0.3987208712847998, 0.358929554959156, 0.08344455567973533, 0.22514167250860395, -0.26131920917281143, 0.22645674907343885, -0.0827352942265388, -0.4781949690358641, 0.10150308230026404, 0.287397120679412, 0.1122153349316988, 0.2162538055587347, -0.42343576443691305, 0.3577334735502919, 0.201826530003136, 0.46764883244095834, 0.45573512917457726, -0.005470251404266269, -0.1704660594279788, 0.36972101736507773, 0.27331110518974966, -0.07958541325998562, 0.1364036389798009, -0.1642245109038256, -0.03786398627383676, -0.2504895033858423, 0.34317725644853403, 0.2232252982467299, -0.4963476874779554, 0.15826676345048352, 0.3393147796904233, 0.10762073127399402, -0.36274767051953094, -0.4691031852841225, -0.26788943698357065, -0.40889604860220025, -0.40812361685272414, -0.053141617509185245, -0.23418469084658283, -0.4464026421993023, -0.3347504511769196, -0.34457593965556016, 0.04943096958242299, 0.3010303242194641, -0.43314842441447343, -0.35935493073844305, 0.4530481846901115, -0.1453168222048717, -0.2745924627915613, 0.4000796335256096, -0.09099273900517575, -0.0033161124044157873, 0.37254467411134157, -0.47191003661547104, -0.5001534323044998, 0.11010507434136976, 0.08918624121521371, -0.42720424081328656, -0.0734421450850201, 0.15150110534989195, 0.22994539177142642, -0.6132360888699742, -0.07886606215351931, -0.022737197781345555, -0.24832482587179033, 0.10630577778711461, -0.34335693167309694, 0.09078386603665946, 0.30480028612845084, 0.23637273927590297, -0.4574735238777378, -0.29513631265950685, 0.04849264672101561, -0.021361276217954805, -0.37771114122202315, 0.15333399524564834, -0.3487626335863586, -0.12020885348139414, 0.4846669765183398, -0.45726258067264003, 0.1328394460034798, 0.24926090528780556, -0.3840001921197621, -0.4298996383768286, 0.03367256716361928, 0.19759551688983396, -0.024899338787582027, -0.4760720534107428, 0.1063915403932824, -0.44326757786932397, -0.07990117171856137, -0.3774752504312234, -0.2214476934095761, 0.34410415661793164, -0.33160380890501384, -0.35879214787694946, -0.36236554751316913, 0.27203515995107225, 0.23897564753389744, -0.32943570923014576, -0.37939483814397856, 0.3044706361931563, 0.178234345423417, 0.42339463910211383, -0.28782022707087673, -0.0282845450029946, 0.31183933197659885, 0.11494547617856023, -0.3545967342837519, 0.345809233340002, 0.3099959159573249, -0.15116920171147502, -0.47783662411291167, -0.2383575071830461, 0.15997636378429908, -0.058853102400331585, -0.27889355650305525, -0.47212281953603114, -0.2497418763942358, 0.0252397620452475, -0.2806174149241287, 0.057760719076060126, 0.3270185746211027, -0.14869358064902496, -0.23439342473243302, 0.29959600489153304, -0.46020938132730355, 0.05639630727262282, 0.05532040139681852, -0.3013967779729874, -0.11356027805637287, 0.39269511331934837, 0.29922565118172645, -0.28253513708213873, -0.23738627021591513, -0.3785156561108614, -0.4052935949310079, -0.040713973766921784, 0.38412311481956996, -0.05052520518538459, 0.19884556845265394, -0.4037386704466602, -0.05273601312073532, -0.031568727565636445, -0.013625144147198915, -0.4039247626875598, -0.13936973798995878, 0.2758820845799042, 0.08461231659727184, -0.2905828116247846, 0.16994760098314582, -0.312945433250594, 0.4522672358390524, -0.07568446713965285, 0.21012318324084997, 0.4022425363261817, -0.2770755187337505, 0.4722383742471724, 0.4214628049517982, -0.2239195675794237, 0.0005327849550586464, 0.18488822197059596, 0.22030645026024248, -0.1605283409749574, -0.2783667752345514, -0.35313731711768676, -0.38630398706127467, 0.16910232288378352, 0.15462500812713242, 0.3086933011741867, -0.06082910884774688, -0.21484939878860007, 0.4210096244873057, 0.12222113858881561, -0.13355207121127322, -0.18997055195765106, -0.27160514251941187, 0.32648816902528327, 0.0003853189998885027, 0.5300018198794014, -0.21106891250457172, 0.3957127019112241, 0.2094099735488907, -0.26910408980644546, -0.009816668030116422, -0.18176476820669593, -0.37954592283298605, -0.07837132555854272, -0.03779777565597625, 0.3239313350448334, -0.089829616118706, 0.010367185516779693, -0.21944587569395654, 0.5427020940174919, -0.4471356680027707, 0.35934222912776526, -0.15923054225402103, 0.31881377130377564, 0.2831793378599193, 0.0353882211088478, -0.02088769904052233, -0.06883990281459858, 0.28395747495545565, 0.2281436047000764, 0.6395345589147649, 0.6046251582426834, 0.2869423148769481, 0.3722906625937572, 0.011394470737987952, -0.17305812827489314, -0.3352347087207145, -0.40705327897265414, 0.46446269259593803, 0.23867276238092044, 0.41168733270789665, 0.3952594577147088, 0.07507352899839974, -0.26173192273270346, -0.11833363018846911, -0.39549141678544475, -0.14411296940790708, 0.22747037678165327, 0.30112782675676575, 0.432408175601471, -0.29113500712126733, -0.18430653447269846, 0.30236599258258745, 0.17041833231851822, 0.5940406390883846, 0.5011311485596573, 0.5898513971634612, 0.21456060130905802, 0.3674528650978275, 0.11697903097223704, 0.3521133128996153, 0.5055107729286373, 0.7226402803253028, 0.5616919191547908, -0.034738716359123775, -0.3770052475422516, 0.20963171349729823, -0.3990633204183813, 0.18097275166458718, 0.017671523288246144, -0.05550457161519557, 0.13597684499778623, -0.34836766503989747, 0.03493381563205829, 0.25147407674193595, -0.153553614638027, -0.43111161017657024, -0.24118156513451414, -0.05688675147297577, -0.425859909577892, 0.02280014838373769, -0.11397062830431642, 0.21138579510164654, 0.0958451444781585, -0.16707881277563086, 0.6337144795204714, 0.2689727444395862, 0.5653464915932933, 0.3559687122510147, -0.05390968349156073, 0.24811213753548336, 0.05207261252094101, -0.4360708933636168, 0.30667506975865094, -0.29082491542612465, 0.3799817972905933, 0.20391435851187517, 0.1401174760405312, -0.3715468962485895, 0.272144960213297, 0.36792826946984414, 0.4393794059269447, -0.22224766375115027, -0.052234813335944374, -0.19045908585323837, 0.24484884784771158, -0.19606594157890345, -0.0011745551420421062, 0.10080326937917537, 0.25264320014478125, -0.6654037350449111, -0.028723354974758652, -0.47890502053282435, -0.33074668274322283, -0.2672287106337787, -0.26099782192333487, -0.5401269550351087, -0.4298671098904278, 0.3953700920417494, -0.3485432086354118, -0.020512477153916426, 0.1297850852626294, -0.13140847528656735, -0.23899521066122015, 0.14106209235653427, 0.23394617977360663, -0.46986912825421545, -0.09948255272091555, -0.5329499637281878, 0.12461397604913657, 0.3180776667040592, 0.4480694789966858, 0.20854477190277096, 0.5667544116479493, 0.0806332962954935, 0.0332559315455518, -0.572322367505218, -0.2470904638797673, -0.1637683428847448, -0.08755868856805146, -0.24805615707811757, -0.3196186141225154, -0.2106110131261558, -0.1796508621924103, 0.049557529356257124, -0.6512848172845711, 0.18926614471990882, -0.06150481187185281, 0.3422990271410254, 0.06327948335148258, -0.22730400042080023, 0.10645840497686175, 0.46376889077509986, 0.16519513119949247, -0.4907827500012402, 0.25304022517533525, 0.22510107727418188, -0.37011933778241846, 0.45589984936582273, 0.5717619948279354, 0.5482860202631381, -0.24702741485768243, -0.269555299883994, -0.3128034760944139, -0.4815375678796677, 0.07791553404069022, -0.5438803314549469, -0.5522236529312903, -0.15834958713855082, -0.23039680900863888, -0.44969459910228743, -0.3791674306316388, 0.12600077116578992, 0.32353167222123874, -0.43380983957003116, 0.03491835680319722, 0.35662796759497517, 0.2427553165006138, 0.0651080432774246, -0.47808329504568403, 0.0428231977050315, -0.2577867887266493, -0.3734151709869831, 0.4472494183561203, 0.07753797355439741, -0.36740952627909, 0.0027637483950141463, -0.137953650370999, -0.33490823214443965, 0.31583393037511986, 0.5425397186100887, -0.3829764539594672, -0.2960537387964703, -0.4479774845522688, 0.20490271595277723, -0.5548070263246518, -0.12138238984203083, -0.5008045025598582, -0.5875789314796729, -0.09819208344298223, 0.20452073651406544, -0.2457985670634176, 0.15806635541477135, 0.2622198639655152, 0.25763996966797553, 0.2918834383438257, 0.354411129354744, -0.22397487743974298, 0.3178327804857132, -0.2566636878099546, 0.3186880094328126, -0.21438985879930614, -0.02005536680827527, 0.19452635401283036, -0.2958949821075703, -0.21705669668192565, 0.02174847927580077, 0.1588166996977574, -0.15899984430261485, 0.3952612398244745, 0.4036342912134487, -0.2725706464603454, -0.06053972918600729, 0.17426281261137752, -0.3533046330133236, -0.5276958276032035, -0.5179581389985027, -0.5097383314818547, 0.26056512053203873, 0.11411992324008277, -0.5409203468915665, -0.5176342948399587, 0.35686329748243206, 0.1708847803885046, 0.0171829006599874, -0.26774296475015785, -0.232454291272348, 0.06962041325633418, -0.5028871608705004, -0.18965252217681544, 0.38071479300791017, 0.20915601899959393, -0.3112645539862035, -0.10566232780272514, 0.4228593976260003, 0.3840218006683526, 0.39464331349512893, 0.25393369335725724, 0.08482979808277433, 0.16994881937247897, 0.3053842935288074, -0.27747205528038954, -0.17779172708391788, -0.19132310028529337, 0.10091673866457361, -0.3092063554482007, -0.009636267041841805, -0.219853050379584, 0.06203495740956616, -0.21873142413440694, 0.2307288400885855, 0.12069041159937469, 0.18626147340673282, 0.0754134347584138, -0.13808837947390928, -0.07318659906894791, 0.29286692445160256, -0.3152246816957531, -0.05556768425320244, 0.1745680858275984, -0.2158476888091841, 0.3384945910229784, -0.28046421046518794, -0.2644863060089916, -0.024733610051342655, 0.18933201276256983, 0.07610463436411713, 0.2740258870089173, 0.16822124606034305, 0.37286113628524253, -0.14815630608234814, -0.02981258253656927, -0.5519333352996745, 0.014096938281546288, -0.3166602744536329, -0.1715938805511141, -0.1551194325822694, 0.4042372152079312, -0.42679556631193416, 0.21786788232056917, 0.04760011976553602, 0.41054622138542546, 0.43311041664735556, -0.04203632990811353, -0.46399312370825835, 0.2120976828428152, -0.4693634801385694, 0.191329767975962, -0.27534470985619997, 0.12358796775639772, 0.07574351064055201, 0.39105467187720133, -0.012177543915552437, 0.002147151576510599, 0.11002290990820038, -0.2530268545379795, 0.2723470541781087, 0.2893083729788073, 0.4009270042139342, 0.38536925984053183, -0.07948287074410086, -0.231724935476425, -0.4596293394875249, 0.1056040709383747, -0.43112605375072743, 0.2627628074739283, -0.21356790028221365, -0.31765675361125434, 0.0637769100731812, 0.16887599727194846, -0.0019673669304088094, -0.21329936859912435, 0.34939976084900815, -0.46473160638214184, 0.06741577982398059, 0.4033433426206466, -0.018664020574355674, -0.31853295167741236, 0.1389251056773582, 0.035927331879791975, 0.20817305376971498, 0.33701909733690794, 0.29139107656157254, -0.1822726473531827, -0.27111093262677183, -0.15597379478344206, -0.20867287098177847, 0.02401548975183642, -0.15663135762092983, 0.11355599224923169, -0.4837847876126164, -0.5081396784342364, 0.12853974993327505, -0.05295098100577789, -0.16525892434136324, -0.28960572683951846, -0.02160115635273363, 0.4353954110018942, -0.10910482135638407, 0.3620439526451087, -0.407759265665996, -0.3460289862025918, -0.5996617262874697, 0.01348540993945835, 0.4040820060233388, -0.3341118661121139, -0.2524584591176942, -0.09317102144998977, -0.5759240063150272, 0.12296041154618059, -0.20153101319450173, 0.06731607450384847, -0.1179364483134857, 0.4158221292361737, 0.10301111556796215, -0.33931472048859784, -0.3474634140905696, 0.1928842376898565, 0.18222820939662035, -0.30488137475937555, -0.4338748450741951, -0.09411250364084804, -0.03549997696531728, -0.31019831615226023, -0.3857705074100376, 0.009053657272121455, -0.33153703587154953, -0.0069446232680727485, -0.31511253126888444, 0.051083660842304514, 0.22652823551006598, -0.2697832587062055, -0.5854209294196862, 0.3231373084259388, 0.2792662092782951, -0.22172304035321047, 0.2126301179058769, 0.33272613061706807, -0.16604498658403752, 0.2502142230156391, 0.0020036276982919447, 0.36479184151380084, 0.24290135814995628, 0.1955719504937195, 0.0726437429140756, -0.37422277016855515, -0.479015283754166, 0.3124325078020439, 0.13134887272411885, -0.2944733175795701, -0.42840878632184, -0.41795092803774603, -0.2710506722775772, -0.10648454226123893, -0.4002972486174781, 0.19602927437765796, 0.3306667973591319, 0.34764965446375373, 0.24446771741851964, -0.19054259405840135, -0.11356741488466032, 0.35850516349698747, 0.23622205317256068, -0.03371810800456395, -0.1926784018799115, 0.27509822740202144, -0.2564894230268373, 0.32723395016139617, 0.06537094706293259, -0.1710940107089569, 0.3107363382876547, 0.1745639794768509, 0.03481295476043038, -0.32329251009526694, 0.2175555898971758, -0.10861443217123944, 0.3062007060094302, 0.28459296581842036, 0.07076782392345192, 0.1592747758461116, 0.26471170798031174, -0.08086833717238229, -0.023706441698107466, -0.22807113341833005, -0.307465841700789, 0.4123167002870698, -0.1024127133561664, 0.08394375050223013, -0.3044626722297758, 0.24714679249413185, 0.009468437131670716, -0.08152329543834431, -0.15759482888742435, 0.2506070263014643, 0.1049488493283516, 0.19885222264620014, 0.3404427953958892, 0.15851444366523887, -0.3626593232207828, 0.42388964050797007, 0.11331950855059235, -0.16642242813787958, -0.17266064571339781, -0.2244017645823085, -0.17580461299189168, 0.2752126758856931, -0.48636528973674054, -0.1051812743009215, 0.25380917372420453, -0.3188495060965203, -0.015878987786877515, -0.15531339502693275, 0.4765748349853944, -0.14999326117642034, -0.36024004812791344, 0.05411082513493892, 0.3757388434022401, -0.29897435497984787, 0.09758945417411517, 0.18082242623491734, 0.4883289315797172, 0.21081893578497057, 0.12787343691158867, 0.011920263862295914, -0.15233569770796285, 0.054226362379781, -0.2257101009426405, 0.03135607206928734, 0.12256103307851154, -0.28598062071339736, -0.060215775955625044, 0.057739315284128304, -0.1288506228021737, 0.4744425091531076, 0.005489848725867201, 0.3887253600774775, 0.22238073282980952, -0.3985508636945201, 0.37650327958178864, 0.4836082577539187, -0.35837154300432533, 0.43140351558180134, 0.08170065772983497, -0.28053823691081603, 0.36714551340170787, 0.42273426500281824, 0.25423531311240416, -0.4464431753864144, 0.34013915358107294, 0.019096662095265712, 0.022599906138373465, -0.29620898537658635, 0.502038206690461, 0.20679962187110318, 0.11869550385832482, -0.15562060517568935, 0.00853766455432156, 0.2840297598390437, 0.018333309186685152, -0.4282175701253531, 0.48085221775628795, 0.15672607158281285, 0.33769333327809137, 0.44901667697873493, 0.08357179251779667, 0.15115020149650016, -0.05551339288468993, 0.10179166586419308, -0.14169617539086132, 0.42459364680621264, -0.3332359875701883, 0.04008843330253319, 0.41608736296053783, 0.43048475703753925, -0.21322043358022977, 0.43034258140362935, 0.1213628036699025, 0.37267527642537623, -0.36393512151763396, 0.17603883441431128, -0.03975163619681922, 0.06045447825988039, 0.024571572539070077, 0.0726214110552836, -0.27258301991799627, -0.16539106823357405, 0.0435040108914865, -0.47540425090297966, -0.3256127967281397, 0.0786573264381496, 0.16301560583861485, 0.14435900419530667, 0.37735454963909987, 0.3571101060950921, -0.22057614801725722, 0.027967610551174915, 0.20244114536853597, 0.16668604234381534, -0.10902548702704595, 0.014622682770380702, -0.4795914127301475, -0.10581132081768707, 0.4103008835504385, -0.4425412651735511, -0.3970272411241708, -0.2820333499889882, 0.0003452062317467197, 0.4275879692326694, -0.05566730280599397, -0.36421108985134387, 0.3794386633685224, 0.2996091915127953, -0.1468732657388354, 0.4794613671446869, -0.11704433533017145, 0.12430993313257432, -0.17951763694316947, 0.2011560181633889, -0.19275940525612534, -0.4473627334664573, 0.008503821867528294, 0.34006513776408387, -0.0247583334826581, 0.29279324594883327, 0.10055385519220275, -0.007084817255360154, -0.1443901223172959, -0.4006170994627353, -0.45439181216200814, -0.30552052745828967, 0.4101394290685954, -0.3161366080597449, -0.2997372493670793, -0.11229634046754933, 0.04209754338766754, -0.3684724627144659, 0.4106717664873262, 0.3465684842052007, 0.16763831211161592, -0.328064430357511, 0.2169156358301885, -0.2758730631584534, -0.42217878658671526, 0.4377674855926122, -0.3365996152624451, -0.3934928982340026, -0.21773060325887716, -0.46084726213926097, 0.13875517389784675, 0.4945027474776307, 0.03595202679894649, 0.023226893647153246, -0.34081974043580615, 0.2782521037254084, -0.3789367740863245, 0.27708903613520663, -0.2820417229078799, 0.09404629388313858, -0.20661019666674252, 0.37840834301549653, 0.27953272052737294, -0.13333024832307422, -0.2680897002686549, 0.3049742822283889, -0.4325949009602648, 0.4604504363207474, 0.256844375646502, 0.4023194064246193, -0.10321265690035265, -0.22586426136287477, -0.03485190608891736, -0.3948961309432008, -0.14298444925082587, -0.10623739378787476, -0.28335616004405084, -0.41671154930059495, -0.21891139669992354, 0.13154384270263564, 0.11786035137935369, 0.13620762446120163, 0.01652190536265435, 0.25164034585533884, -0.06724673411863374, 0.24492290318871993, 0.4010060496423814, 0.2632519718322661, 0.18813460600935122, -0.0557067309850745, -0.042138693214297265, 0.16136285959850458, 0.4486286327435786, -0.511367952186042, 0.08446039987199228, -0.30320653824974375, -0.4369739957518468, 0.39532038937652936, 0.11725786667430264, 0.010218156918002907, 0.21453430249558103, 0.3571464964919332, 0.3733596586546745, 0.20799025651079384, -0.3883309308459869, -0.31083630097734205, 0.355244784882223, 0.12110947187214993, 0.2688567459137019, -0.11583532988847138, -0.08970756152437688, 0.3072327094205843, -0.25972195508507345, -0.09838389690538488, -0.04989401919896849, -0.4851879942426416, -0.29152456732805093, 0.06883268348189128, 0.10675919406067882, -0.010686757862504967, 0.07730195173079793, 0.16116130651451424, 0.10796025649216938, 0.11679888961533808, -0.15998098807880137, -0.21365934831710492, -0.3132004572724059, 0.040840350220203284, 0.45057753667412037, 0.4767624410565654, -0.30611161622770244, -0.05209314419821288, 0.3707726174013021, 0.4317824515644017, -0.462588210008402, 0.2049837904590951, -0.4509137231420341, 0.11746711547982795, -0.2546427095061334, -0.18718581756719863, 0.12456915647377756, 0.38265764729693164, -0.5282946893795039, -0.4223900345463387, -0.4432825506366358, 0.14349681656850607, -0.27570925628916304, 0.24045303999378398, -0.4414678165960866, 0.09126753431182141, -0.513370733920982, -0.4243589059264085, -0.022225936531881506, -0.021224723623168306, -0.23230110381371905, -0.4792091781941574, -0.13754476228076556, -0.4138686755221041, -0.07480348847580269, 0.2733346148968752, 0.4029160423203784, -0.2940241253627631, -0.34926817998370374, -0.27289552628479696, 0.4701382306402426, 0.04354340290519285, -0.17600159593271453, -0.4805738765924279, 0.032383557091978155, -0.4705189078281695, -0.07734427524992084, -0.242279780862359, -0.42803803275619157, 0.05705528380381421, -0.4693976317618001, 0.3271879551766156, 0.15495620957688472, -0.29376929110741623, -0.034798099117232695, -0.47373382951633136, 0.14060200495892192, 0.26990151763341796, -0.05368033843346093, -0.4803297283395597, 0.31708605766153897, 0.3861409666864229, 0.3254739832440776, 0.04993880646629901, -0.14058177282950282, 0.12016381505899959, 0.14309975182095835, -0.4044799160892883, -0.394335632047477, -0.3674710169637759, 0.36617454894509927, -0.2803625708423006, 0.1212634403078191, -0.1014344567889895, -0.3663177857716209, -0.28342101220002075, -0.3020547111611629, -0.1751875243239808, -0.5678094784945142, 0.059545779855807605, -0.22814773107151434, -0.46463458687889586, 0.11560584823024589, -0.3668965989832776, 0.1648200831888558, -0.319348814939649, -0.691237153684206, -0.09283601877180164, -0.4089131148433054, -0.20830136202211458, 0.09461646823028218, 0.0003779152294479358, 0.13235092638838306, -0.1592890308757302, -0.13451086456745598, -0.27336798840533594, 0.16432578473237813, -0.2444897874289932, -0.33519435515743556, 0.16238749293103516, 0.43784749566217657, -0.40716281036605306, -0.02697784158339175, -0.4239489979262889, 0.31203404291831244, 0.11232121679701489, -0.5029357937351061, -0.6008574260605629, 0.11717675843180542, 0.04816576642019634, 0.2713144491336322, -0.49852770079317343, -0.29775876508170585, 0.07248409449501625, -0.18733756547144723, 0.10006568430369292, 0.23132681442547545, -0.20409697779418734, -0.4152386363228859, 0.13570790155867712, 0.4576195519283068, 0.2754144056977442, -0.04851518258255594, 0.24314659471500416, -0.418241012332645, 0.2244519460966609, -0.28753421593996353, 0.05452140429210286, 0.08833406451321715, -0.3394745465875831, -0.026226063350411506, 0.28693590900243643, -0.1173629291066165, -0.13431148643640833, -0.09933517435014842, 0.14352488044633985, -0.5044246614210608, -0.19918947545246848, -0.4549814894397159, -0.5132018742758457, 0.020198124195121535, 0.0006701670939143365, 0.051573927599785255, 0.07784964975731684, -0.1258369529512244, 0.5125817369824262, 0.5452703316578932, -0.12384348962027181, 0.4390447951930399, -0.05466927543236058, 0.3138247719747454, -0.2369927163437511, -0.2989162751209114, 0.10911198240683054, -2.43721669270135e-06, -0.3259283634895674, 0.27542811420590313, 0.41298537455455375, 0.46409241568718557, 0.1615561843199351, -0.24435463178370406, 0.1498069834193959, -0.26928833966086796, -0.3086615715232018, -0.1039583721321525, -0.004478411882580075, 0.05902856423315191, 0.11514928879166891, -0.2836344293640609, 0.02818674509675261, 0.0552885794364439, 0.5258865033722172, -0.2900062465313414, 0.6358609265114953, -0.09098984170077103, -0.10388473613178782, -0.3718762543540732, -0.19280755793854756, 0.4419721687785909, -0.18483686352520654, 0.17678618170553345, 0.5329298345316965, 0.26585281528007526, 0.22447900206071555, 0.43382316832215867, 0.30242013014043523, -0.21324624774353, 0.5006047530427039, 0.391830423207504, 0.2960563810629878, 0.3500290109365668, 0.0636719836534898, 0.4312309948967734, 0.5593415717508278, 0.028694310410016077, -0.11282377994344865, -0.0754528942194397, 0.399863576518617, 0.32757810875073096, -0.3827097230265203, -0.0812538377517839, -0.21674562992939123, 0.15524157022429114, 0.18388554718392458, -0.33839745405203575, 0.33647911330520097, 0.09541284049097076, -0.4440411506235464, -0.32561340859407717, 0.49808152490160695, 0.18577552622491278, 0.40225739661553944, -0.010186909252592294, -0.3348323923520013, -0.2875887886844052, 0.5328468399028045, -0.031231785205241412, -0.24414833205778877, 0.5282798748216736, 0.4741628022713823, -0.24593162323523673, -0.18935506278368255, 0.14814946725413053, 0.0076174535204713055, -0.14112112968732116, 0.24070874379952376, 0.35650986366468845, 0.14773721683897098, -0.022448496430790846, -0.30120204674508855, 0.40817527081490484, -0.41029294533446675, 0.26304913781259, -0.11766391360948282, 0.1065548868263807, 0.3483560646979728, -0.22715939864508208, -0.21290260846206624, 0.012737032889357824, -0.4535399023174134, 0.3180570236124287, 0.03927732986048498, -0.09747099004492032, -0.19065994925209784, -0.21082298772990862, 0.35839794610410103, -0.22147677783014344, 0.2575829963319877, 0.04033327018643224, 0.5416746997418288, 0.01494577657108907, 0.36599532194522355, -0.11799036799134474, -0.13975279175181796, 0.15701022225982492, 0.5389417797331961, -0.2163979988610596, -0.03491555789868136, 0.6220307216540086, -0.47395237634548165, -0.33842686864756266, -0.3303923354336895, -0.3363114978584078, -0.10112917766471542, 0.3767368398915306, 0.29755150918115764, 0.021542087527140503, -0.1275246640026564, 0.03801401214516806, -0.09470703312226936, 0.4221470546280147, 0.32162315345879877, 0.37372470449847833, 0.07033627457867556, 0.08268844403466107, -0.1102892499065401, 0.4669513980151865, -0.31779585848488223, 0.3129016388806632, -0.4566271449599219, -0.017977355347869366, -0.15894017512101682, 0.2732739881590318, -0.08292970765589308, 0.5584224959645507, -0.03803103030253601, 0.3902135825411775, -0.0469423256188697, -0.3326316501513252, -0.21148627214143764, 0.25987137812203326, 0.4832310858514687, -0.479785014372216, -0.48550483456138704, -0.22775730589715426, -0.1809845900351567, -0.2341106481885812, 0.31137785232795434, 0.4044505136194541, -0.13745379179632744, -0.41644526040170154, -0.39829742714075356, -0.18494809581143679, 0.38494920729867493, -0.34373867773309835, 0.08653417887385484, 0.22115133317369626, 0.22141242399310138, 0.3142153177113486, -0.1702833111756807, -0.03209737956376309, 0.2738357034599121, 0.04812955215441974, 0.4071631519634855, 0.13425843355067077, -0.07545806660612896, 0.4056202332887456, 0.021291380424452947, 0.2302834463919139, -0.4243247082924242, -0.10390694152477527, -0.30227449376267457, -0.07095536757496905, 0.4525644887728145, 0.031217801251846707, 0.523205423228852, 0.019719487061819526, -0.35528703937278944, -0.012386019358088286, -0.3491296718627914, 0.3878614162492971, 0.41592391031537085, -0.23415902274510086, -0.37001271584267664, -0.29654548235019906, -0.42535135619594366, -0.08899966029327255, -0.11150227529307777, 0.23611765973676577, 0.5632551746148042, 0.21440338377193316, 0.4693604138705107, -0.03596452384304651, -0.4443611193832351, -0.17571537647814836, -0.011140360758612935, 0.23957647234201496, -0.2227827207194628, 0.0980263527747287, 0.023610714292836774, -0.0064936248140411695, -0.20276924999011045, -0.1136359560473507, 0.1598841456343105, 0.26305804717374165, 0.32937090887209586, -0.25680095549737897, -0.5059324435093184, 0.19538572467946974, 0.060019197168589104, 0.14746017076933005, -0.3116284260300235, -0.5091027847821246, -0.09269015281721846, 0.2084119061716152, -0.13602305144078122, 0.06830265591393621, -0.14979341352905912, 0.052008359796377766, -0.182126704478534, 0.14610227673673024, 0.47605464183924917, 0.3368884164630041, 0.46083707438703586, -0.43926260922181914, 0.01867574951823625, 0.29272188894781503, 0.03192223347295617, -0.2751590913552601, 0.260655943788988, -0.28681224723246407, -0.22226792243980006, -0.3803640496255167, -0.25888443000357586, 0.027501249080599918, -0.11713259893508089, -0.465612151288691, 0.47034612691939814, 0.49030567047000995, 0.5233340319448649, 0.19505529112800343, 0.02866164821353906, 0.06271868980928326, 0.5544469682632479, -0.10772155974347179, -0.10109056291651432, 0.0015203951592508873, 0.4067951929124849, 0.05334677479481161, -0.0103479195484699, -0.07378210327226137, 0.4773736212841614, -0.028254929752744018, 0.17775442008881537, 0.357584008524888, 0.45640511215995544, -0.2058053141132515, 0.49123192032090296, -0.2384706489041025, 0.10685727389853847, 0.22503786062141024, 0.4575539526212162, -0.10809240163381632, -0.0741460612188824, -0.2771026583218368, -0.20136571769119074, -0.25893033889627026, 0.10468424593041907, 0.24577849240692684, 0.29626736996194014, 0.36699176020309604, -0.042209133702825724, 0.09182863136187241, 0.39784665932766683, 0.1269556476652869, -0.25048423612850923, 0.20552249137643172, 0.08292010869406538, 0.15842427559484695, 0.3972497200015467, 0.34484603166391337, 0.405577048847408, -0.21942178613575716, -0.06210573175845096, 0.4794453792577844, -0.3023947715416178, 0.13106353443348792, -0.3631113634490998, -0.3954964697467168, -0.5751211361575421, 0.1768179610693115, 0.07378507905309604, -0.10831917915947788, -0.29569298286977774, -0.36334884036370163, 0.5223382184698834, -0.4096651984228983, 0.5876856859952482, -0.39917266374961907, -0.19756220346803022, -0.40454626519709386, 0.35129231548922335, -0.3817644647294026, -0.4713716146348594, -0.37173650982017364, -0.2653379155240599, -0.13058131758929326, -0.27080298865569163, -0.27398938935893136, 0.27984885410564453, -0.3397669342827505, 0.3772183878232411, 0.3065747146398963, 0.1310116604321161, -0.24771858456973642, -0.21073193118170136, -0.30254035877063523, -0.12350274422458597, 0.20383727844713548, -0.03678908489451097, -0.04283890658811033, -0.32258161914048816, 0.13099970302574693, 0.1425479034313128, -0.1325816432106766, -0.21501634477824993, 0.4578062283118916, -0.2994392152765023, -0.18577747644521259, -0.3516599733890372, -0.32898614448851304, -0.39676941598594057, 0.09188691708198621, -0.46934210231168855, 0.12610784011959558, -0.25215583604776615, -0.11338877200103992, 0.4037379149822515, -0.01283606868159324, 0.3048005819090737, 0.33395900267250483, 0.5015339220994757, 0.21465382118484833, 0.1346151624048029, 0.0862641125902359, 0.2586055781016221, -0.40649901176763953, 0.08071811147109816, -0.18741365358650505, -0.03681009316091448, -0.4173317554881465, 0.0003050638522832745, -0.41534271918444154, -0.46484239867267135, 0.26161154653105484, 0.16884417025365517, 0.40113923052701617, 0.37980541148724073, -0.3053692775664056, 0.2948972904827162, 0.03710713198230068, -0.36343850989773563, 0.349114173652083, 0.13569036465649098, 0.2541566233465118, 0.3634822932368863, -0.29602953145476296, -0.4795142109818718, -0.4733206073703824, 0.34885307487214157, 0.3767207057961949, 0.3424448032516932, -0.11463324160248428, -0.2933111600713932, -0.19112383049457862, 0.16837249257119463, -0.24635819281368135, -0.39964368689965163, -0.07048669744910427, -0.00035049773001191974, -0.0785073318468974, 0.46503233557165563, -0.05193230194169277, 0.08354297370713426, 0.3479516875787155, -0.19910641793683617, -0.360909870222076, -0.3235719325357082, 0.38374447684573654, -0.06231865165311046, 0.08599340285390222, -0.2687084650983108, 0.17335262934214168, 0.2109578955465904, 0.13395297021649646, -0.13240291318599176, 0.3865701524267617, 0.32364638173025323, 0.22562531061050572, 0.33342288234874595, 0.13003497535416644, -0.0888039528493753, -0.22457842102049214, 0.23766922082485675, -0.42735119518856696, -0.38203518384710083, -0.0007368016394185972, -0.4843444821887238, -0.15963069771260652, -0.32874269772234166, 0.03472046387532629, -0.3607738021886958, 0.18959597839932144, -0.3147986284141553, 0.04754500183443802, -0.18905804092522008, 0.3778140339482017, 0.3111320301620667, 0.3802357151995702, -0.42552115286298453, 0.23570331769203967, 0.4794121056964483, -0.01319142675441698, -0.10670612701547422, -0.430533535119401, 0.34697107935808885, -0.20314530450392557, -0.4823958840734801, -0.04201142153735042, 0.13809291804334772, 0.02071128982207073, 0.32525413825492083, 0.007476295585440201, 0.42325885251037937, -0.14123764672220146, 0.2971097112759051, 0.4411417621236254, 0.10622661158572197, 0.14872406009126074, -0.030273393043337232, -0.01712008995145628, 0.27020754226931665, 0.24912654754088662, 0.2747163037373597, -0.3968432490012661, -0.05238182381986578, -0.06174063360822779, -0.37518460668647124, -0.11773660982116052, -0.40206458604455053, -0.39974806410916486, -0.23261507254666935, -0.5065602508156034, -0.46578312299445124, -0.1961790291121952, -0.27240961120089785, -0.4869163791610535, 0.008664508640938755, -0.47585917331916067, 0.1878459860089399, 0.15902511973487252, 0.15247443365522897, -0.45855240216545645, 0.3209133506834816, -0.2093241167185408, 0.015318189738547427, -0.36809470350928997, 0.04205013640763366, -0.2110393186828281, 0.37918183508297576, 0.1853683849888735, -0.0037176571494966846, 0.25243158782789693, 0.11870108244629018, -0.40583122934822, -0.24317374244845968, 0.363304659236495, 0.44205247429980654, -0.34536813890431695, -0.2840731205506387, -0.1644750080761149, 0.07755237955818996, 0.054512030604903956, -0.4362077366166097, 0.42128375560486336, 0.018742944432222707, -0.4192437794542737, 0.2924346260172672, -0.3365728314317698, -0.3310521028007138, 0.2785746270969749, -0.09808501201616915, -0.43459473642276947, 0.204759627081087, 0.4751155406460085, -0.09699836943192158, 0.475166632468438, 0.01256575359019351, -0.12545712333836828, -0.32821942293988676, 0.14849469772297152, -0.11847140086728492, 0.27239272784642965, 0.02869338434496127, -0.2716666773556041, -0.07959746203115248, -0.40498350261796834, 0.39378200334154034, -0.12655402781780423, -0.27323272629820283, 0.2815787616006158, -0.10321107674788177, 0.29757481333723945, -0.1455996028019385, -0.27752183524256513, 0.11073627121294372, 0.039084889135059746, -0.32889039259700065, -0.09340256729153416, 0.20668281958402807, -0.08880952407018372, -0.0897694023433927, 0.09004871899262801, -0.47002607100653526, -0.3846223834830482, 0.12331029339735822, 0.23843161775353472, 0.026718979369469098, -0.2500915908540884, 0.27326497646708325, -0.473720970472428, -0.3112479244479507, 0.04098258271724664, -0.279009835482922, -0.011345262715932058, -0.03721809334101589, 0.25619692226046714, -0.28932088376199583, 0.289209174682397, -0.32687776625338916, -0.2659148138837546, -0.2041261530952522, 0.08547170318774294, 0.46025642284282947, 0.2264053798723247, -0.44273480468612764, 0.4728907604419176, -0.17861650158704184, -0.33596279266819074, 0.09950975381873263, -0.28029345297854075, -0.03766607105159376, 0.20922634406013566, 0.19364572014446327, 0.2588551518974637, -0.02715449853170467, 0.4118143131652716, -0.3143312230258646, 0.07996305837513262, 0.28856006044689175, 0.448351929680883, 0.014462357402440174, -0.05173507947304129, 0.20462589472041362, -0.3662715598513739, 0.16316730737463653, 0.49995009932045714, -0.16488089127618835, 0.4071046359188774, 0.1445443196920502, 0.07292067357304531, -0.202500528444322, -0.3732007672973429, -0.21280430446775261, -0.12227479822612528, -0.3217617806243503, -0.29933808447949956, 0.4454520205572223, -0.23004343862447987, 0.07568619379972187, -0.11688649002186251, 0.5681807853042337, 0.3454966369360045, 0.03293649482463649, -0.2185390525467011, 0.00902966635113816, 0.27685366596841865, -0.2482281733380972, -0.02539692675377736, 0.2082126817402944, 0.0053005968211499435, -0.3790398446038405, -0.4470461150217385, -0.41178691327638345, 0.35382388369239737, 0.041730141928373515, -0.1910574287989207, -0.17000024522926488, 0.35573356920848603, 0.08759153948319111, 0.22097792104602298, 0.18111907934769836, 0.3805323644621205, -0.060777182987230755, 0.3018030105995333, 0.26801601454367713, -0.14189261070228565, -0.2008117092781911, 0.5105816464137181, 0.5000868671919632, 0.325212068133346, -0.11088615128012476, -0.49173467331688037, -0.4782392848674668, 0.2553907872736731, 0.35797066383408904, 0.011073559818542522, 0.2036609215940729, 0.3523926298413041, -0.019393220006963606, 0.2932518043378363, 0.3184691153653281, -0.5290546364265685, -0.3681654570847135, 0.28117430424637685, -0.011912326412006288, -0.37331994156207615, 0.0491690650834729, -0.7442931818138945, -0.46036323960252146, -0.2029380880343974, 0.25556229670780084, -0.4096642221231188, 0.3719720355689066, 0.29118080667812096, 0.2910834557787016, 0.16874162972737164, 0.3679141512988574, 0.3514806574342577, 0.3428639952106267, 0.30620686231578537, 0.08808269864180812, 0.4940984248366599, -0.3009332883942828, -0.19295080688979183, 0.3202147813622962, -0.3307372528869792, -0.06162954397650309, 0.04980360104647308, 0.16422919793409071, -0.36160276579448597, 0.08950343611399093, -0.035337014505809096, -0.6046321204967179, 0.05423551130340666, -0.05024003101802305, 0.04905477656901938, -0.4774527074061069, -0.18590883341895142, 0.16176246760138221, -0.00967933908381527, 0.2781809793649234, -0.1770667206634604, -0.18976172455227452, 0.1499317693323625, 0.23527630877843134, 0.26826520695593575, 0.06380602875099263, -0.557017566680086, 0.28075857983835534, 0.16269238510377002, -0.33073126781254136, -0.3957990106286151, 0.09856594282776421, 0.16464646036385336, -0.32504270366049137, -0.32941880259390394, 0.23800733665581322, -0.04756496289533999, 0.2798739486177671, -0.44103008161951696, -0.006118899573143614, -0.4153163376901083, 0.16165908392857053, -0.4445451179305168, -0.29748285467757973, 0.335702332691649, 0.20993104327097648, -0.4176873418506434, -0.12357166067747352, 0.27157291983784926, -0.24792903397725438, -0.3449559550323806, -0.2043489525528754, -0.49975639759044976, -0.4711326241430446, -0.5558699128120483, -0.40212770602883546, -0.17858350172541843, 0.2282288450634458, 0.2581180546402343, 0.3591776919505145, 0.44965155020441827, -0.5078940101686154, 0.4165752299691516, -0.022122847931888366, -0.38970058248442313, -0.2879494846049789, 0.2645734160081262, -0.22634205671108995, -0.27484410442220797, 0.17022016820304653, -0.3752498924985834, -0.02495636801192038, -0.0787032395165567, -0.20692813797558857, 0.23467648747164027, -0.18022243134343194, -0.2802914220022612, -0.11047051068494575, -0.47405876286270715, -0.38632344710036914, -0.5387732432954738, 0.10176326012600112, 0.24391071170334835, -0.12251857198649592, 0.4227403731741969, -0.38677517126667527, 0.2320374231933634, -0.28200497106853273, -0.4506565642310659, -0.29833142286633524, -0.41159354241861684, -0.4620240810415739, -0.5208380112143656, -0.15984959275290284, -0.1996621478771924, -0.23567055226962114, 0.29447370606572554, 0.09432786083591639, -0.23602413851541784, 0.3886189962770371, -0.1337595980889783, 0.43842228893988255, -0.056278808939031685, -0.396389907327977, -0.238082579434713, -0.12832862972456846, -0.45269533178721194, -0.2272358748575361, -0.3605114714001321, -0.21887794302915023, 0.00999889618471487, -0.27109922879209, 0.25240059626634076, -0.478392332124432, -0.1573608553015069, -0.49690132156643085, -0.4923042754043208, 0.21943031602665575, 0.04832790536022561, -0.13919871999970337, -0.26615068065743674, 0.046684135261075045, -0.5372690858066236, -0.16981481335519924, -0.19710901974165834, -0.11820963433971979, 0.035327464705195766, -0.288638428309722, -0.14297285886354089, -0.4078786951489067, 0.02072565916177689, -0.32619047915646, -0.730693209090467, -0.5947410171909685, -0.18979125234491437, -0.04183884186158446, -0.6943815012052199, -0.505967351677915, -0.5983024111423229, -0.21852104889257093, -0.23929274938948256, -0.014889763723043865, 0.15896207048808686, -0.4983210191617099, -0.48781557960432514, -0.3623766522228244, -0.35246930927929493, -0.47618909202947396, -0.07280132825943342, 0.28057958897788104, 0.4149865633406774, -0.4678699561437748, -0.29515114312858504, -0.3522805280553611, 0.17513436619692924, -0.19100587532205923, 0.24701012008589, -0.21610133651114685, -0.32821612519435367, -0.4774276280679684, -0.2610128239280479, -0.5506239486855656, -0.22738786590802823, 0.038109650393286426, 0.11345322954432085, -0.4437778967749811, -0.43592853043111496, 0.19111943369856724, -0.22312586809074736, -0.06079839424314355, 0.25795523337180293, 0.15825101778935066, 0.4962153390128494, 0.18989524431842142, -0.18559304435417767, -0.5076257339892057, -0.44794186641949, -0.049529399789364416, 0.12749877239925328, 0.04933062723855591, -0.07544164699118525, -0.11854352921777678, -0.1069817711248022, 0.5626882313558814, 0.018906044294517938, 0.20398876093318882, 0.09331733319701391, -0.20931921036841306, 0.2222742728011542, -0.27967060011365796, 0.23735651720720669, -0.05234677809706333, -0.3146019286178401, -0.1433508618575759, -0.46972864169925405, -0.39948992745926276, -0.4015652845393147, -0.22403090921772353, -0.37124625810707723, 0.4345748765188504, 0.17491215672629234, 0.5088271802279255, 0.2906717261487206, -0.44106657313094344, -0.10558856025190755, -0.37698314118260523, 0.12685118840425544, -0.09917443854605704, 0.23152552231782464, 0.44604647919070695, -0.17112551744656837, -0.12759025235580598, -0.23125652605897512, -0.19164146869300372, -0.1337846733000304, 0.1446518444218661, -0.25164945997005495, -0.30376211036602113, 0.3022178296761073, 0.3857388189549639, -0.31678055027075663, 0.14301525242634916, -0.16523714012134214, -0.5794019645408562, -0.05435247809412796, -0.17043828814627787, 0.08336110663061447, 0.3910526435181324, 0.40743249416442384, -0.29204096520399836, -0.36492868196816464, -0.3297302068202189, -0.22264628628362843, 0.24022475612919922, -0.40588699301781356, 0.22609030854029452, 0.26405618292692, 0.3685157688173759, 0.3746412521283138, -0.013605023853591827, 0.01839036921684162, 0.2480596072967028, -0.17014582227004785, -0.03832427902038892, -0.08899626536933103, 0.49639126589415544, -0.08730896176525302, 0.589126351118992, 0.27558897268681515, -0.22100945748834547, -0.07022638310272507, 0.3060929344842759, -0.05158298390024709, -0.33415683744327046, 0.14955544385327546, -0.030200309795262236, 0.2495643883254625, -0.13018857560545932, -0.40755043742788816, 0.39071181724356036, 0.11698153077002788, 0.3828173150224944, 0.37973875483141317, 0.47404288451442844, 0.29239143495123615, 0.598763527532493, 0.17533925029211653, -0.02901957458542456, -0.07430714229579473, -0.11950010615896796, 0.013335726534205618, 0.34952170256048953, -0.3710913733553877, 0.34054602254977934, -0.0992917417263689, 0.4949532005217518, 0.7789353702334474, -0.350865363601988, -0.4606333089989686, -0.05943359557980683, -0.3958425746644444, -0.2751220019059965, 0.4485450915037804, 0.36192178646473755, -0.21256516009627058, 0.0035669768544815583, -0.42610142669351064, 0.24381544767209554, -0.15857586302578525, -0.15685911291839433, -0.19917592922947577, 0.6983462082732844, 0.03615707417991467, 0.05271421220343955, 0.37133490068302377, -0.16335787826876297, 0.28100526336090514, -0.297171360074455, -0.13325844136407652, 0.2063961537984532, 0.22106538401822415, 0.1847728931285923, 0.6015957579422486, 0.09676722150462914, 0.10406020876927825, -0.039726424418102514, -0.3129103935738741, -0.06177454216387442, -0.17438604057618265, -0.11209585661830623, -0.07185385131895561, 0.3878494601059401, 0.3270806179745525, 0.18862574748147234, -0.04653864170332444, -0.09432625849573721, -0.12702320436406989, 0.6061558032660926, 0.563400060087633, 0.5574209803189805, 0.38513502613069034, 0.5242426977611384, 0.07034107431085748, -0.5212280308259575, -0.3446641024913255, -0.10030111912804708, 0.3702689570639134, -0.27230011357532447, 0.28538382616399643, -0.1966095999124142, 0.09152108679484776, 0.3944183870039364, -0.09949848661480273, -0.15139637696698358, 0.36922463473699124, 0.27939330200313756, -0.041094167634787064, 0.11587782623625881, -0.014895687657894507, -0.3831627437817518, -0.34948688393949756, -0.4683476901043257, -0.08534493951819265, -0.017251568491104693, -0.25740607874320265, -0.2928785513616463, 0.26197010619965716, 0.5058409227519154, 0.35327525807258037, 0.2562432907828274, -0.0634253922916679, 0.4010585164247648, -0.18456839077889733, -0.4466440010487528, 0.11419601441479252, 0.1607137312419312, 0.13504689656603436, 0.2848140771788334, -0.27550178122386615, 0.18055752350163293, -0.15341423208096985, -0.419084593982478, -0.41079137119260234, 0.4476710694561296, -0.2922828516016447, 0.10022573109407736, -0.4485486343443734, -0.025908675096793534, -0.4322915136329624, -0.49095548014683293, 0.28729324303176657, -0.5003743275608458, -0.39436546088734115, 0.04919968895116379, -0.33457757249442655, 0.4420717915589869, 0.3160045501054235, 0.4727868909589006, -0.2224737462463626, -0.004718257211537421, -0.3533163144473638, 0.06011657624294537, 0.07005968541795465, -0.3808520003846294, 0.03814771856716156, 0.032097011125940045, 0.18769713496656745, -0.28417653293487083, -0.41020796821453737, -0.12062205321913284, -0.19395549678319082, -0.23167885075716874, -0.49640337029477405, 0.08050954894194423, -0.2240408614375622, -0.286003750254291, 0.13323142302354515, -0.2873209358408562, -0.07158423439150349, -0.37506625463865284, -0.48128870858544215, 0.016015112421463765, 0.14446654347502785, 0.23717047222475326, 0.26723036265782374, 0.11603968104835202, 0.3389061665630253, -0.037486872792792926, -0.43719066533449336, 0.0038726385371042806, -0.3245716894576639, -0.09822814842715241, 0.08012691521874914, 0.14634499571868065, -0.25027684076422824, 0.2944294331689822, -0.12789042460661867, 0.10456128910865901, 0.3588530728088767, -0.1955219293738099, 0.3306633465236421, -0.10688774730848381, 0.22258268218794353, 0.19422071792791648, -0.08020886412362552, -0.3010917587453955, -0.3482710549553708, -0.5030907979724885, -0.2676950547556073, -0.4531947216506177, -0.5178309952627067, 0.318299404211822, -0.3090727501301319, 0.19312059617267469, 0.19619419891607948, 0.22450067952382843, 0.2198227041270594, 0.19504592020063943, 0.1881204469839414, -0.3068002426564592, -0.09717097868728931, -0.35593529814644415, -0.16241131659482982, -0.23223753019402157, -0.4137593463461904, -0.0799297534683373, -0.17239661535838866, 0.46003417905921684, 0.49703132161369573, 0.10987974394353617, -0.10696460487174297, 0.20254193957058364, -0.035838429870871685, 0.3271735060054389, -0.3963318125356126, -0.028003307949332437, 0.19373849671046697, 0.22321170298792853, 0.16153101990717705, -0.48630361641420594, 0.31183758970500863, 0.0032736395328410014, 0.44615482241239107, 0.3022725095651396, 0.31568866501282994, -0.04262142063642714, -0.1456831258857367, 0.004340229234801686, -0.22101409033329986, -0.37925986817199714, -0.5075074934571003, -0.5084804777337439, 0.34462040232810237, -0.10056429578889499, -0.19770295730666154, -0.10780334855364207, -0.09632164464299112, 0.024407296834012503, 0.38643112511576005, 0.06467129960654916, -0.4551484178326627, 0.37318289619731687, 0.4408695028586139, 0.30388636730056406, -0.5351391611635037, -0.6614230166359676, 0.03562799547935496, -0.23723417053169055, -0.3663905214810112, -0.2451626493443542, -0.07695752498719545, 0.08447206273078163, -0.11871231056379417, -0.12484030613294249, 0.1839106622764637, 0.20217272613498158, 0.12923442652583775, -0.3971828330120459, -0.14285511807811502, 0.0810974446407274, -0.14751438374756448, 0.010187232704663585, -0.23877218852508436, 0.4312515873648463, -0.12564374190448285, 0.2062149762241664, -0.23121148987959672, 0.37574489612765816, 0.4816795403766399, 0.003766888230574904, -0.3313426772172498, 0.02182201436116318, 0.18974497304265908, -0.3148276218326183, 0.20436444495889966, -0.224913212173402, -0.5392875981168448, 0.2397407424571921, -0.21397763436339903, 0.08298414345015731, 0.18446156193582072, -0.2866643907320366, 0.12303059349508584, 0.23326110780006065, -0.4281403758926119, 0.07124589161903032, 0.026376886671399695, -0.5042429030947574, -0.15492591872185568, 0.3784521391620236, -0.19512506838644222, -0.31892928670078574, -0.027928900453553368, -0.2955439325635363, 0.3767101827392555, -0.4767493461678328, -0.4660015113579479, -0.15522689627533567, 0.27049420398662616, 0.06562036458986352, -0.03952917295570685, 0.28111179345232057, 0.2515984815901634, 0.34019509705789125, 0.25629357429054334, -0.5101155344418703, 0.15969301016646276, -0.5273076122703914, 0.05341306534997588, 0.08741505340576523, 0.05066981493396826, -0.10338283571431077, -0.315444900171992, 0.32865625964435863, 0.11596199370656589, 0.3068629718185063, -0.016053951818297975, -0.1428807662820586, -0.08411123096691424, 0.20015877407164867, 0.33368542260353207, -0.25959241500931984, 0.24956373115745412, 0.402569618230597, -0.0926819382880405, 0.3697339812680215, -0.42098266274071766, -0.0178227484700315, -0.33453740239432017, 0.22565308550614527, -0.15190840553567017, -0.5354582045275769, 0.30724184045504427, 0.12625738533768818, -0.587594147993431, -0.04912656224327468, -0.31828719100404296, -0.04582417729949653, -0.021314920348513643, -0.5889717695040586, 0.01593960271779, 0.3271554750353143, -0.22357572918719823, 0.04227750059825019, -0.16929431853588714, 0.4913241928110277, -0.43285080025770944, 0.26165979601453415, -0.30947579201595077, -0.43546408492451316, -0.41262285278797184, -0.019475654150949873, 0.3250135304407682, 0.28531621642585425, 0.0032809623835895474, 0.3847515245943667, 0.27566834912986504, 0.23671065068039204, -0.2769771326169204, -0.30051775856173585, -0.43875295546747706, -0.3436564565888347, 0.25075801408056986, -0.06532725312745354, -0.12367239851749849, -0.0188527247901535, -0.05449632326832715, 0.3889323092926098, 0.3383237690788494, 0.36801156851576267, 0.38982753205077847, 0.3771203387941733, -0.4257616791381997, -0.4682921352506819, 0.26262432070348324, -0.24231951375011818, 0.46042589431094216, 0.26438019272109126, -0.17224608105750228, -0.206535246589861, -0.34304295890074343, 0.25864558323208164, 0.06116162584473528, 0.2173174642448703, 0.17636647065213346, -0.3612541482104744, -0.29763332208578663, -0.2517472683678678, 0.06380575974623202, -0.08713759915612816, 0.40081561177195135, 0.40603810173869315, 0.0933636573039617, -0.49797397932489645, 0.31448160862008967, -0.4677654459935759, 0.4811294458517554, 0.11912972797266753, -0.22858481180784496, -0.193980916433567, -0.13696743037894585, 0.31406913180048424, 0.32739874621810294, 0.2007799803809821, 0.05594025911953637, 0.41456811672955185, 0.46905773436173015, 0.34286447571612855, 0.12101309083914313, 0.4710265754247478, 0.3377186464131914, -0.10650769505652147, -0.10669447045025715, -0.24274810449234674, 0.44097377691037687, 0.003843241009293452, -0.27076705200277373, 0.4488890723446344, -0.2910300654268563, 0.48715615834833076, -0.1278221064939939, -0.2819043889988403, -0.42032673634501316, -0.031972155288105264, -0.3922208242241124, -0.13584990045535228, 0.003693963097582187, -0.3268551858759414, -0.012320479887090174, 0.4198243013304308, 0.4626060443248422, 0.24473002239452057, -0.48816900458992274, 0.004510362684555291, 0.2684641425059807, 0.2663217637053723, 0.3675960584083142, -0.40566174268834754, 0.13289881045383772, 0.22342365663621958, -0.42351459900819494, -0.05684399125448507, -0.10390041026268967, -0.4166542979606569, 0.21551192760708326, -0.2973790027683409, -0.4598850054373556, -0.31743120193983243, 0.007952757635050312, 0.4167067181525331, 0.3925885859100934, -0.25285461555970207, 0.38296175429052853, 0.12956083336403626, -0.18636837102749537, 0.3615178976334569, -0.13932928936359198, 0.17749252899593046, 0.2728830139776386, 0.4733646341306428, 0.16924043822681356, -0.17387961268577234, 0.38312325881639087, -0.24854145119115678, -0.45301255600404167, 0.4069737291813379, 0.3523437290597671, 0.14126029049123795, 0.02184932462367104, -0.35369163818190563, 0.013469595927092877, -0.01413442537116502, -0.4250507155993134, -0.11769836758169909, -0.42215052710321493, 0.20493990902131565, 0.01973732224789739, -0.27540829038675335, -0.532811627435361, -0.136570069808168, 0.3060346945164285, 0.09757552962475344, 0.07467603855648876, 0.04357280487594142, -0.22720109553923515, 0.12890766006471793, 0.0194018927022258, -0.04917889319011602, -0.41584175464614315, -0.17925582463075018, 0.17694949891010903, -0.46362286616993187, 0.3684562623423448, -0.4317643678634746, -0.4139779629791548, -0.0625101336615827, -0.21556854651134122, 0.3326852131056004, -0.08993571949412894, 0.09458376222218522, -0.1606149851294714, -0.022941812456205996, -0.22666998378334183, -0.3491226862104093, 0.26349991249977933, -0.6348784219861561, 0.05336868109592588, -0.46200237800426475, -0.2567857908226487, 0.2304758287234012, 0.260806912107396, -0.34696655289543166, 0.10540661660522715, 0.30058826475372563, 0.269123553363951, 0.2118324323754281, -0.4521389794542631, -0.40484228595691474, 0.017189704636043857, 0.010260076687481547, -0.09471653019867081, -0.4379073495666371, -0.34199068436772695, -0.4701207593365808, 0.1646872601274108, -0.2614611581319852, -0.4657739374214405, -0.26352121488803926, -0.7219888669110612, -0.019904457114134824, -0.36482284175668045, -0.6160627672770902, -0.4293415513241216, 0.1869584061806284, 0.06823804685912253, -0.15993456803836525, -0.055364037366749844, 0.32225631053739545, -0.16246403625253333, 0.3282715051556184, -0.09292607803555451, -0.25116937800384237, 0.09878944838244597, -0.2741415936207496, 0.006934950032359567, 0.4023060050201944, 0.4970134203929274, 0.1776789413548695, 0.4226417194827787, 0.1792149840669415, -0.10649222209710485, 0.04383335165136514, 0.11465736305238174, -0.29040311311634587, -0.19795248334227997, 0.003676531266546969, -0.03938155979304492, 0.07663857716799269, -0.1094739377810019, -0.18976545464262723, -0.21660853145045286, -0.32417216309536534, 0.11491902151235706, -0.47646778215740276, -0.45219110113292255, -0.052449577675668026, 0.27095378484932525, -0.1329371077357746, 0.17616065387119417, 0.07486678987913989, 0.30655172515925044, 0.4609552817515378, -0.3801710118116866, -0.3400639544580539, 0.3994409256933005, -0.0059204474006802, 0.45464501290691495, -0.14047475919696073, -0.19510738713622267, -0.23766354662532685, -0.25077367784826243, -0.355362655245205, -0.45744480171712854, 0.11736963854949344, 0.20595921483662527, 0.004262738541956009, 0.30679674886558167, -0.43070111673987227, 0.42736297921122013, -0.09520814842658526, -0.08889883909614262, 0.4007603052143086, 0.16202900580768925, -0.09831555529554255, 0.09491597025270794, -0.3568321270750205, 0.3092289236768914, 0.12409298146725349, -0.2379835885999683, 0.25632718591098586, 0.35287845888479397, -0.25276850803297024, 0.15036870132830654, 0.3738432826867018, 0.19634543150680567, 0.3922783251147285, 0.2095740730981691, -0.2922233768585843, 0.43485800695512905, 0.04218554303475625, 0.4410418279572581, 0.2001959138606245, -0.09427602091414045, 0.2634398394516006, -0.10794603251813407, 0.08492177249783883, -0.2569675278488272, -0.13842972049747992, 0.14631403538061127, -0.04299692843958031, 0.13572268878885047, 0.2640398942211608, 0.3162669673047261, 0.39744189183561196, 0.4120334314089664, 0.17721191681511825, -0.03950747520592984, -0.22572083590443415, 0.24988514412552962, -0.4788609663981254, 0.14857877906955258, -0.33374176322290044, -0.33304158390690003, 0.408021389815911, 0.37349422292387424, 0.022073404276498697, 0.38666380292649033, 0.17224099344587093, 0.5201580229624928, -0.0002273481908772322, 0.177876903219136, 0.5912620552996398, 0.10666736609280657, 0.100834040611131, 0.0755149648210724, 0.1441720522043495, -0.11211940983025312, -0.14302255720027085, 0.024887654722545362, 0.00023454265619901702, -0.004925639589744638, 0.054408570152173985, -0.10429204437546649, 0.31566191336688065, 0.1132521034640971, -0.1809963596139005, -0.2615531581041097, -0.16083673475978752, 0.46267669686001195, 0.11841146733265218, -0.07538654555657043, 0.5591561167786501, 0.4280070342646486, -0.079150058682037, 0.7867061901317186, 0.20380268027040957, 0.16153918780959658, 0.32385471697596746, -0.0658761860004526, 0.6730998066593239, 0.28016040890217964, 0.4382047335042311, -0.35089755740856393, -0.09210236654185151, 0.08523115804784955, -0.10443573413021627, 0.5502056791254081, -0.09133951529976185, 0.08854373595595277, 0.5309686198705628, 0.25661589304967153, 0.48874256469990246, -0.20779270671694014, 0.2222557301410527, 0.3115111730669734, -0.07234154731379615, 0.1747176105003908, -0.09032842991004596, 0.31556616970241097, 0.19279442086812193, 0.11151653703002025, 0.15407169766197681, 0.27726206489042454, 0.22988569558853603, 0.577922552360843, 0.47976645472141155, 0.3318465627526253, 0.1878200344534308, 0.20121033077290068, 0.3689532658635191, 0.0790904531905444, -0.2212754477943876, -0.09364720096408599, -0.038323402827569755, -0.054874859741885065, 0.5324073418261048, 0.19369824835142269, 0.045664438438879636, 0.44423804194601774, 0.3054021081452851, -0.30685631897575605, -0.23665503060728876, 0.29340223636372237, 0.19975178446609146, 0.07452574842092623, -0.38939416230248847, 0.16327811118287838, -0.17242546778473047, 0.7129888749505497, 0.093170445856884, -0.09375839998525462, 0.02616325186289124, 0.39391045598075103, 0.6992379406556511, 0.1276966307561545, 0.3932328013141372, -0.11810031079755294, 0.06896472570896514, 0.38764334175318754, 0.2694094387241108, 0.31348321633966697, 0.2249250538962152, -0.020600520674711832, 0.09665097116096336, 0.013671874135871795, 0.4116222797335835, -0.24835250771048972, -0.32924467643040217, 0.3423276022753991, 0.04498628106746774, 0.13566961103079112, 0.20946418991705312, -0.47355161641750454, -0.2689385107781572, 0.5061333679439941, 0.501567835948247, 0.06112155831400242, -0.00677039723746543, 0.09637267675928707, 0.5938719453070507, -0.021345268568538245, -0.011342331861654493, -0.029064184591584073, -0.18560346049051654, 0.02300571720627686, 0.05873477039747182, -0.14678496853084316, -0.043922763505637855, 0.3675616607470536, 0.5480220663776189, 0.6411936951630643, 0.02419859101778591, 0.2608249654329399, 0.45851491902784275, -0.20123458785591855, 0.3085752565773418, -0.4921755102388794, -0.0556491568113034, 0.1025033118273087, 0.09076619328702112, -0.2922224464560344, 0.21626719729058355, -0.38662644817486863, 0.33501503146017086, 0.1322792190182268, 0.19634960183663905, -0.29851757267199847, 0.09915994463839929, -0.24635934754278532, 0.29399670965384767, -0.2173302155127434, 0.18377219032193734, -0.33017306447292477, -0.3214031116423919, 0.0767683988663048, 0.46719376157141035, -0.02771595755882108, 0.31561626090449046, 0.5779613059734074, 0.2501173286442125, 0.6132975402775891, 0.23636530198948957, -0.21610202791075825, 0.16903412998978706, 0.17800377772616593, 0.41683630950362055, 0.3003899968595399, -0.13686286871974146, 0.25145168385994987, -0.2633850573371029, 0.4730563307391869, -0.2155674816356678, -0.28931898634465975, 0.23218823901142324, -0.3287665004197436, -0.1219732643979471, 0.13075461070633193, -0.26764067239192585, 0.06538921284785201, -0.5367085051118129, -0.44537754038439, 0.5020528456419178, 0.15304936265783153, 0.09256283167208591, 0.08780820243477143, 0.16640704408834858, -0.10590326226565386, 0.09586635424075284, -0.14817366905327853, 0.06478054886294086, -0.4193783887843114, -0.06266376598124186, -0.5780756903332169, -0.09762365918552418, -0.40547272151470415, -0.10137557772308527, -0.48169096686886437, 0.2682551377829236, 0.38287887843095075, 0.3064870796673484, 0.21433438289732437, -0.12324077327652187, -0.35695106630756307, 0.2239297758274176, -0.6368741043983069, -0.09502885671725694, -0.5079257459272591, 0.09310434768421375, -0.01954296388184182, -0.21996982685883232, 0.03259537327040109, 0.08413914956779872, 0.30525421051139173, 0.664509032729721, 0.179505222320097, 0.06887282432704435, 0.4563757184689029, -0.23143154129957094, 0.3074557340819068, 0.11610942332993378, -0.34460247207329037, -0.056012984820291746, -0.4368722432101164, 0.09073611811838517, -0.2321750056914478, 0.07174327926337513, 0.3654378454088164, 0.3924675332456384, -0.5361617159751112, -0.03135402403172751, -0.11372688154542544, 0.25162801346013897, -0.004859295139618679, 0.008343863278502209, -0.389459124312614, -0.1580597959922949, -0.04401554061107594, 0.2999266378058877, 0.13303743304667656, -0.023532931803519442, 0.41708118623094226, 0.04015348465235516, 0.28029233403837195, 0.2131167444729086, -0.2545498997135275, -0.36336522083972456, 0.02606479208253125, -0.2574708260341963, 0.35942585479505074, -0.45799781855376825, -0.2074738630892083, 0.2630683817058795, 0.2792974235038991, 0.287144397611483, -0.3990174871456441, -0.007639709828864753, -0.5247267639504253, -0.2911772882719757, -0.5755022280655707, -0.17582598847661038, 0.08565485579572288, 0.08439988352450987, 0.08271632665478694, -0.2137036642219968, 0.41584516450539827, 0.13258020853863745, 0.31370042980164636, 0.30169697050825917, -0.007729113225547156, 0.178490563694598, 0.06649550699510319, -0.3067178538531613, -0.47307817713729117, 0.24855288679970716, -0.5943844011794233, -0.23722456226565486, -0.14765732841657236, 0.3351541139162311, -0.4081959811288043, -0.20080175332756928, -0.054693976729811536, 0.05780270090068536, -0.014638771327832725, 0.06034869301840865, -0.3782855043773931, -0.7392257415077442, -0.36216356129005073, -0.5387672439998449, -0.5840711471880715, -0.09807119434575422, -0.00012658317630041664, 0.13321787913263294, -0.3363204040515577, 0.35622368673361016, -0.0007925918554672842, 0.036082491732941376, 0.07674364041501357, -0.10642804413040044, -0.28866149011163256, -0.34027726300768524, -0.06553988305284804, -0.14053340482402632, -0.575840015414732, -0.5964418933916971, 0.2340319430087321, -0.1912685902445353, -0.09513999458001653, -0.23073806541621278, 0.21355588182756036, -0.03707778523510755, 0.22835200290919416, -0.4817681268409045, 0.04131514002980934, -0.0842528683133464, -0.049812310454213, -0.2364057449833806, -0.09858800946330999, -0.28588557469877374, -0.4672171567823172, -0.25967604921380505, -0.08034833094260553, -0.11732680870813135, 0.2918991550763859, -0.07176444464688111, 0.011941301486241283, -0.3245648602870656, -0.35151741559706245, -0.07538885853662068, -0.4519040021344097, -0.5880127317507406, -0.12048055250394787, -0.2576129037798075, -0.5008117346599705, -0.1770018774098122, -0.48969102580291807, -0.26833290617874744, 0.2648663564889261, -0.10231439020634965, -0.12927349335070815, -0.3088150988908295, -0.2618574387252352, -0.2999284674804016, 0.056033471812820985, 0.09071121063205152, -0.3722556493630464, -0.5263979262179035, -0.3207475896785805, -0.6103644580861445, -0.01896754344391478, -0.17720007757936843, -0.006723881165794985, 0.18678452448446914, -0.2352744535547599, 0.23512988829171344, -0.3570181315243019, -0.13681020287995424, -0.4053223360677504, -0.4379179812661501, -0.003869530376038392, 0.2351505607740303, -0.5280949736380899, 0.04280029214966427, 0.010494795485144775, 0.45612139541426167, 0.11008315536438346, -0.13188527480818196, 0.12748924099296507, 0.2824441839603876, -0.07682808105006564, 0.14789919347463001, -0.3086878589780618, -0.09864769786693707, 0.09973396409517546, 0.15763801012136008, 0.29052042659685284, -0.009264865254403832, 0.005000950474373274, 0.011632779368052338, -0.256826836815754, -0.04074104994216501, -0.029497850864239412, -0.035532169438625714, -0.1698233276178907, -0.6016938446146416, -0.663781048379115, -0.5765456801644869, -0.4411030508626792, -0.3045917415180114, -0.45441998951671847, 0.44941475711533546, 0.05382019494386722, -0.241605286682594, 0.0661636630890824, -0.17365154952533982, 0.3070961288987467, 0.12146849689982664, -0.4275168953822073, -0.21298520536026663, -0.24524624976479445, 0.4800555983414621, 0.0230406914901124, 0.3425155476776515, -0.08624376133973288, -0.17799507751887886, 0.38720997807296653, 0.12452208967255521, 0.6553246946205515, -0.24259201399718436, 0.2069096104599273, 0.270486987476058, -0.09008085495483509, 0.05415838249656616, 0.09987227873243976, -0.25344014627197586, -0.14806245367720214, 0.30115915911993185, -0.4689671105533776, 0.2904283653110197, 0.4828982209451139, 0.49676640391724974, 0.21634835838045408, -0.21713041809482891, 0.3853968839720199, -0.3697760661458901, 0.00866041913635673, 0.19099174126089655, 0.03662664126297377, 0.06529676896348723, -0.07752915598021186, -0.38107114032194617, 0.1911025995415262, 0.13795686153034237, 0.0012936375917089855, -0.15052197206130752, 0.17140827523083685, 0.4194851410995052, 0.5716366173070347, 0.4398136982241891, 0.40765175208179033, -0.029179820718398457, 0.016738039858502456, 0.08338813466567692, 0.07902859055069895, -0.07011195105306019, -0.15018887157735653, 0.22978861174258997, -0.1267151180264393, 0.18765542837217974, -0.4850906042260972, -0.0686431893546583, -0.5102491472673953, -0.26682622425860847, 0.12371247052238293, 0.41587830782152585, 0.3298494233052113, -0.15282229574399517, 0.6923992984057533, -0.34969587462506235, -0.2805762217979439, 0.4656866769311537, 0.08747435227335393, -0.22204534305301107, 0.08756077145287182, -0.14806349253521028, -0.09774874612016347, -0.009343411545990773, 0.18844967926276138, 0.3864948700555462, 0.1507597297753724, -0.4361321626164909, -0.37987923939807666, -0.300470353410577, 0.48304918040937633, -0.22004600636457722, -0.30751347048838373, 0.0011328219003885476, -0.27098152826043487, -0.25675374235391624, -0.49245631585902583, -0.22737885095226737, 0.14825654632231877, -0.08439302982577396, 0.10722783752250258, -0.08122070631029524, -0.033110229008502856, 0.5706806843601322, -0.15704293163774194, -0.04309389115526378, -0.10308967651766962, 0.39217976783643976, 0.5356411963008693, 0.22152561781522187, 0.4787258376220039, 0.14134241019512525, 0.37883358301694153, 0.4266521934763961, -0.48746047754018224, -0.3659032865103012, -0.3168556719535303, 0.4445571783292672, -0.1565098198936422, -0.03067452253645923, -0.35584798634649983, 0.2782469064060793, -0.4319531896551533, -0.2925332652497299, -0.4215553255380381, 0.35265594227482866, -0.16170264059193054, -0.03484079581843653, 0.4225710226842585, 0.26752712334666784, 0.36516555572301895, 0.3927082471052121, 0.13508804832009336, 0.15641945132806617, 0.29954094582989865, 0.30116517393645176, 0.4650284478941136, -0.139066916907856, 0.34896443542558003, 0.08221723425178008, -0.27175757939152484, -0.23972193536019357, 0.176268221714287, -0.11892888843120644, 0.09461475769352325, -0.12406242732342154, 0.300109254803237, 0.33495375526153337, -0.07659232644665026, 0.24231234030884763, 0.455790567281679, 0.11732950790461494, -0.36103366498232936, 0.4507163981722715, -0.08930825394508002, -0.47042996317912283, 0.07691567521024636, 0.13627575666310332, -0.028115657695117986, 0.23996731804348642, -0.15830355032758486, -0.32586875257768105, 0.055248462884180026, 0.3398684561741737, -0.04132395592015617, -0.16546150873293936, -0.4092546310486766, 0.06302170967411845, -0.024955939487331397, -0.1426257122969027, -0.2982747914982461, 0.3585337942650614, -0.46708828621765514, -0.4812674207733129, -0.34839144208283046, 0.2674790361426975, 0.28121446654422033, -0.280554445874702, 0.22577982158677612, -0.4141934902725244, 0.3846141693835864, 0.42285205832816974, 0.49655285409945216, -0.45891699415163456, 0.20412799042191687, 0.42881978953252287, -0.12643748166160407, 0.019089970961346014, 0.08283477434106978, 0.01102425668621354, 0.1208105596384022, -0.48383351021592685, -0.4773394203021404, 0.4031002699988365, 0.3050719641043541, -0.016227292316518205, -0.4277110555170631, 0.08847504007801799, -0.20295331942617856, 0.46647073898189606, 0.3890276313279053, 0.3721425218219352, -0.021480088652623408, 0.2454453414162695, 0.06392586420410806, 0.10781034089808428, 0.35934532157968446, 0.3496730427708036, -0.08975354051838935, -0.27804786189908126, 0.4183633307574731, 0.44287692210656776, 0.09085472796429328, 0.34030746656468674, 0.45100259858901703, -0.442111843216093, -0.35905428489484803, 0.48661953685198256, -0.40553894901884513, -0.17894723436405968, 0.3211982000836116, -0.2042565110900597, 0.2562450316479362, -0.33772905959219024, 0.2675700097634143, 0.23344887697711883, -0.08495387272185849, -0.18680650947660848, -0.29458357208113783, -0.16090212316388128, 0.09647313238596578, 0.13227086268577926, 0.34869112674717695, 0.30436029502945783, -0.3091832860498045, 0.174675184989722, -0.21426353818560304, -0.25166565655293077, -0.1651927164662018, 0.06991362165108406, 0.10291454156302475, 0.23680584531818927, -0.4182718910940884, 0.1572954254627103, -0.12705737180950552, -0.025811893980195823, -0.3188990112242576, 0.3732954815036857, -0.07288113738270023, -0.12453992635742024, -0.26183553737891524, 0.3297724748359582, -0.06710636696076144, -0.003892979266465225, -0.4635636744075657, 0.3586185962267251, -0.37811211522643984, 0.32403763814404485, 0.4460675159882974, 0.45790935259565885, -0.21877351968604475, 0.05193566130440186, 0.01940544139553746, 0.0495830342675857, -0.3339107297059814, 0.21401320551507116, -0.2719061203433113, -0.2278354632662736, -0.4125800845394829, 0.05006084618233563, -0.29626026513592285, 0.05912208921716944, -0.2813107268350584, 0.10371220248375929, 0.3950779644140856, 0.4124005471103705, 0.45368415905795123, 0.17939949576503464, -0.004788815764883809, -0.14848241254114672, -0.24818115335478572, 0.1531724779727998, -0.44018480258418075, 0.3305980341767892, -0.25913044091440124, 0.16866941806907731, 0.08165490861732422, 0.3380560042539337, -0.09690311413416071, 0.2884355375181731, 0.46261794031869985, -0.13025913748396306, -0.022921902320930398, -0.4838174581718546, 0.1331417446957459, 0.08424904381263305, -0.3679462596003183, -0.20756897288646672, -0.03264394912958322, -0.2983230147887064, -0.004138563326785327, 0.5997616134033023, -0.07785245521718544, 0.45623160135781055, 0.19850004342123323, 0.3223289572922113, 0.4571668165740965, 0.261783070242552, -0.3695575912910193, 0.03967646180633131, -0.21094799272650605, -0.46107057170023563, -0.0026655855052909673, -0.3069456711672459, -0.06305840718223339, -0.2697606003279243, -0.08362642987733492, 0.2752656579231443, 0.10024753243725781, -0.034227444313927324, 0.28811758063363535, -0.3153399659488987, 0.45519996353814657, -0.22664945919605578, -0.2551003161685754, 0.3021183429189463, -0.11654184896859317, -0.21642169279896928, -0.1293280730299481, 0.46232049288184124, -0.247761398138322, 0.059439630707979, 0.36105582640347533, 0.6531468261041957, 0.46202911852052686, -0.181770284163663, 0.2813874107293479, 0.23377557929261922, 0.002277842301069318, -0.022042658938267793, -0.3025617529292866, 0.19899479960115954, -0.5809107187909478, 0.3989328390722442, -0.423487884341153, -0.4597476771865239, 0.39954535545421765, -0.16902321566575065, 0.3155706470439132, 0.01584817741282861, 0.36059592549186203, 0.3586587071065731, 0.012737638714916816, -0.4170303619668809, -0.00024253028546598613, -0.41047994988624265, 0.4709791363522877, -0.09726025139994197, 0.22014454962658464, 0.33798290233039935, -0.07534741496887477, 0.4506005963267144, 0.4888638723454245, 0.3004315067380642, 0.39871317229032066, -0.040227894437931136, 0.28681550933484035, 0.07797504801254822, -0.14181798521207725, -0.3242918725043873, -0.6051248260876797, 0.2101530838483921, 0.05761420138588005, 0.43739935925944357, 0.1672568404411718, 0.4806009333954836, 0.4686514070644541, -0.23333646220761603, 0.5462489802518148, -0.41640654082032014, 0.4823743201337108, 0.25781680172401733, 0.27932495119743694, -0.12132907230177108, 0.19596524599276197, -0.016344836813484618, 0.014507179223570565, 0.24616659525745363, 0.4383226864067385, 0.19102446048515176, 0.1790203618999009, 0.3133454441139421, 0.33621864554002767, 0.34276194728234716, -0.010727036236774092, 0.3658864102787357, -0.03647709077294862, 0.09135636358586773, -0.2523646029121452, 0.051892399306348244, -0.21287028551566858, -0.3143203697220782, -0.06342124083652183, 0.43680848438950265, 0.09030216288436613, -0.43969966016932666, 0.00011092164266943127, 0.19731948755028245, 0.18953527323016442, -0.24924234796657385, -0.1812420029336259, 0.15401914582627277, -0.1707325697308144, -0.08296055786708609, -0.06981863361047305, 0.09478563685811463, 0.3768911961083679, 0.5698286107146479, 0.4667855781391192, 0.5869892301377229, 0.020174546621835723, 0.6226548354828271, -0.1173974930981779, 0.31628324362611937, 0.19663883534962656, -0.3456066617152418, -0.3881183528711841, -0.4102990558857376, -0.12121552030423124, -0.08929401036322109, -0.4291327233593417, -0.13408913051117213, -0.1818700846366892, -0.2673054319358838, 0.017391193552371308, -0.2949764336612032, 0.4118528677309586, -0.3826635662382871, 0.15227372157927044, -0.46436165559237647, -0.013428148609629051, -0.4592952917444463, -0.13366252734508616, -0.32272150212630796, -0.14933109005249312, 0.3982036429232817, 0.5341557527947097, 0.29347608685089616, 0.5558825837141469, 0.2190779600082886, 0.4915060281630765, 0.11656883782388651, 0.5751672612142364, -0.05067895336854944, -0.2930532708192394, 0.0853488785681373, 0.013220182148079471, 0.4192255991648984, 0.3342445577272082, 0.32287393718201374, -0.18731486529980293, 0.21660637115735595, -0.37643874651982084, 0.05625372521769792, 0.03465280088526939, -0.30518343424018124, -0.11486289122065889, -0.04549036418937605, -0.3148060299725117, -0.25552089835375785, -0.5835335759965197, -0.49953578362296136, -0.1173742677694954, -0.06976407862408875, -0.00827000467028157, 0.3607826048390648, 0.3949790107764801, 0.14919080639194335, 0.1482218211657844, 0.10665266159115377, 0.38907245147651404, 0.4301076030046034, -0.12770197521401072, -0.5825631352700176, 0.3873034729717314, 0.04886305635032165, 0.42392195234428404, -0.018019558884837163, -0.4189900167888789, 0.2100379783068932, -0.3180119138310875, -0.3341408684521182, -0.3344374368286076, -0.07346747760374933, -0.1884592545968243, -0.38984113487475874, -0.5798218359382052, -0.30777866086169275, -0.254614854458666, 0.10845349115160835, -0.0016047951502655938, 0.23453837183223863, 0.33931922524806407, -0.04754711994069728, 0.17471622272168513, 0.394057306070535, 0.49322471280631003, 0.3399204516091107, 0.14417104010944215, 0.34050663973619166, -0.37339556342216484, 0.025710655836202162, -0.06299660554114965, -0.3563908345219524, 0.2452326579403722, -0.1513125435139084, 0.17189680676494024, -0.310545193615982, -0.2707774526632024, -0.02741545470518805, -0.45132137881215917, -0.5113952068635392, -0.2922520871527596, -0.23489221761744342, -0.19857932079803975, -0.3037844259546769, -0.05267463161590643, 0.12096471531632688, 0.32959569534119104, -0.2540375599978299, -0.1968989628926802, 0.36738850211914575, -0.3815873311543504, 0.3261001051368787, 0.00041810094831049347, 0.3744231418781534, -0.03950113619246472, -0.5557938434914803, 0.22903019586525006, -0.39951853781442354, -0.29009345789956004, -0.4440744009479978, -0.1198071965311421, 0.32787657689488875, 0.250005757353769, -0.4420247780732335, -0.1690535042847706, -0.3263074891944726, -0.37333477042563656, -0.40325681512901784, -0.3760995128426447, -0.04250838152376498, -0.22925537220443068, -0.10643695845369598, 0.12374781822242549, 0.3490742437274035, 0.19942784835110786, 0.49748215511000027, 0.2691016816271415, -0.22663904603380244, -0.003963529524587076, 0.35633092428103236, -0.03081960887717328, 0.12345278956943939, -0.0004810683045712701, -0.6442877635114229, 0.0013485050943987337, 0.14146669814132454, 0.29129634984042935, -0.27323441899754497, 0.41770455263176465, -0.16455955803322456, -0.4393562664370483, -0.32605019007099095, -0.37694923867036917, -0.48917907702007735, -0.40337126715891347, 0.28183030598655157, -0.43124107476915613, -0.021707522753017017, -0.32999642940879215, -0.1912295759667225, 0.255029197331749, 0.4696162803313259, 0.5610015554231766, -0.12379579106578949, 0.04526092026516293, 0.17901192719547093, -0.04608902666349047, 0.03633584773085299, -0.04621150575387765, -0.011001677020283568, -0.12037216938358451, -0.7085610376156556, -0.6100408478018772, -0.32556342363485724, 0.34345927583787705, -0.04544476338770362, -0.17740489571684903, -0.313275912552603, -0.4254422546794041, -0.19049014461095856, 0.14870105424161434, 0.34481127383026056, 0.3021195412283451, -0.1793469746451803, 0.15451354554669394, 0.028150453973140418, 0.077906244174491, 0.06392430402206926, 0.0692630229833528, 0.5553785489243115, 0.22456477545994932, 0.3983406410322003, -0.08429080509457716, 0.06274605607190739, -0.40090033228433564, -0.11383037879587864, -0.3431150085292405, -0.38603173346253117, -0.6313254427212355, -0.5411121272913301, 0.3249235403997457, 0.5251634577026347, -0.20943794121481177, 0.04929702049178486, -0.25945715136050485, 0.14537909362210222, 0.3310611163745062, -0.22387876880556937, 0.4963962683252751, -0.12196107361622226, -0.25387475152083583, 0.27789526894661754, -0.22491135920854677, 0.24913759369772434, 0.26782024571586865, 0.21501570973472403, 0.262215048430746, -0.13109285599891138, 0.4788092448949109, -0.30053662713463913, 0.0801897703972894, -0.532604255929644, 0.20596398649562714, -0.5256460232956117, -0.26853020032610736, -0.38821577685647, 0.058938773150504234, -0.20923173690158256, 0.1854614445405257, 0.07742621412599748, 0.17395848550854984, 0.1372631635114996, -0.19935766122992893, -0.1238627488197934, 0.04565509352998875, 0.06980714369203199, -0.3467940726608709, 0.37272759456026633, -0.2607734296470708, 0.1502358491532812, -0.015254376711062424, 0.08302508650261418, 0.3496188952868166, -0.04090051135092073, 0.13193174883183312, 0.5621944503117751, -0.2173189345991095, -0.08045892224455546, 0.1800478832306768, 0.07259458879077434, -0.2957117494067759, -0.20888932487219375, -0.26787510978312, -0.17583005081917963, -0.4723937614182366, -0.36223570704823943, -0.16229186003931234, 0.4671973143661423, -0.24942461683120215, 0.2631234169402765, 0.39236625725090823, -0.4848658985878243, -0.001709184030794426, 0.21733719513660352, 0.34106546517274905, 0.2698282864086222, -0.38422996967476447, -0.09145057185442798, 0.2610133845459987, 0.02236846467823247, 0.32128372228507773, 0.43451292585539253, -0.045560122251279374, 0.11307720352135042, 0.15828098117392048, -0.2457818330943992, 0.09581476732403248, -0.23837774195617445, 0.0051863135612557724, -0.08780604590016693, -0.66133030738501, 0.014375013155016172, 0.16883013058765678, 0.2650961822627986, 0.5814386970235689, 0.4590778297033768, 0.4329570380251994, 0.055415770882753616, 0.12023924456122767, 0.067133467985182, 0.29531804138171625, -0.3288082222157902, -0.29035101434694083, 0.34464658050851926, 0.25070308187747664, -0.03419853970926141, -0.11519227218706331, 0.3585647444628213, 0.5585850803197717, -0.056579651227366495, 0.12184716721525837, 0.12518225053629412, 0.019160422091988868, -0.1977899990948496, -0.005568858550788911, 0.30347070105493495, -0.17161682780836443, 0.21562047333426565, 0.04077281599877792, 0.037240873867150755, -0.44869598684395084, 0.3452188031883915, -0.002624945725717653, 0.1202928064798612, 0.3030812035343045, 0.16168930033310758, 0.3708453511724651, 0.21374788841844772, 0.26859656466726634, 0.4840930726883461, 0.22018606867371288, -0.41108088583695673, 0.3571646713850019, 0.41860146343056776, 0.4292091269898595, 0.2509003191520954, -0.06350787344874025, -0.10661931997068431, 0.09841272567939918, 0.10701855385069915, -0.3253374044303068, 0.021659569994131548, -0.4482309857919046, -0.12742023451988324, 0.20863581869689538, -0.273213886347701, 0.18048987334208386, -0.0059022126180720835, 0.2521947588674212, 0.14146471714493966, 0.01417525375960305, 0.09650618910849247, -0.39092159818893074, -0.20164199422106985, -0.15667221404015963, -0.15595306929934233, -0.3501395955753345, 0.24506685552701105, 0.24944582619344483, 0.22281177238582633, 0.054799310167367075, 0.5506405622077203, 0.108699404536147, 0.13229416477475045, 0.2577282188762132, 0.12913533431083118, -0.09218344240379894, -0.026531396649728867, -0.021899821808973003, -0.060646524352841645, 0.12173341583934465, -0.18048449365813085, -0.0618891455838846, -0.39200051331651925, -0.17445680458971521, 0.1528165245131854, 0.26572609053731044, 0.07357807267422266, -0.298808046623647, -0.18706373119206215, -0.19453228354994104, 0.35373875080357964, -0.2346629417850134, 0.47307837947455145, 0.057259206239733566, -0.0100049506014004, -0.3291279344393592, 0.5937998496392433, 0.3474099119881122, 0.381675474420364, 0.04646080381537276, 0.3230817776978807, 0.17588293073967137, -0.13586267383918804, 0.3817154884826194, 0.18402664853745695, 0.08137261395646897, -0.09741701825906955, -0.007903235129062056, -0.004832761335203609, 0.5142644092385148, 0.18294912016023981, -0.1833685236279292, -0.11224156027867312, 0.3133863065509463, -0.15851265176223836, 0.0695230416574895, -0.06124683875097149, -0.48893012835965066, -0.446552269621752, 0.12567975221176464, -0.13239959590623718, 0.29362513628484144, -0.16368400195617988, -0.07252620383163821, -0.363188634439983, 0.23532565685223636, 0.05197678179797707, 0.3422440488689797, 0.24966475648063954, -0.26668262794115866, 0.33177815999559446, -0.02564637843831573, 0.6356550674067909, 0.07455936698136835, 0.06909136984576385, -0.08665264352111761, -0.2600873384193653, 0.13161876228802677, 0.0208013837485855, 0.12292173929469673, 0.1751168521519367, -0.019447362398612212, 0.09168930775136953, -0.17737692915323297, 0.43856789828445447, -0.1995001215257816, 0.09613970629205648, 0.30410594302522764, -0.411929392069185, 0.05821395702110386, 0.39970594110803304, -0.23442076452295615, 0.0322779676892484, 0.31600591427631886, 0.14418641473336996, 0.08789708892111067, -0.08597916551362135, 0.08063864666081486, -0.002603891848213, 0.16668352892311541, 0.30048210762394856, -0.130423710289227, 0.32180785670265155, 0.2654210125033917, 0.0001902196353346753, 0.04879207791255557, -0.3421241757034769, -0.4789335626076466, -0.4701990236871658, -0.11415979865617544, 0.20661184973617908, 0.13676690433480435, -0.2230552820256271, 0.4715979652504025, -0.09242645833797258, 0.22142746401226687, 0.475099873896617, 0.2718202556588765, -0.3057504795470863, -0.319859048108739, -0.4235560855834655, 0.12380992182236998, -0.33511576506325536, -0.2714580688450797, 0.23812022080869671, 0.3079873286420304, 0.10589455974536195, 0.2714983998460833, -0.07417030180056758, -0.29646649153002946, 0.28789400649956837, -0.357676639485926, 0.36561934033235444, -0.24738683164760547, 0.19544774258194492, -0.24277773593377272, 0.2255558847456197, 0.2694829767598786, -0.25519101189147103, 0.14524562458972212, 0.4974611217863875, 0.3349847250611964, 0.44679646181844523, 0.35815304734534326, -0.01989402568862897, -0.4558803701517844, 0.40773168902549084, -0.18275714573838503, -0.15907798061905343, -0.2988756150157048, -0.14291692997864078, 0.4484186707709674, 0.15402505844110786, 0.5272315921723394, -0.47709866915864996, 0.03685401416393591, 0.15955001606693378, 0.3524116673763964, -0.3336334304585103, -0.3699140690577967, 0.4431755575990354, -0.21436865933834967, 0.298631373313716, 0.35806828803856944, -0.3626387726204801, -0.4872332066163527, 0.06787764252067505, 0.024212575184760644, -0.4830602824498858, 0.1365403884974652, 0.05693671810354062, -0.18828968799976797, 0.3989592023594778, 0.31040201532751954, 0.26164710426068827, -0.4903836799204653, -0.28461296306740214, 0.14195913114896588, -0.27282256929476456, -0.41529900281699955, -0.30175847874173456, -0.04931375003574842, 0.13061407063543679, -0.2498459761737367, 0.013536989371336003, 0.15537918721428354, -0.3383822399086236, 0.2132359714510959, 0.08967634828842747, -0.06854003897974748, 0.20579750892201318, -0.3196686347513818, -0.2446980137301991, -0.4501658171329296, -0.07415161112589053, 0.002148053950346007, -0.016307450763939024, 0.2995417615274051, -0.23092971207730906, 0.14195740250012145, -0.4563570351988493, 0.31172962214896305, 0.15567469104639564, 0.38484924672672627, 0.12042613802191615, 0.23298251422330907, 0.4905349898171192, -0.2894989411638723, 0.28819814514724984, 0.043844427918858564, -0.30384183607158566, -0.12512655804992234, -0.2603208625810235, 0.25043211267268317, 0.2215849169451396, 0.35887121486619333, 0.2202131615557058, 0.27552965377381244, 0.37989439910490297, -0.09943440601701248, 